3.90625e-05 0.000166016 3.66211e-05 8.78906e-05 3.90625e-05 0.000192871 0.000178223 0.000153809 0.000124512 1.2207e-05 4.88281e-06 0.000231934 8.78906e-05 0.000227051 7.32422e-05 1.2207e-05 0.000109863 1.46484e-05 0.000205078 8.30078e-05 5.37109e-05 0.000100098 2.44141e-06 0.000214844 5.37109e-05 0.000202637 0.000126953 8.05664e-05 0.000209961 0.000187988 0.000180664 0.00013916 0.000234375 0.00010498 0.00017334 0.000219727 0.00012207 4.15039e-05 4.88281e-05 0.000151367 2.68555e-05 0.000166016 0.000231934 6.34766e-05 2.44141e-06 2.92969e-05 0.000117187 3.90625e-05 0.00010498 9.76563e-05 3.17383e-05 0.00012207 0.000168457 0.00010498 9.76563e-05 0.000224609 0.000151367 5.37109e-05 5.85937e-05 0.000168457 3.17383e-05 0.000170898 2.44141e-06 0.000163574 0.000222168 1.70898e-05 2.92969e-05 0.000100098 5.85937e-05 0.000129395 0.000129395 6.34766e-05 7.8125e-05 0.000219727 0.00010498 0.000161133 0.000146484 0.000185547 1.2207e-05 0.000131836 0.000197754 9.76563e-05 0.000144043 0.000178223 0.00020752 0.00017334 0.000109863 0.000158691 0.00010498 0.00015625 0.000109863 9.76563e-05 0.000222168 3.66211e-05 0.000241699 0.000212402 1.46484e-05 0.000107422 9.76563e-05 0.000239258 0.000231934 9.52148e-05 0.000192871 3.41797e-05 0.000214844 0.000124512 0.000234375 0.000107422 4.63867e-05 4.88281e-05 9.27734e-05 6.5918e-05 5.61523e-05 9.0332e-05 0.000205078 1.70898e-05 3.17383e-05 0.000119629 1.46484e-05 0.000134277 0.000112305 5.37109e-05 0.000187988 0.000205078 6.83594e-05 9.76563e-05 9.76563e-06 6.34766e-05 8.05664e-05 7.32422e-06 0.000185547 0.000146484 0.000151367 7.32422e-06 0.00010498 0.000231934 0.000166016 0.000222168 0.000146484 2.92969e-05 0.000222168 7.8125e-05 0.000209961 0.000114746 6.10352e-05 0.000144043 2.44141e-06 0.000112305 0.000178223 2.44141e-05 0.000119629 0.000109863 0.000192871 7.56836e-05 7.32422e-05 0.000229492 0.00010498 5.12695e-05 0.000214844 0.000158691 0.000134277 0.000212402 0.000136719 0.00019043 0.000239258 0.000200195 3.66211e-05 0.000168457 0.000153809 0.000112305 0.000129395 8.30078e-05 0.000153809 0.000175781 3.90625e-05 7.08008e-05 7.32422e-05 6.5918e-05 4.88281e-06 0.000234375 0.000141602 0.000158691 0.000236816 0.000217285 0.000178223 0.000144043 0.000161133 0.000109863 5.85937e-05 2.68555e-05 4.63867e-05 5.37109e-05 0.000197754 0.000166016 8.05664e-05 0.000134277 4.63867e-05 0.000231934 9.76563e-06 1.95313e-05 0.00019043 3.17383e-05 0.000109863 8.05664e-05 0.000158691 0.00020752 8.30078e-05 0.000144043 2.44141e-05 0.000136719 0.00015625 0.000222168 9.76563e-06 4.88281e-06 0.000178223 0.000109863 0.000195313 0.000241699 6.5918e-05 0.00017334 9.76563e-06 0.000168457 8.30078e-05 0.000197754 1.46484e-05 0.00010498 1.2207e-05 0.000117187 0.000107422 7.32422e-06 0.00012207 0.000136719 0.000205078 0.000205078 0.000124512 0.000124512 7.08008e-05 0.000212402 0.00017334 5.61523e-05 0.000219727 6.34766e-05 0.000187988 3.17383e-05 0.000124512 6.34766e-05 0.000241699 9.27734e-05 0.000200195 0.000180664 0.00017334 5.37109e-05 0.000222168 1.70898e-05 0.000153809 0.000166016 5.61523e-05 7.32422e-06 0.000219727 2.44141e-06 8.05664e-05 2.92969e-05 5.12695e-05 5.12695e-05 8.54492e-05 2.19727e-05 4.88281e-06 3.41797e-05 0 0.000185547 0.000153809 0.000200195 5.37109e-05 0.000102539 0.000124512 0.000241699 0.000109863 0.000192871 0.000151367 0.00015625 0.000195313 0 9.0332e-05 8.54492e-05 6.83594e-05 2.44141e-05 0.00010498 0.000100098 0.000183105 0.000166016 4.39453e-05 2.44141e-05 0.000146484 0.000185547 0.000141602 0.000209961 0.000114746 0.000180664 0.000205078 8.54492e-05 0.000227051 6.34766e-05 0.000102539 0.000231934 0.000197754 0.00017334 0.000100098 8.78906e-05 3.17383e-05 0.000214844 0.000200195 0.000222168 2.44141e-06 0.000217285 4.15039e-05 8.30078e-05 9.76563e-06 0.000100098 0.00017334 0.000236816 0.000241699 0.000212402 0.00017334 0.000144043 0.000151367 0.000222168 6.5918e-05 0.000166016 0.00013916 4.39453e-05 0.000136719 0.000119629 4.88281e-06 0.000146484 9.76563e-06 6.83594e-05 7.8125e-05 0.000100098 0.00012207 9.27734e-05 4.15039e-05 0.000131836 2.68555e-05 0.000209961 0.000153809 0.000200195 0.000114746 0.000153809 0.000192871 0.000107422 0.000187988 0 0.000144043 8.54492e-05 2.92969e-05 3.66211e-05 6.34766e-05 0.000153809 7.32422e-05 5.61523e-05 0.000158691 0.000112305 8.30078e-05 0.00019043 4.88281e-05 1.70898e-05 0.000197754 3.66211e-05 7.32422e-05 0.000109863 0.000166016 7.56836e-05 6.10352e-05 5.61523e-05 8.05664e-05 0.000222168 9.27734e-05 3.41797e-05 3.66211e-05 0.00020752 4.88281e-05 9.76563e-05 6.5918e-05 5.37109e-05 4.88281e-06 0.000205078 0.000126953 8.54492e-05 2.19727e-05 0.000112305 2.44141e-06 9.52148e-05 0.000209961 6.10352e-05 0.00019043 0.000227051 5.12695e-05 0.000112305 0.000168457 6.34766e-05 0.000136719 0.000161133 0.000239258 0 0.000124512 0.000131836 0.00015625 2.92969e-05 0.000144043 3.41797e-05 0.000217285 4.15039e-05 0.00017334 0.000146484 2.68555e-05 0.000163574 0.000178223 0.000241699 0.000129395 0.000231934 0.000102539 0.000175781 1.46484e-05 2.68555e-05 8.05664e-05 0.000114746 7.8125e-05 0.000129395 0.000129395 0.000148926 6.83594e-05 0.000163574 3.17383e-05 3.90625e-05 0.000224609 0.000187988 0.000107422 0.000126953 4.88281e-05 0.000151367 0.00012207 0.000100098 0.00013916 0.000234375 3.17383e-05 0.000117187 0.000153809 2.44141e-05 8.54492e-05 1.70898e-05 0.000141602 5.61523e-05 0.000153809 0.000192871 0.000107422 9.0332e-05 1.2207e-05 0 5.85937e-05 9.52148e-05 7.8125e-05 4.88281e-05 0.000131836 0.000200195 0.000239258 9.76563e-05 0.000119629 5.37109e-05 0.000239258 0.000231934 0.000197754 0.000217285 0.000219727 2.68555e-05 0.000124512 0.000185547 9.27734e-05 0.000227051 1.46484e-05 6.83594e-05 0.000197754 7.8125e-05 0.000144043 7.32422e-06 0.000126953 6.10352e-05 2.68555e-05 3.66211e-05 0.000153809 0.000168457 6.5918e-05 0.000124512 5.12695e-05 0.000166016 0.00017334 0.00020752 6.5918e-05 9.76563e-06 0.000212402 9.27734e-05 3.17383e-05 0.000109863 0.000234375 2.92969e-05 0.000114746 1.95313e-05 0.000134277 8.05664e-05 2.19727e-05 0.000229492 7.8125e-05 0.000178223 5.37109e-05 0.000131836 0.000234375 8.30078e-05 7.32422e-05 0.000100098 4.88281e-06 0.000200195 5.61523e-05 0.000236816 0.000163574 0.000175781 0.000205078 0.000146484 9.76563e-05 6.5918e-05 0.00010498 0.000183105 0.000178223 0.000222168 7.08008e-05 1.46484e-05 0.000183105 0.000129395 4.63867e-05 1.2207e-05 8.30078e-05 0.000158691 0.000153809 0.000231934 0 0.000227051 0.000241699 5.37109e-05 0.000227051 1.2207e-05 0.000217285 8.78906e-05 3.66211e-05 0.00019043 0.000214844 0.000227051 0.000197754 2.92969e-05 8.30078e-05 6.83594e-05 0.000202637 0.000222168 0.000114746 2.44141e-05 4.88281e-05 6.5918e-05 0.000227051 5.85937e-05 0.00015625 8.30078e-05 0.000212402 0.000100098 8.30078e-05 0.000209961 0.000192871 0.000129395 0 0.000185547 0.00017334 1.70898e-05 0.000219727 0.000227051 7.8125e-05 0.000236816 0.000187988 0.000112305 0.000219727 0.000212402 0.000151367 6.10352e-05 0.000202637 0.000129395 0.000219727 4.88281e-06 0.000229492 7.56836e-05 0.000141602 3.66211e-05 0.000227051 0.000236816 0.000178223 0.000126953 0.000239258 0.000195313 0.000217285 0.000236816 2.44141e-05 4.88281e-06 0.000134277 0.000200195 0.000222168 0.00019043 0.000183105 0.000212402 7.8125e-05 0.000224609 2.92969e-05 7.8125e-05 0.000124512 0.000109863 0.000107422 0.000146484 5.37109e-05 0.000219727 0.000202637 0.000126953 2.44141e-06 0.00020752 0 0.000183105 0.000141602 7.08008e-05 0.000107422 7.32422e-06 3.41797e-05 3.66211e-05 0.000178223 5.37109e-05 0.000202637 5.12695e-05 0.00020752 4.88281e-06 7.32422e-06 0.000148926 4.15039e-05 0.000180664 9.76563e-05 0.000158691 0.000117187 0.00012207 0.000195313 0.000222168 0.000119629 3.17383e-05 0.000117187 1.70898e-05 0.000205078 0.000168457 7.32422e-06 3.90625e-05 0.000180664 3.41797e-05 0.000224609 4.88281e-06 4.63867e-05 0.000209961 0.000144043 2.44141e-06 0.000205078 0.000168457 0.000153809 0.000163574 0.000114746 2.44141e-06 1.46484e-05 4.63867e-05 4.88281e-06 0.00020752 0.000109863 0.000178223 0.000100098 0.000129395 0.000117187 1.70898e-05 2.68555e-05 8.78906e-05 0.000234375 0.00020752 2.68555e-05 0.000126953 0.000158691 0.000236816 0.00013916 0.000229492 0.000170898 0.00019043 0.000175781 0.000183105 0.000200195 0.000131836 0.000234375 7.32422e-05 0.000229492 0.000102539 5.61523e-05 0.000192871 0.000227051 8.05664e-05 0.000241699 9.52148e-05 0.000192871 0.000114746 3.90625e-05 0.000236816 0.000197754 0.000183105 3.90625e-05 0 0.000114746 0.000192871 0.00012207 0.000170898 1.46484e-05 0.000144043 0.000183105 0.000148926 0.000187988 0.000158691 0.000102539 9.76563e-05 0.000212402 0.000124512 0.00017334 0.000214844 0.000134277 6.10352e-05 0.000161133 1.95313e-05 0.000183105 0.00020752 6.10352e-05 0.000109863 2.19727e-05 0.000166016 0.000144043 1.46484e-05 0.000144043 9.27734e-05 7.32422e-05 7.56836e-05 0.000205078 0.000227051 0.000214844 0.000234375 8.54492e-05 7.32422e-05 0.000170898 0.000117187 9.76563e-06 0.000187988 7.8125e-05 0.000229492 9.0332e-05 0.000241699 3.90625e-05 0.000109863 0.00017334 1.95313e-05 0.000146484 0.000222168 -0.0011869 0.000185936 -0.00289442 -0.00777867 0.000439792 -0.00621346 -0.00780333 0.0224156 0.000456999 -0.108822 0.00105736 -0.00758675 0.00216046 -0.014328 0.0226686 -0.00191761 0.00263024 0.00516509 -0.00301442 0.00302115 0.00968116 -0.00282821 -0.0226074 -0.000558073 -0.00746664 -0.00621148 -0.0661563 -0.000307272 0.00321556 0.0139461 -0.00217067 -0.0158735 -0.0173429 -2.85451e-05 -0.00112491 0.00344449 0.000331153 -0.00398773 0.0117195 -0.000655811 -0.0291425 -0.020067 0.000226337 0.000321498 0.0045448 0.000124633 0.00355632 0.000563033 -0.00299851 -0.000819831 0.00577109 -0.00137053 -0.052636 -0.00203892 -0.00110806 0.0379606 -0.0016926 0.0220713 0.00610811 0.0102664 0.000804956 0.0485195 -0.000904278 0.000407503 -0.00321596 0.000611508 -0.00778574 -0.0208955 0.00082032 -0.0167156 -0.0208643 0.0591015 0.00122427 -0.289308 0.0023553 -0.0201188 0.00570988 -0.0380634 0.0603615 -0.00552441 0.00662044 0.0135796 -0.00835059 0.00782356 0.0258367 -0.00774248 -0.0604074 -0.00134683 -0.0200004 -0.0164824 -0.176236 -0.00120449 0.0086147 0.0365359 -0.00615853 -0.0425842 -0.0462346 -7.58166e-05 -0.00325603 0.00923342 0.000381323 -0.0109408 0.0307491 -0.00166449 -0.0776976 -0.0532337 0.000759087 0.000953633 0.0117221 0.000477063 0.00903611 0.00114558 -0.00789119 -0.0022624 0.0149108 -0.00359332 -0.139996 -0.00578686 -0.00352808 0.100761 -0.0042986 0.0585711 0.016228 0.0269282 0.00165601 0.128979 -0.00218038 0.000918861 -0.00226125 0.000442018 -0.00569841 -0.0154554 0.000550509 -0.0123255 -0.0153656 0.043737 0.000840149 -0.21367 0.00193619 -0.014887 0.00425473 -0.0279376 0.0444558 -0.00399076 0.00477075 0.0101443 -0.00603455 0.00592611 0.0190961 -0.00566115 -0.0446716 -0.00107605 -0.014818 -0.0121094 -0.129924 -0.000997106 0.00646692 0.0270595 -0.00451665 -0.0312502 -0.0340562 -3.15627e-05 -0.00221396 0.00683322 0.000372029 -0.00819981 0.022791 -0.00107345 -0.0573995 -0.0393055 0.000517278 0.000741937 0.00868676 0.000355601 0.00659383 0.000988318 -0.00581713 -0.00155685 0.0110335 -0.00259068 -0.103429 -0.00420788 -0.00255916 0.0745837 -0.00329213 0.0433198 0.0120217 0.019745 0.00128153 0.095271 -0.001756 0.00077803 -0.00227373 0.0017823 -0.0130146 -0.0391176 0.00190892 -0.0240006 -0.0291827 0.0774639 0.00517236 -0.332545 0.0206103 -0.07664 0.0187014 -0.12144 0.078303 -0.00838734 0.0210215 0.0590434 -0.00545314 0.0065889 0.0403879 -0.00708132 -0.0758654 0.0309362 -0.039649 -0.0252385 -0.214064 0.00456554 0.0843559 0.0614946 -0.0107747 -0.0501176 -0.0953993 -0.0468994 -0.00494184 0.0232491 -0.0102321 -0.0225924 0.0740585 -0.00636581 -0.0912613 -0.0708137 -0.00447132 0.0020933 0.024231 -0.0133476 0.0231045 -0.00103932 -0.0138884 -0.00397826 0.0237527 -0.00579261 -0.161757 -0.00672245 -0.00592486 0.125142 -0.00596764 0.0854811 0.0265683 0.0289229 0.00199195 0.156725 -0.00195413 0.000619939 0.000173222 0.00594317 -0.0235102 -0.0490989 0.0115085 -0.0199002 -0.0305357 0.0972687 0.0142808 -0.369202 0.0545814 -0.150441 0.0235159 -0.230523 0.112924 -0.0143037 0.0345289 0.117451 0.00550015 0.0238978 0.0573255 -0.0105339 -0.0654937 0.0753341 -0.0587947 -0.0243796 -0.232449 0.0199688 0.178258 0.0871531 -0.0318819 -0.0628212 -0.151816 -0.109658 -0.00972742 0.0397728 -0.0229683 -0.0395163 0.110443 -0.013904 -0.105635 -0.0934187 -0.0143425 0.00598248 0.0492345 -0.020413 0.0383078 -0.00525337 -0.0244003 0.00379189 0.0178061 -0.0106175 -0.183502 0.0128242 -0.0119077 0.150807 -0.0173975 0.123649 0.0415501 0.0297225 0.0127422 0.19009 -0.00170563 -0.00890128 0.00287844 0.0107744 -0.0315669 -0.032251 0.0249177 -0.000495695 -0.0179651 0.0985272 0.0223546 -0.360658 0.0769721 -0.167825 0.00737721 -0.256448 0.138879 -0.0185923 0.0304026 0.130033 0.0180379 0.0556625 0.0588804 -0.0175653 -0.021098 0.0887232 -0.05504 -0.00745041 -0.198454 0.0346235 0.192252 0.0845255 -0.0583341 -0.0707817 -0.15562 -0.126274 -0.01454 0.0416376 -0.0238598 -0.0465468 0.090512 -0.01802 -0.106924 -0.100014 -0.0208713 0.00992542 0.0677301 -0.0060108 0.0371823 -0.0084563 -0.0315397 0.0197772 -0.00892898 -0.0148593 -0.184502 0.0471451 -0.0170352 0.151347 -0.0338057 0.138563 0.04712 0.0274875 0.0300621 0.198 -0.00197307 -0.0232559 0.0109144 0.025361 -0.0453401 -0.0440423 0.0227517 -0.0315212 -0.0424748 0.1502 0.00566239 -0.297059 0.0653728 -0.374361 0.0999466 -0.330126 0.11912 -0.0113742 0.0456325 0.205742 0.0357436 0.0198948 0.092371 0.0177178 -0.0650277 0.0904161 -0.319644 -0.0680475 -0.235962 0.0307874 0.212621 0.13421 -0.0354736 -0.054825 -0.172848 -0.104141 -0.0184011 0.119636 -0.00835607 -0.0309574 0.121371 -0.00609032 -0.095286 -0.0892919 0.0120762 -0.0216738 0.0452642 -0.0120664 0.0322757 0.000129396 -0.0509222 -0.00335143 0.0280647 -0.103167 -0.157695 0.021417 0.0507214 0.20972 -0.0298155 0.236165 -0.00476602 0.0208868 0.00895087 0.164884 0.00986485 0.0224947 0.0100774 0.0240538 -0.0415622 -0.0559524 0.0129121 -0.0490368 -0.0541915 0.155863 -0.00279745 -0.294694 0.0464697 -0.386268 0.12297 -0.31479 0.0976264 -0.00701913 0.0494455 0.203464 0.0292518 -0.00689247 0.0950793 0.0275925 -0.10125 0.0780272 -0.35846 -0.0875143 -0.264056 0.01958 0.197997 0.141041 -0.0136841 -0.047014 -0.168437 -0.0845064 -0.0155584 0.128113 -0.00434685 -0.0228001 0.135475 -0.0010683 -0.0927504 -0.0822729 0.0218745 -0.0290302 0.0282296 -0.0215486 0.03099 0.00371793 -0.0484141 -0.0175298 0.0509972 -0.112799 -0.153446 -0.00592763 0.0640726 0.216885 -0.0181223 0.238207 -0.0168835 0.0217061 -0.00593912 0.153968 0.0117269 0.0391917 0.00902163 0.0229178 -0.0383677 -0.0436379 0.0118914 -0.0455042 -0.0501024 0.148808 -0.00597951 -0.299262 0.0316127 -0.341879 0.112801 -0.25046 0.0908366 -0.00521363 0.0382327 0.167314 0.0256272 -0.0046429 0.0863281 0.0258392 -0.0968624 0.0507497 -0.344956 -0.0828065 -0.256895 0.0144066 0.135838 0.1255 -0.0106469 -0.0464329 -0.133794 -0.0454978 -0.0144932 0.11787 0.00457571 -0.0146371 0.103624 0.00272842 -0.09241 -0.0751549 0.0263998 -0.0300532 0.0193511 -0.00998406 0.0203672 0.00581451 -0.0445891 -0.016563 0.0453498 -0.111522 -0.154895 -0.00599951 0.065617 0.210632 -0.0171866 0.223761 -0.0231237 0.023645 -0.00595197 0.148787 0.0110055 0.039733 0.00725013 0.0215666 -0.033754 -0.0255346 0.0104898 -0.0399217 -0.0442084 0.138717 -0.0104416 -0.306105 0.00958094 -0.275748 0.0979054 -0.154739 0.0809643 -0.00288152 0.0216478 0.113684 0.0204491 -0.00152852 0.0734599 0.0234524 -0.0902215 0.0104883 -0.324754 -0.0755683 -0.246664 0.00695537 0.0434494 0.102066 -0.00622578 -0.0459743 -0.0825307 0.0126428 -0.012937 0.102306 0.0182435 -0.00271686 0.0560719 0.0081572 -0.0917552 -0.0642754 0.032773 -0.0316141 0.00632419 0.00716659 0.00471987 0.00855993 -0.0389471 -0.014672 0.0371649 -0.109588 -0.157348 -0.00587773 0.0680701 0.201294 -0.0161815 0.202285 -0.0327949 0.0264994 -0.0059138 0.141285 0.0102523 0.0405034 0.00739983 0.0211481 -0.0314041 -0.0182953 0.0100468 -0.0358737 -0.0395141 0.126703 -0.0117291 -0.259359 0.00478757 -0.259126 0.0939032 -0.129082 0.0690634 -0.00137607 0.0170996 0.100758 0.0207589 -0.00206955 0.0666898 0.0243253 -0.0789526 0.00267782 -0.317498 -0.0715073 -0.215097 0.00545873 0.023649 0.091259 -0.00419618 -0.0387167 -0.064449 0.0244858 -0.0122925 0.0976881 0.0208807 0.00167042 0.0415376 0.00949788 -0.0786333 -0.0532317 0.0340926 -0.03194 0.00172784 0.0105738 5.76844e-06 0.00914502 -0.0365711 -0.0140085 0.0329673 -0.10867 -0.134245 -0.00491567 0.069205 0.182795 -0.0151569 0.188278 -0.0374006 0.0226086 -0.00637939 0.118165 0.0106735 0.0403707 0.00882222 0.020968 -0.0279365 -0.00941386 0.00988532 -0.0289513 -0.0307275 0.101924 -0.0121085 -0.137865 0.00373 -0.250666 0.0914831 -0.112933 0.0437897 0.000936678 0.014415 0.0950776 0.0241722 -0.00536058 0.0558266 0.0276172 -0.0534611 0.0032784 -0.308946 -0.0644582 -0.141117 0.00612038 0.0199492 0.0760231 -0.00144909 -0.0208384 -0.0449251 0.0243833 -0.010808 0.0940617 0.0207631 0.00625195 0.028589 0.0102213 -0.0460372 -0.0308311 0.033763 -0.0323054 -0.0029772 0.0106074 -0.00369618 0.00855836 -0.0331169 -0.0131655 0.0268788 -0.107188 -0.0756294 -0.00244228 0.0707488 0.140454 -0.0133986 0.163618 -0.0440954 0.0114284 -0.00686856 0.0640837 0.0115614 0.0401366 0.0108244 0.0208281 -0.0229329 0.0037787 0.0095878 -0.0183344 -0.0176006 0.0650302 -0.0126169 0.042543 0.00225383 -0.238075 0.0880143 -0.0891537 0.00642151 0.00442629 0.010437 0.0866802 0.0294718 -0.0101581 0.0399836 0.0325314 -0.0156977 0.00424538 -0.296273 -0.053948 -0.0313326 0.00710061 0.0145329 0.0532038 0.00238008 0.00591625 -0.0160603 0.02466 -0.00891858 0.0883533 0.0204517 0.0133515 0.0095765 0.0112837 0.00262528 0.00230147 0.0333645 -0.03263 -0.010218 0.0103331 -0.00926142 0.00795628 -0.0281486 -0.0117474 0.0177024 -0.104669 0.011689 0.00115429 0.0728686 0.0777878 -0.0105289 0.12734 -0.0541298 -0.00529689 -0.00793446 -0.0161025 0.0132134 0.0395032 0.00938387 0.0194749 -0.023224 0.00507032 0.00804989 -0.0177501 -0.0164481 0.0562153 -0.0145243 0.0888187 0.000329668 -0.236979 0.0747402 -0.0858151 -0.0023502 0.00851907 0.00814317 0.0833877 0.0326551 -0.0124449 0.0352215 0.0436196 0.0166813 -0.0294206 -0.295542 -0.0472051 0.0173365 0.00972123 0.0121956 0.124376 0.00629164 0.00929058 0.0253046 0.0232107 -0.00967825 0.0857577 0.0190884 0.0131257 -0.0225334 0.0159647 0.0110462 0.00884291 0.0318464 -0.0342648 -0.0128913 0.0175505 -0.0120127 0.0113217 -0.0289646 -0.00665496 -0.0118664 -0.170267 0.0280931 0.00477889 0.126632 0.0360633 -0.0115233 0.0114935 -0.0707344 -0.00511069 -0.00971779 -0.033233 0.0169125 0.038192 0.000967735 0.0112023 -0.0307919 -0.00332209 -0.00021419 -0.02619 -0.0270987 0.0483677 -0.0242602 0.0825667 -0.0089361 -0.245444 0.0565302 -0.0942479 -0.0109898 0.0208177 -9.76169e-06 0.0754148 0.043587 -0.0252952 0.0271734 0.0514473 0.0172729 -0.0697673 -0.306534 -0.081958 0.0373719 0.0198441 0.00397076 0.188358 0.0181006 0.000293526 0.0343791 0.0139469 -0.0166525 0.0798778 0.0110284 0.00496794 0.0422669 0.0278861 -0.00477406 0.00175922 0.0237455 -0.042671 -0.0290202 0.0190548 -0.0214041 0.0600087 -0.0365765 0.091467 -0.0779866 -0.228179 0.0184245 0.0158775 0.144325 0.0116271 -0.0187559 -0.101523 -0.0918053 -0.023265 -0.0196275 -0.0475789 0.00170029 0.0297351 -0.00798731 0.00188748 -0.0389046 -0.0128438 -0.00923411 -0.0352844 -0.0394271 0.0395191 -0.0348851 0.0613526 -0.0195466 -0.255023 0.04935 -0.10345 -0.0206832 0.0326252 -0.00888629 0.0667404 0.055617 -0.0401865 0.018513 0.0480905 -0.0145957 -0.0787243 -0.319069 -0.134325 0.0291295 0.0296759 -0.00460758 0.173469 0.0297222 -0.00882443 -0.000544914 0.00343194 -0.0242072 0.0740669 0.00171512 -0.00403242 0.165682 0.037978 -0.0245163 -0.0074797 0.0147218 -0.0521071 -0.0484525 0.0120519 -0.0317833 0.119956 -0.044434 0.215953 -0.128955 -0.217887 0.00763372 0.0268771 0.0978214 0.0171329 -0.0264172 -0.109023 -0.100698 -0.051727 -0.0303724 -0.0656441 -0.0231686 0.0200258 -0.0101457 -0.000416568 -0.0409631 -0.0152443 -0.0114369 -0.0375248 -0.0425343 0.0374155 -0.0373954 0.0560011 -0.022141 -0.257478 0.0473762 -0.105769 -0.0231785 0.03576 -0.0111802 0.0646828 0.0585742 -0.0440499 0.0163111 0.0471947 -0.022624 -0.0810743 -0.322226 -0.147576 0.0270476 0.0322077 -0.00682493 0.169732 0.0327463 -0.0112953 -0.00918417 0.000723403 -0.0259012 0.0724574 -0.000666661 -0.00629862 0.196473 0.0405616 -0.0293366 -0.00982759 0.0126842 -0.0545069 -0.0533991 0.0102775 -0.0345036 0.134846 -0.0463669 0.247031 -0.141792 -0.215462 0.00480975 0.0296746 0.086096 0.0186659 -0.0281935 -0.110921 -0.102788 -0.0589758 -0.0330281 -0.0700785 -0.0292061 0.0176645 -0.0102678 -0.000440982 -0.0409265 -0.0152443 -0.0115174 -0.0375516 -0.0425539 0.0373324 -0.0376273 0.0559792 -0.0221605 -0.257473 0.047403 -0.105735 -0.0231712 0.0356062 -0.0112387 0.0645876 0.0585791 -0.0438619 0.0161377 0.0471776 -0.0225874 -0.0811524 -0.32204 -0.147593 0.0270574 0.0321833 -0.00690306 0.169673 0.0326584 -0.0111757 -0.00922079 0.000781997 -0.0258817 0.0725624 -0.000617833 -0.00616923 0.19637 0.0405299 -0.0294171 -0.00979341 0.0126256 -0.0545606 -0.0534162 0.0102164 -0.0345597 0.134968 -0.046467 0.247119 -0.141809 -0.215518 0.00481707 0.0297381 0.0861765 0.0185731 -0.0283131 -0.110816 -0.102797 -0.0588952 -0.0330915 -0.0700272 -0.0291816 0.0177572 -0.0102775 -0.000265201 -0.0410754 -0.0152199 -0.0115638 -0.0376078 -0.0424855 0.0373837 -0.0375125 0.0560011 -0.0222386 -0.257441 0.0473493 -0.105796 -0.0231444 0.0356916 -0.0113706 0.0645558 0.058357 -0.0438888 0.0162744 0.0470849 -0.022541 -0.0811451 -0.322043 -0.147532 0.0268425 0.0321565 -0.00684935 0.169717 0.0325314 -0.0110853 -0.00937704 0.000757583 -0.025933 0.0724208 -0.000698399 -0.00612284 0.196444 0.0404566 -0.0294416 -0.00980562 0.0127037 -0.054441 -0.0534675 0.010236 -0.0343913 0.134961 -0.0463474 0.246965 -0.141775 -0.215313 0.00482928 0.0296453 0.0860227 0.0184877 -0.0283204 -0.110825 -0.102758 -0.0587365 -0.0330158 -0.0700516 -0.0292427 0.0176352 -0.0100749 -0.000343326 -0.0410168 -0.0153517 -0.011515 -0.0376102 -0.0424953 0.037413 -0.0375687 0.0560719 -0.0220726 -0.25738 0.0473786 -0.105891 -0.0231077 0.0357966 -0.0111655 0.0645729 0.0584497 -0.0439596 0.0161914 0.0471996 -0.0225825 -0.0810108 -0.32204 -0.147427 0.0269402 0.0321565 -0.00698362 0.169703 0.0326681 -0.0112123 -0.00941122 0.000745376 -0.0260892 0.0724842 -0.00056168 -0.00618387 0.196588 0.0405006 -0.0294587 -0.00971773 0.0124694 -0.0544141 -0.0534846 0.0102091 -0.0345158 0.134914 -0.0463474 0.247018 -0.141662 -0.215501 0.00487567 0.029577 0.0860862 0.0185976 -0.0283497 -0.110928 -0.102805 -0.0587365 -0.0330696 -0.0699173 -0.0293452 0.0175717 -0.010092 -0.000436099 -0.0411438 -0.0154567 -0.0116102 -0.0376005 -0.0425417 0.0373129 -0.03762 0.0560011 -0.0222167 -0.257422 0.0473859 -0.105682 -0.0231077 0.0356648 -0.0113047 0.0646632 0.0583765 -0.0438546 0.0162207 0.0471019 -0.0225142 -0.0811622 -0.322114 -0.147603 0.0270305 0.0323298 -0.006947 0.169683 0.0326901 -0.0112147 -0.00937215 0.000884536 -0.0260306 0.0725941 -0.000691075 -0.0061619 0.19641 0.0404444 -0.0293268 -0.00982027 0.0125694 -0.054375 -0.0534358 0.0101359 -0.0344328 0.134787 -0.0464402 0.24696 -0.141726 -0.215484 0.0049367 0.0297454 0.0860496 0.0185463 -0.0283449 -0.110745 -0.102795 -0.0588464 -0.0331477 -0.0699247 -0.0291621 0.0176401 -0.0100724 -0.000428775 -0.0409094 -0.0153859 -0.0114637 -0.03741 -0.042715 0.0374155 -0.0376151 0.0560402 -0.0222167 -0.257395 0.0475324 -0.105762 -0.0232347 0.0357283 -0.0111362 0.064651 0.0584302 -0.0439645 0.0161573 0.0472338 -0.0226802 -0.080984 -0.322128 -0.147618 0.027072 0.03222 -0.0069055 0.169747 0.0325754 -0.011122 -0.00917928 0.000857681 -0.0260404 0.0724672 -0.000571446 -0.00607889 0.196456 0.0406007 -0.0292463 -0.0097275 0.0125426 -0.0545166 -0.0534211 0.0101359 -0.0344181 0.134909 -0.0464011 0.246913 -0.141692 -0.21551 0.00495623 0.0296722 0.0860447 0.0185243 -0.0282838 -0.110901 -0.102861 -0.0589001 -0.0330329 -0.0700077 -0.0292231 0.0176401 -0.0116104 -0.00290827 -0.0381678 -0.0162248 -0.0127201 -0.0355219 -0.0405895 0.0302481 -0.0359231 0.0460792 -0.0222745 -0.227884 0.036472 -0.0952172 -0.0228797 0.035029 -0.0123658 0.0539556 0.0547399 -0.0426758 0.011768 0.0429357 -0.0215367 -0.081664 -0.285513 -0.14097 0.0280637 0.0312558 -0.00857725 0.163696 0.0321178 -0.0124627 -0.00798542 -0.00224768 -0.0248072 0.0616377 -0.00307322 -0.00805284 0.195894 0.0390104 -0.0308389 -0.0108526 0.00847799 -0.0504506 -0.0520831 0.0089191 -0.0330718 0.133888 -0.0430483 0.248479 -0.143709 -0.202254 0.0013406 0.0295128 0.0769954 0.0103948 -0.0270033 -0.12576 -0.095739 -0.0576665 -0.0320008 -0.0660776 -0.0310217 0.0127263 -0.017155 -0.0132133 -0.0271941 -0.0191273 -0.0173919 -0.0272826 -0.0331159 0.00147284 -0.0293391 0.00700262 -0.0233585 -0.110191 -0.00703525 -0.0529221 -0.0223695 0.0326272 -0.0171161 0.0117886 0.0393619 -0.0369339 -0.00657538 0.0263625 -0.0173784 -0.0838234 -0.138783 -0.115155 0.0328441 0.0279555 -0.0154046 0.139525 0.0307645 -0.0180952 -0.00272473 -0.0145861 -0.0205838 0.0182361 -0.0132993 -0.0151504 0.19317 0.0334004 -0.0369412 -0.015371 -0.00819394 -0.0338363 -0.0459958 0.00382302 -0.0278262 0.130047 -0.0294663 0.25423 -0.151523 -0.150221 -0.0133368 0.0285769 0.0402809 -0.0219849 -0.0219574 -0.185644 -0.0675375 -0.0534512 -0.0279317 -0.0498209 -0.0374895 -0.0067578 -0.0213137 -0.0210264 -0.0188835 -0.0216379 -0.0208479 -0.0210353 -0.0274006 -0.0203065 -0.024631 -0.0227392 -0.0239878 -0.0216782 -0.0397983 -0.0210711 -0.0218477 0.030688 -0.0207778 -0.0202725 0.0279235 -0.0327513 -0.0203022 0.0139647 -0.0142619 -0.0852526 -0.0281957 -0.0956158 0.0361678 0.0251585 -0.0202478 0.121265 0.0295206 -0.0222626 0.00115535 -0.0235555 -0.0174374 -0.0145711 -0.0210056 -0.0207035 0.191115 0.029126 -0.0415873 -0.0187774 -0.0206285 -0.0215223 -0.0416768 -3.5074e-06 -0.0240185 0.127092 -0.0193025 0.258556 -0.157617 -0.110934 -0.0244669 0.0278187 0.0128401 -0.0463747 -0.0182011 -0.230659 -0.0463524 -0.0501494 -0.0248342 -0.0376759 -0.0424418 -0.021702 -0.0213112 -0.0209288 -0.018947 -0.0214572 -0.0208357 -0.0210207 -0.0274567 -0.0201795 -0.0245455 -0.0226587 -0.0240513 -0.0215903 -0.0397275 -0.0211663 -0.0217574 0.0307246 -0.0206948 -0.0200699 0.0280187 -0.0326366 -0.0202827 0.0137743 -0.0143571 -0.0852282 -0.0282494 -0.0954058 0.0361507 0.0252464 -0.0203576 0.121057 0.0294083 -0.0223627 0.00109431 -0.0236849 -0.0174056 -0.0144027 -0.0210104 -0.0208134 0.190929 0.0292285 -0.0414262 -0.0188067 -0.0206334 -0.0215443 -0.0416597 -8.89566e-05 -0.0239819 0.127219 -0.0193587 0.258512 -0.157461 -0.111054 -0.0243009 0.0277967 0.0127791 -0.0462478 -0.0180326 -0.230696 -0.0463305 -0.0501323 -0.024739 -0.0376295 -0.042559 -0.0215629 -0.0213161 -0.0210924 -0.0188762 -0.0215646 -0.0209261 -0.0211867 -0.0273615 -0.0201649 -0.0244357 -0.0227124 -0.0240562 -0.0217392 -0.0397568 -0.0211443 -0.021794 0.0307075 -0.0207241 -0.0201748 0.0281237 -0.0327196 -0.0202607 0.0139305 -0.0143059 -0.0854504 -0.0281712 -0.0956109 0.0361092 0.0251439 -0.0204358 0.121162 0.0294327 -0.0222895 0.00112849 -0.0236263 -0.0173617 -0.0144613 -0.0210471 -0.0207548 0.19089 0.0291211 -0.0415336 -0.0187359 -0.0206285 -0.0215761 -0.0415303 -4.50113e-05 -0.0240331 0.127256 -0.0192317 0.2585 -0.157512 -0.110971 -0.0242642 0.0277113 0.0126985 -0.0463576 -0.0181498 -0.230857 -0.0465477 -0.0500566 -0.0248416 -0.0374415 -0.0425004 -0.0216019 -0.0187013 -0.0182721 -0.0164767 -0.0189328 -0.0182807 -0.0183958 -0.0239349 -0.0176305 -0.021329 -0.0197931 -0.0210205 -0.0189138 -0.0348806 -0.0184479 -0.01915 0.0270025 -0.0182432 -0.0175108 0.0244783 -0.0287145 -0.0177928 0.0121758 -0.0124697 -0.0746177 -0.0245385 -0.0835097 0.0317405 0.0219985 -0.0177501 0.106131 0.0258271 -0.0193507 0.000958133 -0.0207984 -0.015316 -0.0125477 -0.0182044 -0.0181861 0.167199 0.0255768 -0.0364317 -0.0164494 -0.0179779 -0.0187674 -0.0364947 1.85985e-05 -0.0209399 0.111409 -0.0169221 0.226186 -0.137864 -0.0970448 -0.0211915 0.0243603 0.0113068 -0.0406282 -0.015842 -0.201859 -0.0406746 -0.0438059 -0.0218108 -0.0328272 -0.0371338 -0.0189078 -0.00866201 -0.00845939 -0.00760824 -0.0088403 -0.00850106 -0.00856055 -0.0109954 -0.00820014 -0.0100353 -0.0093055 -0.00977516 -0.00875813 -0.016138 -0.00852118 -0.0087064 0.0126085 -0.00852019 -0.00813157 0.0115207 -0.0133561 -0.00827616 0.00575263 -0.00584513 -0.034674 -0.0114563 -0.0389195 0.0147289 0.0104319 -0.00822787 0.0494215 0.0120691 -0.00900546 0.000577338 -0.00966123 -0.00713216 -0.00581737 -0.00848331 -0.00839639 0.0781174 0.0120038 -0.016929 -0.00756054 -0.0083468 -0.00881094 -0.0169033 5.60885e-05 -0.00969554 0.0520623 -0.00786445 0.105433 -0.0641546 -0.0452134 -0.00978926 0.0113701 0.00528011 -0.0189198 -0.00733086 -0.0940219 -0.0188675 -0.0204288 -0.0101255 -0.0152546 -0.0172786 -0.00885074 0.000114746 0.000236816 9.0332e-05 2.44141e-06 0.000224609 0.00020752 9.76563e-06 0.000236816 0.000192871 9.27734e-05 7.08008e-05 7.32422e-05 4.88281e-05 7.32422e-05 4.88281e-06 1.2207e-05 8.54492e-05 0.000222168 0.000170898 0.000187988 4.63867e-05 0.000214844 7.32422e-05 0.000224609 9.76563e-06 0.000100098 0.000161133 0.000117187 0.000236816 6.34766e-05 4.88281e-06 0.000153809 4.63867e-05 0.000185547 0.000102539 0.000234375 0.000185547 6.83594e-05 9.52148e-05 0.00019043 0.000144043 0.00015625 0.000214844 7.08008e-05 1.70898e-05 3.66211e-05 7.56836e-05 0.000183105 6.34766e-05 4.15039e-05 0.000100098 0.000197754 0.000234375 0.000192871 9.0332e-05 7.56836e-05 7.8125e-05 7.8125e-05 6.5918e-05 2.44141e-05 0.000180664 0.000146484 0.000234375 0.000212402 0.000161133 0.000114746 7.32422e-06 5.37109e-05 0.000185547 5.37109e-05 0.000153809 0.000148926 0.000109863 9.0332e-05 3.90625e-05 1.46484e-05 2.19727e-05 7.8125e-05 9.76563e-05 6.83594e-05 0 0 9.52148e-05 0.000178223 0.000209961 0.000197754 8.78906e-05 0.00017334 0.000229492 9.27734e-05 0.000227051 3.90625e-05 0.000209961 0.000102539 0.000227051 9.27734e-05 0.00013916 8.78906e-05 1.2207e-05 3.17383e-05 0.000119629 4.15039e-05 2.44141e-06 6.83594e-05 8.78906e-05 0.000112305 0.000124512 0.000187988 0.000148926 0.000239258 3.66211e-05 0.00015625 0.00012207 0.000187988 0.000109863 2.92969e-05 0.000234375 0.00013916 0.000168457 0.000114746 8.05664e-05 0.00017334 0.00019043 7.08008e-05 0.000100098 0.000100098 0.000109863 0.000126953 3.90625e-05 0.000231934 0.000200195 5.61523e-05 0.000231934 0.000124512 0.000183105 0 0.000227051 4.88281e-06 0.000183105 3.17383e-05 9.76563e-05 0.000166016 0.000102539 4.39453e-05 7.8125e-05 0.000114746 0.000205078 0.000114746 2.68555e-05 0.000192871 0.00010498 8.05664e-05 0.000217285 0.000107422 9.0332e-05 0.000153809 0.000209961 0.000166016 8.78906e-05 0.000158691 0.000219727 4.88281e-06 0.000124512 0.000227051 0.000197754 8.78906e-05 0.000180664 9.76563e-06 0.000241699 3.17383e-05 0.000219727 9.76563e-05 8.05664e-05 0.00019043 0.000175781 6.5918e-05 0.000129395 1.46484e-05 0.000151367 2.44141e-05 0.000219727 0.000241699 6.34766e-05 1.70898e-05 5.85937e-05 0.00015625 0.000109863 0.000214844 0.00019043 3.66211e-05 4.63867e-05 0.00020752 0.000126953 7.32422e-06 0.000197754 3.66211e-05 0.000212402 6.5918e-05 0.000209961 4.88281e-06 0.000231934 0.000205078 0.00010498 0.000166016 8.05664e-05 0.000100098 5.12695e-05 0.000163574 0.000197754 0.00010498 0.000178223 0.000217285 7.32422e-05 0.000112305 0.00013916 0.000112305 0.000222168 0.000231934 0.000234375 0.000131836 0.000195313 0.000212402 9.76563e-05 0.000124512 0.000161133 0.000161133 0.000124512 9.0332e-05 0.000239258 0.000146484 0 0.000136719 3.17383e-05 2.44141e-05 4.88281e-06 0.000229492 9.76563e-05 0.000126953 1.2207e-05 0.000200195 2.44141e-05 0.000178223 0.000212402 0.000136719 9.27734e-05 0.000231934 0.000102539 4.88281e-06 8.05664e-05 8.05664e-05 0.000227051 9.27734e-05 0.000148926 0.000153809 0.000205078 2.92969e-05 3.66211e-05 5.12695e-05 0.000224609 0.000222168 0.000102539 0.000114746 0.000239258 8.54492e-05 0.000175781 4.63867e-05 2.68555e-05 4.88281e-06 0.000227051 2.68555e-05 0.000175781 0.000212402 0.00020752 2.92969e-05 0.000229492 4.88281e-06 6.5918e-05 0.000153809 2.92969e-05 0.000141602 3.90625e-05 7.32422e-06 5.85937e-05 0.000153809 7.8125e-05 8.78906e-05 0.00015625 3.90625e-05 0.000192871 0.000151367 4.39453e-05 6.83594e-05 0.00012207 3.17383e-05 8.30078e-05 2.68555e-05 5.12695e-05 0.000241699 4.88281e-06 6.5918e-05 9.76563e-05 8.30078e-05 0.000170898 7.8125e-05 4.15039e-05 0.000236816 0.000236816 0.000187988 0.00020752 0.000197754 7.32422e-06 9.52148e-05 0 0.000136719 0.000148926 3.66211e-05 0.000112305 0.000107422 6.34766e-05 0.000202637 6.5918e-05 0.000107422 0.000136719 0.00013916 0.000241699 7.08008e-05 0.000141602 5.85937e-05 0.000231934 0.000153809 0.000124512 0.000153809 0.00017334 3.41797e-05 0.00010498 0.00017334 0.00015625 0.000241699 0.000205078 2.68555e-05 0.00017334 0.00013916 3.90625e-05 9.27734e-05 0.000239258 1.2207e-05 5.85937e-05 0.000214844 0.000231934 2.44141e-06 3.90625e-05 0.000168457 3.66211e-05 3.90625e-05 0.00020752 4.88281e-06 2.44141e-06 1.70898e-05 0.000126953 0.000119629 0.000134277 0.000141602 0.000131836 3.90625e-05 0.000192871 0.000219727 0.00017334 0.000148926 0.000200195 0.000112305 5.37109e-05 0.000217285 5.37109e-05 0.000192871 3.17383e-05 0.000197754 4.39453e-05 0.00013916 0.000109863 9.52148e-05 0.000102539 8.30078e-05 0.000109863 0.000236816 0.000229492 0.000217285 7.56836e-05 0.000183105 0.000192871 9.52148e-05 7.56836e-05 8.78906e-05 0.000126953 5.12695e-05 0.000124512 0.000124512 7.32422e-06 2.68555e-05 7.32422e-05 0.000151367 0.000205078 0.000151367 0.000236816 0.00012207 0.000109863 0.000185547 0.000231934 0 0.000212402 0.000117187 2.92969e-05 9.76563e-05 0.000153809 0.000205078 0.000136719 0.00015625 9.0332e-05 0.000241699 9.0332e-05 0.000185547 7.08008e-05 0.000239258 0.000102539 0.000163574 6.5918e-05 0.000202637 9.27734e-05 0.000205078 0.000129395 7.32422e-06 0.000158691 9.27734e-05 0.000170898 8.78906e-05 1.95313e-05 4.88281e-05 6.10352e-05 6.5918e-05 0.000141602 0.000158691 0.000227051 0.000102539 5.12695e-05 3.66211e-05 0.000175781 0.000239258 0.000222168 8.30078e-05 1.70898e-05 0.000202637 0.000144043 0.000214844 0.000214844 0.00015625 7.56836e-05 6.5918e-05 0.000192871 0.000185547 4.63867e-05 0.000202637 0.000187988 0.000175781 3.41797e-05 0.000214844 0.000241699 0.000114746 0.00017334 0.000187988 0.00020752 4.15039e-05 7.56836e-05 0.000112305 0.00012207 7.8125e-05 6.10352e-05 2.92969e-05 5.37109e-05 9.76563e-06 6.10352e-05 0.00010498 6.10352e-05 0.000163574 0.000178223 4.15039e-05 0 0.000153809 0.000109863 1.95313e-05 0.000158691 0.000126953 4.63867e-05 7.32422e-06 9.76563e-06 0.000170898 0.000209961 0.000119629 0.000212402 0.000175781 0.00012207 0.000212402 0.000131836 2.92969e-05 9.76563e-05 0.00020752 0.000136719 9.0332e-05 0.00012207 0.000229492 0.000107422 2.68555e-05 0.000161133 6.5918e-05 9.52148e-05 2.44141e-05 7.56836e-05 5.12695e-05 0.000117187 2.44141e-06 0.000146484 4.88281e-06 0.000158691 0 0.000185547 5.12695e-05 0.000239258 5.85937e-05 0.000219727 0.000227051 0.000185547 0.000112305 0.000229492 7.8125e-05 1.70898e-05 0.000219727 3.66211e-05 0.000146484 7.32422e-06 1.2207e-05 0.000112305 0.000200195 0.000175781 0.000158691 4.39453e-05 0.000227051 0.000117187 0.000227051 0.000102539 0.000187988 0.000227051 0.000227051 0.000126953 8.78906e-05 0.00012207 0.000231934 2.92969e-05 0.000161133 0.000239258 0.000178223 0.000146484 0.000234375 0.000153809 0.000168457 0.000148926 3.90625e-05 0.000131836 1.70898e-05 0.000112305 3.66211e-05 0.000185547 0.000197754 1.70898e-05 0.000195313 0.000200195 8.05664e-05 0.000129395 0.000212402 2.92969e-05 0.000239258 0.000136719 3.90625e-05 0.000239258 8.78906e-05 0.000158691 0.000192871 0.000197754 3.17383e-05 7.08008e-05 0.000124512 4.15039e-05 9.76563e-06 0.000170898 0.000170898 7.32422e-06 2.44141e-06 7.8125e-05 8.05664e-05 0.000195313 0.000148926 0.000144043 9.76563e-06 3.41797e-05 0.000166016 0.000192871 0.000195313 0.000144043 0.000126953 1.70898e-05 5.61523e-05 0.000117187 0.00015625 2.44141e-05 0.000136719 0.000175781 7.8125e-05 7.32422e-06 0.000153809 0.000187988 0.000134277 0.000197754 0.000192871 2.44141e-05 2.44141e-05 0.000222168 7.32422e-05 0.000102539 0.000153809 0.000163574 0.00013916 0.000114746 0.000239258 0.000107422 3.41797e-05 3.41797e-05 8.30078e-05 4.88281e-05 0.000229492 6.5918e-05 0.000185547 0.000126953 0.000200195 0 0.000231934 0.00013916 0.000241699 6.5918e-05 0.000166016 2.68555e-05 0.00015625 3.66211e-05 0.000126953 0.000161133 9.0332e-05 0.000170898 0.000168457 0.000131836 0.000151367 0.000117187 1.46484e-05 0.00010498 0.000131836 0.000134277 0.000100098 0.000222168 0 7.8125e-05 9.76563e-06 1.95313e-05 4.15039e-05 4.15039e-05 0 0.000217285 4.88281e-05 0.000231934 4.88281e-05 0.000231934 9.27734e-05 4.39453e-05 1.2207e-05 5.61523e-05 0.000131836 6.34766e-05 0.000234375 9.27734e-05 7.8125e-05 0.000166016 0.000158691 0.000236816 0.000214844 0.000200195 1.46484e-05 0.00012207 1.46484e-05 0.000192871 0.000222168 5.61523e-05 5.61523e-05 0.000192871 0.000168457 0.000161133 4.88281e-06 0.000168457 0 3.90625e-05 5.85937e-05 0.000141602 0.000161133 0.000102539 0.000197754 1.2207e-05 0.000119629 2.92969e-05 0.000107422 7.32422e-06 0.00017334 6.83594e-05 0.000227051 3.17383e-05 0.000146484 0.000212402 0.000158691 0.000234375 9.76563e-06 7.32422e-05 0.00012207 0.000166016 0.000231934 5.85937e-05 0.000192871 0.000224609 0.000109863 2.44141e-06 0.000209961 7.08008e-05 7.08008e-05 4.88281e-06 5.61523e-05 0.000166016 4.15039e-05 6.83594e-05 0.000224609 0.000227051 4.63867e-05 0.000202637 0.000205078 0.000229492 0.000229492 0.000205078 0 5.12695e-05 7.8125e-05 0.000214844 5.12695e-05 0.000236816 0.000241699 1.46484e-05 2.19727e-05 2.44141e-05 0.000100098 0.000200195 0.000166016 7.32422e-05 0.000109863 7.32422e-06 6.34766e-05 0.000202637 4.39453e-05 0.000107422 0.000112305 0.000151367 0.000141602 7.32422e-06 0.000212402 0.000219727 2.68555e-05 4.88281e-06 0.000136719 0.000170898 0.000100098 0.000170898 0.000129395 3.66211e-05 0 7.8125e-05 4.63867e-05 4.39453e-05 0.000212402 3.17383e-05 0.000227051 0.000166016 8.30078e-05 4.15039e-05 0.00013916 2.44141e-05 1.70898e-05 2.68555e-05 8.05664e-05 6.5918e-05 0.000183105 9.76563e-05 0.000222168 0 6.83594e-05 0.000229492 0.000168457 0.000114746 8.30078e-05 1.70898e-05 4.15039e-05 0.000224609 3.41797e-05 0.000239258 9.76563e-05 0.000146484 7.08008e-05 3.66211e-05 0.000236816 0.000112305 0.000148926 2.19727e-05 0.000234375 3.41797e-05 0.000205078 0.000187988 0.000214844 1.95313e-05 4.88281e-06 0.000187988 0.000170898 0.000229492 0.000217285 0.000214844 0.000229492 8.05664e-05 0.000163574 0.000195313 0.000144043 0.000129395 9.52148e-05 0.000234375 5.61523e-05 3.66211e-05 0.000114746 0.00015625 0 6.5918e-05 7.08008e-05 2.44141e-06 5.12695e-05 7.32422e-05 0.000166016 0.000236816 7.32422e-06 0.00013916 0.000131836 3.41797e-05 8.54492e-05 0.000212402 5.61523e-05 1.2207e-05 4.88281e-05 0.000144043 0.000222168 3.66211e-05 0.000148926 9.27734e-05 1.70898e-05 0.000222168 0.000168457 1.95313e-05 0.000141602 7.32422e-06 8.05664e-05 0.000205078 0.000241699 0.000107422 6.34766e-05 0.000236816 0.000134277 4.39453e-05 0.000166016 0.000178223 0.000224609 0.000227051 0.000200195 0.00020752 0.000187988 0.000185547 2.68555e-05 7.32422e-06 0.00015625 0.000114746 0.000126953 1.95313e-05 6.10352e-05 0.000195313 8.30078e-05 0.00019043 2.19727e-05 8.30078e-05 0.000222168 0.000202637 0 6.34766e-05 2.92969e-05 7.32422e-05 6.34766e-05 0.000161133 7.32422e-05 0.000217285 9.76563e-06 6.34766e-05 3.41797e-05 8.78906e-05 9.0332e-05 0 0.000217285 5.12695e-05 7.32422e-06 0.00010498 0.000231934 1.2207e-05 0.000185547 9.76563e-06 0.000219727 6.34766e-05 2.92969e-05 0.000197754 0.000222168 0.000112305 7.08008e-05 9.0332e-05 0.000187988 0.000219727 0.000124512 0.000231934 0.000227051 3.41797e-05 0.000109863 0.000170898 0.000117187 0.000234375 5.37109e-05 4.39453e-05 9.27734e-05 9.52148e-05 0.000185547 0 0.00015625 0.000161133 0.000222168 7.8125e-05 2.19727e-05 0.000148926 1.70898e-05 0.000219727 2.44141e-05 3.66211e-05 4.63867e-05 0.000178223 3.41797e-05 5.12695e-05 0.000197754 0.000175781 0.000141602 4.39453e-05 0.00019043 0.000178223 3.41797e-05 0.000202637 0.000163574 3.90625e-05 0.000234375 0.00020752 0.00015625 4.88281e-05 0.000141602 0.000217285 0.000175781 6.83594e-05 4.88281e-06 0.000144043 0.000187988 0.00020752 0.00017334 0.000239258 0.000239258 1.46484e-05 9.52148e-05 0.00010498 0.000219727 3.90625e-05 4.88281e-05 9.76563e-05 0.000192871 0.000153809 0.000146484 0.000144043 0.000131836 0.000136719 2.92969e-05 0.000192871 0.000158691 2.19727e-05 3.17383e-05 8.05664e-05 0.000239258 0.000129395 5.85937e-05 0.000212402 4.39453e-05 7.08008e-05 0.000126953 0.000119629 0.00019043 0.000114746 0.00010498 9.0332e-05 0.000214844 8.05664e-05 0.000231934 0.00013916 0.000119629 8.30078e-05 0.00015625 0.000161133 0.000151367 0.00012207 0.000129395 0.000195313 1.2207e-05 9.76563e-06 7.32422e-05 7.56836e-05 1.2207e-05 7.32422e-06 0.000227051 0.000214844 2.44141e-06 0.00019043 7.08008e-05 0.000136719 2.44141e-06 2.44141e-06 0.000200195 5.85937e-05 5.12695e-05 7.56836e-05 3.66211e-05 4.15039e-05 0.000178223 8.05664e-05 2.92969e-05 2.44141e-05 7.08008e-05 0.000114746 9.76563e-06 0.000205078 0.000161133 0.000129395 4.88281e-06 6.34766e-05 0.000229492 2.19727e-05 0.000200195 0.000227051 0.00020752 0.00017334 0.000112305 1.2207e-05 0.000234375 3.17383e-05 7.08008e-05 0.000109863 2.44141e-06 0.000217285 0.000195313 0.000192871 0.00019043 0.000183105 4.88281e-05 1.70898e-05 3.41797e-05 0.000124512 2.68555e-05 0.000229492 2.19727e-05 2.68555e-05 0.000161133 9.27734e-05 0.000126953 0.000109863 4.39453e-05 0.000185547 8.30078e-05 0.000241699 0.00012207 0.000187988 7.08008e-05 0.000161133 1.2207e-05 0.000197754 4.63867e-05 0.000117187 0.000214844 0.00013916 7.32422e-05 0.000217285 4.39453e-05 0.000124512 0.000161133 6.10352e-05 0.00013916 0.000153809 0.000161133 0.000205078 8.78906e-05 1.95313e-05 3.41797e-05 3.41797e-05 3.66211e-05 6.5918e-05 2.68555e-05 1.95313e-05 0.00017334 0.000134277 0.000192871 0.000151367 0.000124512 0.00012207 0.000212402 0.000222168 0.000129395 0.000134277 0.000202637 8.30078e-05 1.2207e-05 0.00013916 0.000227051 0.00019043 0.000144043 0.000114746 2.92969e-05 4.88281e-05 0.00015625 0.00015625 0.000187988 1.70898e-05 0.000112305 6.83594e-05 0.000192871 1.95313e-05 0.000124512 0.000107422 0.000234375 0.000192871 0.000114746 6.5918e-05 0.00015625 0.000219727 0.000187988 0.000100098 0.000178223 0.000148926 0.00015625 9.76563e-06 2.68555e-05 0.000141602 3.41797e-05 7.08008e-05 0.000217285 0.000112305 0.000117187 0.000214844 5.85937e-05 7.56836e-05 3.66211e-05 0.000202637 0.000146484 2.68555e-05 5.61523e-05 9.76563e-06 0.000117187 0.000187988 0.00019043 0.000166016 0.000129395 0.00010498 4.63867e-05 0.000231934 8.30078e-05 0.000175781 3.66211e-05 0.000161133 7.56836e-05 3.41797e-05 0.000146484 0.000195313 1.70898e-05 9.27734e-05 0.000129395 3.90625e-05 0.00019043 9.52148e-05 0.000129395 0.000236816 4.63867e-05 0.00015625 4.63867e-05 0.000202637 4.39453e-05 0.000180664 2.44141e-06 0.000217285 0.000119629 0.000180664 0.000163574 0.000175781 5.85937e-05 0.000151367 3.66211e-05 0.00017334 0.000192871 0.000229492 7.56836e-05 0.000234375 0.000144043 7.08008e-05 0.000212402 0.000102539 3.66211e-05 0.00013916 7.56836e-05 0.000131836 0.00020752 0.00010498 0.000229492 9.52148e-05 0.000222168 0.000141602 0.000136719 0.000197754 0.000212402 4.63867e-05 2.44141e-06 3.17383e-05 0.000202637 3.17383e-05 0.000234375 4.63867e-05 0.000197754 0.000219727 0.000114746 1.95313e-05 4.88281e-06 0.000109863 0.000212402 0.000241699 6.5918e-05 1.46484e-05 9.52148e-05 5.37109e-05 0.00015625 7.56836e-05 0.000224609 0 0.000227051 8.78906e-05 2.68555e-05 5.12695e-05 0.000124512 0.000197754 0.000102539 4.88281e-05 6.83594e-05 0.00012207 0.000153809 0.000195313 8.05664e-05 0.00010498 2.68555e-05 0.000151367 0.000209961 0.000129395 3.66211e-05 0.000239258 0.000114746 2.44141e-05 0.000205078 0.000234375 0.000141602 0.000136719 8.78906e-05 0.000236816 0.000217285 1.95313e-05 0.000202637 9.27734e-05 0.000112305 0.000166016 0.000231934 0.000214844 3.90625e-05 0.000168457 6.83594e-05 9.0332e-05 7.8125e-05 5.61523e-05 3.66211e-05 4.88281e-06 0.000134277 3.17383e-05 7.08008e-05 3.17383e-05 2.44141e-06 8.05664e-05 0.000170898 1.95313e-05 1.70898e-05 9.52148e-05 0.000229492 0.000241699 0.000178223 0.000109863 0.000195313 0.000114746 9.52148e-05 0 0.000141602 0.00017334 5.12695e-05 3.17383e-05 6.83594e-05 0.000234375 0.000117187 5.37109e-05 9.76563e-05 0.000212402 3.66211e-05 0.000180664 0.000166016 0.000229492 0.000219727 2.44141e-06 0.000161133 9.52148e-05 0.000109863 6.10352e-05 5.12695e-05 0.000192871 4.15039e-05 0.00012207 0.00013916 2.68555e-05 0.000134277 0.000205078 7.08008e-05 0.000222168 1.2207e-05 0.000134277 0.000163574 0.00015625 3.90625e-05 0.000219727 0.000175781 8.78906e-05 0.000141602 9.76563e-05 0 0.000212402 0.00013916 0.000222168 0.000224609 0.000205078 0.00020752 0.000129395 3.17383e-05 0.000158691 8.54492e-05 0.000178223 0.000224609 6.5918e-05 6.10352e-05 0.000229492 4.15039e-05 0.000227051 0.000195313 0.000161133 0.000227051 0.000151367 6.5918e-05 4.15039e-05 8.54492e-05 1.2207e-05 7.32422e-05 0.000163574 3.90625e-05 0.000197754 0.000241699 0.000134277 0.000178223 0.000100098 8.54492e-05 0.000102539 9.0332e-05 1.2207e-05 7.8125e-05 0.000195313 6.83594e-05 0.000180664 0.000200195 0.000168457 0.000231934 9.52148e-05 5.85937e-05 0.000200195 0.000129395 6.83594e-05 0.000214844 2.44141e-06 0.000161133 6.5918e-05 5.12695e-05 7.32422e-05 0.000219727 9.0332e-05 4.88281e-05 0.000234375 0.000153809 4.88281e-06 8.05664e-05 7.8125e-05 0.000134277 0.000195313 3.90625e-05 2.68555e-05 0.000107422 7.08008e-05 0.000175781 6.34766e-05 0.000178223 1.70898e-05 5.37109e-05 0.00013916 7.32422e-05 0.00010498 0.000119629 7.8125e-05 0.00012207 0.000148926 0.000107422 3.41797e-05 0.00015625 0.000241699 0.000195313 0.00017334 0.000144043 6.83594e-05 9.76563e-05 2.19727e-05 1.70898e-05 0.000126953 9.27734e-05 2.44141e-06 0.000197754 0.00013916 0.000158691 7.32422e-05 1.2207e-05 7.32422e-06 4.88281e-05 0.000239258 3.17383e-05 0.000222168 0.000144043 0.000148926 2.92969e-05 2.92969e-05 0.000205078 0.000134277 0.000146484 0.000214844 0.00010498 0.000109863 0.000227051 6.34766e-05 0.00010498 3.41797e-05 2.92969e-05 9.52148e-05 0.000168457 0.000219727 0.000141602 4.39453e-05 0.000170898 0.000222168 6.10352e-05 0.000124512 9.76563e-05 0.000205078 0.000241699 3.90625e-05 9.76563e-06 1.46484e-05 0.000117187 0.000124512 4.39453e-05 5.12695e-05 0.000124512 0.000131836 0.000129395 0.000153809 1.70898e-05 0 2.19727e-05 0.000212402 0.000175781 0.000163574 6.34766e-05 7.8125e-05 0.000202637 0.000209961 0.000205078 7.32422e-06 0.000200195 0.000168457 5.61523e-05 0.000153809 6.10352e-05 0.000231934 6.5918e-05 0.000241699 0.000146484 0.000153809 0.00015625 0.000217285 4.39453e-05 7.32422e-05 0.000141602 6.10352e-05 8.05664e-05 0.000136719 0.000236816 0 3.66211e-05 2.19727e-05 0.000144043 0.000102539 0.000107422 5.37109e-05 0.000229492 8.30078e-05 3.17383e-05 1.95313e-05 0.000134277 0.000146484 7.08008e-05 9.76563e-06 0.000192871 2.68555e-05 0.000229492 0.000117187 0.00019043 0.000224609 0.000170898 3.17383e-05 4.15039e-05 0.000212402 0.000229492 0.000236816 0.000234375 0.000109863 9.52148e-05 0.000183105 7.56836e-05 0.000102539 3.66211e-05 4.88281e-05 9.76563e-06 0.000241699 9.27734e-05 0.000234375 0.00012207 5.37109e-05 0.000102539 9.27734e-05 0.000197754 6.10352e-05 8.54492e-05 9.76563e-05 6.34766e-05 0.000227051 0.000107422 6.5918e-05 7.56836e-05 0.000224609 0.000170898 0.000102539 0.000141602 9.76563e-06 0.000219727 0.000195313 2.68555e-05 2.44141e-06 0.00015625 2.44141e-05 3.90625e-05 0.000158691 9.76563e-05 0.000236816 4.88281e-05 0.000231934 8.30078e-05 9.0332e-05 3.41797e-05 9.27734e-05 4.39453e-05 0.000153809 0.000134277 0.000102539 0.000151367 7.08008e-05 0.000229492 8.54492e-05 0.000229492 9.76563e-05 6.83594e-05 0.000100098 3.90625e-05 2.44141e-06 0.00015625 0.000107422 0.000126953 0.000151367 2.68555e-05 0.000239258 0.000229492 8.30078e-05 0.000222168 2.19727e-05 0.000222168 0.000134277 1.95313e-05 0.000119629 8.78906e-05 0.00015625 0.000202637 0.000197754 0.000214844 0.000234375 0.000241699 9.76563e-05 3.90625e-05 0.000151367 0.000158691 0.000231934 0.000239258 0.000200195 2.44141e-06 2.44141e-06 0.000212402 3.41797e-05 0.000197754 0.000107422 7.08008e-05 3.90625e-05 0.00015625 0.00012207 0.000241699 0.000231934 9.76563e-05 0.000200195 9.0332e-05 0.00017334 0.000241699 6.83594e-05 0.000153809 1.46484e-05 6.83594e-05 5.37109e-05 9.27734e-05 0.000178223 0.000234375 0.000227051 7.56836e-05 1.95313e-05 6.5918e-05 0.000146484 2.44141e-05 0.000100098 0.000185547 3.66211e-05 0.000119629 0.000112305 2.92969e-05 9.27734e-05 1.95313e-05 0.000178223 0.000163574 0.000229492 8.78906e-05 0.000195313 0.000222168 0.000136719 6.10352e-05 0.000197754 0.000119629 0.00012207 0.00013916 0.000241699 1.2207e-05 0.000231934 5.37109e-05 0.000129395 0.000219727 0.000144043 0.000129395 0.000180664 0.000112305 0.000129395 0.000144043 0.000239258 0.00010498 9.52148e-05 0.000126953 9.0332e-05 0.000229492 0.000144043 0.000114746 0.000141602 0.000114746 0.000192871 0.000119629 4.15039e-05 0.00020752 0.000166016 7.32422e-05 0.000175781 3.66211e-05 0.000112305 2.92969e-05 4.39453e-05 0.000183105 0.000163574 8.05664e-05 0.000217285 0.000131836 2.92969e-05 5.61523e-05 0.000187988 0.000175781 6.83594e-05 2.19727e-05 5.12695e-05 0.000129395 0.000195313 0.000158691 0.000239258 0.000119629 1.95313e-05 9.76563e-06 0.000200195 0.000214844 0.000166016 0.000161133 0.00010498 0.000100098 0.000214844 0.000241699 0.000146484 1.95313e-05 0.000241699 2.19727e-05 0.000192871 0.000119629 4.88281e-06 7.32422e-05 0.000214844 0.000134277 2.44141e-05 0.000146484 1.2207e-05 0.000224609 0.000175781 0.000136719 9.27734e-05 0.000202637 0.000234375 0.000195313 4.39453e-05 9.76563e-05 0.000202637 0.000185547 0.000200195 0.000183105 0.000107422 0.00017334 0.000161133 0.000212402 0.000131836 0.000129395 0.00012207 9.76563e-06 9.52148e-05 0.000117187 1.70898e-05 2.68555e-05 0.000166016 0.000192871 3.41797e-05 5.12695e-05 5.61523e-05 2.44141e-05 5.12695e-05 0.00010498 0.000168457 9.52148e-05 0.000231934 1.95313e-05 0.000219727 0.000100098 0.000136719 0.00010498 0.000197754 0.000153809 4.39453e-05 0.000114746 0.000168457 0.000163574 0.000168457 7.8125e-05 0.00015625 0.000185547 0.000180664 0.000183105 0.000109863 0.000117187 8.30078e-05 7.08008e-05 0.000227051 3.41797e-05 6.10352e-05 0.000109863 0.000178223 8.54492e-05 7.08008e-05 0.000175781 7.32422e-06 0.000234375 9.52148e-05 6.83594e-05 0.00012207 0.00010498 0.000119629 0.000192871 0.000163574 8.05664e-05 2.19727e-05 0.000107422 5.37109e-05 0.000183105 0.000109863 0.000231934 0.000214844 6.83594e-05 0.000114746 0.000131836 0.000109863 0.000124512 0.000153809 0.000107422 0.000178223 1.2207e-05 0.000163574 2.19727e-05 0.000153809 0.000117187 1.46484e-05 0.00017334 0.000141602 2.44141e-06 7.8125e-05 1.70898e-05 0.000195313 0.00017334 9.0332e-05 0.000114746 0.000166016 0.000141602 0.000153809 0.000239258 0.000151367 9.52148e-05 0.000141602 9.76563e-05 0.000136719 0 0.00012207 0 0.000124512 3.66211e-05 1.70898e-05 2.68555e-05 8.78906e-05 6.34766e-05 0.000107422 0.000234375 0.000187988 0.000217285 9.76563e-05 1.95313e-05 0.000124512 8.54492e-05 0.000151367 0.000170898 0.000234375 0.000229492 7.32422e-06 5.61523e-05 2.68555e-05 3.17383e-05 3.41797e-05 0.000170898 8.54492e-05 0.000134277 2.68555e-05 0.000185547 8.30078e-05 6.34766e-05 0.000200195 0.000170898 0.000136719 5.12695e-05 0.000129395 0.000153809 2.44141e-05 0.000131836 4.15039e-05 2.68555e-05 0.000124512 2.44141e-05 0.000209961 0 0.000146484 0.00019043 0.000114746 0.000166016 8.30078e-05 4.88281e-06 9.76563e-06 0.000153809 0.000141602 0.000107422 0.000202637 3.66211e-05 7.8125e-05 7.32422e-06 0.000126953 0.000219727 5.12695e-05 8.78906e-05 0.000166016 2.68555e-05 8.30078e-05 2.44141e-06 0.000229492 2.44141e-05 0.000136719 0.000166016 9.27734e-05 5.85937e-05 8.05664e-05 0.000134277 3.17383e-05 9.27734e-05 0.000161133 0.000119629 0.000205078 0.000200195 0.00010498 8.54492e-05 0.00017334 0 0 0.000158691 0.00124777 0.000991034 -0.00268277 -0.0109497 0.000864538 -0.00328528 -0.00352302 0.00628978 0.00296917 0.00420598 0.0134389 -0.0398772 0.00934331 -0.0577523 0.00616779 -0.00126463 0.0101812 0.0323877 0.00341382 -0.00193984 0.00796421 0.00170323 -0.00387136 0.0244917 -0.0119458 -0.00419919 -0.00623541 0.00470248 0.0558805 0.0142126 -0.00261957 -0.000226278 -0.0308551 -0.0349 -0.000682941 0.00953738 -0.0079913 -0.00721766 0.0287562 -0.00305068 -9.61348e-05 -0.00642103 -0.0037309 0.000995911 0.00795076 -0.0101638 0.00961098 -0.00167692 -0.0033345 -0.000932117 0.00495912 -0.00101739 0.00158993 4.90532e-05 -0.00134508 0.00583354 -0.000572463 0.0130206 0.00582549 -0.00152646 0.000232015 0.00473931 0.000640981 -0.000393759 0.0041637 0.00470724 0.00615227 -0.0330794 0.00370607 0.00389851 0.0663723 0.0169121 0.0109266 0.0161089 0.0337089 -0.122758 0.0246987 -0.177798 0.00743241 -0.0150451 0.030838 0.0979022 0.00415807 -0.00648617 0.0226804 -0.00285038 -0.0127291 0.0776909 -0.0325437 0.00482274 0.0299723 0.0167544 0.169038 0.0395793 -0.0167921 -0.00164785 -0.0980579 -0.16616 -0.00217073 0.0306665 -0.0446103 -0.0244931 0.0815341 -0.0121553 -0.000952325 -0.0204998 -0.0198357 0.00451605 -0.0812261 -0.0306714 0.0287573 -0.00607898 0.00445669 -0.00456053 0.00969516 -0.00633631 0.00550213 -6.48669e-07 -0.00323654 0.0145617 -0.00198189 0.0370634 0.0144578 -0.00210736 -0.000208518 0.0139785 0.00359222 0.000569075 0.00607307 0.00811425 0.0294305 -0.0368021 0.00562599 0.0256407 0.193315 0.0154014 0.0152267 0.0227518 0.0263517 -0.139143 0.0229689 -0.200566 -0.00860336 -0.033104 0.0348031 0.107903 -0.00433327 -0.00789149 0.0232559 -0.0146739 -0.0152075 0.0916027 -0.0296036 0.0332495 0.108781 0.022947 0.186646 0.0389723 -0.0320646 -0.00260617 -0.115428 -0.276647 -0.0015823 0.0376348 -0.0805179 -0.0310419 0.0816315 -0.0167927 -0.00130974 -0.0245029 -0.0346426 0.00794881 -0.252906 -0.0327511 0.0316856 -0.00800866 0.0275555 -0.00727901 0.00229655 -0.0116097 0.00783713 -0.000298753 -0.00212662 0.0122542 -0.00203298 0.0377409 0.0107165 0.00236169 -0.000933626 0.0151208 0.00696041 0.00352821 0.00495633 0.0056358 0.0097879 -0.0376889 0.00454485 0.00697757 0.0908013 0.0186205 0.0125905 0.0188823 0.0368361 -0.140181 0.0275794 -0.202751 0.00613458 -0.0193327 0.0353667 0.111493 0.00354385 -0.00740931 0.0254997 -0.00466255 -0.0147631 0.0890986 -0.0362192 0.00898026 0.0436835 0.0196142 0.192267 0.0444006 -0.0208467 -0.00205739 -0.11267 -0.200722 -0.00238952 0.0354558 -0.0546329 -0.0284547 0.0916999 -0.0141685 -0.00112108 -0.0236456 -0.0243125 0.0056188 -0.113026 -0.0347277 0.0326413 -0.00703683 0.00802705 -0.00532613 0.00997143 -0.00783716 0.00657778 -0.000140418 -0.00362724 0.0161213 -0.00204406 0.0418598 0.0156023 -0.0017408 -0.000281772 0.0156665 0.00438584 0.00101076 0.0172247 0.0139005 -0.0144748 -0.0583841 0.0199274 0.00837794 -0.00518139 0.105006 0.0198932 -0.328929 0.0825183 -0.155357 0.0501463 -0.245912 0.174338 -0.026606 0.054204 0.140057 -0.0121206 0.0409349 0.151607 0.042294 -0.0632134 0.089674 -0.0540727 0.00926361 -0.114111 -0.000895212 0.208442 0.0979237 -0.0340033 -0.0543752 -0.155148 -0.16955 -0.00202757 0.0519222 -0.0448173 -0.0710308 0.123813 -0.0284148 -0.084453 -0.0846357 0.00807302 0.00882112 0.0585579 -0.0110039 0.0532638 -0.112482 0.000218194 -0.141013 -0.0300922 -0.00463894 -0.134219 -0.0203537 -0.00345588 0.0654882 -0.00230347 0.0940765 0.0242788 0.032002 0.0162623 0.196925 0.00832738 -8.83491e-05 -0.0297141 0.0345564 -0.00847175 -0.0596871 0.0246951 0.0535489 0.0540331 0.231795 0.00651189 -0.400249 0.114757 -0.172431 0.0824576 -0.296407 0.354552 -0.041967 0.0607116 0.364639 -0.037397 0.120203 0.388294 0.141188 -0.0398895 0.0439103 -0.0555883 0.0640644 0.0539681 -0.0375848 0.198136 0.162033 -0.0520563 -0.0683114 -0.154022 -0.267561 0.00283217 -0.0254816 -0.0816984 -0.147845 0.111603 -0.0622678 -0.0747697 -0.0956391 0.163133 -0.0851129 0.0712647 0.00828772 0.0626959 -0.448761 0.027855 -0.429378 -0.0795398 -0.0124154 -0.097604 -0.0509821 0.00229239 -0.0718956 0.00598835 0.118015 0.0115125 0.0432047 0.0297693 0.288945 0.0262816 -0.0374248 -0.113201 0.0306303 -0.0108275 -0.0731729 -0.0129357 -0.00857908 0.0428618 0.300763 -0.032422 -0.465737 0.0696112 -0.205829 0.08582 -0.345597 0.344055 -0.0173011 0.0421028 0.529128 -0.0274491 0.0886124 0.415405 0.145024 -0.0750997 -0.00572134 -0.0890976 -0.00208197 -0.111429 -0.0340834 0.191679 0.208083 -0.0246025 -0.0701703 -0.172776 -0.275325 0.000666826 -0.0955729 -0.0854304 -0.119691 0.136922 -0.0567466 -0.0811554 -0.10499 0.249559 -0.161917 0.0402994 -0.0423215 0.0513296 -0.52371 -0.00175667 -0.422842 0.0651086 -0.035632 -0.12488 -0.0476178 -0.00286561 -0.067014 0.00294869 0.195924 0.0490467 0.0390066 0.00539004 0.297781 0.0228731 -0.0647037 -0.138916 0.0139107 -0.0200605 -0.0822248 -0.0358428 -0.0663053 -0.0127934 0.287315 -0.0420009 -0.466679 0.019091 -0.223294 0.0679153 -0.354879 0.208167 0.00368882 0.0252763 0.519991 -0.00680487 0.0346278 0.254005 0.0617425 -0.109657 -0.0141407 -0.107405 -0.065111 -0.27554 -0.0099041 0.189778 0.201389 -0.000438088 -0.0684901 -0.189779 -0.193459 -0.00847662 -0.114726 -0.0549035 -0.0799213 0.158417 -0.0340301 -0.0987473 -0.109757 0.216681 -0.176869 0.0163553 -0.0772977 0.037149 -0.343255 -0.0340143 -0.189104 0.148893 -0.0376259 -0.169211 -0.0265049 -0.0132446 0.0699602 -0.00585056 0.225561 0.0670871 0.0289782 -0.0151587 0.260318 0.00697275 -0.0681366 -0.113057 0.0134204 -0.0395438 -0.0389892 -0.00542947 -0.0285528 -0.0201853 0.250585 -0.0139636 -0.412684 0.0384935 -0.22041 0.0153171 -0.3412 0.161489 -0.003472 0.00530357 0.444896 0.0230922 0.084243 0.119826 -0.0188655 -0.0221696 0.00641223 -0.0836591 -0.031531 -0.204123 0.0278027 0.169046 0.158399 -0.0484103 -0.0826681 -0.172512 -0.128132 -0.0240892 -0.109379 -0.0239895 -0.086033 0.0947879 -0.0281158 -0.10879 -0.115346 0.149619 -0.155045 0.0455824 -0.0352288 0.022139 -0.189633 -0.0493233 0.0115522 0.0616606 -0.0312418 -0.183773 0.0520627 -0.0278772 0.168686 -0.0413647 0.220768 0.0605522 0.0208418 0.0176679 0.244328 -0.0031353 -0.0896211 -0.0747224 0.014006 -0.0391336 -0.0299571 0.00850366 -0.0128762 -0.0151985 0.200925 -0.000113267 -0.393877 0.0559477 -0.203409 0.00671157 -0.313752 0.161297 -0.00959959 0.0108931 0.342442 0.0249738 0.0850844 0.0993979 -0.0208466 -0.00757902 0.0338781 -0.0715893 -0.0178709 -0.190867 0.0339276 0.173145 0.131975 -0.0592989 -0.081155 -0.163946 -0.128006 -0.0224564 -0.061209 -0.0231046 -0.0743121 0.0832824 -0.0258059 -0.108446 -0.11152 0.0928576 -0.100421 0.0576538 -0.0200179 0.0252874 -0.131854 -0.0453031 0.0192914 0.0299643 -0.0270417 -0.184359 0.0609387 -0.0256817 0.162474 -0.0437545 0.196951 0.0573123 0.0227124 0.0269983 0.231198 -0.00275094 -0.0725142 -0.0241419 0.0230444 -0.0467888 -0.0228082 0.0256532 -0.0079659 -0.020318 0.168751 0.00840356 -0.335997 0.0731426 -0.293802 0.0431017 -0.320758 0.153911 -0.0135396 0.0243537 0.259553 0.0383116 0.0711887 0.0928959 -0.00510225 -0.00726372 0.0680618 -0.197957 -0.0314305 -0.190223 0.0408235 0.18776 0.125184 -0.0638441 -0.0719705 -0.161494 -0.115913 -0.0229589 0.0385236 -0.0132908 -0.0526243 0.0815809 -0.0165422 -0.102027 -0.101666 0.0416537 -0.0515842 0.0617601 -0.00205353 0.0259347 -0.0578432 -0.0516178 0.0185719 0.0076383 -0.0699613 -0.171021 0.0626514 0.0125911 0.186061 -0.0467635 0.222126 0.0257889 0.0209278 0.0293014 0.198344 0.00395461 -0.0293726 0.0122258 0.0325254 -0.0316938 -0.0222346 0.0417107 0.00526784 -0.0241197 0.154188 0.0168835 -0.24806 0.0962181 -0.397731 0.0787128 -0.350545 0.173689 -0.0198492 0.0240528 0.212424 0.0531514 0.0628904 0.0938664 0.00972847 0.0124375 0.0851278 -0.338219 -0.0240737 -0.169162 0.0412597 0.165414 0.12926 -0.0784091 -0.103917 -0.103587 -0.102039 -0.0271676 0.125952 -0.0069515 -0.0354438 0.0805774 -0.0120577 -0.094759 -0.0949551 0.00958582 -0.0231767 0.0686672 0.0139144 0.0162609 0.00345472 -0.0615793 0.00289925 -0.0235598 -0.127551 -0.148686 0.0554619 0.0542143 0.160845 -0.0516504 0.259116 -0.0103231 0.0149004 0.019015 0.175746 0.00859694 0.0127861 0.00656525 0.0326502 0.0182924 -0.0269696 0.0502915 0.0395654 -0.0129256 0.150888 0.0292743 -0.180598 0.124153 -0.385635 0.0562994 -0.370781 0.23653 -0.0300952 -0.00447542 0.208555 0.0564376 0.0831562 0.0916425 0.00105863 0.0743239 0.0674604 -0.320994 0.0396578 -0.109004 0.0328099 0.0872372 0.125853 -0.113203 -0.192583 0.0219929 -0.101773 -0.0334138 0.121951 -0.0157607 -0.0403454 0.0660998 -0.0219166 -0.0944048 -0.101045 0.00688641 -0.0252215 0.0868667 0.0231549 -0.00271739 0.013986 -0.064816 -0.0177783 -0.0712903 -0.143495 -0.134005 0.0494807 0.0524945 0.0457894 -0.0589386 0.255509 -0.0146248 0.0073376 0.00377256 0.194452 0.00254131 0.0143614 0.00449248 0.0304086 0.0319904 -0.0381968 0.0457978 0.0367858 -0.0174297 0.150837 0.0287042 -0.16955 0.122188 -0.383338 0.0612319 -0.374869 0.238628 -0.0303752 -0.0062635 0.20865 0.0517491 0.0720691 0.0920915 0.00278627 0.0657127 0.0625228 -0.321693 0.0442271 -0.113401 0.0253594 0.0757448 0.129372 -0.108769 -0.207619 0.0437491 -0.100939 -0.0326716 0.122192 -0.0189494 -0.0397227 0.078328 -0.0226539 -0.0936685 -0.100664 0.0084999 -0.0274528 0.0836084 0.0163931 -0.00420005 0.0173008 -0.0628714 -0.0300043 -0.0678676 -0.145068 -0.130288 0.0321093 0.0540343 0.022456 -0.0530585 0.250528 -0.0170513 0.00633477 -0.0077033 0.195556 0.00144419 0.0214079 0.00384538 0.0277115 0.0263076 -0.043693 0.0366772 0.019907 -0.0256598 0.149581 0.0213005 -0.189229 0.101909 -0.368248 0.072504 -0.344853 0.21058 -0.0254306 -0.000185491 0.196103 0.0439194 0.0516455 0.0900388 0.00822913 0.0301772 0.0539371 -0.324807 0.022797 -0.142773 0.0183993 0.0731162 0.128419 -0.0867385 -0.184593 0.0256676 -0.0849944 -0.0286818 0.120147 -0.0150254 -0.0334491 0.0858526 -0.0177079 -0.0932253 -0.0943624 0.0135349 -0.029184 0.0683272 0.00895293 -0.00152349 0.0172329 -0.0578108 -0.033915 -0.0446895 -0.139297 -0.133017 0.0152233 0.0576318 0.0453709 -0.0427135 0.240917 -0.0202899 0.00930895 -0.0136669 0.186517 0.00281607 0.0288943 -0.000965858 0.0174363 -0.0127966 -0.0481728 0.0151634 -0.0221924 -0.0476692 0.14003 -0.00310726 -0.264977 0.0495237 -0.345131 0.0847189 -0.277973 0.135211 -0.00443581 0.00982475 0.160857 0.0412743 0.00846956 0.0781344 0.0163522 -0.0601892 0.0311797 -0.340955 -0.0720485 -0.206626 0.0213737 0.0776526 0.119947 -0.034074 -0.117256 -0.0692358 -0.0575168 -0.0260713 0.110531 -0.00839462 -0.0270718 0.175196 0.00296889 -0.107346 -0.0880706 0.0153529 -0.0375826 0.0229204 -0.00283887 -0.00138536 0.0576433 -0.0551065 0.069041 -0.0385204 -0.12425 -0.153676 0.0101367 0.0344878 0.131873 -0.0336726 0.206496 -0.0329619 -0.00344815 -0.0190977 0.150302 -0.0112264 0.0284258 -0.0124591 0.00294214 -0.0536915 -0.052474 -0.0090717 -0.0620732 -0.0720917 0.0310145 -0.0323264 -0.300486 -0.00600994 -0.31906 -0.0207544 -0.207322 0.0813177 0.0219601 0.014467 0.112045 0.0455319 -0.0332493 0.0580459 0.0258677 -0.102726 -0.0612164 -0.358111 -0.169872 -0.234421 0.030843 0.0549093 0.166102 -0.0098368 -0.0670165 0.35882 -0.0295549 -0.0307016 0.0537839 -0.00657126 -0.0267764 0.246432 0.0369589 -0.148043 -0.0869812 0.0107246 -0.0568661 -0.0277109 -0.00777945 -0.0129194 0.113144 -0.0606161 0.208729 -0.0499071 -0.182143 -0.17973 0.01683 0.0426288 0.155435 -0.0344355 0.06531 -0.085812 -0.000978493 -0.0296508 0.109 -0.0435096 0.0191037 -0.0207859 -0.00340891 -0.0576502 -0.0498717 -0.0169808 -0.0664649 -0.0763052 -0.102635 -0.0427926 -0.261556 -0.0255976 -0.290894 -0.169938 -0.163256 0.0930033 0.0305086 0.00829275 0.0761729 0.0479926 -0.0406628 0.0442332 0.0272794 -0.0617744 -0.15686 -0.355552 -0.181618 -0.206908 0.033202 -0.00186019 0.212967 -0.0363803 -0.074184 1.04594 -0.00567571 -0.036501 -0.013043 -0.00642573 -0.0273756 0.213485 0.0571906 -0.180569 -0.0874868 0.00714194 -0.0717077 -0.0446042 -0.000351621 -0.0289232 0.127902 -0.0665662 0.245645 -0.0511238 -0.257537 -0.188683 0.0226323 0.0751335 0.0914697 -0.0406232 -0.0558653 -0.138433 0.0223809 -0.0376093 0.0963283 -0.0661344 0.0126732 -0.021606 -0.00377439 -0.0586765 -0.0509531 -0.0178766 -0.067384 -0.0771847 -0.133967 -0.0436954 -0.251737 -0.0264671 -0.29183 -0.202095 -0.164101 0.0980791 0.030779 0.0100093 0.0751402 0.048136 -0.0416535 0.0431589 0.0260202 -0.0557596 -0.167337 -0.356464 -0.183377 -0.20675 0.0336641 -0.00293491 0.212189 -0.0449417 -0.0751381 1.2057 -0.00658308 -0.0374957 -0.0271105 -0.00741848 -0.028292 0.209935 0.0597208 -0.18721 -0.0885055 0.00602874 -0.0743588 -0.0456479 -0.00179486 -0.0299811 0.126613 -0.0678896 0.246008 -0.0408827 -0.262857 -0.189723 0.0228326 0.0742986 0.0826501 -0.0414678 -0.0591651 -0.146817 0.0288495 -0.0385798 0.0955786 -0.0709203 0.0117234 -0.0211315 -0.00386906 -0.0572681 -0.0473564 -0.0179841 -0.0644547 -0.0736086 -0.143776 -0.0439152 -0.20346 -0.0270567 -0.288515 -0.203045 -0.157605 0.0882268 0.0318149 0.00885811 0.0730424 0.0495439 -0.0428045 0.0389923 0.0273112 -0.0455915 -0.167158 -0.352964 -0.180547 -0.177296 0.0339311 -0.00435184 0.20595 -0.0439139 -0.0680659 1.21329 -0.00646789 -0.0368078 -0.0286319 -0.00745158 -0.0264839 0.204736 0.060231 -0.174208 -0.0793971 0.00611612 -0.0742998 -0.0474043 -0.00193261 -0.0314265 0.126598 -0.0666389 0.246348 -0.0434191 -0.262215 -0.166311 0.0237825 0.0750706 0.0658322 -0.0406592 -0.068931 -0.149373 0.024388 -0.0387923 0.073852 -0.0705125 0.0116686 -0.0196627 -0.0039759 -0.0539128 -0.0384359 -0.0183361 -0.0574298 -0.0649172 -0.168583 -0.0443262 -0.0820005 -0.0279263 -0.280042 -0.205331 -0.141754 0.0629775 0.0340593 0.00615398 0.0673473 0.053067 -0.0460369 0.0283342 0.0304736 -0.0202734 -0.16647 -0.34459 -0.173474 -0.103516 0.0344365 -0.00795398 0.190806 -0.0412132 -0.0500972 1.23286 -0.00657527 -0.0354454 -0.0323462 -0.00762043 -0.0216314 0.191851 0.060869 -0.141558 -0.0570478 0.0058671 -0.0746628 -0.0523633 -0.00200892 -0.0350845 0.126129 -0.0632726 0.247293 -0.0495149 -0.260479 -0.107502 0.0263316 0.0765705 0.0236737 -0.0388155 -0.0933808 -0.156163 0.0133641 -0.0395549 0.0199243 -0.0695929 0.0111342 -0.0177484 -0.00412803 -0.0488579 -0.0254655 -0.0187606 -0.0468763 -0.0519539 -0.2053 -0.0450691 0.0985691 -0.0294781 -0.267307 -0.208763 -0.118077 0.0253676 0.037522 0.00213448 0.0588401 0.0583495 -0.0509712 0.012291 0.035488 0.0175217 -0.165386 -0.331939 -0.163154 0.00639548 0.0353899 -0.013087 0.168021 -0.0374109 -0.0235549 1.26161 -0.00648649 -0.0334559 -0.0380131 -0.0076999 -0.0147809 0.172887 0.062029 -0.0930615 -0.0237932 0.00551013 -0.0751924 -0.0596456 -0.00222219 -0.0407254 0.125497 -0.0581895 0.248785 -0.0587645 -0.258164 -0.0200888 0.0299599 0.0787512 -0.0391165 -0.0360435 -0.129856 -0.166136 -0.0034198 -0.0404865 -0.0605206 -0.0679945 0.0107717 -0.0173585 -0.00439265 -0.0478459 -0.0227285 -0.018886 -0.0446847 -0.0493601 -0.212894 -0.0452434 0.134779 -0.0297239 -0.264842 -0.209508 -0.113238 0.0176958 0.0381263 0.00126588 0.0571908 0.0594894 -0.0518626 0.00909648 0.0365235 0.0251821 -0.165172 -0.329647 -0.161073 0.028664 0.0354776 -0.0141336 0.163465 -0.0366141 -0.0181254 1.2676 -0.00653069 -0.0330475 -0.0390741 -0.00781028 -0.0133369 0.168989 0.0621858 -0.0832871 -0.0170448 0.00545584 -0.0751857 -0.0610596 -0.00224257 -0.0419271 0.12518 -0.0571322 0.249195 -0.0603806 -0.257712 -0.00251094 0.0306346 0.0791922 -0.0516757 -0.0354557 -0.137151 -0.168102 -0.00683704 -0.0406287 -0.0767084 -0.0678136 0.0105228 -0.0172242 -0.00438044 -0.0480144 -0.0227237 -0.0187322 -0.0448141 -0.0491941 -0.212943 -0.0451799 0.134705 -0.0296458 -0.264967 -0.209605 -0.113226 0.0177813 0.0382117 0.00124635 0.0573568 0.0593453 -0.0518333 0.00909159 0.0365332 0.0251039 -0.165204 -0.329521 -0.161056 0.0285005 0.0356534 -0.0141898 0.16358 -0.0365628 -0.0181938 1.2675 -0.00633782 -0.0330475 -0.0391181 -0.00779075 -0.0134052 0.168955 0.0621419 -0.0832578 -0.0169837 0.00543875 -0.0751857 -0.0610279 -0.00228896 -0.0417855 0.125271 -0.057015 0.249104 -0.0606101 -0.25789 -0.00245235 0.030576 0.0790311 -0.0516537 -0.0353483 -0.137148 -0.168112 -0.00674915 -0.0405847 -0.0766596 -0.0677867 0.0106742 -0.0172022 -0.00439753 -0.0479265 -0.0228579 -0.0187664 -0.0446969 -0.0492795 -0.212809 -0.0450847 0.134723 -0.0296043 -0.264959 -0.209617 -0.113087 0.0178594 0.0382947 0.00140015 0.0573397 0.0595553 -0.0518871 0.0090623 0.0363965 0.0251601 -0.165365 -0.329435 -0.161008 0.0285981 0.0355045 -0.0141239 0.163512 -0.0364359 -0.0181474 1.2676 -0.00649407 -0.0329597 -0.0392914 -0.00776389 -0.0134028 0.16904 0.0621541 -0.0831235 -0.0170496 0.00537039 -0.0751881 -0.0610669 -0.00206679 -0.0418124 0.125271 -0.0571298 0.249053 -0.0604978 -0.257707 -0.00267452 0.0305785 0.0791239 -0.0518026 -0.0353336 -0.13719 -0.168276 -0.00678089 -0.0405359 -0.0765986 -0.0678502 0.0106253 -0.0179537 -0.0105956 -0.0495404 -0.0237435 -0.0197338 -0.0462111 -0.0506105 -0.2135 -0.0469729 0.132676 -0.031591 -0.265852 -0.221614 -0.11469 0.0167674 0.0386257 0.000126259 0.0561964 0.0598819 -0.0528074 0.00844136 0.0354735 0.0659232 -0.159371 -0.331072 -0.152923 0.0330365 0.0358558 -0.0153633 0.175937 -0.0349451 -0.0188572 1.26008 -0.0116806 -0.0340519 -0.0398653 -0.0176707 -0.0144128 0.170215 0.0624886 -0.110582 -0.0178888 0.00449979 -0.0762407 -0.0623834 3.97394e-06 -0.0433406 0.119222 -0.0580137 0.239387 -0.00788886 -0.257156 -0.00375525 0.0311115 0.0737787 -0.0236901 -0.0365121 -0.174706 -0.168531 -0.0295667 -0.0425129 -0.100516 -0.0692482 0.00998481 -0.0195032 -0.0240404 -0.0527468 -0.0260326 -0.0213928 -0.0493109 -0.0534491 -0.215124 -0.0504527 0.127738 -0.0352932 -0.268204 -0.247192 -0.117677 0.0147546 0.0391337 -0.00216318 0.0539245 0.060786 -0.0548086 0.00716788 0.0335686 0.152037 -0.147196 -0.334268 -0.135798 0.0425217 0.0367249 -0.0174855 0.202097 -0.0312406 -0.0200429 1.24438 -0.0229699 -0.0360975 -0.0412279 -0.038624 -0.0167691 0.173201 0.0629697 -0.167886 -0.0197315 0.00297712 -0.0779217 -0.0650844 0.00480704 -0.0464233 0.106552 -0.0602407 0.21936 0.103021 -0.25614 -0.00597979 0.0317763 0.0629534 0.0350528 -0.0385968 -0.253325 -0.169172 -0.0779079 -0.0460984 -0.150841 -0.0727909 0.00884556 -0.0200662 -0.0245673 -0.0519113 -0.0261694 -0.0218864 -0.0489101 -0.0528684 -0.217054 -0.0501111 0.125315 -0.0354153 -0.260738 -0.249857 -0.115072 0.0147185 0.0390407 -0.00240656 0.0511211 0.0599474 -0.054507 0.00604246 0.0324981 0.152353 -0.147309 -0.32519 -0.134214 0.042752 0.0364502 -0.0177316 0.200424 -0.0312572 -0.0204809 1.2446 -0.0238738 -0.0357431 -0.0439788 -0.0392584 -0.0171217 0.172836 0.062722 -0.168359 -0.0200277 0.00187345 -0.0769659 -0.0647089 0.00459268 -0.0459977 0.10616 -0.0594666 0.219725 0.102548 -0.252992 -0.00675004 0.0318175 0.0606099 0.0331722 -0.0382706 -0.257191 -0.167258 -0.0777415 -0.045923 -0.149746 -0.0732049 0.00751524 -0.0297011 -0.0340509 -0.0279302 -0.0305825 -0.0293059 -0.0305942 -0.0360491 -0.271685 -0.0346226 0.0527381 -0.034063 -0.0305502 -0.314317 -0.0307693 0.0178078 0.0337029 -0.00984006 -0.0289796 0.0297186 -0.0421044 -0.0282641 0.00182643 0.0926203 -0.160993 -0.0377471 -0.0972685 0.0442176 0.0289656 -0.0291211 0.13293 -0.0372907 -0.03005 1.2672 -0.0385613 -0.0260247 -0.127151 -0.0425487 -0.0295053 0.165387 0.0512587 -0.134936 -0.0273051 -0.0291632 -0.0436804 -0.0511108 -0.00913453 -0.0334099 0.10875 -0.0313883 0.246586 -4.00441e-05 -0.152607 -0.0335058 0.0293241 -0.00168727 -0.0761381 -0.0266732 -0.311311 -0.112164 -0.0311753 -0.034931 -0.0786652 -0.0834013 -0.0295826 -0.0288083 -0.0309387 -0.0261829 -0.0291844 -0.0282325 -0.0286525 -0.032999 -0.271836 -0.0325844 0.0577997 -0.0320137 -0.0294199 -0.303779 -0.0327109 0.0150228 0.0333184 -0.0112683 -0.0277506 0.0290717 -0.0409756 -0.0276399 0.00265807 0.0379319 -0.16631 -0.0359167 -0.106013 0.0382251 0.028586 -0.0280182 0.118661 -0.0248522 -0.0295103 1.27275 -0.0313459 -0.0248236 -0.135239 -0.0219625 -0.0281922 0.163723 0.0509675 -0.0966589 -0.0263279 -0.0280286 -0.0427227 -0.0494899 -0.0104565 -0.0316344 0.117653 -0.030271 0.248928 -0.068004 -0.152678 -0.0320182 0.0290041 0.00545961 -0.115453 -0.0254545 -0.257538 -0.112052 -0.00796878 -0.0328458 -0.0444898 -0.0839297 -0.0288957 -0.0305078 -0.0730812 -0.0285994 -0.0310286 -0.0301357 -0.0311902 -0.02536 -0.281224 -0.0353389 0.0702972 -0.0348761 -0.0315371 -0.353271 -0.0610353 -0.0137516 0.033448 -0.0334031 -0.0287621 0.0300622 -0.042747 -0.0293343 -0.000622065 0.0701522 -0.143723 -0.0384631 -0.0860216 0.0421533 0.0296164 -0.0298033 0.144992 0.0785566 -0.0309342 1.23611 -0.0338966 -0.0267584 -0.199334 0.021226 -0.0302449 0.164459 0.0515608 -0.106532 -0.0281063 -0.0297896 -0.0463502 -0.0517103 0.00338319 -0.0340736 0.118573 -0.0322121 0.16832 -0.0110356 -0.146771 -0.0339655 0.0297648 0.00368569 -0.106951 -0.0274715 -0.260507 -0.112934 -0.0782743 -0.0356893 -0.0463419 -0.104753 -0.0303245 -0.0318309 -0.10881 -0.0307386 -0.0324374 -0.0316246 -0.0332345 -0.0190928 -0.289159 -0.0376619 0.0809581 -0.0375535 -0.0332725 -0.395325 -0.0849345 -0.0382983 0.0336908 -0.0522891 -0.0296288 0.0306137 -0.0442778 -0.0305584 -0.00352476 0.0974575 -0.124515 -0.0405124 -0.0689391 0.0455508 0.0302582 -0.0314798 0.167115 0.166551 -0.0323082 1.205 -0.0360276 -0.0281671 -0.253602 0.0577964 -0.0320164 0.165072 0.0519227 -0.114976 -0.0297732 -0.0313818 -0.0492492 -0.0534677 0.0151446 -0.0360747 0.119195 -0.0337514 0.0998193 0.0375365 -0.141716 -0.0358567 0.0307358 0.00216677 -0.0999439 -0.0291937 -0.262827 -0.11393 -0.137901 -0.0382775 -0.0482622 -0.122368 -0.031681 -0.0327306 -0.116107 -0.0348648 -0.0318151 -0.03368 -0.034945 -0.0175651 -0.296582 -0.0376042 0.0871158 -0.0381471 -0.0254812 -0.409299 -0.090107 -0.047897 0.0340031 -0.0580361 -0.0295404 0.0306011 -0.0458168 -0.0428842 -0.00123964 0.105955 -0.11841 -0.0367563 -0.0655146 0.0420066 0.0306404 -0.0347269 0.174526 0.196486 -0.0339488 1.19515 -0.0330067 -0.0291676 -0.271646 0.0779198 -0.0336292 0.164509 0.0523166 -0.113174 -0.0318765 -0.0253595 -0.0474903 -0.0573998 0.0171741 -0.0357166 0.119378 -0.034904 0.0766239 0.0492839 -0.140071 -0.0490792 0.0310076 0.000798208 -0.0989571 -0.0299852 -0.265676 -0.112855 -0.158188 -0.0355349 -0.050352 -0.11522 -0.0307019 -0.0348752 -0.0828208 -0.0581981 -0.0238252 -0.0425043 -0.0419058 -0.0219229 -0.33061 -0.0320104 0.104181 -0.0373576 0.0324098 -0.405878 -0.0684167 -0.0576934 0.0356515 -0.0538908 -0.0267348 0.0274022 -0.0521131 -0.126044 0.0177463 0.0962595 -0.113035 -0.00609728 -0.0814086 0.00283026 0.030429 -0.0529532 0.15448 0.198364 -0.0413276 1.19041 -0.00635402 -0.030788 -0.269053 0.132619 -0.0414285 0.167277 0.0516731 -0.0818395 -0.043364 0.0190093 -0.0271329 -0.0798206 0.00197995 -0.0269819 0.11715 -0.0378947 0.0741189 0.0246008 -0.123152 -0.138159 0.0301827 -0.0178232 -0.102127 -0.0312543 -0.251615 -0.100648 -0.161033 -0.0100602 -0.0608635 -0.0250485 -0.0194939 -0.0339982 -0.040934 -0.0753716 -0.0148406 -0.0478617 -0.0451111 -0.0259268 -0.324698 -0.0246449 0.0977956 -0.0336921 0.0841603 -0.347792 -0.0399388 -0.061791 0.0342537 -0.0448634 -0.0221976 0.0230354 -0.0549146 -0.194262 0.0287823 0.0550173 -0.0801297 0.022817 -0.102464 -0.050652 0.0275444 -0.0660349 0.0764513 0.177032 -0.0449558 1.01175 0.0186693 -0.0299434 -0.233859 0.168673 -0.0454262 0.193291 0.0452495 -0.044914 -0.0516068 0.0593658 -0.00506398 -0.0963399 -0.0184817 -0.0170274 0.11382 -0.0373078 0.0911936 -0.0025459 -0.0579197 -0.211362 0.0270822 -0.0706073 -0.0776692 -0.0297883 -0.157794 -0.07133 -0.152778 0.0145431 -0.0680302 0.0594467 -0.00792765 -0.0265512 0.0210104 -0.0738559 -0.00470108 -0.0424919 -0.0383516 -0.0294477 -0.233892 -0.0132799 0.0591856 -0.023835 0.108824 -0.190428 0.00415224 -0.0427466 0.0281479 -0.0197959 -0.0144152 0.0163547 -0.0470513 -0.210354 0.034738 -0.0112177 -0.0480012 0.0414548 -0.115387 -0.0841104 0.0210088 -0.063468 -0.00923976 0.0786419 -0.0392711 0.592517 0.0353308 -0.0230428 -0.11937 0.140936 -0.0394309 0.192765 0.0311319 -0.000644732 -0.0476104 0.0797205 0.0151654 -0.0918161 -0.0376441 -0.00564084 0.0980859 -0.0290771 0.14667 -0.0690779 0.00158566 -0.22822 0.0205677 -0.0991731 -0.043643 -0.0225 -0.0590454 -0.0311529 -0.0874126 0.0316821 -0.0613555 0.125476 0.00270912 -0.0175228 0.0552639 -0.0588484 0.00200563 -0.0313376 -0.0274239 -0.0244709 -0.263057 -0.00415916 0.0804337 -0.0132335 0.101405 -0.197771 0.029536 0.00296091 0.0168528 0.00947215 -0.0077208 0.00548289 -0.031349 -0.178681 0.0323655 0.00260134 -0.0764802 0.0449545 -0.0823874 -0.0700498 0.0114675 -0.0498279 -0.0189882 -0.0366475 -0.02853 0.936301 0.0383172 -0.0156309 -0.0842274 0.0956024 -0.0285724 0.0718743 0.0259246 0.00552313 -0.0357646 0.0753882 0.0167884 -0.0666673 -0.0417639 0.00222807 0.0395465 -0.0214337 0.100387 -0.0434032 -0.0223624 -0.192523 0.00976958 -0.0541052 -0.0685649 -0.0148497 -0.0516843 -0.0390055 0.0115913 0.035442 -0.0409223 0.132348 0.00846718 -0.00480185 0.0270155 -0.0227438 0.00393977 -0.0105051 -0.00876875 -0.00648572 -0.123437 0.0016378 0.0463154 -0.00235301 0.0465309 -0.0963444 0.0155442 0.00708724 0.00335565 0.00801214 -0.000617769 -0.00175413 -0.00862699 -0.0739282 0.0146175 0.0151254 -0.0341464 0.0233493 -0.0175697 -0.0269956 0.00159578 -0.018619 -0.00318831 -0.0234303 -0.00936514 0.483718 0.019814 -0.00437712 -0.040173 0.0440443 -0.00937264 -0.0137678 0.00878702 0.00642831 -0.0126045 0.0352239 0.00946598 -0.022219 -0.0158891 0.00443582 -0.00445235 -0.00700303 -0.000461505 0.00364601 -0.0153468 -0.0792985 0.000343684 -0.0072623 -0.0351849 -0.00405287 -0.0210732 -0.0172901 0.0178925 0.0187474 -0.0115208 0.0635863 0.00663155 9.27734e-05 6.83594e-05 0.00013916 0.000168457 0.000212402 0.000217285 0.000178223 0.00013916 0.000136719 7.08008e-05 0.000112305 1.2207e-05 5.85937e-05 1.2207e-05 1.70898e-05 0.000180664 0.000170898 0.000219727 1.2207e-05 5.61523e-05 0.00017334 0.00019043 0.000239258 7.56836e-05 0.000231934 0.000141602 0.000241699 4.39453e-05 8.05664e-05 9.76563e-06 0.000214844 0.000185547 0.000229492 0.000136719 0.00010498 4.88281e-06 0.000205078 7.32422e-06 3.41797e-05 8.54492e-05 0.000134277 0.00015625 4.15039e-05 0.000112305 0.000236816 0.000119629 0.000134277 6.83594e-05 6.10352e-05 5.12695e-05 3.90625e-05 3.17383e-05 0.000187988 0.000136719 0.000202637 0.000180664 0.000170898 7.32422e-05 4.88281e-05 0.000236816 4.88281e-05 0.000187988 0.000227051 0 0.000187988 9.76563e-05 0.000100098 0.000192871 0.00019043 0.000117187 4.15039e-05 9.0332e-05 0.000148926 0.000141602 0.00019043 4.15039e-05 1.2207e-05 0.000109863 0.000114746 6.10352e-05 0.000241699 3.41797e-05 5.61523e-05 7.32422e-06 0.000187988 0.00020752 0.000148926 6.10352e-05 0.000166016 0.000158691 0.000117187 0.000102539 2.44141e-06 9.52148e-05 0.000227051 0.000231934 0.000146484 5.61523e-05 6.5918e-05 0.00015625 0.000158691 0.000222168 8.05664e-05 3.90625e-05 0.000117187 0.000107422 5.12695e-05 8.30078e-05 5.61523e-05 0.000131836 0.00013916 7.08008e-05 0.000224609 0.000214844 0.000229492 3.90625e-05 0.000126953 9.76563e-05 2.44141e-06 5.37109e-05 9.27734e-05 0.000146484 0.000109863 0.000187988 0.000217285 9.76563e-06 0.000146484 6.10352e-05 1.46484e-05 8.30078e-05 0.00013916 0.000107422 2.92969e-05 3.90625e-05 0.000170898 0.000224609 0.000117187 0.000119629 5.61523e-05 2.44141e-06 0.00017334 0.000114746 0.000151367 0.00017334 8.05664e-05 0.000134277 3.17383e-05 0.000158691 0.000227051 2.19727e-05 0.000227051 0.000163574 0.000231934 0.000100098 0.00015625 0.000200195 0.000175781 9.52148e-05 1.2207e-05 6.34766e-05 0.000175781 0.00017334 9.52148e-05 0.00013916 7.8125e-05 3.90625e-05 0.00010498 0.000129395 0.000209961 7.32422e-05 0.000170898 1.2207e-05 0.000180664 1.95313e-05 8.54492e-05 5.85937e-05 0.000170898 0.000144043 1.95313e-05 3.66211e-05 0.000161133 6.10352e-05 8.30078e-05 0.000170898 8.78906e-05 0.000151367 2.44141e-06 0.000136719 3.41797e-05 0.000109863 8.30078e-05 4.88281e-06 2.44141e-06 5.12695e-05 7.08008e-05 0.000227051 0.000185547 0.000229492 0.000151367 0.000144043 0.000180664 9.0332e-05 8.54492e-05 0.000134277 0.00015625 0.000161133 0.000200195 0.000146484 2.44141e-05 1.2207e-05 0.000231934 0.000205078 9.52148e-05 7.56836e-05 0.00020752 1.2207e-05 5.85937e-05 0.00017334 9.0332e-05 3.90625e-05 3.17383e-05 1.95313e-05 0.000209961 0.000227051 0.000151367 1.2207e-05 7.56836e-05 0.000236816 2.44141e-06 8.30078e-05 0.000170898 9.0332e-05 0.000202637 0.000205078 0.000183105 0.000195313 2.92969e-05 0.000146484 2.19727e-05 4.63867e-05 4.39453e-05 0.000136719 0.000170898 9.76563e-05 0.000227051 3.66211e-05 9.76563e-06 0.000217285 0.000178223 0.00010498 0.000161133 0.000170898 3.90625e-05 0.000222168 8.05664e-05 2.44141e-05 0.000202637 8.05664e-05 8.05664e-05 7.8125e-05 0.000180664 0.00015625 0.000185547 0.000136719 0.000102539 2.68555e-05 0.000136719 0.000151367 0.000163574 2.44141e-05 0.000209961 0.000119629 0.00012207 0.000100098 2.19727e-05 0.000109863 0.000117187 0.00019043 4.15039e-05 9.0332e-05 5.61523e-05 4.15039e-05 8.30078e-05 0.000180664 9.0332e-05 0.000163574 2.92969e-05 8.30078e-05 0.000192871 0.000114746 8.78906e-05 0.000205078 8.78906e-05 0.000217285 0.000131836 0.000205078 4.88281e-06 4.88281e-05 0.000166016 2.44141e-06 0.000117187 0.000187988 4.63867e-05 0.000239258 0.000117187 0.000112305 0.000100098 0.000180664 0.000153809 7.56836e-05 3.66211e-05 9.52148e-05 9.52148e-05 6.83594e-05 7.8125e-05 1.95313e-05 8.78906e-05 0.000209961 6.10352e-05 0.000197754 0.000144043 0.000202637 0.000141602 5.61523e-05 0.000239258 6.83594e-05 0.000187988 0.000227051 9.76563e-05 0.000178223 0.000102539 0.000212402 0.000205078 8.78906e-05 1.70898e-05 4.15039e-05 4.63867e-05 5.12695e-05 9.76563e-05 0.000219727 0.00017334 7.32422e-05 4.15039e-05 0.000119629 2.19727e-05 2.44141e-06 0.00017334 0.000241699 0.000192871 0.000200195 0.000178223 0.00017334 0.000131836 0.00017334 0.000166016 9.27734e-05 0.000119629 0.000178223 4.15039e-05 5.61523e-05 5.61523e-05 0.000236816 0.000236816 6.34766e-05 0.000102539 0.00017334 4.15039e-05 0.000231934 0.000129395 3.41797e-05 0 2.44141e-05 0.000202637 0.000107422 0.000197754 0.000234375 2.92969e-05 0.000141602 0.000187988 9.0332e-05 8.54492e-05 6.5918e-05 0.000224609 0.000231934 0.00020752 0.000168457 3.66211e-05 0.000100098 0.00020752 0.000168457 0.000112305 0.00020752 9.76563e-05 0.000109863 7.56836e-05 0.000192871 8.54492e-05 0.000202637 0.000212402 5.85937e-05 0.00017334 0.000144043 6.5918e-05 9.27734e-05 0.000107422 0.000124512 0.000151367 9.76563e-05 0.000119629 0.000124512 5.12695e-05 0.000214844 0.000212402 0.000185547 0.000114746 0.000192871 0.000163574 0.000158691 7.32422e-05 0.000146484 1.2207e-05 0.000153809 2.44141e-06 0.000236816 1.70898e-05 0.00015625 0.000144043 0.000229492 0.00010498 2.68555e-05 0.000195313 0.00015625 2.92969e-05 6.34766e-05 0.00010498 7.08008e-05 3.41797e-05 2.44141e-05 0.000107422 4.15039e-05 3.66211e-05 0.000141602 0.000144043 0.000185547 0.000205078 0.00013916 8.78906e-05 0.00020752 2.44141e-06 1.2207e-05 0.000146484 0.000114746 0.000219727 0.000214844 0.000205078 0.000100098 0.000231934 0.000151367 0.000109863 9.52148e-05 6.10352e-05 0.000183105 0.000146484 0.00019043 0.000100098 0.000192871 0.000131836 0.000148926 0.000126953 0.000131836 0.000192871 6.34766e-05 6.5918e-05 0.00020752 7.56836e-05 3.66211e-05 6.10352e-05 3.41797e-05 6.10352e-05 0.00019043 0.000124512 0.000163574 8.54492e-05 2.44141e-06 4.63867e-05 0.00012207 7.08008e-05 9.27734e-05 2.44141e-06 2.92969e-05 0.000168457 0.000239258 2.19727e-05 1.70898e-05 0.000222168 9.76563e-06 0.000119629 9.76563e-06 0.000200195 0.000234375 7.32422e-05 0.000158691 4.63867e-05 0.000187988 5.85937e-05 8.54492e-05 0.00013916 7.8125e-05 0.000185547 0.000166016 1.95313e-05 7.32422e-05 7.8125e-05 5.37109e-05 4.88281e-06 0.000192871 0.00020752 8.54492e-05 0.000170898 2.92969e-05 0.000185547 2.92969e-05 0.000222168 0.000112305 1.2207e-05 0.000205078 0.000168457 0.000107422 0.000119629 5.61523e-05 0.000151367 3.66211e-05 0.000227051 8.30078e-05 0.000117187 1.95313e-05 0.000183105 0.000168457 0.000178223 0.00019043 0.000109863 4.39453e-05 0.000202637 0.000107422 5.12695e-05 8.54492e-05 0.000205078 0.000227051 0.000124512 0.000183105 0.000100098 5.37109e-05 8.05664e-05 0.00013916 5.61523e-05 1.95313e-05 0.000131836 0.000148926 0.000219727 7.32422e-06 0.000107422 0.000114746 0.000112305 0.000219727 0.000227051 0.000161133 0.000112305 0 7.8125e-05 3.17383e-05 0.000153809 5.37109e-05 0.000119629 9.76563e-05 2.19727e-05 7.32422e-05 0.000119629 2.44141e-06 0.000153809 8.54492e-05 6.34766e-05 0.000107422 0.000178223 4.88281e-06 9.52148e-05 7.8125e-05 0.00013916 0 0.000114746 7.32422e-06 0.000114746 0.000148926 0.000153809 0.000129395 0.000170898 0.000178223 5.12695e-05 9.52148e-05 0.000151367 0.000168457 2.44141e-05 0.00020752 0.000153809 4.88281e-05 2.92969e-05 5.37109e-05 3.17383e-05 0.000239258 0.000175781 9.76563e-05 0.000151367 0.000217285 0.000209961 0.00015625 0.000151367 0.000200195 0.000124512 5.61523e-05 9.0332e-05 4.39453e-05 1.46484e-05 4.88281e-05 0.000161133 7.08008e-05 0.000141602 1.95313e-05 3.41797e-05 1.95313e-05 0.00019043 3.66211e-05 0.000102539 7.32422e-05 3.41797e-05 2.44141e-06 5.12695e-05 3.90625e-05 0.000236816 0.000158691 0.000217285 0.000158691 1.95313e-05 9.0332e-05 5.12695e-05 5.37109e-05 0.000209961 0.000161133 0.00017334 0.000163574 0.000126953 0.000100098 0.000126953 4.39453e-05 8.54492e-05 4.88281e-06 0.000175781 0.000227051 8.78906e-05 0.000107422 3.41797e-05 5.37109e-05 7.32422e-06 0.000239258 7.56836e-05 0.000100098 0.000163574 0.000166016 9.27734e-05 9.0332e-05 0.000100098 0.000195313 0.000224609 0.000114746 0.000222168 0.000170898 7.8125e-05 0.000136719 0.000124512 0.000144043 0.000151367 0.000148926 0.000202637 6.34766e-05 1.95313e-05 8.54492e-05 0.000183105 4.15039e-05 0.000219727 8.54492e-05 0.000161133 0.000129395 3.41797e-05 0.000234375 0.000109863 8.30078e-05 2.44141e-05 5.85937e-05 6.34766e-05 5.37109e-05 0.000224609 2.44141e-06 0.000222168 5.85937e-05 0.000200195 0.000241699 0.000119629 0.000112305 0.000163574 8.05664e-05 0.000126953 8.30078e-05 0.000239258 0.000183105 9.76563e-05 2.68555e-05 0.000229492 0.000153809 0.000102539 1.70898e-05 0.000102539 0.000195313 7.32422e-06 0.000136719 3.41797e-05 0.000161133 0.000224609 5.12695e-05 0.00020752 1.95313e-05 0.000151367 0.000153809 0.000195313 0.000180664 7.8125e-05 0.000234375 0.000192871 0.000114746 0.00017334 0.000161133 0.000114746 0.000112305 0.000151367 0.000212402 7.32422e-06 5.61523e-05 0.000102539 0.000144043 0.000202637 0.000117187 0.000144043 0.000239258 0.00012207 0.000214844 0.000234375 0.000166016 6.34766e-05 4.88281e-05 0.00017334 7.56836e-05 4.88281e-06 0.00013916 2.92969e-05 0.000126953 0.000124512 3.17383e-05 0.000224609 1.95313e-05 9.52148e-05 0.000197754 0.000236816 0.000224609 0.000180664 0.000102539 0.000234375 0.000239258 0.000168457 0.000202637 0.000170898 0.000229492 0.000227051 4.63867e-05 0.000212402 0.000141602 0.000166016 4.63867e-05 3.90625e-05 8.30078e-05 2.68555e-05 7.32422e-05 0.000209961 2.44141e-05 8.54492e-05 0.000170898 0.000234375 1.95313e-05 0.000231934 0.000141602 4.88281e-06 0.000126953 3.41797e-05 4.88281e-06 0.000151367 3.66211e-05 0.000168457 0.000222168 0.000114746 0.000214844 0.000214844 0.000107422 0.000144043 0.000168457 0.000229492 0.00015625 8.05664e-05 0.000236816 4.39453e-05 9.76563e-05 0.000224609 0.000214844 2.68555e-05 0.000222168 3.66211e-05 0.000214844 0.000219727 0.000129395 0.000236816 0.000114746 0.000141602 1.2207e-05 0.000170898 7.08008e-05 0.000146484 2.44141e-05 0.000222168 0.000134277 2.44141e-06 2.68555e-05 0.000102539 0.000224609 4.15039e-05 0.000229492 0.000161133 0.000231934 9.0332e-05 4.39453e-05 1.46484e-05 2.19727e-05 0.000202637 0.000129395 2.68555e-05 0.000166016 0.000134277 3.90625e-05 9.52148e-05 0.000100098 0.000180664 0.000107422 0.000124512 0.000200195 0.000241699 2.44141e-06 3.17383e-05 0.000131836 6.34766e-05 0.000178223 0.000153809 6.10352e-05 0.000126953 2.68555e-05 0.000131836 5.61523e-05 2.44141e-05 6.10352e-05 2.44141e-05 3.90625e-05 5.12695e-05 0.000180664 0.000227051 7.08008e-05 3.41797e-05 6.83594e-05 0.000200195 0.000161133 3.90625e-05 0.000178223 0.00020752 3.66211e-05 0.000141602 0.000214844 0.000136719 3.90625e-05 6.10352e-05 0.000114746 4.63867e-05 3.90625e-05 7.32422e-05 7.56836e-05 4.63867e-05 0 0.000136719 3.66211e-05 6.5918e-05 8.54492e-05 0.000214844 6.83594e-05 7.8125e-05 2.44141e-06 0.00015625 0.000187988 4.63867e-05 0.000170898 7.08008e-05 0.000180664 0.000100098 8.78906e-05 0.000205078 3.41797e-05 0.000124512 0.000185547 0.000195313 0.000236816 0.000148926 0.00020752 0.000229492 0.000153809 0.000124512 0.00020752 5.12695e-05 0.000231934 0.000131836 3.90625e-05 6.5918e-05 9.52148e-05 0.000195313 0.000239258 9.76563e-05 0.000175781 6.83594e-05 3.17383e-05 7.08008e-05 5.12695e-05 0.000126953 0.000222168 2.68555e-05 7.32422e-06 2.68555e-05 0 2.44141e-06 0.000114746 2.19727e-05 0.000153809 0.00010498 0.000134277 0.000197754 0.000119629 0.000109863 6.10352e-05 0.000112305 0.00010498 3.90625e-05 2.44141e-05 0.000217285 1.46484e-05 0.000153809 0.000114746 0.000180664 0.000146484 0.000205078 0.000141602 5.12695e-05 0.000195313 0.00015625 0.000219727 0.000153809 6.83594e-05 1.95313e-05 0.000229492 0.000100098 8.30078e-05 0.000131836 0.000153809 9.76563e-05 0.000236816 3.66211e-05 0.000109863 0.00019043 2.44141e-06 0.000161133 6.10352e-05 0.000117187 0.00012207 0.000148926 0.000224609 0.000166016 7.08008e-05 2.68555e-05 6.34766e-05 1.95313e-05 0.000183105 9.27734e-05 0.000212402 5.85937e-05 0.000131836 0.000158691 0.000141602 9.0332e-05 0.000239258 0.00015625 8.05664e-05 0.000170898 0.000107422 0.000112305 0.000185547 0.00015625 0.000178223 7.8125e-05 6.10352e-05 0.000195313 0.000136719 0.000227051 0.000102539 1.70898e-05 1.95313e-05 4.88281e-06 7.08008e-05 0.000141602 1.2207e-05 0.000239258 0.000119629 0.000134277 0.000197754 0.000205078 4.88281e-06 9.76563e-06 4.88281e-05 0.000107422 2.68555e-05 6.10352e-05 0.000144043 0.000231934 1.46484e-05 0.000153809 0 0.000163574 0.000205078 9.76563e-05 0.000163574 0.000219727 5.12695e-05 0 0.000231934 0.000200195 0.00019043 4.39453e-05 0.000163574 0.00020752 0.000178223 0.000124512 0.00012207 4.88281e-06 9.76563e-05 0.000239258 0.000229492 1.95313e-05 0.000112305 6.34766e-05 0.000129395 0.000227051 0.000231934 0.000146484 0.000119629 0.000109863 9.27734e-05 0.000175781 0.000158691 0.000117187 9.76563e-05 9.76563e-05 0.000153809 6.34766e-05 0.000229492 0.00019043 0.000227051 0.000158691 4.63867e-05 0.000192871 0.000212402 0.000136719 0.000202637 0.000158691 2.19727e-05 4.39453e-05 0.000114746 0.000141602 8.78906e-05 0.000217285 0.000239258 9.0332e-05 0.000229492 5.85937e-05 0.000175781 0.000100098 0.000126953 0.000222168 5.12695e-05 0.000185547 0.00015625 2.19727e-05 0.000117187 9.27734e-05 7.32422e-05 8.30078e-05 1.95313e-05 0.000109863 4.39453e-05 0.000229492 0.000170898 0.000231934 9.27734e-05 5.37109e-05 0.000136719 0.000168457 5.37109e-05 0.000209961 8.30078e-05 0.000241699 3.17383e-05 0.000180664 2.68555e-05 0.000200195 1.2207e-05 7.08008e-05 5.61523e-05 0.000119629 6.5918e-05 1.70898e-05 0.000209961 0.00010498 0.000205078 0.00012207 8.54492e-05 3.66211e-05 1.70898e-05 2.68555e-05 0.000161133 0.00020752 8.30078e-05 4.88281e-06 0.000222168 0.000119629 1.46484e-05 0.000231934 0.000136719 0.000161133 4.63867e-05 7.32422e-05 0.000205078 0.000136719 9.76563e-05 0.000109863 0.000168457 0.000136719 0.00020752 0.000197754 0.000124512 7.56836e-05 0.000112305 9.27734e-05 0.000241699 0.000239258 0.000168457 0.000212402 0.00019043 0.000239258 0.00012207 5.12695e-05 0.000180664 2.92969e-05 8.30078e-05 0.00017334 0.000227051 0.000151367 4.39453e-05 0.000114746 0.000124512 1.46484e-05 0.000239258 6.34766e-05 9.52148e-05 0.000180664 2.44141e-05 3.17383e-05 6.83594e-05 4.88281e-05 0.000212402 4.88281e-06 3.41797e-05 3.90625e-05 0.000148926 0.00013916 0.000151367 0.000148926 7.56836e-05 3.90625e-05 2.44141e-05 0.000119629 0.000224609 0.000227051 0.000170898 0.000224609 9.0332e-05 0.000239258 0.00019043 0.000148926 0.000192871 0.000209961 3.17383e-05 2.44141e-06 3.41797e-05 0.000229492 0.000129395 9.76563e-06 0.000151367 0.000131836 0.000205078 4.39453e-05 0.000158691 0.000158691 4.39453e-05 0 8.05664e-05 4.88281e-06 3.90625e-05 0.000163574 1.70898e-05 0.00020752 3.17383e-05 1.95313e-05 1.95313e-05 0.000119629 0.000163574 0.00020752 6.5918e-05 7.8125e-05 6.83594e-05 0.000202637 9.76563e-05 0.000205078 3.17383e-05 0.000214844 0.000202637 0.000180664 1.70898e-05 0.00017334 0.000185547 0.000107422 6.83594e-05 5.12695e-05 0.000151367 6.5918e-05 0.000224609 5.37109e-05 2.44141e-06 3.66211e-05 0.000168457 0.00020752 6.83594e-05 0.000219727 0.000144043 0.000205078 5.37109e-05 0.000212402 0.000109863 9.76563e-05 0.000109863 7.56836e-05 3.90625e-05 0.00017334 0.000236816 3.17383e-05 8.05664e-05 6.5918e-05 5.37109e-05 4.63867e-05 0.000234375 1.46484e-05 0.000117187 0.000231934 7.32422e-05 0.000219727 0.000209961 0.000131836 0.000126953 0.000241699 0.00020752 7.32422e-05 2.44141e-06 8.30078e-05 0.000134277 0.000185547 1.46484e-05 2.44141e-06 0.000241699 7.32422e-05 0.000134277 0.00015625 0.000151367 0.000187988 8.30078e-05 0.000102539 0.000141602 2.19727e-05 3.66211e-05 8.05664e-05 0.000170898 0.000153809 1.46484e-05 0.000209961 4.63867e-05 2.68555e-05 0.000136719 2.92969e-05 0.000180664 0.000166016 0.000161133 3.41797e-05 0.000112305 0.000129395 0.000222168 0.000231934 0.000180664 0.000168457 0.000158691 3.41797e-05 0.000209961 0.000158691 0.000202637 5.37109e-05 0.000112305 0.000146484 6.10352e-05 4.88281e-05 9.76563e-05 0.000185547 0.000195313 0.000200195 6.83594e-05 0.000144043 9.52148e-05 0.000131836 9.76563e-06 0 2.44141e-05 0.000234375 5.12695e-05 0.000163574 5.12695e-05 7.8125e-05 0.000144043 0.000124512 7.08008e-05 0.000166016 0.00017334 0.000192871 7.56836e-05 6.83594e-05 7.32422e-06 0.000131836 0.000212402 8.30078e-05 0.000219727 6.34766e-05 5.61523e-05 9.76563e-06 0.000180664 0.000200195 0.000192871 9.76563e-05 6.34766e-05 1.95313e-05 0.000126953 0.000241699 7.8125e-05 7.32422e-06 9.27734e-05 2.19727e-05 0.000212402 1.2207e-05 0.000144043 0.000129395 0.000185547 0.000222168 0.000158691 3.90625e-05 0.000219727 0.00015625 0.000217285 0.000200195 0.000212402 0.000117187 0.000146484 0.000114746 4.15039e-05 7.32422e-05 2.44141e-05 0.000241699 2.44141e-06 6.5918e-05 0.000170898 0.000227051 6.34766e-05 5.85937e-05 0.00013916 4.15039e-05 0.000187988 0.000131836 0.000202637 9.76563e-05 0.000214844 3.17383e-05 1.46484e-05 4.88281e-05 0.000148926 0.00010498 6.83594e-05 0.000134277 2.44141e-06 0.000161133 0.000183105 0.00013916 4.15039e-05 8.54492e-05 0.000239258 0.000229492 0.00010498 0.000195313 5.61523e-05 0.000126953 1.70898e-05 2.92969e-05 0.000192871 5.12695e-05 2.92969e-05 2.19727e-05 0.00012207 0.00010498 0.00013916 6.34766e-05 5.85937e-05 1.2207e-05 0.000187988 9.52148e-05 2.68555e-05 0.000197754 5.61523e-05 9.27734e-05 2.44141e-05 6.5918e-05 0.000180664 0.00017334 2.92969e-05 2.92969e-05 0.000119629 8.54492e-05 8.05664e-05 9.27734e-05 0.000195313 7.56836e-05 0.000131836 3.90625e-05 0.000219727 8.54492e-05 8.54492e-05 7.08008e-05 0.000239258 0.000178223 0.000192871 0.000209961 8.78906e-05 4.88281e-05 3.41797e-05 0.00010498 0.000227051 0.000192871 1.46484e-05 0.000236816 0.000119629 9.76563e-05 0.000180664 7.08008e-05 9.76563e-06 5.12695e-05 0.00019043 9.76563e-05 0.000124512 0.000166016 9.0332e-05 6.83594e-05 0.000168457 0.00013916 0.000114746 4.39453e-05 0.000229492 6.34766e-05 0.000170898 0.000185547 0.000151367 0.000200195 0.000114746 7.08008e-05 0.000126953 9.27734e-05 0.000100098 3.66211e-05 0.000100098 0.000197754 0.000112305 0.00015625 9.76563e-06 0.000109863 0.000141602 4.88281e-05 0.000117187 7.32422e-06 0.000241699 0.000119629 9.76563e-05 0.000200195 0.000109863 9.76563e-05 0.000112305 0.000187988 7.08008e-05 6.5918e-05 9.0332e-05 0.000114746 0.000214844 -0.00162386 0.021367 -0.0150443 0.00493701 -0.00577866 -0.0044488 -0.00289999 -0.0220536 0.00328142 0.0126608 0.000339366 0.0370696 0.000247604 0.0138102 -0.00620281 0.00179159 0.00252675 0.00167883 -0.00142653 -0.00408036 -0.0534498 0.0139782 -0.00220007 -0.0019507 0.0196137 -0.00939336 -0.0207883 0.000365112 -0.0118702 -0.000575198 0.0020151 -0.00494802 0.00281545 0.0168703 -0.00115318 0.00149661 0.0349738 -0.0049927 -0.00252962 0.000549457 0.0201657 -0.00729068 0.0285887 0.0128578 -0.0143641 -0.00840148 0.00537281 -0.000521882 -0.00227155 -0.000964244 -0.0200381 0.00041953 -0.0573316 0.000147595 -0.00334203 -0.0066262 -0.000857441 -0.00832584 0.00562524 -0.00118794 0.0161779 -0.00673402 0.0584138 0.0069884 0.0247798 0.0657769 -0.0474119 0.0418426 0.00841136 -0.0159228 -0.0101467 -0.0630399 0.0507851 0.0548634 -0.00370565 0.130262 0.00648289 0.0507592 -0.0283277 0.00609725 0.0107305 0.011166 -0.00535753 -0.0134099 -0.177406 0.0481644 -0.00768652 0.0124032 0.0798487 -0.0303898 -0.0654361 0.00334927 -0.0133632 -0.00140774 0.00828742 0.0777425 0.00819862 0.0537981 -0.00420537 -0.0226998 0.113719 0.0181543 -0.00451605 0.215772 0.0675458 0.00651254 0.0729823 0.0425545 -0.044166 0.0364943 0.0303427 0.00134055 -0.00744411 -0.00039398 -0.0476433 0.0053425 -0.178196 -0.000969306 -0.0110887 -0.0143885 -0.00401128 -0.0201207 -0.0426567 -0.00447091 0.0612644 -0.03522 0.187292 0.0302063 0.077305 0.0788964 -0.0632907 0.0541327 0.0535548 -0.0304084 -0.023375 -0.0447417 0.129774 0.100635 0.0300818 0.0511821 0.0427806 -0.107045 -0.0263848 0.00333672 0.0495682 0.120477 0.00185502 -0.0223137 -0.195771 0.0684419 -0.0225474 0.117513 0.0834199 -0.05002 -0.0922438 0.0212424 0.194436 0.0422489 0.00485563 0.229171 -0.0869748 -0.0442184 -0.00759262 -0.0401224 0.113928 0.0498442 0.0889065 0.560132 0.0858898 0.0325303 0.0494229 0.0562323 -0.0262672 0.106346 0.0878309 0.00126993 -0.0193373 -5.68895e-06 -0.0154591 0.00722164 -0.199191 -0.0029431 -0.0171437 0.00949392 -0.0077276 0.0257939 -0.120656 -0.0105542 0.089774 -0.0464831 0.225482 0.0474495 0.0586551 0.107831 -0.0156412 0.0796285 0.0379219 0.013298 0.229386 -0.0507307 0.111116 0.10243 0.0148763 0.0414421 0.00842463 -0.123843 -0.0535912 -0.0327038 0.065319 0.115452 -0.0180638 -0.0269996 -0.168081 0.0467916 -0.0296872 0.135588 0.0832063 0.00753112 0.0859857 0.0290133 0.18964 0.0547791 -0.0541733 0.160747 -0.107344 -0.233613 -0.00498012 -0.0259743 0.135595 0.0166784 -0.0133706 0.369025 0.0839748 0.00703449 0.0397551 0.0771445 -0.376801 0.055022 0.0964142 -0.0033906 0.0274157 -0.00612618 -0.0417994 -0.0289937 -0.193751 -0.00125068 -0.0135944 0.000136232 -0.00681692 0.0131466 -0.087461 -0.00144475 0.0981169 -0.0218381 0.266212 0.0512943 0.0890871 0.138997 -0.0114064 0.184557 0.0655438 0.0142401 0.256679 -0.0379423 0.153146 0.120436 0.00534809 0.0695364 -0.0127404 -0.108459 -0.0686428 -0.0334098 0.0887782 0.124041 -0.019116 -0.0311429 -0.146165 0.0517232 -0.0368473 0.17999 0.106353 0.0110087 0.117858 0.0346973 0.212955 0.0921485 -0.098609 0.262541 -0.109196 -0.237644 -0.00508311 -0.0644 0.279722 0.0518781 -0.152853 0.560582 0.0859964 0.0372563 0.022673 0.10127 -0.42313 0.109142 0.123638 0.00328536 0.030788 -0.00100072 -0.0285048 -0.0522351 -0.193522 0.00231062 -0.0139873 0.0112549 -0.00846718 0.0125587 -0.158953 -0.00292083 0.12311 -0.0154996 0.330668 0.0621664 0.118604 0.096831 -0.0275043 0.143811 0.0858347 -0.00377472 0.199563 -0.0193447 0.179724 0.091216 -0.0124706 0.0821043 0.0230453 -0.112593 -0.0582716 -0.0112824 0.0193203 0.113644 -0.0181836 -0.0249178 -0.173023 0.0725173 -0.058541 0.170026 0.131848 -0.0505923 0.0893865 0.13874 0.260613 0.0774373 -0.0708439 0.329833 -0.120886 -0.217476 0.00217089 -0.0953305 0.17746 0.121501 -0.0602731 0.741526 -0.0386333 0.0755265 0.041629 0.117959 -0.393367 0.147867 0.134457 -0.0468981 0.0220319 -0.0239954 0.00440207 -0.08649 -0.199146 0.00510216 0.00090379 0.0497227 -0.0131797 0.0578826 -0.185339 0.0261888 0.142812 -0.031615 0.243772 0.0793499 0.14561 0.0616992 -0.101095 0.0778058 0.131039 0.00950429 -0.0717156 0.236991 0.175027 -0.367985 0.0782012 0.0587927 0.167908 -0.209374 0.347603 0.00405187 -0.0340102 0.341068 -0.050386 0.129086 0.174252 0.256992 -0.11906 0.135201 0.105139 -0.108434 0.0114111 0.264484 0.339329 0.186446 -0.0756805 0.313857 -0.172452 -0.160525 0.0187024 -0.13863 0.0583556 0.050113 0.0557543 0.819942 -0.379479 0.0563423 0.23858 0.082135 0.0600769 0.212654 0.176792 -0.563295 0.0185088 -0.497191 -0.0342483 -0.1192 -0.300927 -0.0415888 0.0301809 0.0533063 -0.0117554 0.196055 -0.184568 0.112215 