5.61523e-05 0.000219727 0.000153809 5.37109e-05 6.10352e-05 0.000187988 1.2207e-05 7.8125e-05 0.000168457 4.88281e-05 1.70898e-05 6.34766e-05 3.41797e-05 0.000151367 0.000197754 0.000102539 0.000239258 0.00017334 0 3.41797e-05 7.8125e-05 4.88281e-05 0.00012207 5.12695e-05 0.000131836 7.32422e-06 1.70898e-05 0.000202637 4.39453e-05 4.15039e-05 0.00019043 0.000202637 9.27734e-05 0.000187988 4.39453e-05 7.32422e-06 0.000183105 0.000114746 4.39453e-05 0.000185547 0.000102539 9.0332e-05 0.000205078 2.92969e-05 9.76563e-05 0.000109863 6.10352e-05 0.000136719 0.000195313 9.52148e-05 5.61523e-05 0.000168457 4.88281e-06 8.78906e-05 0.000114746 0 0.000163574 7.56836e-05 0.000158691 0.000185547 0.000161133 1.46484e-05 0.000180664 0.000197754 0.000227051 2.19727e-05 1.95313e-05 0.000212402 7.8125e-05 3.66211e-05 5.85937e-05 0.000178223 4.15039e-05 4.15039e-05 0.000119629 5.37109e-05 2.92969e-05 0.000114746 0.00017334 1.95313e-05 0.000158691 0.000153809 1.46484e-05 0.000153809 8.78906e-05 0.00013916 0 0.000205078 4.88281e-05 3.17383e-05 9.76563e-06 8.54492e-05 0.00015625 4.63867e-05 0.000224609 2.19727e-05 0.00019043 0.000146484 6.34766e-05 5.37109e-05 0.000117187 0.000114746 0.000170898 7.32422e-05 0.000222168 4.63867e-05 0.000212402 1.46484e-05 0.000161133 0.000117187 7.32422e-06 2.44141e-05 0.000126953 0.000185547 1.95313e-05 0.000107422 3.41797e-05 7.32422e-06 4.15039e-05 1.70898e-05 7.32422e-06 3.17383e-05 4.88281e-05 0.000229492 0.000146484 7.56836e-05 0.00013916 0.000124512 7.08008e-05 0.000136719 0.000151367 0.000134277 8.05664e-05 0.00019043 0.000136719 2.44141e-05 0.00017334 0.000114746 1.70898e-05 4.39453e-05 0.000158691 0.000227051 0.000131836 5.12695e-05 0.000112305 0.000219727 0.000129395 0.000234375 1.46484e-05 0.000124512 0.000209961 0.000222168 9.0332e-05 0.000183105 2.19727e-05 0.000227051 0.000148926 4.63867e-05 0.000183105 3.41797e-05 4.63867e-05 7.08008e-05 0.000100098 1.95313e-05 0.000205078 7.08008e-05 7.56836e-05 0.000229492 9.52148e-05 4.39453e-05 0.000134277 0.000126953 6.34766e-05 4.15039e-05 0.000170898 0.000144043 0.000219727 0.000144043 0.000158691 1.70898e-05 0.00010498 9.76563e-05 3.66211e-05 2.44141e-05 6.83594e-05 0.000214844 0.000153809 0.00019043 6.5918e-05 0.000197754 0.000241699 0.000212402 0 0.000217285 0.000126953 7.32422e-06 6.5918e-05 0.000141602 0.000217285 0.000200195 3.66211e-05 0.000222168 1.95313e-05 0.000161133 6.10352e-05 0.000126953 0.000117187 6.34766e-05 1.2207e-05 0.00020752 0 0 1.70898e-05 9.52148e-05 0.000224609 0.000227051 3.90625e-05 0.000202637 2.44141e-05 5.85937e-05 0.000202637 0.000114746 0.000170898 0.000212402 0.000144043 0.000229492 4.15039e-05 0.000236816 2.44141e-05 2.92969e-05 2.68555e-05 7.32422e-05 0.000234375 9.27734e-05 0.000183105 0.000227051 0.000146484 0.000222168 2.44141e-06 0.000183105 4.63867e-05 0.000114746 0.00019043 0.000178223 2.68555e-05 2.68555e-05 0.000209961 0.000124512 0.00020752 0.000100098 0.000102539 0.000200195 0.000178223 0.000100098 1.46484e-05 1.70898e-05 0.000227051 0.000117187 6.34766e-05 5.12695e-05 1.2207e-05 0.000163574 6.10352e-05 0.00019043 4.39453e-05 2.92969e-05 7.56836e-05 0.00015625 0.000219727 5.12695e-05 5.61523e-05 0.000200195 0.000231934 0.000168457 0.000134277 0.000126953 0.000131836 2.92969e-05 0.000202637 5.37109e-05 5.12695e-05 3.17383e-05 0.000202637 9.0332e-05 7.8125e-05 0.000197754 0.000187988 4.88281e-06 0.000100098 6.10352e-05 0.000151367 0.000100098 0.00017334 0.000234375 0.000185547 0.000129395 0.000136719 9.76563e-06 3.66211e-05 0.00020752 0.000227051 6.34766e-05 5.85937e-05 0.000180664 2.19727e-05 4.88281e-05 0.000202637 1.46484e-05 0.000224609 0.000151367 0.000126953 0.000136719 0.000144043 7.32422e-06 0.00013916 0.000109863 0.00020752 0.000197754 8.30078e-05 0.000183105 2.92969e-05 0.000212402 2.92969e-05 0.000222168 0.000234375 0.000239258 0.000209961 0.000166016 0.000231934 0.000131836 0.000168457 0.000151367 0.00019043 0.000124512 7.56836e-05 0.000168457 2.44141e-05 0.000192871 0.000112305 0.000170898 2.68555e-05 0.000102539 2.44141e-05 7.56836e-05 8.05664e-05 0.000134277 0.000126953 7.08008e-05 0.000205078 3.90625e-05 0.000185547 4.15039e-05 0.000227051 4.88281e-06 0.000229492 1.95313e-05 6.10352e-05 2.44141e-06 0 0.000224609 6.34766e-05 0.000202637 0.000234375 0.000175781 8.78906e-05 0.000163574 3.90625e-05 0.000236816 0.000131836 9.52148e-05 7.08008e-05 0.000131836 0.000107422 0.000144043 5.61523e-05 0.000166016 5.85937e-05 0.000229492 0.000217285 4.63867e-05 0.000166016 5.61523e-05 5.12695e-05 1.2207e-05 2.19727e-05 3.90625e-05 0.000144043 8.78906e-05 0.000141602 0.000229492 0.000183105 0.000102539 0.000200195 4.39453e-05 0 6.5918e-05 0.000136719 0.000180664 9.27734e-05 0.000114746 9.76563e-06 0.000161133 3.41797e-05 0.00015625 0.000141602 0.000119629 1.2207e-05 0.000209961 0.000202637 4.63867e-05 5.37109e-05 0.000109863 2.44141e-06 8.05664e-05 7.8125e-05 0.00017334 6.83594e-05 0.000134277 0.000212402 0.000124512 0.000209961 0.000146484 0.00012207 0.000148926 4.88281e-06 7.56836e-05 0.000129395 2.68555e-05 0.000109863 0.000168457 7.32422e-06 6.5918e-05 7.08008e-05 0.00019043 0.000202637 0.000200195 9.52148e-05 0.000197754 0.000131836 0.000117187 8.30078e-05 0.00019043 9.76563e-06 0.000185547 9.76563e-05 0.000170898 6.10352e-05 0.000241699 0.000217285 0.000219727 0.000151367 0.000168457 0.000219727 0.000192871 0.000195313 9.76563e-05 7.56836e-05 0.00019043 0.000212402 0.000183105 9.76563e-05 1.46484e-05 0.000239258 0.000236816 0.000175781 0.000163574 4.39453e-05 5.37109e-05 0.000153809 2.19727e-05 0.000205078 0.000178223 3.66211e-05 0.00015625 0.000126953 3.90625e-05 0.000158691 0.000222168 0.000146484 0.00013916 0.000100098 4.88281e-06 6.83594e-05 0.000178223 0.000109863 0.000224609 7.32422e-06 0.000219727 6.10352e-05 4.88281e-05 9.27734e-05 0.000187988 0.000234375 9.76563e-05 0.000231934 8.78906e-05 5.37109e-05 8.54492e-05 0.000236816 9.76563e-06 0.000241699 5.85937e-05 0.000219727 8.30078e-05 0.00015625 0.000185547 4.15039e-05 1.2207e-05 0.00010498 0.000180664 4.15039e-05 8.78906e-05 7.32422e-06 0.000119629 8.05664e-05 3.90625e-05 2.92969e-05 0.000161133 9.27734e-05 0.000195313 0.00010498 0 1.46484e-05 0.000183105 7.32422e-05 0.000195313 0.00019043 0.000187988 0.000163574 7.8125e-05 0.000161133 0.00012207 9.52148e-05 0.000183105 3.90625e-05 0.000224609 0.000236816 0.000239258 3.41797e-05 0.000212402 0.00017334 4.88281e-06 0.000214844 3.17383e-05 1.95313e-05 1.2207e-05 0.000217285 5.37109e-05 3.41797e-05 0.000158691 0.000129395 6.34766e-05 5.37109e-05 9.52148e-05 0.000134277 0.000151367 3.41797e-05 9.76563e-06 0.000124512 0.000100098 0.000102539 0.000209961 0.00017334 4.39453e-05 0.000239258 0.000175781 0.000131836 0.000136719 0.000163574 0.000212402 0.000227051 0.000100098 0.000234375 1.95313e-05 0.000129395 0.000126953 5.61523e-05 4.39453e-05 0.000175781 0.000212402 0.000146484 3.41797e-05 0.000166016 8.78906e-05 0.000168457 7.56836e-05 0.00020752 0.000180664 2.68555e-05 0.000192871 0.000239258 8.30078e-05 4.88281e-05 0.000241699 0.000212402 9.27734e-05 4.15039e-05 0.000131836 0.000195313 0.000148926 1.2207e-05 0.000112305 8.05664e-05 0.000126953 0.000153809 0.000151367 0 8.05664e-05 0.000227051 3.66211e-05 0.000144043 0.00017334 0.000131836 7.56836e-05 3.66211e-05 8.05664e-05 0.000168457 5.37109e-05 5.85937e-05 0.000180664 0.000102539 9.0332e-05 0.000126953 0.000195313 0.000195313 6.10352e-05 0.000219727 9.76563e-05 0.000144043 0.000131836 0.000209961 0.000217285 0.000119629 0.000144043 3.41797e-05 0.000175781 9.76563e-06 0.000222168 1.46484e-05 0.000146484 0.000168457 0.000166016 0.000136719 2.19727e-05 4.63867e-05 0.000241699 0.000102539 0.000153809 0.000187988 7.8125e-05 0.000168457 0.000175781 0.00012207 7.32422e-06 0.000144043 0.000148926 0.000192871 0.000212402 0.000212402 6.10352e-05 3.17383e-05 8.54492e-05 2.92969e-05 3.41797e-05 9.76563e-05 4.39453e-05 0.000114746 6.10352e-05 0.000180664 0.000202637 0.000227051 4.88281e-05 1.95313e-05 0.000148926 0.000100098 0.00017334 1.95313e-05 0.000222168 0.000119629 0.000136719 0.000141602 6.83594e-05 3.41797e-05 1.46484e-05 9.76563e-06 0.000234375 0.000126953 1.70898e-05 0.000107422 7.32422e-05 0.000126953 7.8125e-05 0.000222168 0.00020752 0.000112305 0.000141602 0.00015625 0.000234375 0.000112305 7.32422e-06 0.000129395 0.000222168 0.000239258 0.000144043 2.44141e-05 0.000222168 3.90625e-05 6.5918e-05 0.000224609 3.17383e-05 0.000195313 8.05664e-05 0.000126953 4.39453e-05 0.000129395 0.000129395 0.000231934 8.05664e-05 2.92969e-05 0.00017334 0.000107422 8.05664e-05 0.000224609 8.54492e-05 0.000224609 0.000214844 0.000146484 4.88281e-06 0.000197754 9.76563e-05 0.00012207 2.44141e-06 0.000112305 0.000229492 0.000112305 8.54492e-05 0.000112305 7.08008e-05 0.000222168 5.37109e-05 8.78906e-05 0.00015625 0.000163574 0.000229492 8.30078e-05 0.000141602 0.000107422 0.000236816 1.95313e-05 0.000214844 8.05664e-05 0.000141602 5.37109e-05 6.83594e-05 2.68555e-05 0.000185547 2.92969e-05 0.000227051 0.000180664 0.000178223 0.000134277 0.000192871 7.32422e-06 4.88281e-05 0.000119629 7.8125e-05 7.32422e-06 0.000158691 0.00152126 -0.00399337 0.0124466 -0.0296945 0.00310767 -0.00173564 0.000919823 -0.0201877 0.00780244 -0.00395478 0.000265754 0.00926609 0.000478155 0.00182886 -0.00999215 0.000823979 -0.00279645 -0.00544466 -0.0196964 0.000555629 0.00122174 -0.00443568 0.000405274 -0.0119896 0.00289679 0.00642523 -0.000603296 -0.0200332 -0.000902053 -0.0171563 -0.0212769 0.000147148 -0.000771316 0.00598963 0.00109963 -0.00578335 -0.0298479 0.00665064 0.00405119 0.00203857 0.0152697 0.000565869 0.00998857 0.000578792 0.000496575 0.00549214 0.00340131 0.00915827 -0.00100617 0.031045 -0.00571293 -0.0102379 0.0137708 0.0300877 0.00241267 0.00612671 0.00323586 0.00951644 0.000485522 0.000408937 4.6139e-05 0.0128352 0.000546738 -0.00173721 0.00363368 -0.0107523 0.032851 -0.0792086 0.00801156 -0.00483356 0.00208317 -0.0538736 0.0203393 -0.0105858 0.00080954 0.0241795 0.000878269 0.00469646 -0.0270107 0.00198003 -0.00761626 -0.0149789 -0.0522219 0.00115781 0.00341428 -0.011812 0.000965577 -0.032438 0.00758229 0.0170531 -0.0014661 -0.0533627 -0.00256317 -0.04557 -0.0569166 0.00020897 -0.00217175 0.0158447 0.00299016 -0.0154678 -0.0794105 0.0172131 0.0104713 0.00544204 0.0401422 0.00121667 0.0261992 0.00146994 0.00137546 0.0146916 0.00869116 0.0240525 -0.0030306 0.0821261 -0.0156033 -0.0274157 0.0363828 0.0796412 0.00591904 0.0161644 0.00855893 0.0253023 0.00112655 0.000890792 -0.000350662 0.0342254 0.00117258 -0.00457394 0.00280383 -0.00793033 0.0242569 -0.0583805 0.00586087 -0.00351672 0.00155805 -0.0396621 0.0148625 -0.00777819 0.000522379 0.0179591 0.000774665 0.00343835 -0.0198054 0.00148697 -0.00559073 -0.0110544 -0.038484 0.000844976 0.00259856 -0.00871903 0.00079712 -0.0237883 0.00570729 0.012675 -0.00109139 -0.0394281 -0.00193065 -0.0335892 -0.0419984 0.000276037 -0.00159285 0.0116304 0.00220643 -0.0114883 -0.0587 0.0126932 0.00763815 0.0038952 0.0296542 0.000945337 0.019239 0.00118511 0.000938587 0.0109805 0.00641935 0.0179495 -0.00221895 0.0606776 -0.0113138 -0.02037 0.0270344 0.0588246 0.00435697 0.011978 0.00623203 0.018692 0.000864379 0.000717399 -0.000263327 0.0251175 0.000869521 -0.00338129 0.0255154 -0.0184244 0.0513702 -0.0892779 0.0357061 0.0884277 0.0273727 -0.0891988 0.0434124 -0.0187317 -0.0260245 0.0396773 0.00133886 0.00666692 -0.0516754 0.0174764 0.00433321 -0.0493648 -0.0449169 0.0132676 0.00759398 -0.0103887 -0.0103008 -0.0188331 0.0114128 0.0258337 -0.00587371 -0.115626 -0.00408128 -0.0600705 -0.0645844 0.0195523 -0.00596804 -0.0111126 0.0054675 -0.0291988 -0.102876 0.0283593 0.0223361 0.0210518 0.0582378 0.00636863 0.0500073 -0.04066 0.02888 0.0250626 0.0242524 0.0393064 -0.00269469 0.112876 0.0148062 -0.0532452 0.0440344 0.101682 0.0130681 0.0304785 0.00555523 0.0306327 -0.0161614 0.0565119 0.00889668 0.0512609 0.016928 -0.119097 0.0234127 -0.0366717 0.0700394 -0.0778004 0.0871155 0.211083 0.0650526 -0.148381 0.0692136 -0.0543411 -0.0572067 0.0758778 0.0035316 0.00716142 -0.0844289 0.0438947 0.0171187 -0.105651 -0.0448804 0.0207293 -0.00850492 -0.00890313 -0.00730099 0.00208829 0.0111391 0.0202315 -0.0126767 -0.199293 0.0172945 -0.0694129 -0.0701514 0.0466231 -0.00929616 -0.0532324 0.0192201 -0.0527226 -0.134694 0.0215954 0.0303978 0.0446511 0.0838663 0.00997703 0.0832123 -0.0947173 0.145197 0.0491018 0.043055 0.0499996 0.0454785 0.132435 0.0531222 -0.0840141 0.0386754 0.113629 0.0221878 0.0507102 0.00621619 0.0211515 -0.0261721 0.131754 0.0239186 0.0739677 0.0469951 -0.268067 -0.0205447 -0.0525917 0.0677819 -0.0428771 0.121194 0.239827 0.0803208 -0.182785 0.0689891 -0.0983039 -0.0588683 0.108025 0.00552423 0.00427767 -0.0937383 0.0589868 0.0156579 -0.135075 -0.0602696 0.010125 -0.042544 -0.00971331 0.0189836 0.0104166 0.00402127 -0.00518334 -0.0155294 -0.224225 0.0552888 -0.0597089 -0.0679122 0.055618 -0.00823688 -0.0724837 0.037398 -0.066169 -0.147271 -0.00904771 0.0222578 0.0544693 0.0940566 0.00606194 0.0946228 -0.105823 0.286873 0.0692946 0.0458787 0.0398598 0.124784 0.111257 0.0589811 -0.0882799 0.0172106 0.0946778 0.0246542 0.058467 0.013112 -0.00328451 -0.0111724 0.152037 0.0313033 0.080876 0.0669417 -0.300862 -0.00195336 -0.0571946 0.0874446 -0.0810737 0.117393 0.22511 0.092694 -0.163419 0.0740257 -0.211311 -0.125605 0.102892 0.0211405 -0.0360807 -0.107559 0.0693355 0.00548361 -0.103622 0.0292958 0.0404102 -0.0024337 0.192831 0.0132839 -0.00426361 0.0244035 0.0646505 0.0244325 -0.204302 0.0371445 -0.0813696 -0.0805545 0.0400793 0.0305814 -0.04672 0.0390038 -0.0388623 -0.264191 0.0358776 0.018441 0.0681521 0.109128 0.0286374 0.104574 -0.126445 0.165338 0.0843181 0.0561767 0.0681541 0.0451995 0.137802 -0.0452008 -0.0963774 0.000583787 0.125832 0.0519338 0.0741006 0.0105801 0.0368468 -0.0283928 0.133732 0.0947496 0.0964082 0.0734094 -0.319958 0.028934 -0.0463273 0.0906196 -0.110902 0.0906414 0.193682 0.0812047 -0.134314 0.0728218 -0.196258 -0.131232 0.078802 0.0217207 -0.0400353 -0.101135 0.0589733 0.00361155 -0.0757096 0.0511194 0.0508777 0.0264898 0.221911 -0.0046514 -0.0141229 0.0319744 0.0917883 0.0326969 -0.17884 0.00850979 -0.0903484 -0.0840856 0.0295687 0.035715 -0.0267806 0.0264521 -0.0243713 -0.271312 0.0629824 0.0224291 0.0619998 0.103203 0.0340214 0.0959512 -0.117319 0.0472408 0.0714757 0.0541534 0.0780573 -0.0208101 0.154468 -0.0677282 -0.0923383 0.0131027 0.142439 0.0535803 0.0698925 0.00577318 0.0595428 -0.0395393 0.111173 0.0975581 0.092652 0.0589627 -0.288275 0.0112241 -0.0413037 0.0799231 -0.113509 0.0686678 0.115023 0.0602947 -0.112345 0.0562321 -0.19088 -0.108842 0.0693193 0.021214 -0.0409522 -0.0843204 0.0462634 -0.00739353 -0.0489206 0.0377244 0.0407528 0.0233322 0.218891 0.00516063 -0.0300247 0.0298903 0.0868188 0.0361162 -0.134488 0.00938312 -0.0846679 -0.0859333 0.0134246 0.0385224 -0.00234352 0.0246391 -0.0151859 -0.263124 0.0559881 0.0139789 0.0494702 0.0937159 0.0298972 0.0796528 -0.0819472 0.0245283 0.0647376 0.042353 0.0686857 -0.0214178 0.140578 -0.0951086 -0.0747811 0.0117828 0.135241 0.0485432 0.0600398 0.00942162 0.0586169 -0.0251013 0.0648267 0.0899008 0.0831315 0.0456157 -0.193162 -0.0151272 -0.034189 0.0637862 -0.117621 0.0357742 -0.00212894 0.0293337 -0.0796901 0.0315501 -0.182859 -0.0753672 0.0552171 0.0208265 -0.04231 -0.0594847 0.0275771 -0.0237208 -0.00922317 0.0174751 0.0256257 0.0188103 0.214656 0.0194427 -0.0533017 0.0269029 0.0792796 0.0412272 -0.0684185 0.010584 -0.0761419 -0.0886664 -0.0102765 0.0423708 0.0341694 0.0221325 -0.00127332 -0.250641 0.0458736 0.00140447 0.0309481 0.0795679 0.0234281 0.0555588 -0.0295069 -0.00933087 0.0547015 0.024799 0.0547336 -0.0223035 0.119568 -0.136368 -0.048534 0.00998623 0.124158 0.0409364 0.0458442 0.0147833 0.0574535 -0.00380153 -0.00430204 0.0783019 0.0691218 0.0260647 -0.0517748 -0.0209048 -0.0309224 0.0549908 -0.105151 0.0279676 -0.0248644 0.0227601 -0.0642517 0.0232748 -0.179469 -0.0688937 0.0483496 0.0206016 -0.0434612 -0.049708 0.0233245 -0.0257156 0.00127335 0.022264 0.0224204 0.0173415 0.21581 0.022296 -0.0526804 0.0250738 0.074966 0.0425795 -0.046186 0.011285 -0.0667809 -0.0794968 -0.0153152 0.0436699 0.0389967 0.0210944 0.00410096 -0.234816 0.040999 -0.0028625 0.0262977 0.069995 0.0221048 0.0462486 -0.0192537 -0.0163394 0.0504389 0.0199726 0.0480146 -0.022011 0.101858 -0.141959 -0.0387034 0.00362311 0.108857 0.0383938 0.040102 0.0146809 0.0530758 0.000492718 -0.0183045 0.075855 0.0605456 0.0218726 -0.02251 -0.022483 -0.0262031 0.0413043 -0.0718267 0.024786 -0.0228812 0.0220722 -0.0414718 0.0148395 -0.174856 -0.0690493 0.0382069 0.0200898 -0.0453219 -0.0384073 0.0225254 -0.0225078 0.00746493 0.0443507 0.0221366 0.0160254 0.220894 0.0217247 -0.0390311 0.0217866 0.0676927 0.0430989 -0.0238236 0.0123825 -0.0476272 -0.0556362 -0.0152875 0.0447659 0.0323011 0.0200152 0.0105869 -0.201633 0.0339045 -0.00698647 0.0241622 0.0532783 0.0214987 0.0355109 -0.0197287 -0.016727 0.0441785 0.0162922 0.0378044 -0.020679 0.0674637 -0.135264 -0.0271815 -0.0116429 0.0753966 0.0361487 0.0333415 0.0110691 0.0424752 0.000164538 -0.0185647 0.0760061 0.0463557 0.0215024 -0.0206241 -0.0247443 -0.0194223 0.0208584 -0.0224298 0.0197453 -0.0197247 0.0207038 -0.00783222 0.00225132 -0.168393 -0.0694686 0.0232618 0.0197751 -0.0483726 -0.0215231 0.0214719 -0.0177954 0.0169064 0.0768689 0.0214123 0.0139085 0.228265 0.0212425 -0.0189587 0.0172866 0.0572748 0.0443157 0.0097305 0.0139752 -0.0193698 -0.020121 -0.0153835 0.0462884 0.0227341 0.0181906 0.0202568 -0.151834 0.0232248 -0.0135604 0.0209247 0.0282128 0.0208479 0.0192416 -0.0205857 -0.0176791 0.0352305 0.0110267 0.0229614 -0.0189329 0.0161458 -0.125694 -0.00986701 -0.0341548 0.025997 0.0323713 0.023255 0.00598533 0.0266113 -0.000500902 -0.0189465 0.0764469 0.0249386 0.0210353 -0.0177166 -0.0267034 -0.0157458 0.0151916 -0.014555 -0.00597304 -0.0170343 -0.000567011 -0.00227898 -0.00177276 -0.168611 -0.0220109 0.0320363 0.0177354 -0.0504212 -0.019828 -0.00677523 -0.012444 0.0170713 0.0853704 0.010465 0.00878238 0.231855 0.0152668 -0.0265251 0.0138509 0.0571892 0.0463478 0.0076989 0.0190227 -0.016607 -0.0142931 -0.0161018 0.0482811 0.121158 0.0162972 0.0105385 -0.143089 0.0194569 -0.0130214 0.0244039 0.0215363 0.013022 0.00579927 -0.0222636 -0.0192537 -0.0615395 0.00845942 0.018379 -0.0150789 0.00326883 -0.125435 -0.00796753 -0.0404096 0.0134345 0.0298488 0.0233762 0.00294898 0.0221766 -0.00218179 -0.0202806 0.0789444 0.0155941 0.0114297 -0.0353025 -0.0354036 -0.00574739 0.00655208 -0.05061 -0.0378933 -0.00518147 0.126972 -0.00922348 -0.0107466 -0.175814 0.0198054 0.135216 0.00487635 -0.0591768 -0.0266366 0.0063309 0.00146514 0.00953448 0.0960951 -0.00796041 0.0327642 0.241877 0.000154611 -0.0603989 -0.00528264 0.0680629 0.056012 0.065818 0.0347503 -0.0243672 -0.0210426 -0.0221964 0.0570129 0.207409 0.00741764 -0.00734131 -0.150433 0.0876793 -0.00282629 0.0546789 0.0122979 -0.00913116 -0.0133668 -0.0294561 -0.0263594 -0.16318 -0.000490697 0.0720249 -0.0028557 -0.00755125 -0.132863 -0.0149622 -0.0492053 0.00403452 0.0513987 0.0186707 -0.00580157 0.0133516 -0.011531 -0.0271096 0.0905572 -0.0030197 0.0938916 -0.133002 -0.0450414 0.00434765 -0.00272607 -0.0956371 -0.0478518 0.00764798 0.323658 -0.0167349 -0.0202723 -0.183098 0.012552 0.256532 -0.0101369 -0.0688238 -0.0336455 0.0604903 0.0140879 0.00159444 0.10801 -0.0179583 0.0710986 0.252147 -0.0125889 -0.0895656 -0.0276501 0.0800426 0.0660041 0.154521 0.0492667 -0.0304297 -0.0281145 -0.029072 0.0658611 0.189535 -0.002014 -0.0155817 -0.15848 0.180627 0.00846359 0.0895005 0.00240692 -0.0281846 -0.0252957 -0.0369793 -0.0340025 -0.173348 -0.0098268 0.145332 0.00861604 -0.0180141 -0.14069 -0.0221311 -0.0587165 -0.00512245 0.0820564 0.0094312 -0.0150116 0.00382146 -0.0218828 -0.0346307 0.102419 -0.0207685 0.215994 -0.238497 -0.0475686 0.00711154 -0.00512106 -0.106922 -0.0503471 0.0107794 0.372817 -0.0187911 -0.0226238 -0.184831 0.0107864 0.286726 -0.0138714 -0.0712581 -0.0354336 0.0740775 0.0172127 -0.000277963 0.111031 -0.020569 0.0807319 0.254538 -0.0159081 -0.0967963 -0.0334418 0.0830399 0.0684516 0.17658 0.0529927 -0.0319081 -0.0298866 -0.030742 0.0681033 0.185175 -0.00435348 -0.0178432 -0.160511 0.203931 0.0112905 0.0982393 -2.6817e-05 -0.0330783 -0.0281533 -0.0387582 -0.0360368 -0.175785 -0.01232 0.163792 0.0114879 -0.0206186 -0.142578 -0.0240125 -0.0612175 -0.00726 0.0899334 0.0071607 -0.0173127 0.00130533 -0.0244155 -0.0364623 0.105503 -0.0251548 0.246538 -0.264991 -0.047427 0.00707492 -0.00503073 -0.106922 -0.0505009 0.0109185 0.373057 -0.0188277 -0.0227922 -0.18489 0.0109231 0.286851 -0.0139666 -0.0712507 -0.0354214 0.0742557 0.0172835 -0.000277963 0.111043 -0.0205275 0.0808173 0.254665 -0.0158861 -0.0967011 -0.0334564 0.0830985 0.068393 0.176536 0.0530245 -0.0318837 -0.0299818 -0.0308079 0.0681375 0.185141 -0.00454391 -0.0177529 -0.160325 0.203929 0.0112782 0.0982686 0.000109902 -0.0330393 -0.0281948 -0.0388607 -0.0360343 -0.17581 -0.0120905 0.163941 0.0113195 -0.0206479 -0.14261 -0.0240076 -0.0612419 -0.0073308 0.0897698 0.00716802 -0.0173273 0.00145426 -0.0244008 -0.0363842 0.105535 -0.0252134 0.246387 -0.265008 -0.0473904 0.00691623 -0.00524557 -0.106944 -0.0504325 0.010816 0.373025 -0.0186031 -0.02278 -0.184956 0.0108865 0.286731 -0.0138299 -0.0711287 -0.0356313 0.0742654 0.0174104 -0.000187631 0.110882 -0.0205983 0.0806928 0.254668 -0.0157958 -0.096767 -0.0333881 0.0830741 0.068498 0.176717 0.0529049 -0.0320253 -0.0299964 -0.0309251 0.0681594 0.1852 -0.00445846 -0.0177602 -0.160396 0.203902 0.0111391 0.0983467 8.54877e-05 -0.0331223 -0.0281313 -0.0387631 -0.0360172 -0.1758 -0.0122638 0.163882 0.0114977 -0.0207993 -0.14258 -0.0240125 -0.0613494 -0.00725267 0.0898992 0.00715093 -0.0173151 0.00129313 -0.0243471 -0.0364354 0.105395 -0.0253769 0.246538 -0.26494 -0.0474441 0.00693576 -0.00503806 -0.10688 -0.0504667 0.0109405 0.373015 -0.0185958 -0.0227898 -0.184753 0.0108181 0.286895 -0.0139105 -0.0711824 -0.0355312 0.0741385 0.0173494 -0.000319466 0.111014 -0.0204713 0.0805952 0.254558 -0.0160082 -0.0966962 -0.0334515 0.0831107 0.0685077 0.176533 0.0529097 -0.0318495 -0.0298158 -0.030947 0.0680764 0.185065 -0.0044609 -0.0177895 -0.160501 0.204063 0.0113124 0.0981367 8.54877e-05 -0.0330832 -0.0282387 -0.0387631 -0.0360538 -0.175817 -0.0123175 0.163704 0.0114293 -0.0205967 -0.142688 -0.0239148 -0.0612444 -0.00735765 0.0898553 0.00721197 -0.0171906 0.00142984 -0.0244594 -0.0364769 0.105581 -0.0253501 0.246358 -0.264991 -0.0474636 0.00698703 -0.00510397 -0.106827 -0.0503105 0.0107476 0.372866 -0.0187447 -0.0226579 -0.184861 0.0108328 0.286927 -0.0138812 -0.0710847 -0.0356045 0.0741068 0.0173787 -0.000387826 0.110892 -0.0204664 0.0808051 0.254714 -0.0157885 -0.0968109 -0.0333246 0.0831498 0.0685199 0.176673 0.0530269 -0.0319057 -0.0299378 -0.0308616 0.0682449 0.185214 -0.00445358 -0.0176259 -0.160367 0.204002 0.0113027 0.098249 1.46869e-05 -0.0331907 -0.0281045 -0.0388046 -0.0360734 -0.175802 -0.0121051 0.163946 0.0115392 -0.0205869 -0.142685 -0.0239612 -0.0611541 -0.00728441 0.0898602 0.00724859 -0.017215 0.00138346 -0.0243373 -0.0364232 0.105415 -0.025206 0.24647 -0.264918 -0.0474392 0.00696506 -0.00512839 -0.107 -0.0503642 0.0107891 0.372876 -0.0187228 -0.0225798 -0.184926 0.0109134 0.28688 -0.0138641 -0.0712092 -0.0356362 0.0741116 0.0173372 -0.000385384 0.110985 -0.0205983 0.0806684 0.25458 -0.0159106 -0.0968329 -0.0334662 0.0830863 0.0684223 0.176631 0.0529634 -0.0319594 -0.0298353 -0.0307688 0.0682449 0.185204 -0.00446334 -0.0177577 -0.160333 0.204012 0.0112148 0.0982637 -2.19342e-05 -0.0331076 -0.0282534 -0.0386996 -0.0360612 -0.175734 -0.0121003 0.163794 0.0114806 -0.0206211 -0.142617 -0.0241199 -0.0613518 -0.00728441 0.0899334 0.00720953 -0.0173053 0.00127115 -0.0245058 -0.0364696 0.105554 -0.0252231 0.246563 -0.265089 -0.0444105 0.00940355 -0.00723712 -0.105356 -0.0527578 0.0131584 0.370341 -0.0185596 -0.0226859 -0.164061 0.0196366 0.284237 -0.0163028 -0.0650949 -0.0333518 0.0714992 0.0195481 -0.0025928 0.100646 -0.0231873 0.0790151 0.225988 -0.0184371 -0.0949727 -0.0353247 0.0763171 0.0627745 0.174659 0.0512614 -0.0302686 -0.0282172 -0.0289746 0.0623815 0.182459 -0.00677354 -0.0204218 -0.142783 0.201397 0.0129941 0.095705 -0.00278179 -0.0356196 -0.0301672 -0.0362704 -0.0337171 -0.179872 -0.0135373 0.1614 0.0138435 -0.0214745 -0.127247 -0.0232492 -0.0562965 -0.00921558 0.085864 0.00450137 -0.0179107 -0.00166627 -0.0242254 -0.0341069 0.0960276 -0.0278099 0.243938 -0.262794 -0.0318353 0.0183117 -0.0153967 -0.0989716 -0.0620621 0.0227653 0.360132 -0.0180251 -0.0226123 -0.0807175 0.0544159 0.274295 -0.0261774 -0.0405816 -0.0242445 0.0610341 0.0279038 -0.0118945 0.0590129 -0.033776 0.0724058 0.111264 -0.0290544 -0.0873955 -0.0434581 0.0487193 0.0407573 0.166458 0.0440155 -0.0232627 -0.0219067 -0.0213226 0.0392675 0.172305 -0.0154986 -0.0317173 -0.0717136 0.190977 0.0206262 0.0856464 -0.0143327 -0.0461031 -0.0379923 -0.0256347 -0.0249005 -0.196544 -0.01836 0.151511 0.0230813 -0.0241893 -0.0653032 -0.0199341 -0.0369735 -0.0171735 0.0702089 -0.00598286 -0.0201128 -0.0132143 -0.0239176 -0.0244143 0.0580098 -0.0380608 0.233605 -0.254199 -0.0221357 0.0250839 -0.0215856 -0.0942935 -0.0690126 0.0300387 0.352587 -0.0175905 -0.0224981 -0.0178647 0.0805674 0.266694 -0.0332935 -0.0222799 -0.0173706 0.0528851 0.0341776 -0.0188894 0.0276365 -0.0417302 0.0672591 0.0249507 -0.0368186 -0.0819953 -0.0494454 0.0281323 0.0240186 0.16029 0.0386656 -0.018301 -0.0170247 -0.0154754 0.0218141 0.164544 -0.0221539 -0.0400684 -0.0185013 0.182932 0.026272 0.078182 -0.0231725 -0.0538255 -0.0439254 -0.0179332 -0.0180237 -0.209021 -0.0220998 0.144015 0.0300349 -0.026443 -0.0189577 -0.0174254 -0.0223081 -0.0230389 0.058245 -0.014192 -0.0220778 -0.0220671 -0.023725 -0.0171996 0.0292293 -0.0459419 0.225686 -0.247766 -0.0222553 0.0250936 -0.0217736 -0.094396 -0.0690443 0.02988 0.352599 -0.0175465 -0.0222906 -0.0177524 0.0806211 0.266709 -0.0333228 -0.0221481 -0.0173828 0.0529217 0.0344022 -0.018865 0.0275095 -0.041635 0.0671444 0.0250239 -0.0369406 -0.0819245 -0.0494943 0.0281274 0.0241578 0.160332 0.0386729 -0.0182937 -0.0169002 -0.0155169 0.0216579 0.164495 -0.0220465 -0.0398536 -0.0182889 0.183013 0.0262647 0.0781405 -0.0231774 -0.0537694 -0.0439034 -0.0178648 -0.0180749 -0.208969 -0.0220828 0.144013 0.030135 -0.0263795 -0.0189235 -0.0175011 -0.0224253 -0.0229901 0.0583012 -0.0140724 -0.0221168 -0.0219328 -0.0236469 -0.0172021 0.029322 -0.0458589 0.225852 -0.24781 -0.0222529 0.0252694 -0.0216027 -0.0944034 -0.0689711 0.0299972 0.352572 -0.0174635 -0.0224492 -0.0178012 0.0805503 0.266721 -0.033523 -0.0220822 -0.0172558 0.0530926 0.0343387 -0.0190237 0.0276243 -0.0417668 0.0671908 0.0248384 -0.0368357 -0.0819953 -0.0494406 0.0280493 0.0240357 0.160508 0.0388633 -0.0182131 -0.0170662 -0.0154632 0.0217238 0.164508 -0.0222198 -0.0400318 -0.0183768 0.18302 0.0261304 0.0780844 -0.0231579 -0.0536717 -0.0440475 -0.0178404 -0.0181897 -0.209143 -0.0219363 0.144027 0.030074 -0.0263893 -0.0188112 -0.0174742 -0.0223423 -0.0230047 0.0583183 -0.0139674 -0.0220216 -0.0219426 -0.0237153 -0.0170922 0.0292464 -0.0459688 0.225706 -0.247952 -0.0193998 0.0219731 -0.0189161 -0.0825578 -0.0605441 0.0263165 0.308508 -0.0153721 -0.0194673 -0.0155822 0.0704549 0.233519 -0.0291757 -0.0193344 -0.0151758 0.0464188 0.0299594 -0.0164108 0.0240443 -0.0364331 0.0588386 0.0217113 -0.0324085 -0.0716561 -0.0432876 0.024544 0.0210389 0.14045 0.0338546 -0.0159463 -0.0148731 -0.0134754 0.0190416 0.144143 -0.0193547 -0.0348512 -0.0161337 0.160212 0.0228012 0.0684956 -0.0203388 -0.0470284 -0.038547 -0.0155838 -0.0159114 -0.182961 -0.0193612 0.126071 0.0264124 -0.0230815 -0.0165327 -0.0153428 -0.019605 -0.0202714 0.051052 -0.01239 -0.0193513 -0.0192736 -0.0206007 -0.0149767 0.0256141 -0.0402333 0.197631 -0.21675 -0.00896476 0.0102601 -0.00878492 -0.0383802 -0.0282168 0.0122153 0.143872 -0.0071489 -0.00902451 -0.00722552 0.032823 0.108999 -0.0134914 -0.00906445 -0.00702999 0.0216445 0.0141339 -0.00757812 0.0112362 -0.0168605 0.0274877 0.0103284 -0.0150464 -0.033429 -0.020201 0.0115588 0.00982675 0.0654858 0.0158325 -0.00732073 -0.00693771 -0.0063302 0.00903397 0.0672237 -0.0089299 -0.0161419 -0.00752321 0.0746486 0.0107763 0.0318963 -0.00928138 -0.0217579 -0.0179799 -0.00728614 -0.00729961 -0.0851415 -0.00882535 0.0588109 0.0123536 -0.0106547 -0.00772751 -0.00712967 -0.00908604 -0.00940015 0.0237855 -0.00563808 -0.00883378 -0.00903888 -0.00964872 -0.00685122 0.0120109 -0.018562 0.0922293 -0.101055 1.95313e-05 0.000163574 0.000119629 3.66211e-05 0.00019043 6.10352e-05 1.95313e-05 0.000229492 5.61523e-05 5.37109e-05 0.000219727 0.000209961 4.15039e-05 6.83594e-05 7.8125e-05 1.2207e-05 7.56836e-05 8.54492e-05 0.000197754 0.000222168 0.000195313 0.000224609 2.44141e-05 0.000148926 0.00020752 5.37109e-05 0.000224609 4.63867e-05 0.00015625 0.00013916 0 0.000209961 0.000112305 0.000136719 9.52148e-05 0.000112305 0.000183105 0.000222168 4.63867e-05 0.000231934 0.000212402 4.15039e-05 8.30078e-05 0.00017334 2.92969e-05 0.000209961 7.08008e-05 0.000114746 3.66211e-05 0.000126953 0.000205078 0.00013916 0.000192871 5.85937e-05 9.76563e-06 0.000141602 9.76563e-05 7.56836e-05 0.000236816 0.000153809 0.000107422 0.000141602 0.000158691 7.08008e-05 0.000200195 5.12695e-05 0.000117187 0.000197754 0.00015625 0.000131836 0.000180664 1.2207e-05 8.54492e-05 0.000161133 1.46484e-05 3.90625e-05 4.88281e-05 0.000195313 7.08008e-05 3.90625e-05 7.32422e-05 0.000153809 0.000131836 5.37109e-05 0.000178223 2.92969e-05 3.41797e-05 0.000219727 0.000126953 0.000222168 2.68555e-05 9.76563e-05 0.000219727 0.000209961 6.10352e-05 0.000158691 2.19727e-05 0.000112305 0.000119629 0.000131836 0.000227051 0.000212402 1.2207e-05 0.000209961 0.000166016 9.27734e-05 0.000241699 0.000239258 0.000102539 0.000158691 0.000229492 0.000180664 7.32422e-06 1.2207e-05 7.56836e-05 0.000141602 0.000180664 0.000124512 0.00015625 4.39453e-05 1.95313e-05 1.2207e-05 0.00019043 0.000178223 3.41797e-05 0.000141602 0.000209961 8.78906e-05 0.000144043 6.83594e-05 0.000195313 0.000180664 0.000168457 0.000148926 0.000224609 5.61523e-05 5.37109e-05 1.95313e-05 2.44141e-05 0.000227051 9.27734e-05 5.12695e-05 0.000178223 0.000183105 1.70898e-05 0.000234375 0.000212402 0.000175781 0.000124512 5.37109e-05 0.000222168 4.39453e-05 0.000236816 0.000217285 1.46484e-05 6.83594e-05 0.000212402 0.000129395 2.44141e-06 8.78906e-05 7.32422e-06 9.27734e-05 0.000202637 3.17383e-05 0.00013916 0.000185547 0 0.000136719 1.95313e-05 0 0.000148926 4.15039e-05 0.000131836 6.10352e-05 0.000231934 0.000217285 0.000197754 7.56836e-05 0.000151367 2.44141e-05 0 0.00017334 0.000119629 5.37109e-05 0.000131836 9.52148e-05 1.70898e-05 8.54492e-05 0.000170898 0.000192871 0.000183105 3.41797e-05 0.000219727 6.83594e-05 0.000224609 0.000212402 0.000195313 0.000136719 7.32422e-06 9.76563e-06 3.41797e-05 0.000192871 3.41797e-05 0.000209961 2.44141e-06 3.90625e-05 7.32422e-06 1.95313e-05 0.00019043 4.63867e-05 0.000224609 0.000200195 0.000166016 0.000100098 1.70898e-05 3.17383e-05 0.000126953 0.000146484 0.00020752 0.000153809 0.000200195 9.0332e-05 6.5918e-05 9.0332e-05 9.52148e-05 0.000231934 0.000109863 1.70898e-05 0.000114746 6.34766e-05 7.32422e-05 4.15039e-05 8.05664e-05 0.000136719 5.85937e-05 4.63867e-05 0.000100098 6.34766e-05 5.85937e-05 2.44141e-05 0.000219727 2.44141e-05 3.17383e-05 2.19727e-05 0.00015625 7.8125e-05 0.00012207 0.000234375 7.32422e-06 7.32422e-06 3.90625e-05 0.000126953 7.8125e-05 0.000219727 0.000214844 0.000153809 0.000114746 0.000112305 0.000109863 0.000153809 0.000239258 8.05664e-05 0.000141602 0.000129395 0.000158691 5.61523e-05 0.000112305 0.000102539 0.000153809 0.000117187 0.000166016 0.000227051 2.92969e-05 4.88281e-06 0.000227051 0.000180664 4.63867e-05 0.000187988 2.92969e-05 6.83594e-05 7.32422e-05 6.83594e-05 9.76563e-06 0.000102539 0.000212402 0.000239258 0.000195313 0.000151367 0.000109863 8.05664e-05 0.000222168 0.000178223 5.85937e-05 0.000217285 0.000187988 8.05664e-05 0.000209961 3.17383e-05 0.000170898 3.17383e-05 0.00019043 0.000178223 6.34766e-05 0.00010498 0.00020752 7.32422e-06 0 0.00017334 5.37109e-05 0.000241699 0.000183105 0.000124512 6.10352e-05 2.92969e-05 5.37109e-05 2.92969e-05 0.000175781 0.000109863 0.000161133 0.00015625 3.41797e-05 0.000129395 0.000129395 7.32422e-05 2.19727e-05 0.000163574 0.000148926 6.10352e-05 2.44141e-05 9.76563e-06 0.000202637 7.08008e-05 5.61523e-05 4.15039e-05 9.0332e-05 0.000151367 0.000214844 0.00015625 0.000163574 5.37109e-05 0.000126953 4.39453e-05 1.2207e-05 0.000148926 0.000229492 9.27734e-05 9.76563e-06 0.00010498 8.54492e-05 0.000117187 0.000151367 3.66211e-05 8.30078e-05 0.000119629 0.000229492 0.000148926 0.000153809 8.30078e-05 0 0.00020752 0.000146484 5.61523e-05 1.2207e-05 0.000217285 0.000217285 6.10352e-05 0.000144043 1.70898e-05 0.000180664 0.00020752 0.000224609 0.000146484 3.41797e-05 0.000124512 3.90625e-05 0.000185547 0.000102539 8.54492e-05 0.000134277 4.88281e-05 0.000192871 0.000202637 0.000231934 0.000202637 0.000234375 0.000100098 0.000112305 7.8125e-05 0.000202637 0.000209961 0 5.85937e-05 0.000161133 7.32422e-06 0.000214844 0.000153809 7.08008e-05 0.00017334 0.000231934 5.12695e-05 9.27734e-05 0.000180664 0.000178223 0.000197754 0.000166016 1.2207e-05 0.000170898 7.32422e-05 5.85937e-05 0.000109863 0.000185547 7.08008e-05 0.000166016 0.000205078 0.000202637 5.37109e-05 8.05664e-05 0.000227051 1.2207e-05 0.000100098 0.000146484 2.92969e-05 0.000117187 7.32422e-06 0.00015625 6.34766e-05 0.000117187 0.00013916 0.00012207 0.000219727 2.44141e-06 0.000170898 0.000119629 0.000126953 0.000175781 0.00013916 0.000236816 0.000205078 3.17383e-05 0.000119629 0.000148926 0.000131836 0.000161133 0.000229492 0.000136719 5.12695e-05 0.00020752 0.000170898 0.000195313 0.000200195 7.32422e-06 0.000151367 0.000175781 7.56836e-05 0.000195313 1.70898e-05 0 3.66211e-05 0.000168457 2.92969e-05 4.15039e-05 2.68555e-05 0.000109863 0.000166016 3.66211e-05 4.39453e-05 4.63867e-05 0.000224609 0.000187988 0.00013916 9.76563e-05 9.52148e-05 0.000126953 0.000227051 0.000224609 0.000187988 0.000126953 0.00020752 0.00019043 0.000217285 0.000209961 0.000153809 0 0.000158691 5.61523e-05 0.000222168 0.000192871 2.44141e-06 0.000222168 0.000102539 0.000163574 1.95313e-05 0.000209961 0.000224609 0.000192871 4.88281e-05 0.000124512 3.90625e-05 0.000100098 0.000148926 2.44141e-05 0.000200195 0.000144043 0.000234375 7.32422e-06 9.52148e-05 0.000126953 1.95313e-05 0.000222168 0.00015625 0.000136719 0.000217285 4.88281e-06 2.44141e-06 0.00013916 0.000153809 0.000102539 0.00015625 0.000124512 0.000185547 0.000153809 4.88281e-05 0.000222168 6.10352e-05 8.78906e-05 0.000126953 9.76563e-06 3.41797e-05 0.000197754 0.000239258 0.000236816 2.44141e-05 0.000197754 0.000200195 7.32422e-05 0.000170898 0.000141602 0.00010498 2.19727e-05 0.000126953 7.56836e-05 0.00010498 0.000224609 9.52148e-05 0.00013916 1.46484e-05 0.00015625 0.000163574 0.000119629 0.000134277 0.00010498 0.000183105 0.000205078 0.000185547 0.000124512 0.000202637 0.000175781 0.00017334 0.000170898 6.34766e-05 0.00017334 2.44141e-06 0.000119629 0.000129395 2.19727e-05 1.46484e-05 0.000148926 0.000146484 9.27734e-05 9.0332e-05 0.000229492 3.17383e-05 0.000214844 8.05664e-05 0.000112305 0.000219727 0.000202637 8.78906e-05 0.00012207 0.000153809 0.000202637 6.5918e-05 0.000212402 0.00013916 6.34766e-05 3.66211e-05 6.83594e-05 0.000168457 5.12695e-05 6.34766e-05 0.000180664 4.88281e-05 0.000131836 0.000166016 0.000126953 0.000180664 6.83594e-05 0.000166016 1.95313e-05 0.00013916 9.52148e-05 0.000161133 0.000168457 0.000241699 8.54492e-05 1.70898e-05 0.000222168 0.000117187 5.61523e-05 5.61523e-05 9.76563e-06 2.44141e-06 2.92969e-05 0.000178223 0.000241699 0.00017334 9.76563e-06 0.000202637 0.000163574 0.000100098 0 4.88281e-05 7.8125e-05 0.000183105 0.000197754 0.000214844 7.32422e-05 0.000231934 8.30078e-05 9.52148e-05 0.00010498 0.000161133 0.000224609 4.15039e-05 0.000227051 0.00012207 8.78906e-05 7.56836e-05 3.17383e-05 0.00017334 0.00013916 0.000109863 0.000117187 1.46484e-05 0.000151367 0.000117187 1.95313e-05 0.00020752 9.27734e-05 2.44141e-05 0.00019043 0.000148926 4.88281e-05 4.39453e-05 0.000178223 0.000234375 8.05664e-05 0.000234375 1.70898e-05 0.000183105 0.000195313 0.000134277 5.37109e-05 0.000124512 0.000102539 0.000219727 0.000229492 3.17383e-05 2.44141e-05 8.54492e-05 0.000129395 0.000175781 0.00019043 0.000146484 9.76563e-05 4.88281e-06 0.000102539 0.00015625 0.000146484 0.000212402 0.00013916 0.000166016 7.32422e-06 0.000217285 0.000112305 0.000112305 0.00010498 7.32422e-06 0.000178223 8.78906e-05 7.32422e-06 1.2207e-05 2.44141e-05 0.000187988 0.000200195 5.85937e-05 0.000166016 7.08008e-05 0.000234375 9.27734e-05 0.000170898 2.68555e-05 0.00015625 3.66211e-05 3.41797e-05 0.000166016 0.000239258 0.00020752 0.000153809 8.05664e-05 0.000205078 0.00020752 8.05664e-05 0.00017334 0.000117187 7.56836e-05 4.88281e-06 6.34766e-05 9.76563e-06 9.76563e-05 0.000241699 0 1.46484e-05 0.00012207 0.000134277 0.00015625 0.000100098 4.88281e-05 0.000153809 0.000222168 0.000224609 0.000183105 0.000124512 2.19727e-05 3.17383e-05 0.000126953 8.78906e-05 0.000202637 0.000185547 0.000209961 0.000124512 6.83594e-05 0.000217285 0.000170898 0.000178223 4.15039e-05 0.000144043 5.37109e-05 8.54492e-05 0.000178223 0.000241699 7.56836e-05 0.000214844 0.00013916 0.000166016 0.00019043 1.70898e-05 0.000168457 0 0.000146484 5.61523e-05 1.70898e-05 8.78906e-05 3.17383e-05 3.41797e-05 2.68555e-05 0.000124512 0.000131836 5.12695e-05 0.000231934 0.000148926 0.000102539 0.000219727 0.000195313 2.44141e-06 0.000146484 7.32422e-05 0.00019043 0.00017334 2.44141e-06 0.000119629 7.8125e-05 0.000124512 6.5918e-05 0.000212402 0.000209961 0.000180664 6.10352e-05 3.90625e-05 4.88281e-06 2.92969e-05 4.15039e-05 0.000124512 6.34766e-05 0.00020752 2.68555e-05 1.46484e-05 0.00013916 0.000117187 0.000192871 0.00013916 1.70898e-05 8.78906e-05 6.34766e-05 0.000148926 4.15039e-05 7.08008e-05 4.15039e-05 6.5918e-05 8.78906e-05 5.85937e-05 0.000187988 0.000178223 0.000102539 1.46484e-05 0.000227051 3.90625e-05 2.92969e-05 0.000102539 7.32422e-05 0.000126953 2.19727e-05 1.70898e-05 4.15039e-05 6.5918e-05 4.88281e-06 6.5918e-05 7.56836e-05 9.76563e-06 4.15039e-05 0.000124512 9.0332e-05 8.54492e-05 7.8125e-05 4.63867e-05 0.000185547 0.000234375 0.000234375 0.000239258 0.000236816 0.000236816 0.00013916 0.000129395 0.000161133 0.000231934 0.00017334 0.000124512 0.000209961 0.000187988 9.0332e-05 0.000129395 9.52148e-05 0.00010498 6.34766e-05 7.32422e-06 0.000175781 0.000168457 9.0332e-05 3.66211e-05 7.32422e-06 9.76563e-06 0.000217285 0.000222168 0.000227051 0.000212402 0.000236816 6.10352e-05 8.78906e-05 0.000131836 0 0.000114746 0.000180664 2.68555e-05 0.000195313 0.00015625 3.90625e-05 5.61523e-05 2.92969e-05 6.34766e-05 2.68555e-05 0.000163574 0.00010498 0.000224609 6.34766e-05 3.41797e-05 0.000114746 0.000229492 0.000126953 0.000170898 0.000114746 8.54492e-05 6.83594e-05 0.000148926 7.8125e-05 0.00012207 0.000153809 0.000131836 0.000170898 8.30078e-05 0.000224609 3.90625e-05 2.19727e-05 0.000231934 9.52148e-05 0.00012207 0.000141602 0.000224609 0.000112305 5.61523e-05 5.85937e-05 0.000212402 0.000231934 2.44141e-06 0.000219727 0.000168457 2.92969e-05 9.76563e-06 0.000170898 0.000151367 1.70898e-05 0.000236816 4.39453e-05 0.000178223 0.00019043 0.000134277 8.54492e-05 5.61523e-05 0.00012207 4.88281e-05 0.000166016 0.000151367 5.37109e-05 5.12695e-05 6.83594e-05 3.90625e-05 0.00017334 4.88281e-06 0.00020752 0.000168457 0.000187988 0.000219727 5.61523e-05 0.000170898 0.000129395 0.000236816 0.000195313 4.88281e-06 3.17383e-05 0.000124512 3.41797e-05 4.88281e-06 2.68555e-05 5.61523e-05 5.85937e-05 0.00010498 0.000148926 5.85937e-05 0.000109863 0.000219727 0.000195313 8.78906e-05 0.000119629 0.000129395 0.000126953 8.30078e-05 0.000146484 7.08008e-05 7.32422e-06 6.34766e-05 1.95313e-05 0.00015625 1.46484e-05 4.88281e-06 0.00013916 6.5918e-05 3.90625e-05 2.68555e-05 0.000153809 0.000161133 0.000126953 2.92969e-05 6.83594e-05 0.000141602 0.000131836 0.000241699 0.000109863 0.000153809 0.00020752 6.10352e-05 0.000180664 0.000183105 0.000144043 8.54492e-05 0.000124512 0.000212402 8.78906e-05 0.000180664 0.000168457 0.000170898 0.000134277 0.000144043 0.000185547 0.000183105 5.61523e-05 0.000241699 0.000241699 0.000151367 0.000178223 2.92969e-05 0.000163574 9.76563e-05 5.61523e-05 9.0332e-05 0.000134277 5.37109e-05 3.90625e-05 0.00010498 0.00017334 0.000117187 0.000236816 3.17383e-05 0.000141602 0.000222168 4.88281e-05 3.90625e-05 0.000141602 0.000178223 0.000161133 0.000131836 2.68555e-05 0.000134277 7.56836e-05 0.000185547 0.000134277 7.56836e-05 6.83594e-05 0.000114746 4.88281e-05 0.000222168 6.83594e-05 0.000175781 0.000229492 8.30078e-05 0.000205078 0.000161133 7.32422e-06 9.27734e-05 0.000153809 0.000212402 9.76563e-05 0.000187988 0.000200195 6.34766e-05 0.000161133 6.83594e-05 2.68555e-05 0.000146484 0.000236816 5.12695e-05 0.000185547 0.000102539 1.70898e-05 0.000205078 5.37109e-05 6.34766e-05 0.000214844 0.00015625 0.000222168 0.000231934 4.15039e-05 3.41797e-05 0.000178223 9.27734e-05 7.32422e-05 0.000222168 0.000166016 0.000231934 9.0332e-05 0.000151367 3.41797e-05 0.000166016 8.54492e-05 7.8125e-05 0.000224609 7.8125e-05 6.10352e-05 6.5918e-05 0.000163574 3.66211e-05 0.000175781 0.000175781 0.000236816 7.08008e-05 9.76563e-06 0.000100098 0.000102539 0 0.000231934 0.00017334 0.000200195 0.000141602 2.92969e-05 0.000117187 5.61523e-05 7.56836e-05 8.30078e-05 0.000124512 2.68555e-05 0.000112305 0.000124512 4.88281e-06 0.000175781 0.000151367 0.000119629 5.85937e-05 0.000124512 0.000126953 0.000222168 0.000107422 0.00019043 9.76563e-05 0.000163574 7.32422e-06 7.8125e-05 7.8125e-05 2.68555e-05 5.37109e-05 5.12695e-05 0.000231934 2.19727e-05 2.44141e-05 0.00010498 2.44141e-06 0.000153809 0.000212402 1.95313e-05 3.41797e-05 0.000114746 0.000131836 0.000119629 0.000239258 7.32422e-06 3.41797e-05 0.000151367 4.88281e-05 0.00020752 7.08008e-05 0.000124512 4.88281e-06 4.15039e-05 4.88281e-05 0.000209961 0.000163574 0.000192871 3.90625e-05 0.000209961 6.34766e-05 0.000239258 0.000183105 0.000107422 0.000202637 0.000100098 2.44141e-05 3.90625e-05 4.63867e-05 4.39453e-05 0.000195313 3.41797e-05 5.85937e-05 4.88281e-05 9.76563e-05 0.00013916 0.00020752 0.000109863 8.30078e-05 6.83594e-05 8.54492e-05 6.5918e-05 0.000222168 0.000212402 0.00020752 0.00019043 0.000100098 0.000126953 0.000170898 0.000192871 0.000129395 8.54492e-05 9.76563e-05 0 6.83594e-05 3.66211e-05 0.00010498 2.68555e-05 0.000234375 4.39453e-05 6.34766e-05 0.000202637 0.000136719 0.000112305 2.44141e-06 3.17383e-05 0.000197754 2.92969e-05 0.000163574 0.000136719 4.39453e-05 4.88281e-06 9.27734e-05 7.32422e-06 4.39453e-05 0.000224609 7.32422e-05 4.39453e-05 0.000187988 0.000224609 0.000229492 0.000212402 3.90625e-05 6.5918e-05 0.000236816 1.46484e-05 0.000148926 0.000217285 0.000144043 0.000214844 0.000231934 0.000234375 7.32422e-05 0 6.10352e-05 0.000234375 0.00015625 4.88281e-06 0.000109863 0.000229492 7.32422e-05 1.95313e-05 0.000163574 0.000163574 4.88281e-06 0.000209961 0.000209961 4.88281e-06 4.88281e-05 1.46484e-05 0.000112305 1.46484e-05 0.000151367 0.00015625 2.68555e-05 0.000100098 2.44141e-05 0.000180664 0.000163574 0.000117187 6.83594e-05 0.000202637 0.000229492 9.76563e-05 6.83594e-05 2.44141e-06 0.000119629 1.95313e-05 0.000168457 0.000175781 9.76563e-06 0.000134277 2.68555e-05 1.2207e-05 0.000163574 6.83594e-05 0.00010498 0.000144043 0.000166016 0.000217285 0 0.000168457 0.000209961 0.00012207 0 0.000129395 9.0332e-05 7.32422e-05 0.000114746 4.63867e-05 0.000214844 0.000209961 0.000200195 0.000205078 0.000124512 9.76563e-05 1.95313e-05 0.000107422 8.54492e-05 3.17383e-05 4.15039e-05 0.000209961 0.000141602 0.000114746 3.17383e-05 0.000107422 0.000202637 0.000102539 0.000195313 0.000202637 8.30078e-05 0.000227051 0.000168457 0.000163574 0.000107422 7.56836e-05 0.000107422 9.27734e-05 0.000239258 0.000202637 7.32422e-06 0.00020752 0.00012207 4.88281e-05 6.83594e-05 6.83594e-05 0.000217285 5.12695e-05 0.000119629 0.000134277 0.000180664 6.83594e-05 2.92969e-05 0.000205078 0.000185547 0.000229492 0.000129395 0.000205078 0.000166016 0.000202637 2.19727e-05 0 0.00013916 0.000227051 0.000205078 5.12695e-05 4.88281e-05 2.44141e-05 7.32422e-06 3.66211e-05 0.00013916 0.000217285 6.34766e-05 3.17383e-05 0.000222168 0.000131836 0.000202637 0.000141602 0.000224609 0.000114746 0.000214844 0.000197754 0.000185547 0.000227051 8.05664e-05 0.000134277 0.000136719 0.000134277 3.41797e-05 2.19727e-05 0.000205078 0.000202637 7.8125e-05 0.000146484 0.000180664 9.52148e-05 7.08008e-05 0.00019043 0.000148926 8.54492e-05 0.000146484 7.08008e-05 3.90625e-05 0.000192871 0.000227051 4.88281e-06 9.0332e-05 0.000107422 8.54492e-05 8.30078e-05 3.90625e-05 0.00012207 0.000117187 0.00017334 6.83594e-05 0.000234375 0.000168457 0.000151367 0.000153809 0.000144043 0.000161133 9.76563e-06 3.17383e-05 0.000224609 0.000219727 0.000153809 4.63867e-05 0.000109863 9.52148e-05 0.00019043 2.44141e-06 9.27734e-05 0.000100098 0.000241699 0.000180664 3.90625e-05 9.76563e-06 0.000117187 0.000141602 0.000158691 3.66211e-05 0.000136719 0.000109863 8.05664e-05 0.00012207 0.000234375 8.30078e-05 0.000197754 2.92969e-05 3.41797e-05 7.32422e-05 9.27734e-05 8.05664e-05 0.000107422 4.39453e-05 0.000107422 4.88281e-06 2.68555e-05 0.000151367 0.000166016 0.000192871 7.08008e-05 0.000202637 1.46484e-05 0.000183105 0.000219727 0.000222168 0.000163574 0.00019043 1.95313e-05 0.000185547 3.41797e-05 0.000144043 0.000178223 0.000153809 0.000170898 2.44141e-06 5.85937e-05 4.39453e-05 0.000192871 0.000158691 0.000236816 0.000202637 0.00015625 9.76563e-06 0.000158691 0.00010498 0.000236816 0.00013916 0.000151367 0.000168457 0.000234375 0 6.83594e-05 7.32422e-06 0.000197754 0 0.000109863 0.000241699 0.000168457 7.8125e-05 0.000166016 6.34766e-05 1.95313e-05 2.92969e-05 1.95313e-05 0.000209961 0.000163574 0.000239258 4.63867e-05 2.92969e-05 9.76563e-05 0.000166016 3.17383e-05 0.000214844 0.000178223 4.63867e-05 0.000163574 0.000202637 6.10352e-05 0.000219727 0.000107422 0.000180664 0.000224609 0.000114746 4.88281e-06 9.0332e-05 5.12695e-05 0.000234375 0.000205078 6.5918e-05 0.000239258 4.88281e-06 1.70898e-05 0.000234375 0.000197754 6.34766e-05 0.000161133 7.32422e-05 9.0332e-05 0.000158691 9.27734e-05 9.76563e-06 0.000239258 1.46484e-05 0.000168457 9.76563e-06 9.76563e-05 2.19727e-05 0.000192871 3.90625e-05 5.85937e-05 7.32422e-06 0.000241699 9.52148e-05 4.39453e-05 0.000134277 9.76563e-05 0.000200195 9.52148e-05 0.000124512 1.70898e-05 8.05664e-05 0.000229492 0.000114746 0.000161133 0.00012207 5.12695e-05 0.000224609 0.000227051 2.68555e-05 0.000234375 3.17383e-05 0 0.000229492 0.00019043 8.54492e-05 5.37109e-05 0.000144043 0.000112305 0.000163574 0.000214844 0.000158691 0.000107422 1.95313e-05 0.000119629 0.000239258 1.95313e-05 0.000197754 6.10352e-05 1.95313e-05 8.54492e-05 0.000136719 0.000144043 2.44141e-05 0.000178223 0.000134277 3.66211e-05 9.76563e-05 1.46484e-05 2.68555e-05 0.000202637 0.000180664 0.000231934 3.66211e-05 0.000131836 0.000241699 0.000136719 4.39453e-05 9.52148e-05 0.000185547 7.32422e-06 0.000175781 0.000192871 1.46484e-05 0.000126953 0.000229492 6.10352e-05 0.00019043 0.000241699 1.95313e-05 2.44141e-06 1.95313e-05 7.08008e-05 0.000192871 6.5918e-05 0.00012207 0.00012207 0.000163574 4.15039e-05 0.000239258 0.000229492 0.000222168 0.000185547 0.000158691 0.000136719 7.32422e-05 1.70898e-05 0.000119629 0.000144043 6.83594e-05 6.83594e-05 0.000197754 0.000241699 0.000148926 0.000231934 0.000231934 7.32422e-06 0.000217285 9.76563e-06 0.00010498 0.000231934 2.19727e-05 1.95313e-05 5.37109e-05 5.85937e-05 7.08008e-05 0.000114746 0.000112305 0.000192871 0.000124512 2.44141e-06 0.000175781 4.88281e-06 2.68555e-05 0.000202637 0.000148926 2.44141e-06 2.68555e-05 0.000153809 0.000227051 1.2207e-05 1.95313e-05 0.00012207 8.05664e-05 4.39453e-05 7.32422e-05 0.000107422 0.000175781 0.000170898 5.85937e-05 0.000100098 0.00020752 1.70898e-05 3.90625e-05 3.66211e-05 9.52148e-05 3.17383e-05 5.37109e-05 0.000234375 0.000126953 3.41797e-05 0.000151367 4.15039e-05 6.34766e-05 7.32422e-05 0.000222168 0 1.70898e-05 6.5918e-05 0.000158691 0.000131836 6.83594e-05 0.000146484 0.000192871 0.000163574 0.000205078 4.63867e-05 0.000239258 6.34766e-05 0.000141602 4.15039e-05 0.000107422 0 0.00015625 0.000119629 0.000195313 0.000119629 0.000236816 0.000187988 3.17383e-05 0.000236816 0.000219727 3.90625e-05 0.000119629 3.90625e-05 9.76563e-06 8.30078e-05 0.000234375 0.000241699 0.000109863 0.000239258 0.000148926 0.000178223 7.8125e-05 0.000197754 7.8125e-05 0.000151367 0.000141602 0.00015625 0.000100098 9.27734e-05 5.61523e-05 0.000136719 0.000234375 0.000148926 9.76563e-05 0.000163574 3.41797e-05 4.88281e-06 0.000200195 0.00019043 0.000163574 4.39453e-05 0.000200195 2.92969e-05 0.000202637 1.70898e-05 0.00017334 0.000209961 0.000151367 0.000234375 4.15039e-05 0.000109863 0.000212402 0.000183105 0.000163574 0.000185547 9.76563e-06 5.85937e-05 0.000183105 3.66211e-05 0.000224609 7.32422e-06 0.000126953 5.37109e-05 9.0332e-05 3.17383e-05 9.0332e-05 3.41797e-05 0.000129395 0.000144043 6.83594e-05 0 4.63867e-05 0.000175781 3.41797e-05 8.78906e-05 0.000148926 0.000234375 8.05664e-05 0.000197754 0.00015625 4.88281e-05 7.32422e-05 0.000102539 0.000219727 1.95313e-05 0.000183105 0.000175781 0.000163574 0.000134277 0.000214844 0.000100098 2.68555e-05 0.000100098 0.000200195 0.000166016 0.000241699 0.000134277 0.00010498 3.41797e-05 0.000219727 0.000241699 0.00013916 4.15039e-05 0.000200195 4.39453e-05 1.2207e-05 0.000219727 8.54492e-05 0.000200195 0.000124512 2.44141e-06 0.000134277 0.000192871 0.000134277 6.5918e-05 0.000180664 0.000205078 0.00012207 4.63867e-05 9.76563e-06 8.30078e-05 0.000114746 0.000100098 2.19727e-05 8.05664e-05 6.5918e-05 7.32422e-06 4.15039e-05 0.000166016 0.000124512 5.61523e-05 1.95313e-05 0.000239258 7.8125e-05 4.63867e-05 1.70898e-05 5.85937e-05 9.52148e-05 0.00010498 0.000195313 6.10352e-05 4.88281e-06 1.95313e-05 0.000219727 0.000212402 0.000161133 2.19727e-05 0.000178223 0.000185547 0.000241699 3.66211e-05 8.78906e-05 5.12695e-05 9.0332e-05 0.000148926 0.000153809 0.000209961 0.000217285 4.15039e-05 0.00017334 0.000180664 0.00010498 0.000166016 0.000117187 0.000227051 9.76563e-06 0.000124512 0.000212402 7.32422e-06 0.000241699 9.52148e-05 8.05664e-05 0.000200195 9.76563e-05 6.34766e-05 0.000170898 0.000102539 0.000161133 9.76563e-06 7.8125e-05 0.000205078 0.000112305 0.000119629 6.34766e-05 4.15039e-05 0.000180664 9.52148e-05 0.000158691 9.76563e-06 0.000200195 0.000141602 0.000112305 1.70898e-05 0.000107422 0.00012207 2.44141e-05 0.000112305 0.00017334 0.000100098 0.000219727 0.000197754 7.32422e-06 5.37109e-05 4.15039e-05 0.000175781 1.70898e-05 0.000148926 0.000161133 0.000124512 0.000144043 0.000224609 8.30078e-05 4.88281e-06 7.56836e-05 7.08008e-05 2.68555e-05 1.2207e-05 1.70898e-05 0.00013916 0.000170898 0.000126953 0.000175781 6.83594e-05 4.88281e-06 0.000202637 9.52148e-05 4.88281e-06 0.000109863 0.000214844 0.000195313 2.19727e-05 0.000134277 7.08008e-05 7.32422e-05 9.76563e-05 0.000195313 7.32422e-06 0.000219727 9.76563e-06 0.000222168 0.000163574 0.000109863 0.000146484 0.000187988 0.000214844 0.000178223 0.000192871 0.000170898 0.000187988 0.00012207 7.08008e-05 5.37109e-05 0.000217285 2.44141e-06 2.19727e-05 1.46484e-05 0.000136719 2.44141e-05 0.000227051 0.000170898 0 6.5918e-05 0.000222168 7.32422e-05 0.000146484 6.83594e-05 1.95313e-05 7.8125e-05 4.88281e-05 0.000146484 4.88281e-06 0.000168457 0.000129395 0.000224609 0.000239258 4.15039e-05 0.000227051 0.00019043 0.000200195 0.000126953 4.88281e-06 4.15039e-05 0.000183105 5.37109e-05 7.32422e-06 7.32422e-06 0.00010498 7.56836e-05 7.8125e-05 2.68555e-05 8.30078e-05 0.000205078 8.78906e-05 5.85937e-05 0.000102539 0.0158406 -0.00426144 0.00971175 0.00242798 0.0200044 0.0707572 0.0189283 -0.0194362 0.0149443 -0.00476863 -0.0199903 0.00873974 0.000447204 0.00096686 -0.0150227 0.0114587 0.0100845 -0.0238692 0.0121443 0.0092743 0.00279942 0.00264198 -0.00849493 0.0143843 0.00201331 0.00474229 -0.00286015 -0.0398301 -0.000681686 -0.00512493 0.0016539 0.0145414 -0.00240602 -0.0218725 0.00179434 -0.00811847 -0.00729983 0.00610955 0.007689 0.0113014 0.00872327 0.00384921 0.0146927 -0.0315197 0.0204871 0.00622087 0.010682 0.00868351 0.000534832 0.0127444 0.0250181 -0.0156812 0.00127651 0.0067849 0.00475732 0.0089166 -0.0030684 0.000804376 -0.0128314 0.0418276 0.00704999 0.00862868 0.0118941 -0.0852663 0.0685099 -0.0219887 0.0792902 -0.0105259 0.0915551 0.215102 0.0724823 -0.065873 0.0557925 -0.00618963 -0.0405111 0.0350598 0.0156513 0.0392644 -0.0504882 0.0414657 0.0111687 -0.0668296 0.0254884 0.0456277 0.0155654 -0.00732909 0.0200086 0.045816 0.0201878 -0.049412 -0.0150087 -0.108607 -0.00709028 -0.0164885 -0.0121259 0.0467804 -0.0121645 -0.0680893 0.0212683 -0.0178799 -0.0157016 0.0291413 0.0179903 0.045408 0.0268242 0.0221151 0.0422623 -0.0955167 0.0493897 0.0424805 0.0415535 0.0388341 -0.0015799 0.0818626 0.0958602 -0.0674291 0.0188598 0.0299152 0.0229203 0.0256151 -0.0108103 0.0636409 -0.0361675 0.129359 -0.000751821 0.0567452 0.0563006 -0.261731 0.107591 -0.0383297 0.165135 -0.0394756 0.149903 0.238953 0.104658 -0.0830481 0.0783594 0.00628502 -0.0133503 0.0527873 0.039468 0.0995108 -0.0632942 0.0566052 -0.0169296 -0.0653572 0.0110726 0.0783731 0.0285884 -0.0320633 0.0936164 0.0550699 0.0450158 -0.152312 -0.0255001 -0.101845 -0.0160558 -0.0198889 -0.0398169 0.0560331 -0.0208068 -0.0776261 0.0488519 -0.0086714 -0.00721173 0.0488842 0.0123129 0.0678186 0.0310957 0.0406787 0.0432289 -0.10525 0.0346862 0.0841716 0.0603019 0.0634536 -0.00670872 0.1582 0.138035 -0.105075 0.0450797 0.0488264 0.0389188 0.0269698 -0.0139352 0.165515 -0.035199 0.147347 -0.0350591 0.110316 0.0934826 -0.29473 0.0820862 -0.0268592 0.100205 -0.015482 0.110205 0.244982 0.0856132 -0.0764582 0.065783 -0.00545332 -0.0423031 0.0415617 0.0206604 0.0517512 -0.0583385 0.048468 0.00917298 -0.0749437 0.0269248 0.0553399 0.0192899 -0.0114023 0.0317067 0.0526893 0.0258572 -0.0685387 -0.018109 -0.121345 -0.00919619 -0.0189221 -0.0172577 0.0536886 -0.0147282 -0.0779438 0.027445 -0.0190077 -0.0166405 0.0354085 0.0197022 0.0539458 0.0307962 0.0272781 0.0474989 -0.10858 0.0536548 0.0529375 0.0488767 0.0467675 -0.00236728 0.101808 0.113222 -0.0804229 0.0246345 0.0360617 0.027704 0.0290839 -0.0126571 0.0843968 -0.0404293 0.147753 -0.00526012 0.0703852 0.0678096 -0.298582 0.0804672 -0.0564983 0.0760296 -0.0592246 0.0944256 0.224473 0.0865659 -0.129898 0.0934086 -0.0440196 -0.0553711 0.0851341 0.0158628 0.0195861 -0.0188986 0.0671243 0.0169705 -0.12564 -0.106095 0.0748195 0.0239046 -0.0392024 -0.00257217 0.036985 0.0352307 0.0466267 -0.0392757 -0.22188 -0.00371367 -0.0412367 -0.0480786 0.0708646 -0.0446089 -0.0517705 0.0338155 -0.0516504 -0.13185 -0.0554785 0.0161558 0.0659372 0.140083 0.0201325 0.128214 -0.0965324 0.0947002 0.0712607 0.037653 0.0746851 -0.0566272 0.132935 -0.00194284 -0.081798 0.0391136 0.110389 0.0287142 0.0411089 0.0173106 0.0469741 -0.0178591 0.163568 0.0338083 0.0739863 0.0633024 -0.247781 0.123337 -0.117422 0.04854 -0.0199447 0.113869 0.180835 0.119189 -0.128974 0.129159 -0.104605 -0.0198531 0.136172 0.0307701 0.0387519 0.106537 0.11063 -0.0130281 -0.215273 -0.272432 0.152613 0.0403444 -0.119317 0.0435167 0.0876032 0.0786023 0.072941 -0.0907891 -0.32063 -0.00548902 0.0921402 -0.0245717 0.231168 -0.106625 -0.0537543 0.0783812 -0.0374263 -0.181621 -0.257186 -0.027574 0.0720092 0.276428 0.0255718 0.252485 -0.0681843 0.266361 0.135663 -0.00295474 0.109074 -0.159276 0.00296862 -0.111131 -0.0686427 -0.00298384 0.0758116 0.0298869 0.00413447 0.0779335 0.0705073 0.0328596 0.192344 0.0759869 0.0854219 0.0998278 -0.0337899 0.126814 -0.104664 0.0175479 -0.0446952 0.0823708 0.189293 0.104674 -0.13626 0.126474 -0.133227 -0.0213716 0.116501 0.0137859 0.0338789 0.0970498 0.0869299 -0.0301673 -0.249572 -0.204963 0.126211 0.0393031 -0.119315 0.0136265 0.0715465 0.0807011 0.0856175 -0.0703596 -0.368749 -0.00861523 0.140726 -0.0319109 0.31086 -0.0782306 -0.075164 0.0548646 0.0306678 -0.20091 -0.247688 -0.0124827 0.0172664 0.256167 0.00971909 0.239879 -0.0746197 0.353065 0.117949 -0.0153268 0.10491 -0.106456 -0.0789933 0.0126338 -0.0666184 -0.0233984 0.0577399 0.0192064 -0.0177536 0.0816726 0.0586739 0.0116587 0.18475 0.0951785 0.0876119 0.082306 -0.000803592 0.0903132 -0.0616714 0.0144591 -0.0871133 0.0659232 0.220649 0.0784555 -0.14292 0.0989072 -0.107507 -0.0458329 0.0776657 -0.0083788 0.0158088 -0.0228354 0.0514549 -0.010363 -0.209514 -0.076692 0.0619975 0.01927 -0.0621945 -0.0246786 0.0330795 0.0449936 0.0635181 -0.0313217 -0.341935 -0.0130629 0.0905184 -0.0561004 0.287813 -0.0297434 -0.0861477 0.0187998 0.0142147 -0.184382 -0.0778334 0.0231625 -0.00675465 0.158236 0.00608065 0.177621 -0.0969275 0.328515 0.0675816 0.000352351 0.0789291 -0.0286198 -0.0683771 0.09739 -0.0805602 -0.0102078 0.0725065 0.010415 0.00146119 0.0548572 0.0370207 -0.0285162 0.161634 0.0792426 0.0828478 0.0526171 -0.0876696 -0.0388522 -0.0683535 0.0125583 -0.0343741 0.125272 0.23116 0.0833303 -0.191466 0.0671312 -0.155706 -0.0475169 0.11806 -0.0113915 -0.00139406 -0.114502 0.062086 0.00508208 -0.201201 -0.0723471 0.00532321 -0.0654537 -0.0255993 0.0274129 0.0229495 0.00130091 -0.0167585 -0.0212584 -0.315753 0.0582922 0.0619503 -0.0648137 0.252617 -0.0114356 -0.102288 0.0433872 -0.0689471 -0.179723 -0.0224602 0.0152203 0.0190867 0.115459 0.00477036 0.16217 -0.102912 0.541578 0.0775075 0.0111405 0.0351738 0.141398 -0.0876648 0.058096 -0.086894 -0.036409 0.0465725 0.00995351 0.0347941 0.0556443 -0.0207392 -0.00159648 0.154227 0.0671949 0.083641 0.0721404 -0.137426 -0.0488066 -0.0675943 0.0284297 -0.0266302 0.131684 0.232983 0.0843816 -0.196502 0.0656063 -0.150203 -0.0489868 0.123662 -0.00522731 -0.00062398 -0.10872 0.0643483 0.0065983 -0.185662 -0.0749093 0.00235165 -0.0688393 -0.0210261 0.0340512 0.0196851 -0.000188932 -0.0215008 -0.019764 -0.288361 0.0692085 0.0263123 -0.065385 0.189881 -0.00970537 -0.0955788 0.0467221 -0.0710888 -0.172095 -0.0285899 0.0138247 0.0320148 0.110515 0.00345616 0.141918 -0.102971 0.500249 0.0802224 0.0218549 0.0324652 0.160498 -0.0315548 0.056764 -0.086641 -0.025682 0.0552209 0.0148856 0.0435761 0.0444756 -0.022689 0.00182968 0.154216 0.0568864 0.0837527 0.0749376 -0.188802 -0.0577076 -0.0712715 0.0572677 -0.0331314 0.141085 0.227109 0.0935528 -0.195773 0.0657086 -0.209885 -0.0857667 0.131411 0.010649 -0.0217806 -0.109315 0.0737853 0.00235303 -0.152533 -0.0326904 0.0129242 -0.0565033 0.093323 0.0430129 0.00781468 0.0079211 0.00648367 0.00301733 -0.245587 0.0777882 -0.0266524 -0.0725345 0.106099 0.0135096 -0.07513 0.0540773 -0.0603172 -0.226932 -0.0162407 0.00879015 0.0556874 0.113373 0.0133168 0.123404 -0.113603 0.403039 0.0942508 0.0399317 0.0422898 0.151512 0.0463637 -0.00157514 -0.0900003 -0.0249438 0.0797267 0.035432 0.0630868 0.0308308 -0.00700159 -0.000537973 0.144529 0.0791182 0.0926222 0.0840135 -0.260303 -0.0591562 -0.0866769 0.0680369 -0.0389922 0.156486 0.211999 0.121241 -0.181225 0.0659723 -0.275364 -0.12391 0.156013 0.0263167 -0.0457076 -0.113912 0.0777925 -0.033057 -0.127378 0.00551149 0.0250687 -0.0336873 0.196765 0.0524882 0.0796474 0.0209603 0.0362953 0.018374 -0.241629 0.0714609 -0.0559543 -0.0779081 0.0495603 0.0526788 -0.0385896 0.056579 -0.0492541 -0.31178 -0.00107388 -0.00942375 0.0870433 0.133735 0.0492312 0.116955 -0.123744 0.310261 0.118651 0.0536195 0.0562867 0.121563 0.0917031 -0.0660204 -0.0886195 -0.0284463 0.102565 0.0773257 0.0821693 0.0234531 0.00365335 -0.00214462 0.136049 0.108439 0.124443 0.106299 -0.311584 -0.058028 -0.112416 0.0377053 -0.0234149 0.176863 0.195639 0.160537 -0.161467 0.0635761 -0.272247 -0.118281 0.198465 0.0272886 -0.04569 -0.116244 0.0669791 -0.0965396 -0.139805 -0.0193234 0.0205636 -0.0235803 0.148817 0.0615339 0.255275 0.0269334 0.0237479 -0.00251309 -0.30781 0.0533884 -0.0263134 -0.0726532 0.0673923 0.0821444 -0.0052509 0.0500876 -0.0543276 -0.353768 -0.00968405 -0.0376691 0.110828 0.165317 0.0997897 0.127658 -0.119087 0.321656 0.142375 0.0499537 0.0569022 0.109117 0.0543321 -0.0659424 -0.0773644 -0.0300227 0.0983143 0.12166 0.0851705 0.0306508 -0.0167166 0.00640013 0.142039 0.107555 0.171331 0.137172 -0.300424 -0.0339717 -0.111109 0.0343757 -0.0360039 0.169352 0.193517 0.165586 -0.14525 0.0662572 -0.251997 -0.120638 0.194273 0.0266734 -0.0443105 -0.115738 0.0601216 -0.107202 -0.13377 -0.0148204 0.0264189 -0.00499074 0.139412 0.0491847 0.291232 0.0318 0.0339192 -0.00607049 -0.318317 0.0316105 -0.025673 -0.072293 0.0699118 0.0872972 0.00636265 0.0404405 -0.0508362 -0.358337 0.00453123 -0.0381848 0.113523 0.169063 0.112952 0.12755 -0.119563 0.261764 0.138821 0.0498659 0.0637249 0.0691742 0.059091 -0.0634423 -0.0763732 -0.0202009 0.107752 0.130739 0.0841415 0.0282503 -0.0093286 -0.00166113 0.142296 0.105309 0.179636 0.136962 -0.300592 -0.0142194 -0.0962079 0.040019 -0.0583284 0.142862 0.16716 0.145137 -0.127149 0.0635565 -0.228289 -0.116643 0.166511 0.0251617 -0.0428502 -0.107081 0.0520726 -0.0952057 -0.110405 -0.00401727 0.0311239 0.0104295 0.149524 0.0353055 0.246925 0.033746 0.0491457 0.000532476 -0.282915 0.0155089 -0.0359832 -0.0748313 0.0583534 0.0811779 0.0140004 0.0320098 -0.0408105 -0.341375 0.0212129 -0.0295145 0.101034 0.155261 0.103734 0.116165 -0.108147 0.180004 0.121789 0.0469176 0.0670859 0.0298707 0.0756402 -0.0719307 -0.0730644 -0.00871173 0.11727 0.119184 0.0775284 0.0237599 0.00765597 -0.00870455 0.121514 0.100007 0.164398 0.11727 -0.26775 -0.01088 -0.0562522 0.0505446 -0.125364 0.0828033 0.120363 0.237394 -0.115269 0.0467563 -0.209182 -0.104046 0.202053 0.0113036 -0.0494669 -0.0940804 0.0808504 -0.0417593 -0.0727256 0.023985 0.0245288 0.0471296 0.193559 0.0102124 0.0696865 0.0143038 0.0786067 0.0285526 -0.121233 0.0212308 -0.065769 -0.0870441 0.0228963 0.0662672 0.0142867 0.0187674 -0.0308241 -0.302152 0.109574 -1.68355e-06 0.0952281 0.110857 0.0476244 0.0803104 -0.0871282 0.0731887 0.0682332 0.0330592 0.120707 0.00563013 0.0986131 -0.100137 -0.0734666 -0.00407525 0.118359 0.102674 0.0578361 0.0095902 0.028944 -0.0216802 0.0681628 0.100834 0.103303 0.16391 -0.27514 -0.0271043 -0.0324792 0.0488882 -0.225547 -0.00539615 0.0656093 0.383166 -0.107711 0.0189257 -0.202474 -0.0764846 0.283795 -0.00952951 -0.0627405 -0.10047 -0.0159229 0.018202 -0.0405216 0.0567316 -0.00127751 0.114195 0.239163 -0.0164816 -0.113859 -0.0162329 0.105947 0.062912 0.000750985 0.0420969 -0.107501 -0.104099 -0.024494 0.0417819 0.100585 0.00239767 -0.044799 -0.311195 0.141866 0.0308389 0.100649 0.0580447 -0.0189813 0.0087715 -0.0841051 -0.0579172 -0.0939504 0.0099695 0.187593 0.00358354 0.102918 -0.127917 -0.0930307 -0.0101345 0.105823 0.0946504 0.0345418 -0.00740445 0.0370452 -0.0329111 -0.0087316 0.107063 0.0228073 0.261155 -0.3231 -0.0478992 -0.0459116 0.0335141 -0.27786 -0.0565057 0.012336 0.426863 -0.0964226 -0.00122384 -0.204521 -0.0593282 0.313978 -0.0181368 -0.0702632 -0.114554 -0.18775 0.0288215 -0.0254665 0.0633353 -0.0245387 0.159808 0.244815 -0.0200302 -0.149326 -0.0286784 0.107659 0.0751578 -0.0211136 0.0519116 -0.126371 -0.111706 -0.0518213 0.0248572 0.200697 -0.00602261 -0.0641043 -0.361753 0.0669984 0.0329087 0.0997032 0.036777 -0.0370839 -0.0459549 -0.088256 -0.138921 -0.222631 -0.0060955 0.198809 0.0114281 0.0836522 -0.139851 -0.11012 -0.0179315 0.090926 0.0954569 0.0231047 -0.0115468 0.0297613 -0.0283233 -0.0662186 0.107464 -0.0121907 0.306322 -0.313504 -0.0486684 -0.0512393 0.0327105 -0.287226 -0.0590458 0.0136159 0.434138 -0.0973066 -0.00174779 -0.205178 -0.0694694 0.313325 -0.0190392 -0.0711287 -0.120867 -0.225575 0.0319123 -0.0262517 0.0665748 -0.0252881 0.170512 0.245941 -0.0207042 -0.150605 -0.029419 0.108032 0.0763969 -0.0390161 0.0523057 -0.13116 -0.112442 -0.0549462 0.019106 0.199977 -0.00666811 -0.0678352 -0.375444 0.0442567 0.0340026 0.0991694 0.0345678 -0.0377535 -0.0535761 -0.0957074 -0.153937 -0.232009 -0.00700364 0.199141 0.0118492 0.0828163 -0.136517 -0.117265 -0.0187586 0.0896108 0.095031 0.0225052 -0.0123116 0.0288985 -0.0292015 -0.0706773 0.107783 -0.0166626 0.314483 -0.319638 -0.0493017 -0.0494273 0.0272671 -0.273999 -0.0603624 0.0143466 0.433858 -0.0881646 -0.00512141 -0.203483 -0.0696708 0.309381 -0.0192468 -0.0717819 -0.116277 -0.225861 0.0331976 -0.0238101 0.075284 -0.0253222 0.169986 0.247906 -0.020952 -0.1452 -0.0304891 0.105181 0.0767454 -0.0301946 0.0527249 -0.123444 -0.102949 -0.0550523 0.0194722 0.197382 -0.00705845 -0.0650312 -0.362052 0.0414097 0.0322368 0.0981925 0.0279239 -0.0378442 -0.057948 -0.0958363 -0.154141 -0.234467 -0.00844754 0.195063 0.0124054 0.0690306 -0.133914 -0.11264 -0.0247255 0.0763313 0.0942133 0.01981 -0.0138454 0.0246995 -0.0292104 -0.0708267 0.107897 -0.0224602 0.314424 -0.318667 -0.0508116 -0.0447228 0.0133193 -0.240799 -0.0636222 0.0165812 0.432967 -0.0655239 -0.0136543 -0.19899 -0.0699412 0.29915 -0.0194168 -0.0737842 -0.104993 -0.226717 0.0363761 -0.0174647 0.0972266 -0.0258013 0.168514 0.252946 -0.0213744 -0.13157 -0.0337006 0.0980395 0.0774845 -0.00757822 0.0537613 -0.104412 -0.0788029 -0.0550612 0.0204485 0.190733 -0.00825241 -0.0586892 -0.328735 0.0342419 0.0278321 0.0960668 0.0111339 -0.0384942 -0.0688785 -0.0964968 -0.154695 -0.240732 -0.0118301 0.18498 0.0137838 0.0347194 -0.127159 -0.101011 -0.0400013 0.0430224 0.0916117 0.0129323 -0.017252 0.0143454 -0.0296606 -0.071104 0.108065 -0.0367625 0.314147 -0.316798 -0.0531828 -0.0380029 -0.00715095 -0.191334 -0.0683649 0.0197328 0.43176 -0.0319697 -0.0263328 -0.192503 -0.070192 0.284234 -0.0198023 -0.0767104 -0.0880379 -0.227702 0.0409982 -0.00809886 0.129786 -0.0265353 0.166649 0.2605 -0.0218834 -0.111478 -0.0384935 0.0874922 0.0785084 0.0258391 0.055647 -0.0760232 -0.0432853 -0.055167 0.0218221 0.180985 -0.00998424 -0.0488241 -0.279003 0.0233742 0.0215634 0.092634 -0.013934 -0.0391401 -0.0850672 -0.0972048 -0.155359 -0.249761 -0.0172982 0.170137 0.0156568 -0.016347 -0.117612 -0.0838333 -0.0626133 -0.00650666 0.0880907 0.00291661 -0.0224482 -0.00156001 -0.0302382 -0.0715053 0.108125 -0.057889 0.313545 -0.313813 -0.0536565 -0.0364797 -0.011203 -0.181393 -0.0694375 0.0204399 0.43157 -0.0250794 -0.028622 -0.191069 -0.0702773 0.281127 -0.0200504 -0.0773086 -0.0846266 -0.228038 0.0421509 -0.00621073 0.136593 -0.0266424 0.166215 0.261837 -0.0220055 -0.107384 -0.0394225 0.0853618 0.0786428 0.0324444 0.0559038 -0.0702727 -0.0361726 -0.0551281 0.0221817 0.179092 -0.0103256 -0.0469459 -0.269143 0.0214096 0.0202642 0.0920155 -0.0187301 -0.0390724 -0.0883414 -0.0974051 -0.15561 -0.251519 -0.0182595 0.167106 0.0161403 -0.0267686 -0.115663 -0.0803677 -0.0672556 -0.0163805 0.0872881 0.00103632 -0.023434 -0.00474762 -0.0304301 -0.0714577 0.108169 -0.0620356 0.31343 -0.313323 -0.0534197 -0.0365774 -0.0111737 -0.18133 -0.0695107 0.0202422 0.431665 -0.0249549 -0.0287782 -0.191198 -0.0703628 0.281308 -0.0199869 -0.0773501 -0.0846022 -0.228047 0.0421069 -0.00611552 0.136578 -0.0265179 0.166166 0.26195 -0.0221202 -0.107401 -0.0393395 0.0853301 0.0787404 0.032525 0.0558989 -0.0702751 -0.0361677 -0.0551599 0.0222476 0.179202 -0.0103671 -0.0468971 -0.269111 0.0211997 0.0201177 0.092079 -0.0187789 -0.0392506 -0.0883341 -0.0974735 -0.155647 -0.251487 -0.0182546 0.167202 0.0159426 -0.0267125 -0.115458 -0.0803555 -0.0671702 -0.0163853 0.087398 0.000921577 -0.0235536 -0.0046402 -0.0303178 -0.0714895 0.108279 -0.0621479 0.313377 -0.313306 -0.0535173 -0.036575 -0.0111395 -0.181364 -0.0695302 0.0203691 0.431577 -0.0249964 -0.0288441 -0.191083 -0.0704189 0.281349 -0.0199454 -0.077333 -0.0845582 -0.228138 0.0421093 -0.00621562 0.136417 -0.0265227 0.166286 0.261998 -0.0220177 -0.107291 -0.0395226 0.0854473 0.0785451 0.0325079 0.0557915 -0.0702727 -0.0361043 -0.055094 0.0222696 0.179099 -0.0103671 -0.0468312 -0.269055 0.0213339 0.0200567 0.0919691 -0.0188693 -0.0392579 -0.0882975 -0.0974271 -0.155639 -0.251434 -0.0182009 0.167053 0.0159572 -0.0267784 -0.115683 -0.0802579 -0.0673142 -0.0164683 0.0873443 0.00101679 -0.0234706 -0.00473542 -0.0303398 -0.0715139 0.108228 -0.0620697 0.313401 -0.313174 -0.0543328 -0.0362554 -0.0118816 -0.182325 -0.0701517 0.0208407 0.432099 -0.0258309 -0.0296628 -0.191899 -0.0710979 0.280344 -0.0210204 -0.0780562 -0.0854053 -0.199939 0.0426687 -0.00724418 0.136875 -0.0273738 0.186411 0.262387 -0.0259772 -0.10791 -0.0401897 0.0856222 0.0793564 0.0325905 0.0563878 -0.0683601 -0.0368872 -0.0556871 0.050386 0.173988 -0.0113585 -0.011736 -0.269875 0.0313883 0.0206463 0.101649 -0.0199948 -0.0399294 -0.0890754 -0.10029 -0.162632 -0.252232 -0.0190555 0.165402 0.016614 -0.0275777 -0.108527 -0.0814544 -0.0678988 -0.00949635 0.0865572 -0.00571728 -0.0243753 -0.00561568 -0.0310889 -0.0764363 0.108806 -0.0939463 0.312976 -0.313129 -0.055982 -0.0359044 -0.0136884 -0.184067 -0.0719073 0.0220599 0.433462 -0.02739 -0.0312296 -0.193668 -0.07253 0.278776 -0.0231543 -0.079678 -0.0870564 -0.141147 0.0440518 -0.00977195 0.137768 -0.0291419 0.228642 0.263723 -0.0342452 -0.109145 -0.0416553 0.0864771 0.080525 0.0325676 0.0576652 -0.0639781 -0.038341 -0.0572393 0.109183 0.163425 -0.0131773 0.0622124 -0.27122 0.0523105 0.0213356 0.121911 -0.0224524 -0.0414608 -0.0904937 -0.106382 -0.177783 -0.253738 -0.0210843 0.162037 0.0176658 -0.0289985 -0.0938311 -0.0835606 -0.0695586 0.00486608 0.0845233 -0.0198367 -0.0262157 -0.007371 -0.0328068 -0.0864928 0.110034 -0.160462 0.311863 -0.312921 -0.0552116 -0.0351724 -0.0142292 -0.183542 -0.0727043 0.0226725 0.432811 -0.0272647 -0.0311524 -0.188332 -0.0703361 0.278279 -0.0239477 -0.0781384 -0.0863592 -0.141722 0.0444483 -0.0102422 0.135298 -0.030014 0.228194 0.256444 -0.0348826 -0.10859 -0.0421287 0.0845868 0.079065 0.0320206 0.0574086 -0.0635997 -0.0378243 -0.0567781 0.107882 0.162683 -0.0138628 0.0616728 -0.267015 0.0516975 0.0218597 0.121483 -0.0231658 -0.0421123 -0.0909853 -0.105634 -0.17729 -0.254782 -0.0214502 0.161238 0.018341 -0.029197 -0.0897956 -0.0831871 -0.0682733 0.00443056 0.0835224 -0.0204316 -0.0264111 -0.00812331 -0.0326777 -0.085683 0.107605 -0.161221 0.311325 -0.312505 -0.0293473 -0.0180968 -0.0289219 -0.170036 -0.0892595 0.0403737 0.411953 -0.0248694 -0.0296862 -0.0251023 -0.00170723 0.260068 -0.0410961 -0.0293861 -0.0673672 -0.208667 0.0597971 -0.0266074 0.0537254 -0.0490151 0.181784 0.0329144 -0.048625 -0.0932282 -0.0565052 0.0308053 0.0351215 0.0162801 0.0425386 -0.0535537 -0.0241311 -0.0406243 0.0164996 0.151175 -0.0295386 -0.0181477 -0.128085 0.0148627 0.0356737 0.0858539 -0.0437005 -0.0608618 -0.105249 -0.0805661 -0.148158 -0.285903 -0.0294859 0.145001 0.035556 -0.0335646 0.0183673 -0.0752692 -0.0294574 -0.0221633 0.0543942 -0.029853 -0.0294205 -0.0293255 -0.0305873 -0.0591495 0.0327755 -0.128713 0.291991 -0.295933 -0.0286255 -0.0276475 -0.0280577 -0.168886 -0.088381 0.0395951 0.407804 -0.0241414 -0.0287071 -0.0241453 -0.000799033 0.255439 -0.0398434 -0.0284747 -0.0665724 -0.246435 0.0591576 -0.0250435 0.053201 -0.0482031 0.151173 0.0323369 -0.0460803 -0.0925637 -0.055841 0.0303523 0.0345844 0.018867 0.0418051 -0.0601961 -0.0234708 -0.0398913 -0.0195241 0.158132 -0.0284944 -0.0569128 -0.127243 0.0100405 0.0351193 0.0734725 -0.0424114 -0.06022 -0.107497 -0.0783806 -0.145068 -0.281156 -0.0283785 0.146978 0.0349128 -0.032782 0.0124503 -0.0789116 -0.0284949 -0.0324805 0.0518161 -0.0253061 -0.0284524 -0.0283098 -0.0297241 -0.0563861 0.03214 -0.0832207 0.292644 -0.297763 -0.030768 -0.0930597 -0.0296006 -0.170608 -0.0902014 0.0404322 0.384393 -0.0258387 -0.0306141 -0.0260897 -0.00224781 0.214618 -0.0421441 -0.0303059 -0.0685391 -0.227219 0.0600053 -0.0271496 0.0541755 -0.050072 0.141519 0.0335167 -0.0677996 -0.0938211 -0.0577694 0.0309745 0.035434 0.0368345 0.0427166 -0.0861036 -0.0249453 -0.0413716 0.0128633 0.155625 -0.0305071 0.0269531 -0.129155 0.0782519 0.0360388 0.0833437 -0.0451135 -0.0623461 -0.131659 -0.0918901 -0.195951 -0.256193 -0.0303748 0.145378 0.0357833 -0.0344976 0.0419643 -0.114053 -0.0302792 -0.0344953 0.0242042 -0.060708 -0.0303928 -0.0302639 -0.0317055 -0.0849945 0.0328999 -0.0855006 0.292659 -0.309989 -0.0325113 -0.148525 -0.0308601 -0.171967 -0.0920042 0.0411556 0.364471 -0.0272448 -0.0322019 -0.0274927 -0.00335797 0.180253 -0.0442021 -0.0318069 -0.0701562 -0.210739 0.0608659 -0.0289639 0.054938 -0.0518959 0.133276 0.0343553 -0.0863697 -0.0947654 -0.0591678 0.0314144 0.0363533 0.0518991 0.0435641 -0.107931 -0.0262488 -0.0426409 0.0404431 0.153587 -0.0322421 0.0982922 -0.130591 0.13626 0.0368399 0.0916989 -0.0472545 -0.0643346 -0.15204 -0.103171 -0.239131 -0.235109 -0.0319719 0.143889 0.0365947 -0.0360338 0.0669545 -0.143782 -0.0319879 -0.0359834 0.00067422 -0.0904763 -0.0319519 -0.0319414 -0.0334067 -0.109382 0.0333468 -0.087498 0.292657 -0.320291 -0.0321671 -0.168914 -0.0304612 -0.172999 -0.091732 0.0392634 0.358534 -0.027334 -0.0318811 -0.0263508 -0.00414674 0.169471 -0.0435251 -0.0316589 -0.0714139 -0.204596 0.0595659 -0.0283359 0.0534061 -0.0516643 0.131069 0.032475 -0.0918008 -0.095247 -0.0588583 0.0306042 0.0277346 0.0586141 0.0426554 -0.115711 -0.0272582 -0.043522 0.0405134 0.153625 -0.0320881 0.123749 -0.129176 0.156553 0.0349152 0.0953856 -0.0470056 -0.0642833 -0.157997 -0.107842 -0.259476 -0.227169 -0.0319476 0.144266 0.0356375 -0.035381 0.0770459 -0.153762 -0.0316792 -0.0357112 -0.00617061 -0.0992487 -0.0315113 -0.031689 -0.0329251 -0.118119 0.0297919 -0.087332 0.293275 -0.324028 -0.0264705 -0.182904 -0.0244299 -0.174933 -0.0796802 0.0245822 0.369598 -0.0257789 -0.0259152 -0.0130884 -0.0182511 0.172553 -0.0353932 -0.0255742 -0.0757578 -0.191942 0.0481141 -0.0186943 0.0391831 -0.0432677 0.137863 0.0167636 -0.084499 -0.0944672 -0.0526637 0.0227605 -0.0347785 0.0708848 0.0330336 -0.117783 -0.0305994 -0.0453085 -0.0232733 0.134217 -0.0260694 0.138234 -0.11576 0.162698 0.0204935 0.100102 -0.0395945 -0.056438 -0.147965 -0.112424 -0.301578 -0.197663 -0.0257597 0.150457 0.0257001 -0.0255131 0.0896051 -0.154402 -0.0258403 -0.0291683 0.000210992 -0.0904272 -0.0245693 -0.0256449 -0.0270004 -0.121714 0.00232497 -0.0802349 0.301547 -0.321675 -0.0189812 -0.172318 -0.0172259 -0.165573 -0.0490496 0.00914842 0.393402 -0.0220044 -0.0184707 0.000595492 -0.0540072 0.178941 -0.0254283 -0.0180353 -0.0712843 -0.129 0.0317212 -0.00810427 0.0225526 -0.0270665 0.139018 0.000541863 -0.0674077 -0.0836594 -0.0442139 0.0142193 -0.0912805 0.100721 0.0205363 -0.105222 -0.0311456 -0.0430452 -0.0824557 0.0469951 -0.0184201 0.138703 -0.0897374 0.172385 0.0057044 0.0991943 -0.0290043 -0.0429924 -0.118016 -0.104141 -0.306948 -0.102093 -0.0181548 0.156727 0.0138655 -0.0137047 0.0896652 -0.136655 -0.0186162 -0.0203045 0.0153025 -0.0736754 -0.016032 -0.0180542 -0.0194004 -0.111361 -0.0236 -0.0653659 0.306778 -0.29723 -0.00934306 -0.0913647 -0.00808928 -0.125776 -0.0160686 -0.00392104 0.369276 -0.0146433 -0.00879786 0.0113829 -0.0619293 0.188744 -0.0132605 -0.00859889 -0.0502958 -0.035419 0.0123362 0.00222519 0.00425601 -0.00981674 0.116553 -0.0118791 -0.0311011 -0.0624341 -0.0307768 0.00613048 -0.117855 0.118041 0.00852512 -0.0595578 -0.0252816 -0.0310385 -0.125417 -0.0236374 -0.00858464 0.0682434 -0.043445 0.137881 -0.00673116 0.0795786 -0.0135739 -0.0255607 -0.0564533 -0.0671 -0.216722 -0.0230002 -0.00839849 0.142202 0.00268261 -0.00221019 0.0536328 -0.0743516 -0.0092853 -0.00892993 0.0428859 -0.0281401 -0.00624974 -0.00854756 -0.0100145 -0.0648157 -0.038082 -0.0395326 0.262298 -0.226029 -0.00148634 -0.0508003 -0.00108724 -0.0977592 -0.0108812 -0.010526 0.216383 -0.00785943 -0.00126991 0.0149223 -0.0713053 0.106876 -0.000874753 -0.00101572 -0.0513704 -0.170725 0.00804728 0.00753194 0.00176838 -0.00148351 0.106191 -0.0165095 -0.00355177 -0.0359324 -0.0113541 -0.00274316 -0.108105 -0.0150123 -0.00280568 -0.0391651 -0.0177902 -0.0279426 -0.15349 -0.00785452 -0.000794246 -0.00565312 -0.0618909 -0.0491867 -0.0119977 0.0354546 -0.00813924 -0.00864698 -0.0399562 -0.0601547 -0.180214 -0.0530862 -0.000890967 0.0741333 -0.00536313 0.00535842 0.0381536 -0.0495806 -0.00163775 -0.00255592 0.0354324 0.00662183 0.00103567 -0.000718518 -0.0014385 -0.0399428 -0.0416156 -0.0305691 0.161343 -0.126756 0.0024314 -0.0277326 0.0024938 -0.0300326 -0.00210892 -0.00832474 0.0272282 -0.000948483 0.00267249 0.0087889 -0.0325716 0.00310598 0.00456406 0.0026091 -0.0222387 -0.108642 0.000369035 0.00578855 -0.001862 0.00269857 0.0367517 -0.0103598 0.00258783 -0.00560895 0.00281487 -0.00526702 -0.0492541 -0.0452853 -0.00592472 -0.0166984 -0.00535029 -0.0108563 -0.071631 0.00278244 0.00263037 -0.00102828 -0.0294763 -0.0636642 -0.00851697 0.00270428 -0.0011079 0.00274306 -0.0162828 -0.0262816 -0.0811658 -0.0234042 0.00275554 0.00623592 -0.00596866 0.00581213 0.0206052 -0.021871 0.00254036 0.00168254 0.00432931 0.0058042 0.00340725 0.0026865 0.00275681 -0.0164451 -0.0219148 -0.0087808 0.0302589 -0.0197905 0.000175781 7.56836e-05 0.000209961 0.00013916 2.92969e-05 0.000170898 0.000200195 1.2207e-05 1.46484e-05 2.44141e-06 9.0332e-05 0.000102539 0.000222168 0.000212402 0.000236816 9.76563e-05 0.000200195 0.000239258 2.68555e-05 3.17383e-05 0.000192871 0.000112305 7.32422e-05 0.000217285 6.10352e-05 0.000134277 1.46484e-05 2.19727e-05 0.000144043 0.000200195 0.000187988 0.000129395 0.000146484 0.000202637 4.39453e-05 0.000178223 1.2207e-05 2.19727e-05 7.32422e-05 0.000158691 0.000205078 7.56836e-05 0.000202637 0.000222168 0.000209961 4.88281e-06 0.000134277 8.05664e-05 0.000195313 0.000192871 4.15039e-05 0.000163574 0.000119629 0.00019043 0.000236816 6.83594e-05 0.000151367 0.000124512 0.000131836 0.000217285 0.000205078 0.000166016 0.000192871 0.000109863 2.44141e-05 0.00017334 1.46484e-05 0.000144043 4.88281e-06 0.000219727 8.05664e-05 0.000126953 4.88281e-06 0.00015625 0.000161133 0.000205078 0.000141602 3.17383e-05 5.61523e-05 0.000192871 1.95313e-05 0 0.000217285 9.76563e-06 0.000112305 5.85937e-05 8.78906e-05 5.37109e-05 0.000202637 8.30078e-05 3.41797e-05 8.30078e-05 0.000217285 3.41797e-05 0.000231934 0.000136719 0.000212402 0.000146484 0.000200195 4.15039e-05 0.000222168 7.32422e-06 0.000109863 0.000231934 0 0.00019043 1.46484e-05 7.32422e-05 0.000192871 0.000212402 0.000214844 0.000185547 8.54492e-05 0.000209961 0.000227051 6.83594e-05 5.85937e-05 4.88281e-05 0.000222168 7.08008e-05 3.17383e-05 5.61523e-05 5.85937e-05 8.54492e-05 6.83594e-05 0.00012207 5.12695e-05 0.000224609 0.000151367 0.000148926 0.000175781 0.00020752 4.39453e-05 0.000161133 0.000168457 0.000192871 0.000134277 0.000166016 4.88281e-05 9.27734e-05 0.00012207 5.12695e-05 0.000129395 0.000170898 9.76563e-06 0 0.000212402 0.00010498 0.000214844 7.8125e-05 0.00013916 0.000222168 0.000205078 0.00012207 0.000112305 0.000209961 3.17383e-05 9.52148e-05 0.000158691 3.66211e-05 0.000117187 6.34766e-05 1.2207e-05 0.000166016 0.000219727 0.000229492 6.10352e-05 4.88281e-06 4.63867e-05 8.54492e-05 0.000131836 0.00012207 6.5918e-05 9.0332e-05 7.32422e-06 0.000161133 0.00015625 4.39453e-05 0.000168457 5.85937e-05 9.76563e-05 0.000209961 2.92969e-05 0 0.000241699 0.000136719 3.41797e-05 0.000119629 2.92969e-05 8.30078e-05 0.000134277 8.54492e-05 0.00015625 0.000134277 0.000187988 0.00019043 0.000158691 0.000146484 0.000109863 0.000214844 0.000124512 7.08008e-05 6.10352e-05 0.00012207 5.12695e-05 0.000141602 0.00017334 0.000214844 0.00017334 0.000158691 7.32422e-05 0.00020752 9.76563e-06 0.000178223 0.000192871 0.000102539 0.000180664 6.83594e-05 0.000144043 6.34766e-05 0.000114746 0.00020752 0.000241699 0.000129395 0.00017334 0.000148926 2.92969e-05 0.000229492 0.000231934 0.000163574 0.000197754 0.000192871 0.000205078 0.000178223 0.000187988 0.000136719 9.0332e-05 7.08008e-05 0.000100098 0.000185547 0.000214844 9.76563e-06 0.000239258 0.000175781 5.61523e-05 2.44141e-05 4.88281e-06 0.000205078 6.34766e-05 0.000239258 2.19727e-05 4.63867e-05 0.000168457 0.00017334 0.000217285 0.000214844 8.78906e-05 0.000153809 7.32422e-06 0.000161133 6.10352e-05 0.000192871 0.000236816 9.0332e-05 0.00013916 1.70898e-05 0.000144043 5.37109e-05 4.88281e-06 0.000224609 0.000109863 0.000151367 0.000136719 0.000114746 6.83594e-05 0.000170898 1.46484e-05 9.52148e-05 2.44141e-06 3.17383e-05 4.63867e-05 2.44141e-05 0.000224609 0 0.000205078 0.00015625 0.000239258 0.000112305 0.000166016 0.000236816 0.000175781 0.000195313 0.000212402 0.000214844 2.19727e-05 0.000183105 4.63867e-05 0.000195313 0.000109863 0.000180664 0.000168457 4.39453e-05 7.8125e-05 6.10352e-05 0.00012207 4.63867e-05 0.00019043 0.000161133 3.17383e-05 0.00017334 0.000126953 1.46484e-05 0.000205078 4.15039e-05 9.76563e-06 0.000114746 0.000217285 8.05664e-05 0.000195313 0.00020752 0.000202637 1.95313e-05 2.92969e-05 6.10352e-05 8.78906e-05 0.000202637 3.17383e-05 0.000236816 0.000141602 0.000124512 0.000119629 9.27734e-05 0.000187988 9.52148e-05 0.000234375 4.88281e-06 0.000144043 4.39453e-05 9.52148e-05 0.000209961 0.000231934 7.32422e-06 9.76563e-05 0.000134277 0.000239258 5.37109e-05 9.0332e-05 9.27734e-05 9.52148e-05 0.000178223 0.000178223 0.00012207 0.000166016 0.000124512 0.000185547 0.000148926 0.000217285 2.68555e-05 5.12695e-05 0.000134277 9.0332e-05 0.000224609 0.000109863 0.00019043 0.000153809 0.000117187 0.000124512 0.000119629 0.000183105 0.000222168 0.000153809 0.000214844 0.000234375 0.000158691 7.32422e-06 1.95313e-05 1.95313e-05 0.000161133 0.000202637 5.61523e-05 0.000102539 9.76563e-05 7.56836e-05 0.000178223 0.000136719 0.000151367 4.63867e-05 0.000205078 4.39453e-05 0.00020752 7.08008e-05 0.00013916 0.00013916 0.000214844 0.000183105 0.000234375 3.41797e-05 7.8125e-05 5.61523e-05 9.27734e-05 0.000236816 0.000231934 1.70898e-05 0.000178223 4.39453e-05 0.000205078 0.000229492 0 1.70898e-05 0.000175781 8.30078e-05 0.000126953 0.000175781 0.000134277 5.85937e-05 9.27734e-05 0.00012207 0.000209961 0.000224609 0.00013916 0.000200195 0.00017334 3.41797e-05 0.000151367 0.000148926 0.000161133 0.000109863 0.000153809 0.000192871 1.70898e-05 0.000141602 2.44141e-06 8.05664e-05 7.8125e-05 0.000129395 1.2207e-05 0.000200195 0.000185547 3.41797e-05 0.000205078 0.000222168 0.000185547 0.00019043 0.000200195 0.000124512 0.000236816 8.30078e-05 0.000205078 6.5918e-05 0.000200195 0.00020752 4.39453e-05 0.000168457 1.70898e-05 8.30078e-05 0.000214844 4.88281e-06 0.000161133 7.08008e-05 0.000200195 0.000151367 4.39453e-05 0.000114746 0.000197754 7.8125e-05 0.000197754 5.37109e-05 0.000136719 1.70898e-05 5.37109e-05 3.17383e-05 2.44141e-06 7.56836e-05 0.000131836 9.52148e-05 9.76563e-06 7.56836e-05 1.46484e-05 0.000153809 9.0332e-05 0.000183105 4.39453e-05 0.000109863 0.000168457 0.000136719 0.00020752 0.000241699 0.000236816 8.54492e-05 1.2207e-05 0.000161133 0.000161133 6.34766e-05 0.000175781 0.000158691 0.000205078 4.39453e-05 8.30078e-05 7.32422e-05 7.08008e-05 6.34766e-05 0.000158691 0.000227051 0.000187988 7.32422e-06 7.56836e-05 9.27734e-05 0.000195313 0.00020752 0.000134277 0.000229492 7.32422e-06 3.90625e-05 0.00010498 5.85937e-05 0.000134277 0.000192871 0.000231934 0.000153809 0.00019043 7.08008e-05 3.41797e-05 0.000224609 0.000144043 0.000214844 8.05664e-05 8.30078e-05 0.000224609 4.39453e-05 6.83594e-05 0.000229492 9.27734e-05 0.000180664 0.000100098 0.00015625 5.85937e-05 6.83594e-05 0.000180664 0.000227051 9.76563e-05 0.000109863 9.52148e-05 0.000222168 0.000124512 0.000129395 0.000192871 9.27734e-05 0.000202637 0.000227051 0.000134277 9.76563e-06 4.88281e-06 4.63867e-05 0.000158691 0.00010498 0.000197754 6.5918e-05 0.000158691 7.08008e-05 0.00012207 9.0332e-05 0.00019043 0.000234375 0.000227051 0.000168457 3.66211e-05 0.000234375 2.92969e-05 0.000161133 7.56836e-05 6.34766e-05 0.000129395 0.000239258 0.000209961 0.000161133 0.000148926 5.85937e-05 8.05664e-05 0.000163574 0.00017334 0.000114746 0.000187988 0.000178223 0.000241699 5.37109e-05 0.00019043 5.61523e-05 0.000114746 0.000185547 0.00013916 9.27734e-05 0.000119629 4.63867e-05 9.76563e-05 0.00012207 2.68555e-05 0.000212402 0.00019043 7.56836e-05 5.61523e-05 3.90625e-05 6.5918e-05 0.000212402 5.61523e-05 0.000224609 0.000117187 4.63867e-05 9.76563e-06 3.41797e-05 0.00012207 0.000144043 8.05664e-05 3.90625e-05 0.000241699 0.000100098 0.000192871 0.000219727 0.00012207 0.000234375 0.000202637 6.5918e-05 6.83594e-05 0.000236816 0.00017334 0.000114746 0.000134277 4.88281e-06 0.000107422 0.000158691 0.000131836 0.000241699 7.56836e-05 4.63867e-05 7.08008e-05 6.34766e-05 0.000219727 0.000236816 0.000102539 0.000141602 1.46484e-05 0.000180664 0.000224609 0.000229492 6.5918e-05 0.000148926 0.000144043 0.000239258 1.70898e-05 4.39453e-05 0.000214844 0.000161133 2.68555e-05 6.5918e-05 0.000144043 0.000141602 0.000112305 0.000119629 0.000170898 0.000239258 0.000114746 6.5918e-05 5.85937e-05 2.68555e-05 0.000151367 5.61523e-05 0.000129395 0.000227051 0.000239258 0.000170898 2.68555e-05 2.68555e-05 0.000178223 0.000168457 0.000151367 0.000117187 1.70898e-05 9.0332e-05 0.000205078 0.000183105 0.00017334 1.70898e-05 0.000197754 0.000148926 0.000234375 0.000117187 5.12695e-05 6.10352e-05 7.56836e-05 5.37109e-05 0.000187988 0.000119629 0.000112305 0.000136719 0.000239258 0.000231934 6.83594e-05 0.000124512 5.85937e-05 0.000170898 0.000229492 0.000161133 6.83594e-05 0.000219727 0.000170898 8.30078e-05 0.000107422 0.000158691 8.05664e-05 0.000217285 7.32422e-06 0.000224609 0.000183105 7.8125e-05 0.000222168 0.000119629 8.05664e-05 0.000134277 0.000209961 0.000200195 7.32422e-05 0.000102539 4.15039e-05 7.32422e-05 8.54492e-05 6.10352e-05 0.000202637 5.61523e-05 6.5918e-05 0.000153809 0.000109863 8.78906e-05 6.5918e-05 0.000144043 0.000224609 0.000124512 0.000109863 0.000112305 0.000241699 0.00013916 0.00017334 0.00020752 7.56836e-05 0.000119629 0.000102539 0.00019043 6.83594e-05 0.000144043 6.83594e-05 0.000166016 0.000200195 0.000229492 8.54492e-05 0.000214844 0.000178223 4.63867e-05 0.000114746 0.000236816 0.000107422 5.61523e-05 0.000112305 7.8125e-05 7.8125e-05 9.52148e-05 0.000129395 3.17383e-05 7.56836e-05 4.88281e-06 0.000168457 6.10352e-05 7.32422e-05 0.000236816 0.000126953 0.000205078 0.000126953 0.000229492 5.37109e-05 0 3.90625e-05 4.15039e-05 3.66211e-05 7.32422e-05 9.27734e-05 0.00010498 0.000229492 0.000197754 9.0332e-05 5.61523e-05 0.000200195 7.08008e-05 2.68555e-05 0.000241699 4.88281e-05 4.88281e-06 0.000187988 5.37109e-05 5.85937e-05 0.00020752 2.44141e-06 0.000166016 0.000234375 6.34766e-05 0.000141602 6.5918e-05 2.68555e-05 8.54492e-05 1.46484e-05 0.000144043 2.19727e-05 0.000153809 0.00012207 0.000214844 0.000175781 2.44141e-05 1.2207e-05 0.000229492 0.000170898 3.90625e-05 4.15039e-05 0.000200195 2.92969e-05 0.000236816 9.52148e-05 1.70898e-05 0.000102539 0.000214844 5.12695e-05 0.000241699 9.76563e-06 5.61523e-05 0.000212402 0.000124512 8.78906e-05 0.000119629 0.000178223 0.00020752 0.00013916 3.17383e-05 0.000239258 5.85937e-05 0.000214844 1.46484e-05 0.000102539 8.05664e-05 0.000100098 0.000166016 7.56836e-05 6.83594e-05 0.000117187 0.000239258 0.000239258 0.000166016 0.000107422 9.76563e-06 0.000195313 0.000212402 0.000136719 0.000124512 2.68555e-05 2.19727e-05 0.000205078 7.32422e-05 0 2.19727e-05 0.00012207 0.000163574 0.00020752 0.000109863 7.32422e-05 0.000202637 6.5918e-05 4.15039e-05 7.56836e-05 1.46484e-05 0.000195313 1.46484e-05 7.32422e-06 0.000124512 0.000148926 7.32422e-06 8.78906e-05 0.000161133 1.70898e-05 5.12695e-05 0.000134277 0.000102539 0.000114746 0.000224609 0.000229492 5.37109e-05 0.000185547 0.000158691 8.05664e-05 8.54492e-05 3.90625e-05 0.000185547 0.000209961 0.000146484 0.000112305 2.19727e-05 0.00019043 0.00015625 0.000209961 4.63867e-05 0.000148926 0.000124512 7.8125e-05 1.2207e-05 0.000100098 0.000163574 0.000239258 0.000168457 0.000219727 0.000100098 0.000129395 2.19727e-05 0.000227051 0.000234375 0.000114746 0.000136719 0.00017334 0.000180664 0.000212402 1.2207e-05 4.63867e-05 0.00013916 8.78906e-05 0.000180664 2.92969e-05 3.66211e-05 0.00012207 3.66211e-05 2.92969e-05 9.0332e-05 7.08008e-05 4.88281e-05 0.000136719 0 0.000183105 0.000119629 0.000109863 0.000197754 2.44141e-05 3.90625e-05 5.37109e-05 0.000192871 0.000212402 0.000166016 0.000102539 0.000180664 4.15039e-05 7.8125e-05 0.000146484 5.61523e-05 0.000234375 4.88281e-06 3.41797e-05 9.0332e-05 5.61523e-05 8.05664e-05 0.000126953 7.08008e-05 0.00017334 0.000158691 0.000217285 9.0332e-05 0.000180664 0.000158691 0.000112305 5.37109e-05 2.44141e-06 0.000148926 2.44141e-06 0.000197754 5.37109e-05 0.000131836 0.000153809 2.68555e-05 9.0332e-05 7.32422e-06 0.000131836 1.70898e-05 0.000124512 0.000217285 4.39453e-05 4.88281e-05 0.000153809 0.000234375 6.34766e-05 2.44141e-05 0.000168457 1.70898e-05 2.19727e-05 8.30078e-05 0.00015625 0.000229492 0.000151367 0.000227051 8.05664e-05 0.000192871 0.000117187 0.000214844 9.76563e-05 0.000241699 1.46484e-05 2.44141e-05 0.000227051 0.000180664 7.32422e-05 0.00019043 0.000114746 0.000107422 0.000129395 3.90625e-05 0.00010498 1.2207e-05 4.63867e-05 7.08008e-05 0.000158691 0.000144043 0.000239258 0.000158691 6.34766e-05 0.000231934 0.000195313 0.000100098 0.000141602 8.30078e-05 5.12695e-05 5.12695e-05 1.95313e-05 0.000166016 0.000161133 0.000202637 0.000102539 3.41797e-05 0.000214844 0.000178223 7.32422e-06 0.000205078 6.5918e-05 5.61523e-05 0.000170898 0.000146484 0.000239258 0.000119629 3.17383e-05 0.00012207 0.000144043 0.000124512 4.15039e-05 0.000146484 0.000117187 0.000209961 2.68555e-05 2.19727e-05 3.17383e-05 0.000161133 0.000146484 0.00020752 0.000229492 6.83594e-05 0.000168457 5.37109e-05 0.000214844 0.000153809 0.000151367 0.000151367 0.000192871 7.08008e-05 8.05664e-05 0.00017334 0.000112305 7.32422e-06 0.000168457 0.000117187 4.39453e-05 2.19727e-05 0.000183105 8.30078e-05 0.000224609 7.32422e-05 0.000202637 2.44141e-06 6.34766e-05 0.000185547 7.8125e-05 0.000119629 9.76563e-05 8.30078e-05 6.34766e-05 0.000192871 0.000114746 3.66211e-05 2.92969e-05 0.000195313 6.10352e-05 0.000134277 1.2207e-05 0.000144043 0.000200195 0.000231934 5.12695e-05 2.19727e-05 0.000153809 2.19727e-05 4.88281e-05 1.46484e-05 0.000197754 0.000214844 9.52148e-05 0.000134277 0.000205078 0.000197754 0.000175781 0.000126953 4.15039e-05 7.56836e-05 0.000144043 6.5918e-05 0.000197754 0.000100098 4.88281e-05 0.000107422 0.000112305 0.000168457 0.000144043 7.08008e-05 9.52148e-05 0.000241699 3.41797e-05 0.000217285 0.00017334 0.000112305 1.46484e-05 0.00020752 0.000102539 0.000112305 2.92969e-05 0.00015625 0.000212402 9.52148e-05 0.000185547 0.000146484 0.000227051 0.000236816 8.54492e-05 2.68555e-05 0.000119629 1.2207e-05 0.000141602 7.32422e-06 2.68555e-05 0.000229492 4.63867e-05 2.92969e-05 0.000236816 0.00017334 0.000234375 9.52148e-05 2.92969e-05 9.76563e-06 0.000119629 9.76563e-06 0.000126953 3.66211e-05 3.17383e-05 0.000163574 0.000239258 0.000131836 1.95313e-05 3.90625e-05 0.000107422 9.27734e-05 4.63867e-05 0.000100098 6.10352e-05 0.000102539 9.76563e-06 2.92969e-05 0.000109863 0.000183105 5.85937e-05 0.000217285 0.000212402 0.000170898 2.44141e-05 0.000183105 9.27734e-05 0.000227051 4.88281e-06 7.08008e-05 0.000197754 0.000141602 3.41797e-05 0.000126953 0.000180664 5.37109e-05 0.000166016 0.000185547 0.000166016 0.000117187 4.88281e-05 0.000224609 0.000222168 3.90625e-05 6.5918e-05 0.000102539 0.000107422 0.000212402 0.000214844 0.000131836 0.00017334 1.95313e-05 2.19727e-05 0.000109863 6.10352e-05 5.85937e-05 6.34766e-05 0.000236816 0.000109863 0.000151367 0.000131836 0.000241699 0.000158691 3.90625e-05 0.000219727 3.41797e-05 0.000119629 3.41797e-05 0.000141602 0.000102539 0.000185547 0.000129395 0.000168457 0.000124512 0.000100098 0.000239258 0.000136719 0.000131836 7.8125e-05 0.000107422 1.46484e-05 8.05664e-05 0.000227051 7.32422e-05 0.000161133 0.000192871 0.00013916 0.000197754 2.19727e-05 8.30078e-05 8.78906e-05 0.000229492 4.63867e-05 8.05664e-05 0.000102539 3.66211e-05 8.78906e-05 0.000166016 0.000234375 0.00015625 0.000231934 4.39453e-05 0.000151367 7.8125e-05 5.12695e-05 0.00020752 0.000102539 0.000231934 0.000144043 4.88281e-05 0.000224609 0.000170898 0.000141602 0.000107422 0.000117187 0.000217285 1.46484e-05 3.66211e-05 0.000163574 0.000109863 0.000209961 0.000114746 0.000217285 4.88281e-06 0.000148926 7.56836e-05 1.46484e-05 0.000141602 0.000136719 0.000231934 9.0332e-05 0.000231934 5.85937e-05 0.000166016 0.00013916 0.000141602 0.000134277 4.39453e-05 0.000112305 0.000117187 0.000102539 7.08008e-05 0.000183105 0.000217285 0.000126953 4.15039e-05 1.95313e-05 0.000141602 8.30078e-05 0.000229492 0.000151367 0.000134277 4.39453e-05 0.000141602 6.34766e-05 0.00012207 1.95313e-05 1.2207e-05 9.27734e-05 7.32422e-05 0.000163574 1.95313e-05 0.000151367 0.000234375 2.92969e-05 0.000100098 2.68555e-05 0.000180664 0.000224609 0.000100098 0.000100098 4.15039e-05 0.000202637 0.000131836 0.000141602 8.78906e-05 3.17383e-05 0.000114746 3.90625e-05 0.000168457 0.000205078 0.000170898 0.000166016 0.000144043 0.000134277 0.000227051 9.0332e-05 7.08008e-05 3.17383e-05 0.000212402 0.000180664 0.000202637 6.83594e-05 3.17383e-05 0 1.46484e-05 0.000144043 7.56836e-05 0.000219727 2.44141e-06 4.88281e-06 0.000185547 0.00012207 5.12695e-05 0.000200195 3.66211e-05 0.000168457 4.88281e-05 8.78906e-05 6.34766e-05 4.39453e-05 0.000100098 0.000131836 0.000197754 0.000231934 0.000202637 0.000126953 0.000170898 0.000192871 0.000214844 5.61523e-05 5.37109e-05 0.000161133 0.000195313 2.68555e-05 5.85937e-05 3.66211e-05 0.000229492 0.000141602 4.88281e-05 0.000202637 7.32422e-05 0.000234375 0.000192871 8.54492e-05 8.78906e-05 4.88281e-06 3.90625e-05 0.000136719 0.000136719 0.000170898 0.00019043 0.00015625 4.63867e-05 7.8125e-05 3.17383e-05 1.95313e-05 4.88281e-05 2.19727e-05 0.000114746 0.000114746 0.000151367 0.00012207 0.000175781 0.000219727 0.000219727 2.44141e-06 2.68555e-05 9.27734e-05 3.90625e-05 0.00015625 8.30078e-05 0.000161133 7.32422e-05 7.56836e-05 8.78906e-05 0.000141602 0.000153809 0.000241699 0.000187988 0.00012207 0.000168457 8.30078e-05 0.000153809 7.32422e-06 1.46484e-05 9.76563e-06 9.76563e-06 6.34766e-05 0.000109863 1.46484e-05 0.000180664 0.00010498 0.000205078 7.56836e-05 3.41797e-05 1.2207e-05 0.000136719 6.10352e-05 0.000126953 2.68555e-05 0.000124512 0.000227051 0.000202637 0.000161133 0.000100098 0.000100098 7.8125e-05 4.88281e-05 0.000229492 6.10352e-05 0.000163574 1.95313e-05 0.000134277 0.000234375 9.27734e-05 6.5918e-05 6.5918e-05 0.000126953 8.78906e-05 0.000134277 0 0.000166016 1.2207e-05 8.05664e-05 9.27734e-05 2.44141e-06 0.000100098 0.000227051 0.000151367 0.000134277 0.00012207 8.78906e-05 0.00017334 5.37109e-05 6.10352e-05 0.000236816 0.000112305 1.95313e-05 0.000212402 6.10352e-05 1.95313e-05 7.08008e-05 0 7.32422e-06 4.15039e-05 0.000166016 0.000217285 0.000146484 0.000158691 3.90625e-05 2.68555e-05 4.15039e-05 0.000168457 0.000241699 0.000222168 0.000219727 0.000163574 0.00020752 0.000144043 4.88281e-05 4.88281e-06 0.000107422 0.000107422 0.000141602 0.000180664 5.37109e-05 9.27734e-05 0.000148926 0.000161133 5.85937e-05 0.00020752 2.92969e-05 0.000112305 4.39453e-05 0.000112305 0.000148926 8.54492e-05 1.70898e-05 1.2207e-05 7.08008e-05 7.08008e-05 0.000239258 2.92969e-05 0.00013916 0.00367605 -0.00860719 0.00357554 -0.00156158 0.00376147 -0.0090029 0.00389483 0.00102604 0.00360344 0.00840235 -0.0014689 0.00388256 0.00507162 0.00388755 -0.00273823 0.00376785 -0.00656347 0.00601131 -0.00862508 0.00376102 0.00345833 -0.00960504 0.0038458 -0.00132418 0.00373377 -0.00461514 -0.039804 0.00664871 -0.0053233 -0.00167371 -0.00231715 -0.00135984 -0.0407273 0.00375928 0.00378486 0.00742487 0.00855429 0.0038139 -0.00895532 0.00377597 0.0046628 0.00376256 0.00471632 -0.00311336 -0.0271848 0.00392369 0.00366163 0.00393078 -0.00568973 0.00594528 0.00789596 -0.000352776 0.00344843 0.00382583 0.00398001 0.00606014 0.00440859 0.00378859 0.00381177 -0.00227617 -0.0170537 0.00375947 0.00377104 -0.00136598 0.0255064 -0.0196276 0.0157445 -0.0105344 0.031271 -0.0235072 0.0222079 -0.00256836 0.0340855 0.0203544 -0.0108844 0.0322076 0.018008 0.0519372 -0.0241953 0.0216452 0.00520154 0.0135257 -0.0196317 0.0344802 0.0307899 -0.0218694 0.0222278 -0.0170549 0.0360569 0.00249534 -0.108118 0.0325489 -0.0271327 -0.0177378 -0.0131515 -0.0164343 -0.111985 0.0216229 0.0172965 0.0105431 0.0164299 0.0294364 -0.0204606 0.0385789 0.0163755 0.0345892 0.0164836 -0.0168463 -0.126759 0.0213915 0.0402613 0.0267104 -0.019719 0.0291425 0.0509851 -0.0190365 0.0196243 0.0366314 0.0238992 0.043938 0.00696181 0.00971312 0.00870805 -0.0134609 -0.0574337 0.0430757 0.0255933 -0.0701406 0.101279 -0.0272497 0.0510049 -0.012094 0.125259 0.197949 0.100435 -0.0720362 0.120464 0.00811833 -0.0836046 0.0936288 0.0210802 0.123597 -0.0962594 0.0767209 0.0732375 -0.055916 0.0184054 0.103238 0.0746957 -0.000718774 0.0159642 0.0055895 0.0846803 0.0408895 -0.111104 -0.0566915 -0.0483453 -0.0533675 -0.0182666 0.00819332 -0.114864 -0.0281369 0.0291072 -0.0295512 -0.00790546 0.0803458 0.00948204 0.118168 0.0501734 0.0870319 0.0679757 -0.126392 -0.144366 0.058576 0.121498 0.0804976 -0.0237683 0.0821904 0.178688 -0.0960534 0.0382984 0.0946234 0.0596844 0.116347 -0.0164398 0.00989719 -0.0335409 0.106197 -0.0526567 0.124596 0.0880828 -0.443703 0.153735 -0.0690075 0.176447 -0.0623582 0.187488 0.204774 0.149925 -0.0930827 0.144435 0.0916173 -0.0194573 0.108321 0.0331924 0.209564 -0.0996726 0.106827 -0.0182968 0.0385806 -0.0661863 0.14502 0.0902061 -0.0293851 0.140084 0.0189449 0.117381 -0.156134 -0.148728 0.0486981 -0.0486665 0.0121774 -0.0651029 0.0211595 -0.145525 -0.0493519 0.043359 0.0351243 0.100708 0.124858 -0.0165581 0.124741 0.058693 0.108148 0.076496 -0.130293 -0.147491 0.133275 0.122024 0.116215 -0.0219417 0.167608 0.264469 -0.154932 0.0711754 0.0727624 0.0808038 0.0992501 -0.0534984 0.199599 -0.0250692 0.133291 -0.13127 0.190925 0.148116 -0.423188 0.16335 -0.0661025 0.16669 -0.0740864 0.183316 0.206516 0.165798 -0.103729 0.172606 0.131588 -0.0247555 0.129749 0.00989035 0.26329 -0.116633 0.136837 -0.00379583 0.107696 -0.0970801 0.169961 0.12109 0.00138201 0.138739 -0.012654 0.148875 -0.12418 -0.134615 0.14009 -0.0494793 0.0935287 -0.0771556 -0.00963724 -0.129759 -0.0446383 0.0230397 0.0627348 0.165914 0.178787 -0.0103976 0.144619 0.0631248 0.137106 0.0935211 -0.148967 -0.198888 0.151436 0.14503 0.136481 -0.00700731 0.147349 0.336589 -0.193843 0.0712801 0.0684035 0.0935601 0.125149 -0.0952044 0.207128 -0.0303472 0.128138 -0.149852 0.211877 0.169433 -0.497323 0.15211 -0.0357892 0.134416 -0.116427 0.211549 0.232243 0.195124 -0.0949566 0.165133 0.131785 -0.0887285 0.139414 -0.0253053 0.281581 -0.0843656 0.0981625 -0.0553852 0.108684 0.0680695 0.142322 0.0854637 0.120534 0.139961 -0.068801 0.155514 -0.126486 -0.124256 0.152744 -0.0172773 0.0436215 -0.0778958 -0.0826378 -0.130548 -0.0579484 -0.0341195 0.0725569 0.164497 0.0453482 0.0124669 0.153095 0.100718 0.164003 0.0637844 -0.227429 -0.174251 0.100425 0.13339 0.101438 0.0445131 0.0939398 0.258412 -0.167241 0.0361626 0.00167334 0.0766245 0.108677 -0.0921316 0.166506 -0.0196762 0.105689 -0.0836605 0.239871 0.212304 -0.55834 0.123975 -0.0717853 -0.0295869 -0.11186 0.205546 0.210504 0.247857 -0.117384 0.187337 -0.00062049 -0.212963 0.236035 -0.0864848 0.219957 0.142772 0.097471 -0.123205 -0.0616515 -0.00755659 0.152337 0.0318677 0.207668 0.05754 -0.141535 0.174031 0.141791 -0.188513 -0.0830704 0.060515 0.108111 -0.045682 -0.0785828 -0.2235 -0.0512975 -0.0928978 0.0237376 -0.0393847 -0.489295 0.00574061 0.225927 0.427155 0.173724 0.258362 -0.343639 0.220732 0.0537359 0.0362945 0.0799946 -0.0478324 -0.0805041 -0.199633 -0.0775189 -0.0841474 -0.0838702 0.0340799 0.0480629 0.0286921 -0.0191796 0.0775462 0.125675 0.159135 0.218259 0.273769 -0.366421 0.206994 -0.113957 0.00887098 -0.0967085 0.225447 0.165303 0.261532 -0.13865 0.258513 -0.0331455 -0.152971 0.302528 -0.0648119 0.29243 0.0534943 0.198887 -0.100267 -0.117103 -0.274364 0.266778 0.127167 0.0580078 0.161773 -0.151747 0.258386 0.136885 -0.203511 -0.143159 0.027998 0.133256 -0.0438258 0.0379962 -0.201512 0.0391321 -0.0113933 -0.0594486 -0.0747952 -0.323928 -0.028495 0.340282 0.445092 0.215747 0.43097 -0.348633 0.522626 0.171189 0.0691953 0.204842 -0.182691 -0.0311853 -0.124713 -0.12073 -0.0653013 -0.0286309 0.118852 0.132386 0.0934192 0.0405699 0.0997887 0.160185 