0.000222168 0.000163574 0.000239258 0.000163574 0.000144043 0.000112305 0.000192871 9.27734e-05 0.000180664 6.34766e-05 0.00013916 2.44141e-06 0.000151367 0.00019043 5.85937e-05 9.76563e-06 0.000131836 8.78906e-05 4.88281e-06 0.000224609 8.30078e-05 0.000124512 0.000158691 0.000166016 0.000131836 0.000229492 3.66211e-05 0.000175781 5.37109e-05 0.000187988 7.32422e-05 0.000129395 0.000141602 2.44141e-05 0.000166016 6.5918e-05 0.000217285 0.000158691 0.000102539 3.17383e-05 1.70898e-05 0.000212402 0.000183105 5.85937e-05 9.76563e-05 8.78906e-05 9.52148e-05 6.10352e-05 6.10352e-05 1.70898e-05 6.10352e-05 0.000107422 0.000158691 9.76563e-06 6.34766e-05 4.15039e-05 2.92969e-05 0.000146484 0.000163574 0.000107422 0.000151367 0.000180664 0.000217285 0.000236816 5.61523e-05 0.000131836 7.32422e-05 2.92969e-05 4.88281e-06 0.000119629 5.61523e-05 1.70898e-05 5.85937e-05 1.95313e-05 8.78906e-05 0.000200195 0.000183105 0.000209961 0.000124512 0.000229492 6.5918e-05 0.000124512 9.76563e-05 0.000119629 0.00010498 0.000141602 0.000187988 0.000100098 4.88281e-06 2.19727e-05 1.46484e-05 3.66211e-05 0.000212402 0.000185547 0.000134277 5.37109e-05 2.68555e-05 0.000144043 0.000168457 0.000146484 0.000124512 9.76563e-06 0.000100098 0.000134277 1.46484e-05 1.95313e-05 9.52148e-05 9.76563e-05 0.000175781 9.76563e-05 0.000209961 0.00013916 0.000212402 1.70898e-05 0.000129395 0.000214844 0.000205078 6.5918e-05 2.19727e-05 2.92969e-05 0.000227051 6.10352e-05 0 0.000102539 0.00012207 4.15039e-05 0.00012207 0.000134277 5.12695e-05 3.17383e-05 0.000100098 7.08008e-05 3.66211e-05 3.17383e-05 0.000170898 9.27734e-05 0.000107422 1.46484e-05 0.00020752 0.00012207 7.32422e-05 0.000222168 0.000229492 0.000153809 0.000187988 0.00020752 8.30078e-05 8.05664e-05 8.05664e-05 4.88281e-06 9.76563e-05 3.17383e-05 0.000234375 6.83594e-05 0.000129395 9.76563e-05 7.08008e-05 3.66211e-05 0.000195313 2.44141e-06 0.000161133 9.76563e-05 9.27734e-05 0.000163574 4.88281e-06 1.70898e-05 0.000234375 9.76563e-05 9.27734e-05 0.000214844 0.000114746 0.000134277 0.000187988 0.000109863 0.000178223 9.52148e-05 0.000119629 4.88281e-05 6.83594e-05 0.000192871 6.83594e-05 5.37109e-05 0.000166016 0.00015625 0.00017334 7.32422e-06 8.78906e-05 3.41797e-05 4.88281e-06 0 1.46484e-05 9.76563e-05 2.44141e-06 0.000148926 4.63867e-05 0.000124512 4.15039e-05 0.000175781 0 0.000126953 0.000178223 0.000168457 0.000239258 5.61523e-05 0.000170898 6.83594e-05 0.000185547 3.41797e-05 0 0.000205078 3.66211e-05 0.000192871 9.76563e-06 0.000119629 0.000200195 0.000241699 0.000134277 0.00015625 0.000231934 6.5918e-05 1.2207e-05 0.000141602 9.52148e-05 5.61523e-05 7.32422e-05 0.000151367 4.15039e-05 3.17383e-05 0.000134277 0.00017334 0.00019043 0.000102539 9.76563e-06 0.000158691 0.00020752 0.000192871 0.000224609 0.000192871 0.000102539 0.000153809 0.000168457 0.000109863 2.68555e-05 1.95313e-05 0.000131836 4.39453e-05 5.37109e-05 0.000205078 6.5918e-05 0.000148926 9.76563e-05 7.8125e-05 0.000166016 0.000202637 0.000197754 0.00010498 0.000236816 6.83594e-05 2.44141e-06 9.76563e-06 0.000185547 0.000126953 3.41797e-05 4.63867e-05 8.54492e-05 0.000224609 0.000212402 9.52148e-05 0.000134277 0.00020752 8.05664e-05 0.00015625 2.19727e-05 1.70898e-05 8.78906e-05 0.000163574 9.76563e-06 0.000129395 3.90625e-05 7.56836e-05 3.66211e-05 9.76563e-05 0.000214844 0.000100098 0.00020752 0.00013916 0.00012207 0.000241699 0.000231934 0.000195313 0.000178223 9.76563e-05 8.78906e-05 0.00010498 2.92969e-05 0.000231934 3.41797e-05 0.000151367 0.000134277 0.000180664 0.000166016 0.000205078 0.000144043 1.2207e-05 0.000124512 9.27734e-05 2.19727e-05 3.90625e-05 1.2207e-05 0.000219727 0.000183105 0.000227051 0.000214844 3.66211e-05 0.000222168 5.12695e-05 2.68555e-05 1.70898e-05 4.88281e-05 0 0.000144043 8.05664e-05 0.000178223 5.61523e-05 0.000117187 5.85937e-05 6.5918e-05 6.10352e-05 4.88281e-06 0.000134277 2.44141e-05 0.000119629 7.32422e-05 7.56836e-05 5.12695e-05 0.000117187 8.54492e-05 4.88281e-06 0.000222168 8.30078e-05 4.88281e-06 0.000119629 0.000168457 0.000227051 0.000148926 0.00015625 0.000175781 0.000158691 6.5918e-05 0.000109863 0.000197754 0.000148926 0.000168457 4.88281e-06 0.000114746 3.41797e-05 0.000222168 0.000134277 9.76563e-06 1.46484e-05 0.000170898 0.000202637 1.95313e-05 0.000205078 1.2207e-05 0.000229492 0.00017334 0.000141602 0.000197754 0.000241699 0.000112305 7.08008e-05 0.000170898 7.32422e-05 0.000195313 7.8125e-05 0.000151367 8.05664e-05 0.000217285 4.88281e-05 2.92969e-05 0.000153809 3.41797e-05 7.32422e-06 0.000129395 9.0332e-05 0.000100098 0.00015625 9.27734e-05 2.92969e-05 0.000175781 0.000100098 0.000163574 5.37109e-05 0.000109863 5.37109e-05 4.15039e-05 0.000214844 3.17383e-05 0.000200195 5.37109e-05 0.000227051 4.88281e-06 0.000151367 0.000109863 5.12695e-05 0.00020752 0.00012207 0.000234375 0.000158691 9.76563e-06 0.000231934 4.88281e-06 8.78906e-05 0.00012207 5.37109e-05 0.000195313 0.00020752 0.000175781 0.000114746 0.000124512 4.63867e-05 2.92969e-05 9.52148e-05 4.63867e-05 4.15039e-05 0.000119629 0.000163574 0.000134277 0.000202637 0.000180664 8.05664e-05 8.05664e-05 0.000117187 7.32422e-05 5.12695e-05 5.61523e-05 4.63867e-05 9.76563e-05 0.000229492 0.000112305 0.000241699 0.000200195 0.00020752 8.30078e-05 0.000141602 1.70898e-05 5.12695e-05 0.000161133 0.00013916 0.000224609 0.000231934 7.08008e-05 5.12695e-05 0.000153809 4.88281e-05 0 1.46484e-05 4.63867e-05 0.000107422 7.32422e-05 6.5918e-05 0.00015625 4.88281e-06 8.54492e-05 0.000148926 0.000166016 4.15039e-05 0.000158691 9.27734e-05 0.000224609 0.00020752 9.76563e-05 0.000197754 5.61523e-05 0.000192871 0.000161133 2.44141e-06 5.61523e-05 3.17383e-05 0.000168457 0.000163574 6.10352e-05 8.05664e-05 6.10352e-05 8.78906e-05 0.000107422 9.52148e-05 0.000229492 0.000161133 0.000227051 0.000168457 0.000212402 4.39453e-05 0.000197754 0.000134277 6.34766e-05 0.000219727 0.000131836 4.63867e-05 0.000219727 2.68555e-05 1.46484e-05 4.39453e-05 0.000124512 0.000200195 0.000239258 0.000214844 5.85937e-05 4.63867e-05 5.61523e-05 0.000109863 0.000231934 0.000141602 0.000153809 0.000100098 0.000227051 0.000178223 0.000161133 0.000158691 6.5918e-05 0.000170898 2.19727e-05 0.000119629 7.08008e-05 2.44141e-06 0.00019043 0.000146484 0.000126953 0.000158691 9.0332e-05 4.63867e-05 3.41797e-05 4.63867e-05 7.32422e-06 7.32422e-05 0.000148926 0.000102539 4.15039e-05 0.000119629 0.000224609 0.00020752 4.63867e-05 0.000112305 6.5918e-05 0.000180664 0.000168457 0.000131836 0.000107422 0.00020752 0.000219727 2.44141e-06 0.000100098 0.000136719 0.000107422 4.15039e-05 0.000126953 9.76563e-05 0.000222168 0.000161133 8.05664e-05 0.000185547 0.000227051 7.8125e-05 0.000112305 0.000214844 0.00020752 0.000236816 0.000168457 0.000158691 5.37109e-05 5.37109e-05 0.000119629 4.63867e-05 1.70898e-05 0.000114746 6.34766e-05 5.61523e-05 2.19727e-05 0.000168457 4.39453e-05 0.000180664 0.00015625 0.000231934 0.000214844 0.000229492 0.000100098 0.000224609 4.88281e-05 0.000192871 0.00010498 0.00013916 7.32422e-06 4.15039e-05 2.44141e-05 0.000239258 0.00013916 0.00015625 0.000109863 4.88281e-06 2.92969e-05 0.000134277 0.000229492 5.37109e-05 8.54492e-05 0.00013916 9.27734e-05 0.000129395 0.000239258 3.41797e-05 4.15039e-05 1.2207e-05 0.000205078 7.32422e-05 0.000136719 0.000168457 0.000229492 0.000134277 0.000209961 0.000212402 0.000209961 0.000114746 0.000117187 0.000146484 1.95313e-05 0.00010498 0.00017334 0.000200195 0.000192871 0.000100098 0.000229492 0.000168457 2.92969e-05 0.000197754 4.15039e-05 0.000141602 0.000209961 0.000205078 0.00012207 0.000114746 6.10352e-05 0.00020752 0.000161133 7.32422e-06 0.000178223 3.90625e-05 5.12695e-05 0.000119629 9.0332e-05 0.000180664 0.000148926 0.000180664 8.05664e-05 4.39453e-05 0 0.000185547 8.54492e-05 0.000109863 0.000168457 0.000175781 2.19727e-05 0.000148926 7.32422e-05 7.56836e-05 0.000234375 3.17383e-05 2.68555e-05 0.000148926 0.000163574 0.000239258 8.05664e-05 3.41797e-05 9.52148e-05 0.000100098 0.000153809 0.000239258 2.19727e-05 0.000124512 2.44141e-06 0.00017334 2.44141e-06 0.000129395 0.000134277 0.000185547 1.2207e-05 4.39453e-05 0.000205078 0.000195313 5.12695e-05 0.000187988 0.00015625 0.000114746 8.30078e-05 3.66211e-05 7.32422e-06 0.000146484 1.95313e-05 3.90625e-05 7.8125e-05 4.88281e-05 2.44141e-06 0.000129395 0.000234375 4.39453e-05 2.68555e-05 5.37109e-05 5.37109e-05 0.000114746 0.000107422 0.000168457 5.37109e-05 2.92969e-05 3.90625e-05 0.000222168 0.000146484 0.000112305 0.000183105 0.000129395 8.78906e-05 0.000129395 0.000109863 6.34766e-05 0.000205078 1.95313e-05 0.000170898 0.00010498 4.39453e-05 8.54492e-05 0.000158691 0.000222168 9.52148e-05 0.000112305 0.000185547 0.00010498 4.88281e-06 0.000229492 0.000148926 0.000236816 0.000217285 0.000239258 0.000231934 0.000119629 0.000236816 0.000214844 0.000224609 0.000214844 9.76563e-06 0.000144043 0.00019043 3.17383e-05 2.92969e-05 4.39453e-05 0.000231934 0.000195313 7.08008e-05 0.00012207 0.000236816 2.44141e-06 0.000241699 0.000187988 8.30078e-05 0.000166016 7.08008e-05 2.92969e-05 0.000100098 0.000209961 0.000168457 0.000124512 0.0106379 9.96015e-05 0.000141643 -0.00686125 -0.00383997 0.000348593 0.00521156 7.81437e-06 0.0141394 0.00681818 -0.000591868 -0.00750196 -0.00248966 0.000300027 -0.00141313 -0.00221202 -0.000275624 0.00271912 -0.00491351 0.0238602 -9.6311e-05 5.34073e-05 -0.0129675 -2.35376e-05 -0.00915182 2.59417e-05 0.00385391 -3.08667e-05 0.000188603 -0.000109202 0.0419077 0.0164636 2.28052e-05 0.0161061 -0.000491092 -0.00630396 -0.0150515 0.00669549 -0.00237896 0.0003328 3.23706e-05 -0.00298356 0.00245156 -0.00230579 0.00261483 -0.000453062 -0.0111011 -0.0496496 -0.0195765 -0.000249826 -0.0005031 -0.00229324 -0.0063489 -2.83992e-05 -0.00231845 -0.00955028 -1.27038e-05 0.00833677 -0.00774317 0.0019208 -0.00857807 -0.000472694 -0.000110891 -0.00237935 0.0280761 -0.000161749 -7.09063e-05 -0.01842 -0.0102632 0.000688858 0.0138029 -4.86604e-05 0.0375511 0.0182259 -0.00167811 -0.0199381 -0.00678241 0.000878364 -0.00390975 -0.0063372 -0.000951462 0.00697283 -0.0130113 0.0628338 -0.000323541 -0.000200829 -0.0344968 -0.000119119 -0.0246177 -0.00039042 0.010106 -0.00050232 0.000133312 -0.000206802 0.111244 0.0438094 0.000155492 0.042924 -0.00163742 -0.0170214 -0.0404051 0.0176566 -0.00640799 0.000512416 -0.00036022 -0.00805828 0.00614614 -0.00667107 0.00681629 -0.00152679 -0.0296956 -0.131813 -0.0521502 -0.000992106 -0.00124812 -0.00625194 -0.0173726 -4.99415e-05 -0.00624285 -0.0256527 2.44799e-05 0.0220261 -0.020742 0.00493639 -0.0230715 -0.00126547 -0.0003316 -0.00616869 0.0206287 -0.000127796 -8.56184e-05 -0.013562 -0.00750465 0.000593612 0.0101957 -7.04716e-05 0.0278558 0.0135128 -0.00125589 -0.0145638 -0.00499539 0.00079381 -0.00290994 -0.00461899 -0.000641286 0.00527637 -0.00956916 0.0463809 -0.000252498 -0.000180082 -0.0254393 5.52739e-05 -0.0179854 -0.000207528 0.00756561 -0.000387574 0.000232567 -0.000227936 0.0822544 0.03241 -3.88238e-05 0.0317773 -0.00111902 -0.0124161 -0.0297042 0.0129989 -0.00462019 0.000393933 -0.000309286 -0.00588532 0.00455517 -0.00483232 0.00506891 -0.00112497 -0.0219096 -0.0973095 -0.0383641 -0.000707756 -0.000885621 -0.00458402 -0.0127939 0.000118602 -0.0045008 -0.0188409 1.82108e-05 0.0164703 -0.0153424 0.0037131 -0.0169906 -0.00080513 -0.000116025 -0.00470605 0.0497386 0.000787101 0.00329094 0.00382032 -0.0164869 -0.00313396 0.0406663 0.00132571 0.0503195 0.0234559 -0.00636175 0.00166818 -0.0106182 0.00289994 0.00630593 -0.00999074 -0.000504991 0.0198282 -0.0189696 0.0800791 0.00186458 0.00111231 -0.0522831 0.0014117 -0.0357486 0.00168029 -0.00131736 0.00142908 0.00178886 0.00114281 0.14027 0.073208 0.000638413 0.0844642 -0.00147045 -0.0237468 -0.0557194 0.0454048 -0.0356152 0.00223275 0.000193957 -0.0122574 0.0107926 -0.0118845 0.0337842 -0.00178417 -0.0409715 -0.169312 -0.0684937 -0.000314425 -0.000680533 -0.0101447 -0.0307556 0.00232387 -0.0101187 -0.0454808 0.00141795 0.0445835 -0.0631201 0.023953 -0.0299585 -0.0145506 0.00172597 -0.0102673 0.0737942 -0.0281518 0.0205916 0.0143487 -0.0271209 -0.0176153 0.0593682 0.001886 0.0590894 0.0236989 -0.0248288 0.0281241 -0.0198369 0.00790271 0.0223352 -0.0188244 0.00254475 0.0346473 -0.0295067 0.0965646 0.00731316 0.00546421 -0.0752354 0.00579549 -0.0528648 0.00712536 -0.0379458 0.00665533 0.00633912 -0.00218724 0.174948 0.085378 0.00344491 0.11879 0.00142906 -0.0384883 -0.0785325 0.0718117 -0.0759262 0.00733047 0.00291705 -0.0211234 0.020644 -0.0218806 0.0681852 0.000798239 -0.0653678 -0.202035 -0.0943852 0.00318198 0.0027327 -0.0191854 -0.0714563 0.00767042 -0.0311565 -0.0724808 0.00571988 0.0662726 -0.115006 0.043623 -0.0485281 -0.0295519 0.00686909 -0.0194797 0.074225 -0.0773227 0.0431883 -0.0106948 -0.0334578 -0.0342742 0.0403158 -2.96166e-05 0.0513351 0.0145531 -0.04627 0.0313084 -0.0278474 0.0130032 0.0295156 -0.0267997 0.00704721 0.0356765 -0.0361515 0.0942852 0.0123703 0.0101566 -0.0815434 0.0105158 -0.0612927 0.0122184 -0.0771224 0.0114747 0.0109891 -0.0102487 0.181919 0.0523802 0.00716493 0.0991952 0.00539557 -0.0507935 -0.0890364 0.0640572 -0.0886556 0.0123258 0.00628313 -0.0284827 0.0284528 -0.0283892 0.0749706 0.00507031 -0.0862518 -0.191728 -0.108774 0.00781052 0.00741166 -0.0270032 -0.114381 0.0126035 -0.0586838 -0.0816349 0.0106064 0.0614508 -0.12252 0.0407225 -0.067113 -0.0294346 0.0120509 -0.027478 0.0662522 -0.112547 0.0448293 -0.00198371 -0.00480039 -0.0335904 0.0540845 0.0234309 0.0575767 0.0435187 -0.0415078 0.0245313 -0.0345432 0.036563 0.0470065 -0.0338487 0.0252403 0.0365228 -0.0440909 0.0935952 0.0300968 0.0330914 -0.0729719 0.0401009 -0.0635411 0.0115974 -0.00728203 0.0295209 0.0297267 0.0579784 0.143637 0.115339 0.0151695 0.124399 0.0182932 -0.0548311 -0.0960724 0.0649062 -0.00417189 0.0759632 0.0213352 -0.0322685 0.0404139 -0.0367939 0.0756446 -0.0817933 -0.0839394 -0.189279 -0.11269 0.0299514 0.0288669 -0.0345655 0.12209 0.0302341 -0.0504883 -0.142855 0.06274 0.079633 -0.0656176 0.0682986 -0.0659425 -0.0115411 0.0292521 -0.035009 0.0633009 -0.0834648 0.029084 0.0140312 0.00426376 -0.0214692 0.0666327 0.0277877 0.0631699 0.0538639 -0.0251997 0.0186255 -0.0296056 0.0363821 0.0434867 -0.0290331 0.0247451 0.034584 -0.040285 0.0943653 0.028947 0.0331026 -0.0661525 0.0407007 -0.0570971 0.0077992 0.0311559 0.0283593 0.028963 0.0731287 0.132423 0.145052 0.0137819 0.137912 0.0172686 -0.0466341 -0.08876 0.0679623 0.0193865 0.0814647 0.0210583 -0.0274799 0.0364478 -0.032927 0.0684096 -0.0971095 -0.0684312 -0.194791 -0.102608 0.029831 0.0286918 -0.0300295 0.186554 0.0291648 -0.029985 -0.143824 0.0667739 0.0836749 -0.0482775 0.0720562 -0.0526399 -0.00764161 0.0279989 -0.0302106 0.049099 -0.0841478 0.0264181 -0.00738497 0.00803927 -0.018384 0.0460741 0.0267342 0.0580171 0.0518558 -0.0215968 -0.00205495 -0.0273747 0.034869 0.0341955 -0.0268477 0.0243232 0.0249582 -0.0370382 0.0889232 0.0271746 0.031898 -0.0563359 0.0396646 -0.0514575 0.00608589 0.0420896 0.0265853 0.0277964 0.072074 0.123472 0.126463 0.0133662 0.109329 0.0169097 -0.0432063 -0.0815633 0.0471684 0.0430496 0.0800563 0.0205109 -0.0251207 0.0333556 -0.0294968 0.0470743 -0.0973411 -0.0634504 -0.18193 -0.0961422 0.0292057 0.0280057 -0.0276777 0.195466 0.0271894 -0.0276475 -0.130775 0.0654444 0.068264 -0.0157235 0.0570213 -0.0500997 0.00335229 0.0262262 -0.0279393 0.027942 -0.0850513 0.0222247 -0.0388293 0.0132716 -0.0134312 0.015255 0.0249106 0.0500649 0.0490499 -0.0163083 -0.0327723 -0.0239977 0.0325844 0.0205193 -0.0237121 0.0239309 0.0104593 -0.0322199 0.0807641 0.0242114 0.0302571 -0.0414952 0.0377572 -0.0427404 0.00337823 0.0584178 0.0242582 0.0257401 0.0703297 0.110677 0.0991659 0.0124089 0.0664339 0.0162481 -0.0384581 -0.0708745 0.0162663 0.0778533 0.077819 0.0199008 -0.0217694 0.028976 -0.0242242 0.0149673 -0.0974946 -0.0557062 -0.163053 -0.0866606 0.0281046 0.0270922 -0.0240856 0.208434 0.0243772 -0.023985 -0.111611 0.0637592 0.0450362 0.0324339 0.034385 -0.0463787 0.0194548 0.023788 -0.0242614 0.0190236 -0.0853171 0.0215536 -0.0420952 0.0162625 -0.012549 0.00678042 0.0246176 0.0421849 0.0453582 -0.0149847 -0.035666 -0.0220957 0.0321293 0.0183039 -0.0221059 0.0239243 0.00632927 -0.0290688 0.068556 0.0238665 0.0297961 -0.0325335 0.0375035 -0.0367793 0.0027399 0.0599367 0.0237309 0.0254726 0.069943 0.0894343 0.0864828 0.0121991 0.0506816 0.0165142 -0.0346345 -0.0618934 0.00719443 0.0860945 0.0773203 0.0197856 -0.0197051 0.0270987 -0.0219926 0.00739363 -0.0971445 -0.0491983 -0.137365 -0.0761657 0.0281219 0.0270707 -0.0224983 0.213963 0.0239166 -0.0223414 -0.103376 0.0634483 0.0365533 0.0455853 0.0289499 -0.041902 0.0228367 0.0233297 -0.0223522 0.00742895 -0.0851821 0.0216137 -0.034477 0.0205387 -0.0129049 0.00127116 0.0245076 0.0264698 0.0379932 -0.0140161 -0.027422 -0.0192655 0.0316254 0.0201514 -0.0193665 0.0242946 0.00342914 -0.0235359 0.0423085 0.0239413 0.0298436 -0.0180543 0.0374774 -0.0265469 0.00299957 0.0557721 0.024075 0.025436 0.0701477 0.0427407 0.0679934 0.0122989 0.0328664 0.0172102 -0.0275216 -0.0450057 -0.000143717 0.0886435 0.0771984 0.0198683 -0.0160355 0.0243658 -0.0193058 0.00456686 -0.0966228 -0.0367078 -0.0820052 -0.0540483 0.0284027 0.0277701 -0.019669 0.221263 0.0239779 -0.019772 -0.0925908 0.063599 0.0274968 0.054355 0.0269114 -0.0321627 0.0235525 0.023501 -0.0198895 -0.00997744 -0.0851088 0.0216724 -0.0227839 0.02694 -0.0131987 -0.00745204 0.0246348 0.00318507 0.0267539 -0.012864 -0.0149614 -0.0150069 0.0311984 0.022543 -0.0153586 0.0248142 -0.000753771 -0.01557 0.00310299 0.0243102 0.0301662 0.0033676 0.0375559 -0.0109906 0.00315959 0.0495054 0.0245171 0.025357 0.0704625 -0.0263096 0.0408942 0.0123566 0.00616325 0.0182223 -0.0167529 -0.0198474 -0.0111658 0.0927628 0.0769578 0.0202462 -0.01089 0.0205687 -0.0151187 0.000245767 -0.0955442 -0.0181523 0.000417306 -0.0216992 0.0292939 0.0284614 -0.0158348 0.232225 0.0241752 -0.0158549 -0.0766275 0.0636644 0.0136488 0.0675003 0.0240301 -0.017701 0.0243111 0.0237901 -0.0157998 -0.033543 -0.073826 0.0212777 -0.0191527 0.00942023 -0.0119308 -0.0102297 0.0197714 -0.0024215 0.026836 -0.0173303 -0.0110993 -0.0226495 0.0300858 0.0329912 -0.0205919 0.032738 -0.00283286 -0.0123604 -0.00318471 0.0429067 0.0271577 0.00750582 0.0317147 -0.00887311 0.0228293 0.0862924 0.0238987 0.0211813 0.0685462 -0.0414507 0.0333771 0.011117 -0.000671393 0.0166226 -0.0266835 -0.0291179 -0.0401523 0.0950831 0.0700181 0.0190773 -0.0196148 0.0172717 -0.0202882 0.00110491 -0.0988747 0.0560501 0.0189131 -0.0135315 0.0415519 0.0279428 -0.0231523 0.207982 0.0277156 -0.0134932 0.0813035 0.0595186 0.00979843 0.0621423 0.022125 -0.0192915 0.0416572 0.0441503 -0.0260704 -0.0683863 -0.107995 0.0112345 -0.0119264 -0.00830302 -0.00362392 -0.0175715 0.0056648 -0.00945373 0.0230263 -0.0218759 0.007191 -0.027719 0.019012 0.0342465 -0.0282038 0.017007 -0.0104579 -0.00314526 0.00926344 0.0138934 0.0158648 -0.000367213 0.00726273 -0.0101204 0.0316888 0.116004 0.0176984 0.0087866 0.0568029 -0.0488703 0.0235988 -0.00736644 -0.0080007 0.0015944 -0.0452446 -0.0500751 -0.0750576 0.0993805 0.0546376 0.00717935 -0.0513231 -0.00576764 -0.0226983 -0.00333866 -0.115674 0.131192 0.0255909 -0.0132527 0.0740691 0.0198146 -0.0268093 0.173252 0.0247317 -0.012122 0.248747 0.0516032 0.00281903 -0.00849978 0.013875 -0.0507639 0.0213377 0.0469763 -0.0330335 -0.0883093 -0.16792 -0.00144392 -0.00423815 -0.00683525 0.00523525 -0.0259601 -0.0064485 -0.0173974 0.0149442 -0.0222018 0.0295368 -0.0233884 0.00600054 0.0233271 -0.0302163 -0.0139438 -0.0187559 0.00687536 0.0240715 -0.0494659 0.00429991 -0.0103797 -0.0171559 -0.0104515 0.017452 0.105488 0.00971798 -0.00237806 0.0436585 -0.057108 0.0129553 -0.0304261 -0.0161306 -0.0158267 -0.0538857 -0.0583943 -0.0859212 0.10322 0.043558 -0.0072701 -0.0804336 -0.0325901 -0.0180966 -0.011703 -0.13313 0.138256 0.0317536 -0.0148042 0.101214 0.0104705 -0.0211713 0.1618 0.0155241 -0.0119945 0.26698 0.0470551 -0.00530039 -0.0915639 0.0041263 -0.0866641 -0.0279235 0.0242832 -0.0276565 -0.0935302 -0.183086 -0.00459053 -0.00243433 -0.00655554 0.00729699 -0.0280175 -0.00948716 -0.0194185 0.0127585 -0.0222999 0.0350373 -0.0224244 0.00267092 0.0206479 -0.0307529 -0.0216585 -0.0206398 0.00933248 0.027859 -0.0654651 0.00139746 -0.0128683 -0.0231874 -0.0105943 0.0137038 0.10281 0.00775495 -0.00502886 0.0402114 -0.0593139 0.0101671 -0.0361111 -0.0181836 -0.0201497 -0.0561406 -0.0607048 -0.0885998 0.104064 0.0406061 -0.0108506 -0.0878473 -0.0393928 -0.0169206 -0.0139503 -0.137639 0.140013 0.0331594 -0.0149914 0.108006 0.00827631 -0.0195631 0.159112 0.0134954 -0.0120309 0.271506 0.0459291 -0.00704857 -0.112529 0.00152492 -0.0956694 -0.0401934 0.0185075 -0.026171 -0.0933154 -0.18314 -0.00452706 -0.00245142 -0.00660925 0.00747766 -0.0281274 -0.00952623 -0.0195918 0.0127512 -0.0223853 0.0349201 -0.0223267 0.00265871 0.0206162 -0.0309335 -0.0215999 -0.0206838 0.00934468 0.0276661 -0.0654773 0.00136328 -0.0128902 -0.0231556 -0.0105455 0.0138454 0.102874 0.00791608 -0.00517779 0.0402456 -0.0593993 0.0102452 -0.0362185 -0.0181909 -0.0200789 -0.0559355 -0.0607316 -0.0886828 0.103991 0.0406378 -0.0108945 -0.0877716 -0.0393855 -0.0169304 -0.0138526 -0.13759 0.139901 0.0333914 -0.0150671 0.108006 0.00828363 -0.0197609 0.158961 0.0134222 -0.0119577 0.271501 0.0457533 -0.00718285 -0.112373 0.00144923 -0.0957133 -0.0402861 0.0184782 -0.0261197 -0.0934008 -0.183027 -0.00463936 -0.00240503 -0.00665808 0.00730676 -0.0280639 -0.00951158 -0.0193794 0.0127951 -0.0223243 0.0349274 -0.0222633 0.00273684 0.0206479 -0.030914 -0.0216854 -0.0206521 0.00932759 0.0276319 -0.0653284 0.00145849 -0.0127389 -0.0231019 -0.0106236 0.0138893 0.102927 0.0077403 -0.00515582 0.0404336 -0.0593432 0.0101549 -0.0362917 -0.0181323 -0.0202181 -0.0560674 -0.0607048 -0.0886096 0.104055 0.0405866 -0.0108091 -0.0878693 -0.0392121 -0.0167912 -0.0138819 -0.137522 0.140069 0.0332571 -0.0149841 0.107974 0.00807611 -0.01959 0.159078 0.0134002 -0.0118942 0.271498 0.045912 -0.00724144 -0.112522 0.00150539 -0.0956938 -0.0402251 0.0185051 -0.0261978 -0.0934155 -0.18304 -0.00463692 -0.00245142 -0.00656775 0.00737024 -0.0281957 -0.00939195 -0.019499 0.0127585 -0.0223731 0.0350251 -0.022295 0.00266848 0.0205527 -0.0308603 -0.0215242 -0.0208425 0.00943502 0.0277613 -0.0653528 0.00160009 -0.0128341 -0.0232362 -0.0105284 0.0136916 0.102988 0.0079112 -0.00499224 0.0404507 -0.0593749 0.0102843 -0.0361501 -0.0183154 -0.0202107 -0.0561357 -0.0605119 -0.0885534 0.10395 0.040816 -0.010836 -0.0877228 -0.0393171 -0.0168791 -0.0139454 -0.137531 0.139984 0.0332254 -0.0150158 0.107925 0.0082055 -0.0196388 0.159029 0.0134954 -0.0119601 0.271603 0.0458608 -0.00721947 -0.112485 0.00154933 -0.0955839 -0.0403447 0.0184807 -0.026193 -0.0934472 -0.183091 -0.00458565 -0.00245142 -0.0065824 0.00748498 -0.028037 -0.0094066 -0.0194087 0.0128806 -0.0223463 0.0350519 -0.0223634 0.00282473 0.0205942 -0.0309653 -0.0215633 -0.020779 0.00930562 0.0278468 -0.0654211 0.00143164 -0.0127438 -0.0232289 -0.0104234 0.0138845 0.102862 0.0076988 -0.0051607 0.0403384 -0.0592138 0.010106 -0.0362966 -0.0181079 -0.0201473 -0.0561089 -0.0606559 -0.0886462 0.104059 0.0407355 -0.0108628 -0.0879279 -0.0392854 -0.016884 -0.0138429 -0.13759 0.139874 0.0333279 -0.0151525 0.107905 0.00828607 -0.0197218 0.159161 0.013493 -0.0119015 0.271623 0.0459096 -0.00723656 -0.112483 0.00163478 -0.0955497 -0.0403887 0.0184367 -0.0262516 -0.0934448 -0.183074 -0.00443917 -0.00231958 -0.00664343 0.00733606 -0.028037 -0.00950181 -0.0194893 0.0126999 -0.0222608 0.0351423 -0.0222706 0.0028174 0.0206503 -0.0307455 -0.0216585 -0.0208425 0.00950826 0.0278126 -0.0654602 0.00136084 -0.0127242 -0.0231263 -0.0104234 0.0136769 0.10281 0.00786237 -0.0051192 0.0402554 -0.059348 0.0100987 -0.0361452 -0.0181543 -0.0199959 -0.055999 -0.0605339 -0.0885583 0.103989 0.0406232 -0.0109727 -0.0878205 -0.0394001 -0.0168645 -0.0138111 -0.137539 0.13994 0.0332962 -0.015177 0.107837 0.00812982 -0.0196998 0.158966 0.0134515 -0.0119138 0.271581 0.0457655 -0.00712669 -0.112431 0.00153224 -0.0956401 -0.0402153 0.0185954 -0.0261588 -0.0917047 -0.172487 -0.0071237 8.8411e-05 -0.0100355 0.00906044 -0.0268901 -0.0125803 -0.0192383 0.00983121 -0.0205725 0.03662 -0.020673 -0.00118414 0.0176212 -0.0289628 -0.024566 -0.0205817 0.0112565 0.0282987 -0.0684459 -0.00231555 -0.0137005 -0.0278672 -0.00950454 0.0133063 0.0968738 0.00478942 -0.00817497 0.0314519 -0.0541769 0.00581166 -0.0377321 -0.0182211 -0.0224641 -0.0542529 -0.0587094 -0.0869772 0.0923521 0.0311861 -0.0134796 -0.0865776 -0.041883 -0.0150414 -0.0137271 -0.125678 0.141907 0.0310589 -0.0132629 0.104282 0.00451883 -0.0178199 0.129741 0.0104789 -0.0100187 0.280729 0.0380366 -0.00861604 -0.121291 -0.00143513 -0.0938475 -0.0432543 0.0154517 -0.0243372 -0.0847898 -0.129827 -0.0180307 0.0105543 -0.0241494 0.0158567 -0.0223458 -0.0248552 -0.0185264 -0.00230783 -0.0142886 0.0427284 -0.0136036 -0.0164928 0.00613803 -0.0217901 -0.0372354 -0.0197867 0.0180231 0.0307484 -0.0805599 -0.0173133 -0.0176714 -0.0465147 -0.00544903 0.0118243 0.0728979 -0.00730224 -0.0207268 -0.00366501 -0.0340332 -0.011853 -0.0439306 -0.0186979 -0.0314887 -0.0467901 -0.0513774 -0.0802952 0.0456311 -0.00717393 -0.0234043 -0.0815846 -0.0516116 -0.00791727 -0.0135015 -0.0781212 0.149088 0.022754 -0.00566116 0.089634 -0.00960848 -0.0102542 0.0128984 -0.00165084 -0.00257579 0.317411 0.00611728 -0.013835 -0.156194 -0.0128639 -0.0863748 -0.055437 0.00382598 -0.0168143 -0.079805 -0.0977893 -0.0259594 0.0182505 -0.0348496 0.0206966 -0.0188153 -0.0340519 -0.0177496 -0.0114997 -0.0094794 0.0474965 -0.00813261 -0.0283673 -0.00240602 -0.0160877 -0.0465931 -0.0189219 0.0234038 0.0324873 -0.0895949 -0.0284238 -0.0204005 -0.0608235 -0.00251103 0.0106505 0.0547279 -0.0165625 -0.0303613 -0.0300214 -0.0187429 -0.0249569 -0.0485008 -0.01897 -0.0384161 -0.0412563 -0.0456816 -0.0752014 0.0103766 -0.0361919 -0.0309477 -0.0778143 -0.0590776 -0.00244843 -0.0132585 -0.0423767 0.154436 0.0164844 0.000174158 0.0787977 -0.0202698 -0.00450649 -0.0751182 -0.010673 0.00316346 0.345196 -0.0177777 -0.0179136 -0.182443 -0.0215842 -0.0809042 -0.06471 -0.00506477 -0.0110756 -0.0797513 -0.0978284 -0.0259765 0.0182188 -0.0347812 0.0207747 -0.0188323 -0.0340763 -0.0178107 -0.0113361 -0.00954776 0.0476381 -0.0080789 -0.0283062 -0.00246462 -0.0161487 -0.0465003 -0.0189732 0.0233842 0.0324531 -0.0895998 -0.028541 -0.0205445 -0.0607698 -0.00253788 0.0106114 0.0546424 -0.0166309 -0.0303173 -0.0299066 -0.018716 -0.0249227 -0.0483982 -0.0188577 -0.0383526 -0.04131 -0.0458403 -0.0751208 0.0105939 -0.0361553 -0.0309404 -0.0776459 -0.0590751 -0.00246552 -0.0132341 -0.0422571 0.154475 0.016565 0.000220545 0.0786146 -0.0204212 -0.00457974 -0.0752256 -0.0106925 0.00318543 0.344998 -0.0177118 -0.018104 -0.182418 -0.0217038 -0.0807358 -0.0646026 -0.00525519 -0.0110585 -0.0797439 -0.0977307 -0.0260155 0.0182505 -0.0348862 0.020865 -0.0189373 -0.0339005 -0.0176813 -0.0114338 -0.00951114 0.0475404 -0.00819609 -0.0282428 -0.00243532 -0.0160657 -0.0464637 -0.0190538 0.0234086 0.0325043 -0.0896242 -0.02858 -0.0203785 -0.0606307 -0.00255009 0.0104869 0.0546693 -0.0164209 -0.0303979 -0.0298871 -0.0188503 -0.0250375 -0.0484178 -0.018948 -0.0384161 -0.0413686 -0.0457915 -0.0751013 0.0104352 -0.0362115 -0.0309941 -0.0777972 -0.0591117 -0.00261201 -0.0131414 -0.0422913 0.154404 0.0166309 2.27911e-05 0.0787855 -0.0204603 -0.00460903 -0.0751621 -0.0106241 0.00300965 0.345199 -0.0177533 -0.0181162 -0.182572 -0.0215646 -0.0808896 -0.0647491 -0.0051258 -0.0110634 -0.0697582 -0.0856291 -0.0227428 0.0159423 -0.0304156 0.0181531 -0.0166407 -0.0296965 -0.0155175 -0.0100696 -0.00818522 0.0416488 -0.00709803 -0.0246218 -0.00202867 -0.0140493 -0.0406618 -0.0165835 0.0203342 0.0284172 -0.0784514 -0.0249468 -0.0179044 -0.0530845 -0.00219135 0.00915257 0.0478335 -0.0145532 -0.0265823 -0.0262785 -0.016364 -0.0218364 -0.0423811 -0.0163635 -0.0336021 -0.0360257 -0.0399327 -0.0656529 0.00919949 -0.0316386 -0.0270561 -0.0678769 -0.0516663 -0.00211797 -0.0115478 -0.0371025 0.135293 0.0143723 4.89339e-05 0.0689293 -0.0179262 -0.00386689 -0.065856 -0.00914476 0.00279916 0.302038 -0.0154887 -0.0158523 -0.159766 -0.0190021 -0.0706395 -0.0565075 -0.00444754 -0.00972044 -0.0323711 -0.0398768 -0.010629 0.00750568 -0.0141152 0.00852756 -0.00773245 -0.0138112 -0.00713315 -0.00458396 -0.0037731 0.0194351 -0.00317 -0.0114797 -0.000999568 -0.00652519 -0.0189492 -0.0076662 0.0094819 0.0132784 -0.0363459 -0.0116329 -0.00822142 -0.0247689 -0.000972625 0.00448256 0.0223454 -0.00675585 -0.0123295 -0.0122593 -0.0076784 -0.0100747 -0.0196773 -0.00766218 -0.0154898 -0.0167593 -0.0184855 -0.030499 0.00444687 -0.0145785 -0.0126542 -0.0317558 -0.0240455 -0.000904156 -0.00535132 -0.0173002 0.0631454 0.00690163 0.000148166 0.0322877 -0.00818849 -0.00181342 -0.030541 -0.004145 0.00126003 0.140963 -0.00714888 -0.00723934 -0.0743402 -0.00883258 -0.0330032 -0.0263689 -0.00205488 -0.00442081 0.000180664 0.000153809 3.66211e-05 3.17383e-05 0.000148926 0.000141602 0.000197754 0.000126953 0.000148926 1.46484e-05 9.0332e-05 0.00012207 0.000214844 5.85937e-05 0.000158691 6.5918e-05 0.000129395 0.000131836 4.88281e-06 9.76563e-05 8.30078e-05 0.00020752 0.000234375 0.000119629 3.66211e-05 0.000209961 0.000117187 7.08008e-05 3.90625e-05 0 2.44141e-05 0.000236816 6.5918e-05 0.000217285 2.68555e-05 0.000236816 2.44141e-05 0.000102539 3.17383e-05 0.000209961 3.90625e-05 1.70898e-05 0.00013916 6.10352e-05 0.000102539 9.52148e-05 5.37109e-05 0.000131836 0.000200195 4.88281e-05 0.000107422 8.05664e-05 6.83594e-05 5.61523e-05 5.12695e-05 7.8125e-05 0.000153809 0.000192871 7.56836e-05 0.000236816 8.78906e-05 0.000241699 0.000170898 6.5918e-05 1.46484e-05 0.000205078 0.000117187 0.000192871 0.00010498 9.52148e-05 0.000180664 0.000129395 0.000222168 0.00017334 0.000227051 0.00010498 0.000217285 5.61523e-05 8.30078e-05 0.000170898 9.27734e-05 0.000200195 0.000131836 0.000239258 6.34766e-05 4.63867e-05 6.10352e-05 4.88281e-06 0.000202637 0.000202637 2.44141e-06 0.000117187 0.000158691 4.15039e-05 0.000100098 0.000180664 1.70898e-05 0.000214844 0.000161133 6.5918e-05 4.88281e-05 0.000241699 2.44141e-05 5.85937e-05 0.000102539 8.05664e-05 7.56836e-05 7.08008e-05 0.000178223 0.000239258 4.39453e-05 0.00012207 5.61523e-05 7.32422e-05 0.000227051 4.15039e-05 0.000112305 0.000236816 0.000219727 0.000163574 0.000205078 0.000239258 0.000197754 0.000183105 6.5918e-05 7.32422e-06 0 4.88281e-06 0.00017334 1.46484e-05 0.000107422 6.83594e-05 0.000144043 0.000217285 0.00010498 1.2207e-05 0.000158691 0.000231934 6.83594e-05 0.000163574 8.54492e-05 0.000180664 0.00019043 2.68555e-05 3.66211e-05 4.63867e-05 0.00013916 0.000141602 0.000183105 6.83594e-05 0.000217285 9.27734e-05 0.000205078 6.10352e-05 0.000234375 5.37109e-05 0.000180664 0.000141602 2.44141e-05 0.00019043 0.000119629 9.76563e-05 0.00015625 0.000161133 0.000180664 0.000217285 0.000219727 0.000195313 0.000168457 0.000214844 0.000117187 7.8125e-05 0.000178223 1.2207e-05 9.27734e-05 0.000175781 1.2207e-05 2.44141e-06 3.41797e-05 0.000117187 0.000219727 9.27734e-05 2.44141e-05 0.000166016 0.000119629 6.34766e-05 0.000192871 0.000224609 0.000131836 7.08008e-05 0.000217285 2.68555e-05 9.0332e-05 0.000144043 1.95313e-05 0.000112305 0.000185547 0.000229492 0.000202637 0.000183105 0.000100098 1.95313e-05 4.39453e-05 0.00013916 0.000209961 0.000236816 1.2207e-05 0.000161133 0.000151367 6.83594e-05 0.000153809 8.78906e-05 0.000158691 0.000239258 8.05664e-05 0.000129395 0.000212402 8.54492e-05 0.000224609 0.000109863 0.000195313 0.00010498 0.00017334 0.000126953 0.000107422 7.8125e-05 8.05664e-05 7.8125e-05 8.30078e-05 5.37109e-05 0.000187988 0.000124512 0.00019043 0.000134277 0.000107422 0.000236816 6.5918e-05 0.000178223 0.000109863 7.08008e-05 8.05664e-05 0.000205078 0.000112305 0.000161133 0.000163574 0.000146484 0.00020752 0.000146484 0.000126953 0.000112305 9.52148e-05 4.88281e-06 0.000214844 3.41797e-05 3.41797e-05 0.000141602 0.000217285 0.000227051 0.000229492 1.70898e-05 3.66211e-05 0.00015625 0.00019043 0.00012207 0.000222168 0.00013916 0.000224609 8.05664e-05 4.39453e-05 8.05664e-05 8.78906e-05 0.000175781 2.44141e-05 0.00020752 9.0332e-05 2.44141e-06 0.000148926 6.83594e-05 0.000124512 0.000236816 0.00019043 0.00013916 0.000141602 7.32422e-06 1.95313e-05 9.0332e-05 0.000224609 0.000146484 0 1.95313e-05 0.000129395 0.000205078 0.000192871 7.8125e-05 2.92969e-05 3.90625e-05 0 2.44141e-05 0.00017334 0.000166016 0.000170898 0.000234375 0.000124512 0.000195313 7.08008e-05 0.000114746 0.000197754 7.08008e-05 4.88281e-06 0.000131836 0.000166016 0.000197754 0.000175781 6.5918e-05 0.000144043 0.000114746 0.000170898 4.88281e-05 8.30078e-05 0.000241699 0.000141602 1.95313e-05 9.76563e-05 0.000151367 3.41797e-05 4.63867e-05 0.000146484 0.000168457 1.2207e-05 9.52148e-05 0.00013916 0.000153809 0.000224609 0.00015625 2.19727e-05 2.92969e-05 9.52148e-05 4.63867e-05 0.000148926 0.000241699 0.00019043 1.46484e-05 0.000219727 8.78906e-05 0.000144043 3.66211e-05 4.88281e-05 0.000222168 7.08008e-05 0.000134277 0.000134277 0.000124512 0.00019043 0.000217285 5.12695e-05 4.88281e-06 9.0332e-05 0.000163574 0.000209961 0.000166016 0.000202637 9.27734e-05 0.000236816 0.000170898 4.63867e-05 0.000214844 0.000214844 2.44141e-06 7.56836e-05 0.000192871 0.000153809 0.000114746 0.000168457 8.05664e-05 0.000148926 0.00013916 9.27734e-05 0.000202637 0.000134277 0.00012207 4.88281e-06 4.39453e-05 6.10352e-05 9.52148e-05 6.83594e-05 0.000200195 0.000161133 0.000205078 0.000144043 0.000158691 0.000187988 0.000197754 0.00013916 7.8125e-05 2.19727e-05 0 0.000202637 7.8125e-05 0.000112305 0.000131836 2.19727e-05 9.76563e-05 1.2207e-05 0.000166016 0.000205078 8.05664e-05 0.00010498 0.00020752 4.15039e-05 0.000131836 0.000119629 0.000227051 0 0.000158691 0.000151367 0.000212402 0.000205078 0.000119629 0.000114746 0.000202637 0.000126953 0.000217285 9.52148e-05 0.00020752 6.5918e-05 0.000112305 0.00010498 0.00012207 0.000185547 0.000107422 0.000168457 0.000205078 6.34766e-05 0.000114746 0.000197754 0.000192871 6.34766e-05 0.000212402 0.00012207 0.000231934 0.00013916 0.000205078 0.00013916 0.000202637 0.000153809 0.000166016 2.68555e-05 2.44141e-06 8.54492e-05 4.15039e-05 0.000102539 6.5918e-05 0.000129395 0.000146484 0.000151367 6.83594e-05 9.27734e-05 8.30078e-05 0.000136719 2.68555e-05 4.63867e-05 0.000217285 0.000212402 0.000202637 1.2207e-05 2.44141e-05 4.15039e-05 0.000136719 6.5918e-05 0.000146484 0.000212402 0.000185547 0.000214844 0.000236816 0.000168457 1.2207e-05 0.000222168 0.000202637 0.00015625 0.00012207 2.92969e-05 0.000112305 7.32422e-05 9.0332e-05 0.000217285 0.000195313 6.5918e-05 0.000236816 0.000109863 0.000131836 0.000185547 7.8125e-05 6.5918e-05 2.19727e-05 0.000214844 0.000102539 4.39453e-05 9.52148e-05 0.00019043 0.000239258 0.000117187 0.000151367 1.46484e-05 4.63867e-05 6.10352e-05 0.000197754 0.000192871 7.32422e-06 0.000119629 0.00019043 9.0332e-05 5.12695e-05 6.83594e-05 6.83594e-05 0.000141602 0.000148926 0.000205078 1.70898e-05 0.000239258 0.000227051 0.000126953 0.000224609 0.000231934 0.000205078 0.000187988 0.000168457 0.00012207 0.000158691 4.39453e-05 9.76563e-05 0.000153809 7.08008e-05 1.95313e-05 5.61523e-05 0.000124512 0.000227051 0.00013916 0.000214844 0.000205078 0.000185547 0.000146484 0.000102539 7.08008e-05 8.78906e-05 9.27734e-05 0.000214844 0.000192871 0.000239258 0.000222168 9.52148e-05 6.5918e-05 3.66211e-05 9.76563e-06 8.30078e-05 0.000195313 0.000234375 9.52148e-05 0.000109863 7.56836e-05 0.000236816 7.8125e-05 0.000134277 0.00019043 0.000239258 0.000222168 4.39453e-05 0.00012207 9.27734e-05 0.000131836 1.46484e-05 0.000126953 4.15039e-05 1.95313e-05 0.000178223 0.000151367 0.000222168 0.000180664 0.000195313 0.000119629 0.000100098 0.000217285 7.32422e-05 0.000119629 2.92969e-05 0.000224609 8.54492e-05 2.44141e-06 4.88281e-05 0.000114746 0.000239258 0.000109863 0.000131836 0.00015625 0.000222168 0.000148926 0.000178223 0.000102539 1.46484e-05 0.000200195 0.000168457 6.5918e-05 4.88281e-05 0.000212402 1.2207e-05 2.44141e-05 6.10352e-05 0.000102539 0.000144043 0.000205078 0.000148926 0.000222168 0.000102539 0.000209961 0.000192871 6.34766e-05 0.000163574 0.000205078 0.000102539 6.83594e-05 8.54492e-05 0.000236816 0.000161133 0.000219727 0.000231934 8.54492e-05 0.000126953 0.000217285 0.00020752 7.8125e-05 7.08008e-05 0.000119629 0.000183105 8.78906e-05 2.92969e-05 0.000224609 0.000197754 0.000178223 0.000146484 0.000151367 3.90625e-05 6.10352e-05 4.63867e-05 7.32422e-06 9.76563e-05 0.000212402 4.88281e-06 7.8125e-05 0.000100098 7.08008e-05 0.000100098 4.88281e-06 1.2207e-05 0.000183105 0.00010498 5.61523e-05 4.15039e-05 0.000175781 0.000178223 2.44141e-05 0.000212402 0.000148926 0.00019043 1.2207e-05 0.000124512 0.00012207 0.000241699 0.000197754 0.000175781 8.05664e-05 0.00015625 2.44141e-06 0.000119629 0.000234375 0.00010498 0.000192871 0.000241699 5.61523e-05 0.000151367 0 0.000161133 0.000209961 3.66211e-05 0.000163574 0.000222168 0.000163574 0 0.000114746 6.83594e-05 0.000202637 6.83594e-05 9.76563e-06 0.000131836 0.000227051 6.10352e-05 0.000222168 0.000170898 0.000205078 0.000239258 0.00015625 0.000163574 0.000134277 7.56836e-05 0.000148926 0.000202637 0.000109863 3.66211e-05 5.85937e-05 0.000185547 0.00012207 0.000187988 0.000112305 0.000119629 0.000134277 0.000107422 1.46484e-05 0.000100098 5.12695e-05 5.85937e-05 5.85937e-05 9.52148e-05 4.88281e-05 3.90625e-05 6.34766e-05 0.000212402 0.000119629 0.000141602 0.000239258 1.70898e-05 0.000151367 0.000212402 0.000219727 0.000102539 0.000161133 0.00010498 0.000146484 0.000129395 0.000158691 0.000217285 1.46484e-05 0.000202637 0.000224609 0.000180664 1.2207e-05 9.27734e-05 4.88281e-05 1.95313e-05 0.000168457 0.000231934 9.52148e-05 0.00013916 7.8125e-05 9.27734e-05 0.000117187 0.000178223 0.000239258 0.000187988 3.90625e-05 0.000197754 0.000107422 0.000114746 0.00013916 0.000117187 0.000114746 0 0.000209961 6.5918e-05 9.76563e-06 7.8125e-05 0.000134277 0.000192871 8.05664e-05 0.000134277 7.32422e-05 0.000236816 0.00017334 5.61523e-05 0.000102539 0.000212402 2.44141e-05 0.000114746 0.000144043 0.000200195 9.76563e-06 0.000209961 0.000180664 0.000153809 0.00019043 0.000100098 9.52148e-05 3.41797e-05 0.000222168 4.39453e-05 3.90625e-05 0.000144043 0.000131836 0.000239258 0 0.000231934 4.63867e-05 8.54492e-05 7.56836e-05 9.52148e-05 4.15039e-05 5.12695e-05 0.000183105 0.000180664 0.00012207 0.000236816 0.000136719 0.000227051 4.39453e-05 0.000214844 0.000185547 8.54492e-05 0.000224609 4.63867e-05 4.63867e-05 0.000134277 6.5918e-05 0.000202637 0.000227051 0.00013916 0.000234375 0.000202637 0.000163574 0.000239258 0.000178223 4.63867e-05 3.66211e-05 9.52148e-05 0.00012207 0.000124512 0.000131836 0.000195313 0.000168457 0.00015625 7.8125e-05 0.00012207 1.70898e-05 0.000241699 0.000114746 7.32422e-06 0.000217285 0.000146484 0.000124512 0.000241699 0.000166016 0.000107422 0.000112305 0.00010498 3.17383e-05 0.000161133 0.000112305 7.32422e-05 0.000231934 0.00012207 3.66211e-05 9.76563e-05 7.32422e-05 8.78906e-05 0.00017334 4.88281e-06 6.83594e-05 0.000107422 5.61523e-05 4.15039e-05 1.46484e-05 0.000227051 0 0.000114746 0.000141602 0.00017334 0.000100098 0.000222168 0.00012207 0.000241699 0.000163574 0.000107422 0.000136719 0.000112305 7.56836e-05 0.000224609 8.54492e-05 2.68555e-05 7.32422e-05 0.000236816 3.90625e-05 8.05664e-05 0.00010498 0.000236816 0.000219727 0.000195313 0.000166016 0.000102539 1.70898e-05 0.000197754 0.000219727 0.000234375 0.000205078 1.95313e-05 0.000183105 0.000180664 9.52148e-05 0.000236816 0.000107422 4.88281e-06 7.32422e-06 7.32422e-05 0.000175781 0.000119629 7.32422e-06 0.000197754 7.32422e-05 0.000241699 0.000163574 0.000148926 0.000170898 0.000102539 0.00017334 0.00020752 0.00010498 0.000100098 5.12695e-05 0.000175781 7.32422e-06 0.000241699 0.00013916 1.46484e-05 0.000117187 0.00015625 5.61523e-05 0.00015625 0.000109863 0.000134277 0.000168457 4.88281e-06 9.76563e-05 2.19727e-05 0.00012207 9.0332e-05 0.000102539 3.66211e-05 9.27734e-05 0.000114746 1.95313e-05 0.000219727 0.000114746 0.00020752 0.000129395 0.000151367 0.000222168 1.2207e-05 0.000222168 2.92969e-05 0.000153809 5.61523e-05 0.000153809 0.000231934 8.54492e-05 0.000178223 0.000241699 7.08008e-05 0.000202637 0.000100098 0.000153809 6.5918e-05 0.000148926 0.000131836 0.000134277 0.000200195 0.00015625 6.5918e-05 0.00012207 4.88281e-05 0.000119629 3.66211e-05 1.95313e-05 6.34766e-05 4.88281e-05 2.44141e-05 0.000144043 7.32422e-06 7.08008e-05 0.000144043 9.76563e-06 4.39453e-05 0.000212402 4.88281e-06 0.000168457 8.54492e-05 5.12695e-05 9.52148e-05 7.32422e-05 7.32422e-06 0.000144043 0.000107422 9.76563e-05 2.92969e-05 1.95313e-05 0.000136719 0.000241699 7.56836e-05 0.000129395 0.000158691 0.000222168 0.000227051 8.78906e-05 0.000153809 4.39453e-05 0 4.88281e-06 4.15039e-05 2.44141e-06 0.000231934 0.00013916 5.61523e-05 0.000187988 0.000153809 9.27734e-05 1.2207e-05 0.000153809 0.00017334 2.68555e-05 7.32422e-06 0.000161133 6.34766e-05 0.000126953 2.44141e-06 3.90625e-05 0.000117187 0.000222168 0.000217285 0.000136719 0.000219727 0.000158691 0.00017334 0.000229492 0.000112305 6.5918e-05 0.000195313 0.000183105 7.32422e-06 1.95313e-05 3.41797e-05 0.000200195 0.000195313 0.000163574 0.000200195 0.000124512 3.66211e-05 0.000158691 2.68555e-05 0.000134277 1.70898e-05 0.000136719 0.00017334 3.17383e-05 0.000180664 7.56836e-05 0.000153809 6.83594e-05 4.15039e-05 0.000197754 1.95313e-05 4.88281e-05 0.000158691 0.000192871 0.000222168 0.000109863 9.76563e-05 7.08008e-05 0.000217285 0.000209961 0.000141602 6.83594e-05 0.00015625 8.30078e-05 4.88281e-05 8.54492e-05 6.83594e-05 0.000109863 3.41797e-05 0.000200195 0.000158691 0.000119629 0.000234375 0.000229492 0.000222168 0.000219727 4.88281e-05 0.000236816 0.000183105 9.52148e-05 6.10352e-05 7.08008e-05 0.000180664 8.05664e-05 5.61523e-05 0.000119629 6.83594e-05 7.32422e-05 0.000119629 0.000183105 6.5918e-05 2.68555e-05 0.000134277 0.000117187 0.000134277 0.000209961 0.000141602 0.000146484 5.85937e-05 4.63867e-05 0.000224609 0.000187988 0.000151367 0.00017334 8.78906e-05 0.000192871 0.000205078 0.000217285 4.88281e-06 0.000236816 0.000168457 1.2207e-05 0.000124512 0.00019043 0.000131836 0.000200195 0.000241699 7.08008e-05 0.000107422 6.10352e-05 8.54492e-05 0.000197754 8.05664e-05 3.41797e-05 4.15039e-05 0.000236816 2.44141e-06 0.000227051 4.15039e-05 0.000144043 2.68555e-05 0.00020752 4.15039e-05 1.95313e-05 6.5918e-05 0.000202637 0.000187988 5.85937e-05 2.44141e-05 0.000212402 6.10352e-05 1.46484e-05 0.000166016 0.000202637 7.32422e-05 0.000217285 0.000227051 0.00015625 0.000144043 0.000185547 4.88281e-05 8.78906e-05 0 0.000202637 5.85937e-05 2.92969e-05 0.000234375 0.00017334 8.54492e-05 9.52148e-05 9.52148e-05 9.0332e-05 0 6.83594e-05 0.000219727 8.05664e-05 7.32422e-06 1.2207e-05 0.00020752 6.10352e-05 9.76563e-05 0.000163574 6.10352e-05 9.52148e-05 0.000214844 0.000124512 0.000107422 0.000102539 1.70898e-05 0.000209961 0.000170898 0.000129395 0.000163574 0.000236816 9.27734e-05 1.2207e-05 0.000134277 0.000224609 0.000195313 0.000170898 4.88281e-05 2.44141e-06 0.000192871 0.000202637 0.000195313 2.68555e-05 0.000100098 0.000197754 0.000231934 3.66211e-05 1.46484e-05 0.000236816 0.000202637 6.10352e-05 1.70898e-05 3.17383e-05 8.30078e-05 4.88281e-05 0.000214844 9.0332e-05 4.63867e-05 8.78906e-05 0.000234375 0.000141602 0.000200195 0.000175781 4.63867e-05 5.37109e-05 5.61523e-05 0.000144043 0.000129395 0.000148926 0.000168457 5.12695e-05 2.19727e-05 0.000185547 0.000102539 0.00019043 0.000166016 0.000126953 0.000241699 0.000144043 0.00017334 2.44141e-05 0.000131836 9.27734e-05 0.000168457 0.000205078 4.88281e-06 6.5918e-05 2.44141e-05 0.000151367 0.000229492 2.68555e-05 2.44141e-06 0.00013916 0.000214844 0.000114746 0.000158691 0.00015625 7.8125e-05 5.85937e-05 0.000241699 0.000131836 7.08008e-05 8.30078e-05 0.000119629 0.000192871 5.61523e-05 0.00012207 2.44141e-06 0.000200195 7.32422e-05 0.000100098 0.000222168 0.000131836 0.000112305 0.000217285 0.000197754 0.000185547 2.68555e-05 0.000170898 9.27734e-05 0.000136719 7.32422e-06 0.000217285 3.17383e-05 0.000214844 0.000239258 0.000107422 2.68555e-05 3.17383e-05 6.10352e-05 0.000114746 0.000170898 0.000212402 0.000229492 8.05664e-05 8.54492e-05 9.52148e-05 0.000239258 0.000141602 4.88281e-06 0.00010498 0.00015625 0.000144043 6.83594e-05 0.000170898 5.37109e-05 0.00019043 0.000180664 0.000195313 1.46484e-05 0.000107422 0.000117187 2.92969e-05 0.000144043 0.000136719 0.000234375 6.10352e-05 0.000202637 0.000102539 2.19727e-05 1.46484e-05 5.61523e-05 0.000234375 0.00019043 0.000178223 5.12695e-05 0.000195313 4.63867e-05 7.08008e-05 0.00020752 0.000112305 0.000161133 2.44141e-05 8.54492e-05 0.000183105 0.00013916 5.37109e-05 5.61523e-05 0.00019043 0.000192871 7.32422e-05 0.000131836 9.27734e-05 0 2.44141e-05 0.000119629 0.000117187 0.000183105 0.000187988 9.76563e-06 0.00012207 6.5918e-05 0.000151367 0.000197754 0.000136719 1.70898e-05 0.000234375 0.000217285 6.34766e-05 0.000168457 9.0332e-05 9.0332e-05 7.32422e-06 0.000126953 0.000146484 0.00015625 0.000185547 0.000170898 5.12695e-05 0.000227051 2.92969e-05 0.000151367 0.000136719 0.000195313 0.000161133 0.00017334 0.00012207 0.000161133 0.000175781 0.000107422 0.000222168 0.000197754 7.32422e-06 0.000119629 6.5918e-05 8.78906e-05 0.000200195 0.000168457 7.32422e-06 4.88281e-06 0.000202637 4.88281e-06 1.70898e-05 4.88281e-05 6.83594e-05 0.000209961 0.00019043 0.000161133 3.66211e-05 2.68555e-05 0.000100098 4.63867e-05 0.000107422 4.39453e-05 0.000153809 0 0.000180664 0.000202637 3.90625e-05 0.000187988 0.000126953 0.000146484 4.15039e-05 5.12695e-05 0.000236816 1.70898e-05 0.000144043 0.000144043 3.66211e-05 0.000187988 0.000214844 0.000219727 0.000234375 0.000195313 0.000239258 1.46484e-05 0.000236816 6.5918e-05 0.000109863 0.000114746 0.000161133 0 0 0.000148926 0.000124512 0.000183105 5.61523e-05 0.00020752 0.000170898 0.000187988 3.66211e-05 0.000224609 4.88281e-05 0.000117187 0.000100098 5.85937e-05 0.000146484 0.000197754 1.95313e-05 0.000241699 0.000168457 2.19727e-05 9.0332e-05 8.30078e-05 0.000166016 0.000214844 0.000234375 9.27734e-05 0.000170898 0.000153809 0.000205078 0.000241699 9.76563e-05 0.000187988 1.70898e-05 0.000217285 4.63867e-05 0.000148926 0.000192871 8.54492e-05 0.000205078 0.000180664 1.2207e-05 5.85937e-05 0.00013916 0.000239258 0.000126953 3.90625e-05 3.17383e-05 7.32422e-06 9.76563e-05 0.00010498 9.27734e-05 0.000183105 0.000114746 3.17383e-05 0.000234375 0.000212402 0.000163574 9.0332e-05 2.92969e-05 0.00012207 0.000209961 0.00010498 4.88281e-06 0.000241699 5.37109e-05 0.000185547 0.000124512 0.000166016 0.000109863 8.78906e-05 0.000124512 0.000195313 7.8125e-05 7.56836e-05 4.39453e-05 7.8125e-05 2.44141e-05 0.00010498 7.32422e-06 4.15039e-05 0.00010498 0.000217285 0.000229492 0.000119629 3.41797e-05 6.10352e-05 1.46484e-05 5.61523e-05 0.000166016 0.000153809 4.88281e-06 2.92969e-05 2.44141e-05 0.000134277 0.000200195 0 0.000148926 0.000178223 0.000214844 5.85937e-05 0.000163574 8.05664e-05 0.000136719 0.000197754 0.000148926 2.19727e-05 0.00017334 8.78906e-05 2.68555e-05 2.19727e-05 1.70898e-05 4.63867e-05 6.5918e-05 4.88281e-06 0.000212402 2.19727e-05 0.000180664 6.34766e-05 0.000214844 0.000219727 9.52148e-05 3.66211e-05 8.05664e-05 8.05664e-05 5.12695e-05 8.30078e-05 9.52148e-05 8.05664e-05 5.61523e-05 4.88281e-06 0.000214844 4.15039e-05 0.000239258 0.000148926 4.88281e-05 2.68555e-05 0.000183105 0.000236816 0.000236816 7.8125e-05 4.39453e-05 2.68555e-05 0.000153809 0.000131836 0.00012207 0.000234375 0.000192871 0.000229492 0.000229492 0.000236816 6.34766e-05 0.000161133 0.000183105 8.05664e-05 8.78906e-05 2.44141e-06 4.63867e-05 0.000100098 0.000217285 0.000161133 7.32422e-05 0.000144043 0.00012207 0.00017334 0.000151367 3.17383e-05 5.85937e-05 5.85937e-05 0.000195313 9.76563e-06 0.000124512 0.00017334 0.000166016 0 1.2207e-05 0.000107422 0.000229492 0.000212402 2.19727e-05 0.00010498 0.000202637 0.00019043 6.34766e-05 2.19727e-05 0.000141602 7.32422e-06 6.5918e-05 0.000168457 1.95313e-05 0.000212402 0.000197754 0.000126953 4.88281e-05 0.000119629 0.000131836 2.68555e-05 3.66211e-05 9.76563e-05 0.000107422 0.000124512 8.30078e-05 0.00012207 9.0332e-05 9.76563e-06 8.30078e-05 0.000217285 0.000148926 8.54492e-05 0.00013916 0.000239258 7.32422e-05 0.000151367 4.15039e-05 0.000234375 7.32422e-05 0.000229492 0.000131836 0.000102539 7.32422e-05 0.000202637 6.5918e-05 3.17383e-05 0.000219727 5.12695e-05 0.000131836 0.000126953 0.00013916 0.000212402 0.000126953 0.000195313 0.00019043 0.00010498 0.000114746 0.000229492 8.54492e-05 0.000119629 0.000131836 0.00019043 4.15039e-05 0.000197754 0.000146484 0.000239258 2.44141e-06 0.000131836 0.000185547 9.76563e-06 0.000178223 0.000109863 0.000126953 4.15039e-05 0.00012207 0.000234375 0.000131836 3.41797e-05 0.000126953 5.61523e-05 0.000195313 0.000124512 0.000229492 0.000136719 1.70898e-05 8.05664e-05 6.83594e-05 0.000239258 3.90625e-05 8.78906e-05 9.27734e-05 0.000129395 9.76563e-05 0.000141602 0.000231934 0.000136719 0.000102539 5.61523e-05 0.000161133 5.61523e-05 0.000107422 0.000187988 0.000117187 2.44141e-06 5.85937e-05 7.08008e-05 0.000239258 0.00013916 0.000241699 2.68555e-05 0 0.000217285 7.08008e-05 1.70898e-05 2.19727e-05 7.32422e-06 2.44141e-05 0.000214844 0.000129395 0.000153809 0.000224609 0.000119629 0.000119629 0 0.000102539 2.44141e-05 9.52148e-05 0.000202637 0.000158691 0.000214844 0.000102539 9.0332e-05 9.0332e-05 0.000126953 0.000112305 3.90625e-05 0.000161133 6.10352e-05 4.88281e-06 0.000107422 0.000192871 0.000117187 0.000227051 0.000151367 0.000134277 0.000212402 0.000153809 0.00019043 8.30078e-05 0.00013916 1.46484e-05 0.000161133 0.000112305 0.000119629 0.000119629 8.30078e-05 0.000102539 0.000100098 0.000212402 0.000236816 9.52148e-05 0.000109863 0.000144043 0.00015625 3.41797e-05 0.00020752 0.000124512 7.08008e-05 0.000217285 0.000212402 0.000241699 9.52148e-05 3.41797e-05 0.000224609 0.000202637 1.95313e-05 0.000234375 0.00015625 5.61523e-05 0.000241699 0.000131836 0.00010498 4.88281e-06 0.000212402 8.05664e-05 5.61523e-05 0.000158691 7.32422e-06 0.000151367 3.90625e-05 2.19727e-05 4.88281e-05 0.000236816 5.61523e-05 0.000144043 0.000166016 0.00015625 0.000222168 0.00010498 0.000224609 0.000231934 1.70898e-05 8.78906e-05 5.12695e-05 0.000144043 8.54492e-05 5.61523e-05 0.000170898 0.000109863 5.12695e-05 1.2207e-05 0.000117187 2.92969e-05 9.52148e-05 0.000129395 0.000209961 7.56836e-05 0 2.44141e-06 0.000124512 0.000136719 4.63867e-05 8.78906e-05 0.000212402 0.000144043 0.000219727 7.32422e-05 0.00020752 4.63867e-05 0.000102539 7.56836e-05 0.000180664 4.88281e-06 0.000209961 2.19727e-05 8.05664e-05 0.000175781 0.000231934 4.63867e-05 9.76563e-05 3.41797e-05 2.68555e-05 8.30078e-05 0.000183105 5.37109e-05 0.00015625 0.000153809 9.52148e-05 4.88281e-06 0.000124512 1.2207e-05 5.61523e-05 4.88281e-05 0.000234375 6.10352e-05 3.41797e-05 7.08008e-05 0.000217285 7.32422e-06 0.00010498 0.000183105 7.32422e-06 0.00012207 0.00013916 0.000202637 0.00015625 5.61523e-05 0.00020752 3.66211e-05 2.19727e-05 0.000200195 0.000229492 8.30078e-05 0.000161133 0.000109863 0.000144043 4.88281e-06 0.000144043 8.05664e-05 9.52148e-05 6.34766e-05 0.000129395 0.000180664 0.000148926 0.000126953 0.00012207 0.000231934 9.0332e-05 0.000163574 0.000168457 0.000209961 0.000183105 0.000163574 6.34766e-05 0.000236816 2.44141e-05 0.000239258 0.000214844 0.000224609 4.88281e-05 0.000129395 0.000107422 0.000178223 5.85937e-05 6.5918e-05 5.12695e-05 0.000219727 0.000195313 0.000170898 5.85937e-05 0.000219727 0.000224609 0.000187988 0.000219727 0.000192871 9.27734e-05 0.000200195 0.00017334 0.000229492 8.78906e-05 0.000117187 0.000131836 0.000241699 1.70898e-05 0.000168457 5.37109e-05 7.32422e-05 0.000109863 6.34766e-05 0.000192871 0.000192871 0.000112305 0.000131836 4.39453e-05 0.000141602 4.88281e-06 0.000144043 4.88281e-05 6.34766e-05 0.00012207 0.000200195 0.000112305 0.000141602 0.000212402 0.000102539 0.00020752 8.78906e-05 0.000241699 0.000117187 2.92969e-05 7.32422e-05 0.00010498 0.000178223 0.000180664 2.68555e-05 0.000168457 4.63867e-05 0.000146484 0.00017334 7.56836e-05 0.000158691 0.00015625 0.00013916 7.32422e-06 5.12695e-05 2.68555e-05 0.000224609 0.000205078 0.000144043 0.000119629 0.0128461 0.000732063 0.00246878 0.0192068 -0.00306019 -0.00282174 0.0187635 0.00110109 0.00495312 0.00173889 -0.00312313 0.0187417 -0.00186843 0.00143845 0.00852333 -0.00179228 0.000582843 0.00896025 -0.00273608 0.00500699 0.00183888 0.00106243 -0.00895184 0.00119675 -0.00506356 0.00180653 -0.00967855 0.00156849 0.00127073 0.00114406 0.0079286 0.0167647 0.000578431 0.0260287 0.000459709 -0.00284977 -0.00639882 0.0187481 -0.0210916 0.00150682 0.00049813 -0.00189928 0.00286114 -0.00309243 0.0195683 0.00026838 -0.00440093 -0.011197 -0.00572032 0.000855144 0.000628504 -0.002048 -0.00766927 0.00180355 -0.00204565 -0.0116204 0.00129764 0.0140671 -0.0290986 0.0137483 -0.00208147 -0.00950099 0.00175842 -0.00190996 0.0333218 0.0132353 0.00135172 0.0531106 -0.0171074 -0.0162308 0.0583531 0.00937147 0.00137108 0.0130813 -0.0169308 0.0520389 -0.0123898 0.0100123 0.033076 -0.0121505 0.0073983 0.0248383 -0.015593 0.0103436 0.01289 0.0101866 -0.0250854 0.0224876 -0.0573742 0.0125381 -0.0175913 0.0127254 0.00936949 0.00936648 0.020608 0.0526665 0.00660247 0.0839908 0.00610691 -0.0153175 -0.0261142 0.0526427 -0.0591029 0.0100291 0.00641574 -0.0124217 0.0143201 -0.0148279 0.0454796 0.00556624 -0.0208016 -0.0347417 -0.0279761 0.00789098 0.00765859 -0.012606 -0.00826424 0.0126331 -0.0130134 -0.0586872 0.0092848 0.0356892 -0.0540229 0.0457535 -0.0131321 -0.0239245 0.0122915 -0.0128699 0.0289172 0.0319674 -0.00803839 0.0510041 -0.0303506 -0.0296632 0.0678298 0.0198246 -0.0192156 0.0261577 -0.0295951 0.0506156 -0.0235655 0.0201494 0.0488587 -0.0229181 0.0176633 0.0247313 -0.0278465 0.00369978 0.0258359 0.0218427 -0.0244199 0.0546719 -0.128262 0.0254542 -0.00086678 0.0264473 0.0196496 0.019547 0.0179532 0.0617339 0.0152187 0.101658 0.0147135 -0.0266953 -0.0391549 0.0519879 -0.0580798 0.0201191 0.0146024 -0.0231401 0.0250285 -0.0248304 0.0296412 0.0136005 -0.0336576 -0.0390836 -0.0474808 0.0175243 0.0171803 -0.0241032 0.0149859 0.0255635 -0.0245358 -0.101213 0.019318 0.0290783 -0.00699818 0.0571824 -0.0243291 -0.0179496 0.0252683 -0.024075 0.0368447 0.0172037 0.000259378 0.059419 -0.0209308 -0.0198736 0.0669052 0.0118092 -0.00128465 0.0162332 -0.0204061 0.0583004 -0.0152521 0.0125951 0.0391833 -0.0148683 0.00953864 0.0278728 -0.0190979 0.0106133 0.0159677 0.0128368 -0.0281257 0.0294358 -0.0736798 0.0156438 -0.0176345 0.0160186 0.0118365 0.0116346 0.0228297 0.0603512 0.00861924 0.0967228 0.0080846 -0.018738 -0.0309979 0.058961 -0.0663408 0.0125503 0.00825503 -0.015269 0.0174288 -0.0179114 0.0491747 0.00725725 -0.0248772 -0.0397865 -0.0339606 0.00996728 0.0097544 -0.0156591 -0.00628007 0.0158377 -0.0160672 -0.0713122 0.0117418 0.0394061 -0.0549921 0.0527351 -0.0161656 -0.0262912 0.0154122 -0.0158321 0.057054 0.013146 0.00215898 -0.00987444 -0.0510984 -0.0355362 0.0332965 0.0171516 0.0514225 0.0201827 -0.0379148 0.0225534 -0.0262616 0.0187019 0.0378723 -0.0246449 0.0108189 0.0130971 -0.0477054 0.0633009 0.0168089 0.0254272 -0.0660352 0.017972 -0.0738268 0.0165767 -0.011806 0.0153741 0.0172058 0.00819196 0.155072 0.10138 0.0136282 0.0949455 0.0114428 -0.0449865 -0.0840006 0.0468262 -0.125417 0.0428932 0.0126313 -0.0355318 0.0364972 -0.0424179 0.051471 0.010164 -0.0808888 -0.160155 -0.0941177 0.0136307 0.0131494 -0.0250268 -0.0481758 0.0172329 -0.0250696 -0.123476 0.0191693 0.0614678 -0.0976624 0.0542555 -0.0462196 -0.0248184 0.0159195 -0.0255758 0.0128132 0.0529952 -0.0290687 -0.127885 -0.109688 -0.088391 -0.06603 0.044666 0.00572449 0.0432468 -0.0905653 -0.021603 -0.050262 0.0453048 0.0658056 -0.0477025 0.034129 -0.0538063 -0.0934148 0.00622527 0.041498 0.0671649 -0.0430033 0.0463902 -0.130919 0.0417787 -0.00526697 0.0391435 0.0435413 0.00869044 0.175693 0.0688721 0.0398206 -0.0120803 0.0375175 -0.0787897 -0.116503 -0.0380647 -0.219528 0.111165 0.0384778 -0.0747731 0.0751382 -0.0907016 -0.0143646 0.0349824 -0.139296 -0.0746341 -0.12434 0.0393328 0.0394365 -0.0480522 -0.0319148 0.0422189 -0.0482707 -0.299962 0.0497383 0.0218264 -0.033736 0.0386005 -0.0714934 -0.000355538 0.0404748 -0.0488998 0.0217212 0.0615748 -0.0373636 -0.114781 -0.100931 -0.0708823 -0.0314788 0.0376823 -0.016126 0.0852807 -0.0810934 -0.0109634 -0.0423405 0.0390106 0.0601636 -0.0399709 0.0306663 -0.0505862 -0.0777057 0.0164292 0.0383992 0.0490666 -0.0350933 0.0384702 -0.119139 0.039057 -0.022129 0.0360365 0.0372743 -0.00609358 0.205547 0.0556292 0.0355151 -0.0148334 0.0327885 -0.0686292 -0.109106 -0.0277548 -0.217487 0.069206 0.0357577 -0.0642536 0.0650267 -0.0745723 -0.02445 0.0305655 -0.11222 -0.088418 -0.115515 0.0334677 0.0330605 -0.0405462 -0.036781 0.039135 -0.0410496 -0.320783 0.0400897 0.016575 -0.0399129 0.0286746 -0.0639676 -0.00424379 0.0377016 -0.0411248 0.0561815 0.0447046 -0.0290716 -0.0230984 -0.0575924 -0.0319373 0.0402558 0.016752 0.0026137 0.0944741 -0.043216 0.0185568 -0.0274492 0.01857 0.0394355 -0.0258835 0.0136409 -0.0103217 -0.046032 0.0651689 0.0204722 0.0167573 -0.0470194 0.0166556 -0.0792559 0.0213966 -0.0402901 0.0191572 0.0170984 -0.0115973 0.213486 0.0729719 0.0167 0.0684217 0.0138437 -0.0497528 -0.0916267 0.0385975 -0.144048 0.0170934 0.0177277 -0.0370893 0.0345386 -0.0406889 0.0198121 0.0122638 -0.0722168 -0.145687 -0.101193 0.01377 0.0132808 -0.0268565 -0.0292732 0.0211845 -0.0271761 -0.247484 0.0164791 0.0412606 -0.0910746 0.0268209 -0.0500132 -0.0221104 0.0204952 -0.0271364 0.0633208 -0.0649905 0.019614 -0.0306466 -0.0430514 -0.047253 0.0111827 0.00228092 0.00556131 0.0593597 -0.0625137 0.0214013 -0.0376327 0.0171006 0.036027 -0.0363413 0.0125081 0.00655141 -0.0456643 0.0828776 0.0189947 0.0150308 -0.0625672 0.0150059 -0.0713986 0.0194474 -0.113047 0.0177784 0.0154468 -0.0225708 0.207711 0.0124474 0.0137727 0.068846 0.0117425 -0.0667196 -0.100264 0.0477407 -0.0978363 0.0188855 0.0137588 -0.0384239 0.0323256 -0.0390093 0.0532609 0.0109635 -0.100384 -0.137722 -0.120507 0.0125716 0.0123251 -0.0373589 -0.0891963 0.0191538 -0.0759958 -0.207662 0.0147778 0.0381892 -0.112664 0.0101023 -0.0807319 -0.0233502 0.0191342 -0.0374088 0.0651496 -0.0844109 0.0338583 -0.0346256 -0.0413417 -0.0478592 0.0122159 0.000967349 0.0171233 0.0418457 -0.0636014 0.0228648 -0.0366526 0.0170914 0.0347634 -0.0356189 0.0120032 0.0150126 -0.0442988 0.0851676 0.0181137 0.0147206 -0.069293 0.0150259 -0.0700464 0.0184162 -0.11221 0.0170794 0.0154125 -0.0211544 0.200405 0.0128659 0.01256 0.0690463 0.0108991 -0.0650056 -0.0990786 0.0480373 -0.0959615 0.0181447 0.0123275 -0.0370822 0.032972 -0.0370164 0.0596799 0.0102434 -0.101565 -0.150246 -0.120215 0.0123131 0.0120226 -0.0362078 -0.10948 0.0183764 -0.0786018 -0.168037 0.0147186 0.0421328 -0.114084 0.0172569 -0.0817497 -0.0240424 0.0179958 -0.0363741 0.0624735 -0.133407 0.0548673 -0.0392839 -0.0249726 -0.0505108 0.0170826 0.0113417 0.0334351 0.0350604 -0.0647407 0.0205146 -0.0402344 0.0304886 0.0434607 -0.0392693 0.0219053 0.0255166 -0.0476021 0.0870027 0.0272683 0.0272038 -0.0732382 0.0312741 -0.0704612 0.0175789 -0.0781704 0.0264454 0.0257531 0.0161166 0.17154 0.0415972 0.0160039 0.078817 0.0173951 -0.0664465 -0.102283 0.0469635 -0.0485069 0.0521489 0.0190803 -0.0385151 0.0413438 -0.0400838 0.0677845 -0.0365502 -0.104437 -0.162233 -0.123595 0.0246029 0.0239558 -0.0399699 -0.01231 0.0275318 -0.0812196 -0.153925 0.0432381 0.055532 -0.0845915 0.0393838 -0.0847424 -0.0147523 0.0267214 -0.0400962 0.0468677 -0.174991 0.0779587 -0.062022 -0.0118339 -0.0633698 0.00540789 0.0210261 0.0325435 0.0302856 -0.0944398 0.00847122 -0.0481906 0.0465928 0.040799 -0.0475354 0.0345501 0.0225418 -0.0580424 0.0918105 0.0389917 0.0421745 -0.0747284 0.0507568 -0.0835342 0.0179356 -0.0411989 0.038439 0.0401192 0.0589406 0.139417 0.068423 0.021226 0.0803835 0.0259574 -0.080092 -0.110565 0.0303341 0.00527576 0.0763417 0.0285262 -0.0479488 0.0528572 -0.0472645 0.0688893 -0.0876875 -0.111781 -0.163058 -0.131315 0.0400324 0.038958 -0.0578713 0.0927913 0.0389555 -0.0888302 -0.15914 0.0833935 0.0525001 -0.0441061 0.0556813 -0.0987481 -0.00300911 0.0381265 -0.0488914 0.0213405 -0.172445 0.0937236 -0.107112 -0.0228728 -0.0874334 -0.0332296 0.0147518 0.00246566 0.0177918 -0.157409 -0.0106316 -0.0572262 0.0496437 0.0139898 -0.05656 0.0373041 0.0003639 -0.0716672 0.0993103 0.0419334 0.0443164 -0.0756021 0.0535221 -0.110285 0.0208509 -0.0472155 0.0414237 0.0453931 0.0615546 0.133059 0.0513895 0.0233014 0.0568894 0.0289205 -0.1048 -0.120528 -0.00319272 0.00733449 0.0468819 0.0306545 -0.0641268 0.0590775 -0.0544488 0.0583742 -0.0846943 -0.124036 -0.147294 -0.140532 0.0436138 0.0429351 -0.0865579 0.0579423 0.0418275 -0.105393 -0.165672 0.101067 0.0170928 -0.029522 0.0432554 -0.124634 -0.000521485 0.0411594 -0.057835 0.0183864 -0.148715 0.0869683 -0.100962 -0.0228987 -0.0853941 -0.0285557 0.0144928 0.000585244 0.0198841 -0.161282 -0.0120871 -0.0555844 0.0481971 0.00696954 -0.0550511 0.0356764 -0.00298645 -0.0719558 0.103038 0.0404811 0.0428143 -0.0745753 0.0520264 -0.112825 0.0193399 -0.0321117 0.0399617 0.0447153 0.0661443 0.130057 0.0666361 0.0222178 0.0664255 0.0276587 -0.1048 -0.118822 -0.00279236 0.0094106 0.0387641 0.0298804 -0.0647868 0.0573635 -0.0535822 0.0569402 -0.0857833 -0.117846 -0.151273 -0.137017 0.0422122 0.0416981 -0.0893017 0.0691999 0.0402363 -0.0963155 -0.165366 0.102661 0.0148211 -0.0289206 0.0447165 -0.121732 -0.00198531 0.0398818 -0.0564235 0.0209902 -0.123187 0.0710488 -0.0820924 -0.0163552 -0.0706304 -0.0143408 0.0164111 0.0101858 0.0268619 -0.135909 -0.0138086 -0.0490277 0.0447458 0.0070999 -0.0485578 0.0326991 -0.000770298 -0.0648832 0.10168 0.0369202 0.0397216 -0.06936 0.0487627 -0.101679 0.0158848 -0.00805839 0.03647 0.0407162 0.069677 0.125931 0.0842896 0.0196375 0.0763429 0.0247709 -0.092475 -0.109953 0.00448124 0.0199101 0.0419329 0.027535 -0.0571093 0.0513224 -0.0478963 0.0515497 -0.0886929 -0.103252 -0.157662 -0.126415 0.0389438 0.0381634 -0.078452 0.100918 0.036826 -0.0778462 -0.156643 0.0962779 0.0220562 -0.0220448 0.0461022 -0.105928 -0.000279876 0.0363389 -0.0498684 0.01362 -0.142836 0.035199 -0.0415993 -0.00305665 -0.0335411 0.00574999 0.0117926 0.0281733 0.0344826 -0.0728992 0.00219782 -0.0338246 0.0284736 0.010858 -0.0379109 0.00545305 0.00335028 -0.0407921 0.104566 -0.0146498 0.0257369 -0.0659511 0.0239206 -0.0726311 0.00140111 0.0219139 0.0242579 0.0241134 0.0609128 0.114833 0.0946473 -0.0016413 0.0791409 0.00684689 -0.0723408 -0.0997343 0.00922432 0.0440017 0.0522225 0.0123653 -0.0620364 0.0195301 -0.0335859 0.0352903 -0.10728 -0.064757 -0.162174 -0.108063 0.0550522 0.0249904 -0.0467445 0.145535 0.0242959 -0.0478469 -0.104735 0.0751019 0.0356637 -0.0706965 0.0395014 -0.101542 -0.0298228 0.0153416 -0.0340011 -0.00425301 -0.0208239 -0.02268 -0.011948 -0.0314692 -0.0294487 0.00625701 -0.0152998 0.0345353 -0.00918904 -0.0245306 0.0522627 -0.0322788 -0.00464945 0.00303953 -0.0356351 -0.0378382 -0.00379023 -0.0102576 0.116398 -0.0609298 -0.00477186 -0.0932836 -0.0299537 -0.0558852 -0.00335487 0.0612305 0.00816194 -0.0227479 0.0115273 0.0930547 0.0815099 -0.0415686 0.0746776 -0.0250559 -0.0671131 -0.105071 -0.0414768 0.0748858 0.0355862 -0.0159607 -0.18399 -0.0392784 0.0364851 0.00981573 -0.159842 0.0267543 -0.154668 -0.0901389 0.145808 0.0533392 -0.0238173 0.14347 0.0175891 -0.0375112 0.106232 0.0311058 0.0330303 -0.167056 0.0186564 -0.121943 0.1415 0.0184123 -0.0284171 -0.013845 0.181424 -0.0598636 -0.0237971 -0.0771584 -0.0649488 -0.0180822 -0.0420178 0.0231589 -0.0735951 -0.0267813 0.0878058 -0.043943 -0.0284045 -0.016794 -0.0404355 -0.0605693 -0.0189383 0.00191777 0.124357 -0.0569142 -0.0271897 -0.12684 -0.0672501 -0.06384 0.00258114 0.0795352 0.000974916 -0.0635174 -0.0398237 0.0748358 0.0544967 -0.0655533 0.0612628 -0.0434036 -0.0750423 -0.113436 -0.109694 0.0967875 0.0049902 -0.033826 -0.329166 -0.076716 0.116091 -0.0122045 -0.204153 0.0863739 -0.138552 -0.0833301 0.237077 0.107474 -0.026721 0.109505 0.0219043 -0.0526976 0.282558 -0.00194755 0.0117426 -0.207103 -0.00341497 -0.140981 0.411452 0.0435907 -0.035249 -0.00791577 0.23359 -0.0676898 -0.0233043 -0.0851213 -0.075427 -0.0191548 -0.0465514 0.0222563 -0.0894211 -0.0271022 0.0990909 -0.0456376 -0.0331858 -0.0211919 -0.0404891 -0.0660623 -0.0201096 0.00324393 0.126242 -0.0555005 -0.0311037 -0.136501 -0.0734151 -0.0668717 0.00119223 0.0742539 -7.47751e-05 -0.0717812 -0.0512994 0.0728901 0.0524698 -0.0696052 0.0646453 -0.0464738 -0.0746594 -0.113189 -0.116054 0.0969746 -0.00015805 -0.0371475 -0.362255 -0.0832455 0.136292 -0.0132731 -0.21328 0.0844473 -0.137949 -0.0831531 0.255932 0.121917 -0.0263698 0.105803 0.0232146 -0.0575385 0.289003 -0.00858278 0.0101424 -0.216735 -0.00511334 -0.142929 0.476285 0.0473849 -0.035259 -0.0123902 0.233592 -0.0677919 -0.0203705 -0.0834109 -0.0755977 -0.0215312 -0.046514 0.0159061 -0.0924933 -0.0267089 0.102536 -0.0443861 -0.0331509 -0.0205451 -0.0395259 -0.0657216 -0.0212627 0.00537388 0.115773 -0.0554978 -0.0309599 -0.1306 -0.0732918 -0.0625773 0.00117562 0.0727191 8.66889e-06 -0.0717929 -0.0512095 0.0544599 0.0451275 -0.0696791 0.0575603 -0.046166 -0.0717459 -0.106568 -0.11894 0.0982634 -0.000316372 -0.0371406 -0.360906 -0.0842756 0.137445 -0.0143281 -0.213034 0.0894752 -0.115828 -0.0744729 0.255951 0.122219 -0.0252885 0.108674 0.0230378 -0.0564522 0.293173 -0.00864176 0.00654866 -0.213303 -0.00595263 -0.139246 0.476329 0.0475005 -0.0343137 -0.0242607 0.23372 -0.0677001 -0.012557 -0.0791299 -0.0756459 -0.0273822 -0.0464971 0.000156821 -0.100061 -0.0261188 0.110884 -0.0416975 -0.0334961 -0.0188733 -0.0367817 -0.0653098 -0.0239724 0.0110435 0.0892786 -0.0552813 -0.0309686 -0.116152 -0.0733594 -0.052406 0.00136204 0.0683226 0.000389354 -0.0717269 -0.0510512 0.00792255 0.026831 -0.0695549 0.0394644 -0.0454284 -0.064694 -0.089546 -0.126344 0.100932 -0.000555464 -0.0369236 -0.357361 -0.0867326 0.140393 -0.0172769 -0.212165 0.102044 -0.0604118 -0.0526144 0.256527 0.122891 -0.0226179 0.116027 0.0232968 -0.0536948 0.304092 -0.0086815 -0.00260785 -0.204443 -0.00794475 -0.129434 0.477077 0.0476742 -0.0315115 -0.0415841 0.233757 -0.0676121 -0.000827332 -0.072565 -0.0761033 -0.0356928 -0.0462941 -0.0230034 -0.111307 -0.0247835 0.123304 -0.0372265 -0.0341721 -0.0162351 -0.0328811 -0.0647145 -0.0282896 0.0189704 0.0501097 -0.0551127 -0.0308974 -0.0945032 -0.0732638 -0.0370108 0.00167098 0.0621316 0.000750945 -0.0716838 -0.0509951 -0.0614598 -0.000407325 -0.0696949 0.0128418 -0.0444847 -0.0538398 -0.0642852 -0.137354 0.104924 -0.000661838 -0.0366092 -0.352161 -0.0904419 0.14459 -0.0213856 -0.211172 0.120511 0.0218545 -0.0198697 0.257128 0.12369 -0.0187667 0.126763 0.0232329 -0.049934 0.319907 -0.00843548 -0.0164339 -0.191327 -0.0109164 -0.114899 0.47788 0.0479438 -0.0276001 -0.0451366 0.233825 -0.0674616 0.00142313 -0.0712085 -0.0761894 -0.0374504 -0.046313 -0.0278744 -0.113481 -0.0245813 0.126006 -0.0363185 -0.0341834 -0.0157559 -0.0321536 -0.0647015 -0.0291585 0.0206717 0.0423247 -0.0549219 -0.0307932 -0.0903239 -0.0731103 -0.0337861 0.00168675 0.0609869 0.000756351 -0.071706 -0.0508488 -0.0754551 -0.00602134 -0.0695276 0.00760408 -0.04426 -0.0517808 -0.0592119 -0.13968 0.105703 -0.000711736 -0.0364849 -0.351209 -0.0912159 0.145449 -0.022245 -0.210985 0.124275 0.0382953 -0.0133923 0.257337 0.123814 -0.0180665 0.12909 0.0232651 -0.0489952 0.323303 -0.0084223 -0.0190371 -0.188711 -0.0115176 -0.112053 0.478012 0.0478237 -0.0268151 -0.0452098 0.233938 -0.067547 0.00152323 -0.0711963 -0.0760942 -0.0375334 -0.0464595 -0.0278158 -0.113439 -0.0245813 0.125987 -0.0364577 -0.0341346 -0.0157633 -0.0319924 -0.0646552 -0.0291146 0.0207694 0.0422002 -0.055044 -0.0307175 -0.090175 -0.0732934 -0.0337421 0.0016721 0.0609307 0.000741702 -0.0718378 -0.0508049 -0.0752817 -0.00598228 -0.0696472 0.00744051 -0.0441843 -0.0518492 -0.0592217 -0.139623 0.105803 -0.000650701 -0.0365435 -0.35117 -0.091194 0.145263 -0.0223011 -0.210819 0.124434 0.0382245 -0.013424 0.257413 0.123845 -0.0180275 0.128897 0.0233506 -0.0490611 0.323288 -0.00840521 -0.0190151 -0.188713 -0.0114834 -0.112119 0.478134 0.0478383 -0.0268005 -0.0452196 0.233876 -0.0675153 0.00137675 -0.0711328 -0.0760893 -0.0375016 -0.0462959 -0.0278817 -0.113376 -0.024513 0.126013 -0.0363991 -0.0340638 -0.0158096 -0.0319631 -0.0647455 -0.0292757 0.0206229 0.0422271 -0.0549781 -0.0306833 -0.0902507 -0.0732275 -0.0339399 0.00167943 0.0610089 0.000861331 -0.0717401 -0.0507805 -0.0754136 -0.00597496 -0.0695007 0.00753084 -0.0440622 -0.0518712 -0.0591728 -0.139684 0.105698 -0.000865545 -0.0365288 -0.351209 -0.0912111 0.145434 -0.0223622 -0.210993 0.124392 0.0383148 -0.0134899 0.257472 0.123819 -0.0179933 0.128873 0.0232798 -0.0491783 0.323222 -0.00854193 -0.0190029 -0.18876 -0.0116226 -0.112024 0.478119 0.0478237 -0.02682 -0.0448275 0.224238 -0.0682231 0.00138087 -0.0801624 -0.0767892 -0.0379627 -0.0310104 -0.0282595 -0.114056 -0.0333132 0.0891227 -0.0359807 -0.0374588 -0.00408327 -0.0327574 -0.0479486 -0.0297266 0.0183796 0.0425137 -0.0485542 -0.020224 -0.0910626 -0.0539973 -0.0325728 0.00370498 0.0604076 0.0176555 -0.064845 -0.0963435 -0.0759279 -0.00679526 -0.0697971 0.00689143 -0.0449102 -0.0595065 -0.0592052 -0.139273 0.0925975 0.0165046 -0.0364677 -0.352025 -0.0966889 0.120363 -0.0229264 -0.211811 0.122552 0.0397456 -0.0274266 0.239485 0.123267 -0.0177417 0.063465 0.0236871 -0.0752133 0.328629 -0.0589568 -0.0195958 -0.176041 -0.0120969 -0.11187 0.477589 0.0472454 -0.026241 -0.0442415 0.204365 -0.0693104 0.0015914 -0.0987922 -0.078375 -0.0393071 0.00155888 -0.0292664 -0.1153 -0.0512648 0.01178 -0.035181 -0.0441011 0.0206504 -0.0339917 -0.012509 -0.0309492 0.0136178 0.0425387 -0.0346571 0.00212357 -0.0924127 -0.0138076 -0.0301657 0.00803213 0.0591988 0.0529388 -0.0502647 -0.191795 -0.0770757 -0.00824744 -0.0699176 0.00576646 -0.046154 -0.0758427 -0.0590797 -0.138403 0.0648742 0.0526406 -0.0366556 -0.354142 -0.107865 0.0677964 -0.0240929 -0.213321 0.118465 0.0428481 -0.0567339 0.202078 0.12224 -0.0171529 -0.0742877 0.0245551 -0.13001 0.339711 -0.16493 -0.0208132 -0.148968 -0.013477 -0.111641 0.476844 0.0461501 -0.0253304 -0.0436451 0.207047 -0.0701099 0.00228346 -0.0995556 -0.0779613 -0.0389757 0.00078134 -0.0292205 -0.115969 -0.0507788 0.0122 -0.0347406 -0.0451382 0.0199996 -0.0333916 -0.0133432 -0.031015 0.0141308 0.0428495 -0.0355256 0.00114179 -0.0927616 -0.0151422 -0.0299856 0.00811848 0.0577005 0.0523402 -0.0510016 -0.19385 -0.0759572 -0.00923655 -0.0701929 0.00564187 -0.046769 -0.075253 -0.0584509 -0.138091 0.0618548 0.0501193 -0.0371504 -0.353868 -0.108577 0.0684176 -0.0241239 -0.21049 0.11882 0.0423894 -0.0561951 0.201281 0.121429 -0.0168668 -0.0816816 0.0238406 -0.129595 0.34196 -0.166763 -0.0209887 -0.151249 -0.014025 -0.111226 0.476271 0.0454335 -0.0249038 -0.0309321 0.305357 -0.0899053 0.0221374 -0.112277 -0.0638736 -0.0292196 -0.0485243 -0.026797 -0.138554 -0.0241747 0.0853204 -0.0217135 -0.0699344 -0.0217449 -0.0183357 -0.0652933 -0.0283096 0.0315245 0.0471746 -0.0697189 -0.0453522 -0.0988518 -0.0831036 -0.023995 0.0015533 0.0118382 0.000883412 -0.0871017 -0.186949 -0.0357292 -0.0421477 -0.0819656 0.00598653 -0.0633712 -0.0481766 -0.0443192 -0.125476 -0.0067531 -0.0528493 -0.0565928 -0.342571 -0.118922 0.123611 -0.0225638 -0.116753 0.136166 0.0237435 -0.0184412 0.20235 0.0946208 -0.0025391 -0.200043 -1.44315e-05 -0.071754 0.404399 -0.145018 -0.0308224 -0.240244 -0.0356219 -0.097082 0.453139 0.0233115 -0.0110687 -0.0351766 0.301368 -0.0888619 0.0225724 -0.0993315 -0.0580282 -0.028623 -0.0634139 -0.0273404 -0.140535 -0.0136081 0.135989 -0.0221699 -0.0660359 -0.0435799 -0.0357795 -0.088527 -0.0317476 0.0344651 0.0473664 -0.0791681 -0.0606036 -0.0986404 -0.116217 -0.025918 -0.00345267 0.0110979 -0.0222838 -0.076337 -0.11515 -0.0352405 -0.0457536 -0.0822237 0.00419464 -0.0628024 -0.0386628 -0.0442266 -0.125937 0.0127452 -0.0767274 -0.0571409 -0.330017 -0.110376 0.146394 -0.0219431 -0.115907 0.145429 0.0190284 0.00172511 0.225234 0.0934655 -0.00363616 -0.105609 -0.00150177 -0.0343021 0.397354 -0.0732718 -0.0344264 -0.256992 -0.0350172 -0.0970678 0.442995 0.0229667 -0.0119081 -0.0613462 0.178042 -0.0875139 0.0271211 -0.0986545 -0.0259533 -0.0305234 -0.0108691 -0.0359963 -0.160134 -0.0259427 0.118636 -0.0213012 -0.0723032 -0.0775483 -0.163841 -0.0812434 -0.0607381 0.0321386 0.0482346 -0.0786948 -0.0599675 -0.105078 -0.155037 -0.0270097 -0.0170175 -0.00112254 -0.0135781 0.069122 -0.0724987 -0.0369459 -0.0777678 -0.0856322 -0.0134994 -0.0657663 -0.0494835 -0.0432354 -0.124657 0.0155964 -0.070235 -0.0612815 -0.25323 -0.106367 0.0540097 -0.023748 -0.11851 0.192434 0.00204722 0.00219644 0.205675 0.080442 -0.00907884 -0.108467 -0.00782117 -0.037298 0.401215 -0.0818926 -0.0652534 -0.244041 -0.037175 -0.0959298 0.367613 0.013762 -0.0138133 -0.0834506 0.0731463 -0.0861153 0.0308551 -0.0980484 0.00111635 -0.0321186 0.0335095 -0.0433845 -0.176667 -0.0367333 0.103897 -0.0206344 -0.0778203 -0.106303 -0.272942 -0.0748189 -0.0857226 0.0304901 0.0488423 -0.0786097 -0.0592499 -0.110213 -0.187963 -0.0277374 -0.028421 -0.0113343 -0.0060145 0.192504 -0.0363867 -0.0383828 -0.104935 -0.0885574 -0.0285877 -0.0683922 -0.0584982 -0.0426398 -0.12352 0.0181318 -0.0649059 -0.0646401 -0.188098 -0.102743 -0.0243953 -0.0253672 -0.120541 0.232152 -0.0124526 0.00256911 0.189129 0.0696014 -0.0137212 -0.110777 -0.01326 -0.0395388 0.404679 -0.089143 -0.0914793 -0.232979 -0.0389548 -0.094698 0.303783 0.00613388 -0.0154485 -0.0909774 0.0384557 -0.0840102 0.0288443 -0.0949629 0.00899315 -0.0239768 0.0497022 -0.0431915 -0.17957 -0.0440001 0.0979467 -0.0213147 -0.0784414 -0.115752 -0.310475 -0.071742 -0.0882917 0.0286112 0.0487832 -0.0774177 -0.0578508 -0.1122 -0.197572 -0.0293738 -0.0334737 -0.0146859 -0.00250034 0.235198 -0.0228871 -0.0377707 -0.107953 -0.0880332 -0.030142 -0.0679176 -0.0627276 -0.0434812 -0.124108 0.0178799 -0.0616873 -0.0645219 -0.167389 -0.100482 -0.0509524 -0.0252905 -0.119932 0.2441 -0.0190148 0.00153634 0.184783 0.0672864 -0.0164155 -0.110142 -0.0138034 -0.041503 0.405172 -0.0904792 -0.0963305 -0.228922 -0.0383381 -0.0954594 0.283494 0.00454745 -0.0172298 -0.0868135 0.0384979 -0.0709721 0.00497774 -0.0687403 -0.000693018 0.0376038 0.0600149 -0.0235143 -0.161309 -0.0702421 0.0903196 -0.0269103 -0.0696622 -0.116829 -0.316512 -0.0654529 -0.0493052 0.0195443 0.0466623 -0.073939 -0.04805 -0.113527 -0.187001 -0.0369062 -0.0461903 -0.0239781 0.00569959 0.245067 -0.0135724 -0.0294168 -0.0640676 -0.0772558 -0.00513479 -0.0577893 -0.0677104 -0.0472422 -0.124252 0.010247 -0.0512588 -0.0545612 -0.172465 -0.0930693 -0.0504946 -0.0204523 -0.109583 0.217539 -0.0307699 -0.00616196 0.190562 0.0763741 -0.0217482 -0.0949482 -0.00658093 -0.0493362 0.36265 -0.0804042 -0.0680426 -0.222532 -0.0299377 -0.102019 0.2877 0.006766 -0.0220162 -0.067633 0.0134918 -0.0524534 -0.0180661 -0.0251425 -0.00873594 0.0924353 0.0621972 -0.00231149 -0.125945 -0.0853654 0.0765881 -0.024118 -0.0549477 -0.110473 -0.280686 -0.0621936 -0.00563652 0.0098298 0.0417946 -0.0857549 -0.0340235 -0.102964 -0.156675 -0.0394078 -0.0659781 -0.0503003 0.011255 0.223607 -0.0046697 -0.018994 -0.0141664 -0.0618917 0.0191532 -0.044062 -0.0605265 -0.0405528 -0.0992832 0.00153388 -0.0340729 -0.0408978 -0.15878 -0.079425 -0.0396746 -0.0161559 -0.0882682 0.132903 -0.0383281 -0.0142746 0.173818 0.0740783 -0.0192356 -0.0583108 -0.00277481 -0.0516246 0.207477 -0.0597147 -0.0327702 -0.205772 -0.0197716 -0.102403 0.235524 -0.00688296 -0.0173161 -0.0337247 0.0161563 -0.0249592 -0.0342368 0.0175417 -0.0223546 0.118354 0.0249343 0.0186367 -0.054605 -0.0745655 0.0561862 -0.0165128 -0.0282675 -0.06421 -0.131232 -0.0518074 0.0446963 0.00203132 0.030252 -0.086887 -0.0159962 -0.0666311 -0.0816851 -0.0315361 -0.0610569 -0.0502594 0.00834422 0.090407 -0.0141403 -0.00625589 0.0443711 -0.0369457 0.0406566 -0.0238999 -0.0399046 -0.0303027 -0.0605611 -0.00674364 -0.0161805 -0.0200344 -0.141688 -0.055356 0.0126963 -0.00884465 -0.0501755 0.0234948 -0.0271287 -0.0182633 0.130262 0.0545802 -0.0106464 -0.0181705 0.00261042 -0.0388682 0.0536777 -0.0239042 0.0173608 -0.165284 -0.00718633 -0.0877156 0.142507 -0.0155585 -0.00947001 0.0181981 0.268944 -0.0320578 -0.0377375 -0.00466533 -0.0739413 0.10826 -0.019279 0.0263678 -0.0635543 -0.0562133 0.0721796 -0.0221412 -0.02129 -0.033388 -0.0175652 -0.0410755 0.0645133 -0.000527277 0.0195229 -0.0276732 -0.0156648 -0.068667 -0.0394018 -0.0333507 -0.0364072 -0.0392832 0.00444333 -0.0410161 -0.0608908 -0.0026941 0.0656929 -0.0228363 0.0621256 -0.0129452 -0.0193874 -0.0205457 -0.060641 -0.0100862 -0.0227948 -0.0114636 -0.236129 -0.0470625 0.123463 -0.00258087 -0.0503232 -0.0241857 -0.0139152 -0.0146617 0.151878 0.0970385 -0.00865777 -0.0142645 0.0161412 -0.0426013 0.0456094 -0.0265752 0.0404767 -0.116497 -0.00146631 -0.0566507 0.36471 0.0181364 -0.0107685 0.0175765 0.159286 -0.0127423 -0.0185793 -0.0060121 -0.0392224 0.0491047 -0.00601418 0.0137263 -0.0310549 -0.0240627 0.028163 -0.0117338 -0.00637355 -0.0122672 -0.00688771 -0.00910512 0.0301372 -0.00312216 0.00398308 0.011014 -0.00424704 -0.0302149 -0.0108643 -0.0153876 -0.011153 -0.0153953 0.0044452 -0.0172507 -0.0265419 0.000977781 0.0313005 -0.00345438 0.0309805 -0.000754008 -0.0050636 -0.00559471 -0.0250706 -0.00558582 -0.00800032 -0.00126207 -0.105274 -0.0135232 0.0601214 0.00146479 -0.0193978 -0.0136536 -0.00769547 -0.00559551 0.0638137 0.0514358 -0.00557373 -0.00378026 0.0106729 -0.0202209 0.0162178 -0.0127369 0.0195525 -0.0249183 0.00214791 -0.0126498 0.202225 0.0173558 -0.00651227 0.00012207 0.000102539 0.000161133 0.000153809 0.000185547 0.000180664 1.46484e-05 6.34766e-05 8.78906e-05 7.56836e-05 5.85937e-05 0.000239258 0.000195313 3.41797e-05 5.37109e-05 0.000234375 0.000134277 6.10352e-05 0.00017334 0.00015625 2.68555e-05 0.000151367 7.8125e-05 5.37109e-05 4.88281e-06 4.88281e-05 0.000114746 0.000229492 0.000197754 0.000146484 0.000231934 7.56836e-05 1.46484e-05 0.00010498 0.000112305 7.56836e-05 0.00017334 0.000151367 0.000166016 0.000109863 3.41797e-05 0.000141602 1.95313e-05 0.000158691 0.000219727 0.000200195 0.000146484 0.000236816 9.76563e-06 0.000187988 4.88281e-05 0.000224609 0.000212402 0.000146484 2.68555e-05 9.52148e-05 4.15039e-05 7.32422e-06 0.000141602 0.000109863 0.000158691 0.000114746 0.000119629 5.61523e-05 0.00015625 0.000168457 0.000134277 2.92969e-05 0.000217285 0.00015625 0.00010498 0.000241699 6.83594e-05 0.00013916 0.000234375 5.61523e-05 0.000231934 0.000239258 0.000229492 0.000200195 0.000112305 0.000183105 0.00010498 7.08008e-05 2.19727e-05 0.000146484 0.00020752 0.000202637 9.76563e-05 8.30078e-05 0.000234375 0.000126953 7.56836e-05 3.41797e-05 0.000131836 7.56836e-05 9.0332e-05 2.92969e-05 2.44141e-06 2.68555e-05 0.000170898 0.00020752 1.2207e-05 0.000231934 0.00019043 0.000131836 1.46484e-05 9.0332e-05 0.000205078 2.44141e-05 0.000100098 0.00015625 7.56836e-05 0.000236816 0.000239258 0.000146484 0.000202637 0.00010498 0.000166016 7.08008e-05 0.000153809 9.76563e-06 0.000107422 0.000180664 0.000209961 0.000158691 0.000124512 0.000217285 2.92969e-05 0.000166016 0.000222168 0.000146484 3.66211e-05 0.000114746 0.000107422 0.000119629 0.000187988 0.000170898 6.5918e-05 8.30078e-05 3.66211e-05 0.000200195 0.000241699 0.000161133 0.000131836 4.88281e-05 0.000112305 0.000146484 2.19727e-05 0.00017334 0.000229492 0.000161133 4.63867e-05 2.44141e-06 0.00015625 0 7.56836e-05 0.000217285 8.78906e-05 0.000170898 0.000129395 7.08008e-05 9.52148e-05 0.000112305 4.63867e-05 0.000136719 0.000178223 4.63867e-05 0.000195313 0.000151367 0.000212402 0.000144043 8.54492e-05 6.34766e-05 0.000136719 4.15039e-05 4.63867e-05 0.000129395 0.000124512 0.000151367 0.000100098 0.000141602 0.000129395 0.00020752 0.000134277 3.17383e-05 3.41797e-05 9.27734e-05 0.000234375 0.000214844 0.000217285 6.10352e-05 9.76563e-05 0.000212402 6.5918e-05 3.41797e-05 1.46484e-05 7.32422e-05 0.000136719 0.000239258 0.000134277 0.00020752 0.000112305 0.000124512 0.000126953 0.000170898 0.000219727 0.00020752 2.68555e-05 0.00017334 2.92969e-05 5.37109e-05 0.000178223 7.32422e-05 0.00020752 0.000212402 0.000146484 0.000148926 0.000222168 0.000212402 0.00017334 0.000202637 0.000187988 2.92969e-05 0.000151367 8.30078e-05 1.95313e-05 7.56836e-05 0.000236816 9.52148e-05 0.000197754 0.000227051 0.000124512 5.37109e-05 8.54492e-05 1.70898e-05 0.000183105 6.5918e-05 5.85937e-05 0.000197754 0.00013916 3.17383e-05 8.54492e-05 5.61523e-05 0.00020752 8.05664e-05 4.88281e-05 0.000195313 8.78906e-05 0.000153809 7.56836e-05 0.000175781 0.000185547 0.000180664 0.000131836 0.000222168 4.39453e-05 0.000229492 4.88281e-06 6.34766e-05 8.54492e-05 2.44141e-06 3.90625e-05 0.000200195 5.37109e-05 0.000153809 0.000146484 0.00019043 0.000163574 4.63867e-05 0.000178223 0.000219727 7.08008e-05 5.12695e-05 6.34766e-05 8.30078e-05 0.000212402 0.000219727 9.76563e-06 0.000192871 0.000239258 0.000175781 8.30078e-05 0.000185547 0.000219727 3.41797e-05 0.000229492 8.54492e-05 0.000217285 0.000212402 0.000168457 0.000112305 0.000234375 0.000200195 0.000126953 0.000119629 9.52148e-05 5.61523e-05 0.000134277 2.19727e-05 0.000136719 5.85937e-05 9.27734e-05 0.000163574 0.000192871 0.000161133 0.000229492 4.39453e-05 0.000129395 0.000185547 9.52148e-05 0.000178223 8.54492e-05 0.000175781 0.000185547 8.78906e-05 0.000217285 8.05664e-05 0.000219727 0.000136719 7.08008e-05 4.88281e-06 8.78906e-05 0 0.000205078 8.05664e-05 8.30078e-05 0.000212402 3.66211e-05 0.000209961 0.000158691 0.000166016 0.000163574 0.000234375 7.32422e-06 3.17383e-05 9.76563e-06 0.000205078 0.000212402 6.5918e-05 0.000200195 4.15039e-05 0.000192871 0.00013916 4.15039e-05 2.92969e-05 7.8125e-05 0.000202637 2.19727e-05 0.000197754 5.37109e-05 1.2207e-05 2.19727e-05 6.10352e-05 0.000166016 4.88281e-05 0.00015625 0.00012207 6.34766e-05 0.000231934 0.000185547 0.000163574 0.000239258 2.44141e-05 3.66211e-05 0.000109863 2.68555e-05 0 2.68555e-05 0.000192871 0.000129395 9.52148e-05 9.52148e-05 0.000205078 0.000236816 8.78906e-05 6.5918e-05 0.000180664 3.66211e-05 4.88281e-06 3.41797e-05 5.12695e-05 0.000217285 0.00010498 0.000180664 0.000187988 8.05664e-05 0.000227051 0.000234375 0.000119629 2.92969e-05 0.000202637 0.000227051 0.000117187 0.000168457 4.88281e-05 0.000195313 0.00013916 4.88281e-05 0.000183105 4.15039e-05 4.63867e-05 0.000192871 0.000214844 0.00010498 0.000158691 4.88281e-05 5.12695e-05 0.000217285 9.76563e-05 0.000100098 0.000178223 8.05664e-05 7.8125e-05 0.000109863 0.000168457 0.000200195 0.000183105 8.54492e-05 0 0.000239258 0.000219727 6.5918e-05 0.000234375 0.000192871 0.000107422 0.00015625 0.000168457 7.32422e-06 0.000170898 1.95313e-05 5.37109e-05 5.12695e-05 0.000175781 4.63867e-05 0.000151367 0.000200195 0.00015625 0.000151367 7.08008e-05 1.95313e-05 4.88281e-05 0.000151367 0.000231934 0.000209961 2.92969e-05 0.000146484 0.000224609 8.78906e-05 4.88281e-06 3.41797e-05 1.95313e-05 4.88281e-05 0.000129395 0.000158691 0.000136719 0.000148926 0 0.000168457 5.37109e-05 0.000202637 0.00017334 0.000185547 0.000180664 7.56836e-05 0.000170898 0.000163574 0.000112305 2.44141e-06 8.05664e-05 0.000217285 0.000126953 7.56836e-05 0.000234375 8.05664e-05 0.000224609 0.000212402 9.76563e-06 0.000231934 0.000222168 3.90625e-05 0.000178223 0.000200195 0.000112305 1.2207e-05 0.000161133 0.00015625 0.000231934 2.68555e-05 6.34766e-05 0.000100098 7.56836e-05 0.000126953 0.000234375 0.000185547 0.000231934 0.000241699 3.17383e-05 0.000205078 2.92969e-05 1.46484e-05 0.000185547 5.37109e-05 0.00013916 0.000131836 2.44141e-05 0.000195313 4.39453e-05 0.00012207 0 7.32422e-05 0.000134277 3.41797e-05 1.46484e-05 0.00012207 0.000158691 0.000227051 9.0332e-05 6.10352e-05 3.17383e-05 2.19727e-05 0.000163574 9.76563e-05 0.000183105 8.54492e-05 0.000227051 2.92969e-05 0.000234375 0.000219727 8.05664e-05 0.000170898 0.000134277 0.00017334 2.19727e-05 0.000158691 0.000205078 3.17383e-05 1.95313e-05 0.000158691 0.000102539 2.44141e-05 0.000107422 0.000146484 3.90625e-05 7.32422e-06 0.000195313 7.32422e-06 1.46484e-05 0.00020752 0.000141602 0.000146484 5.12695e-05 4.88281e-05 0.000241699 7.08008e-05 5.37109e-05 0.00012207 0.000239258 2.92969e-05 0.000229492 3.66211e-05 0.000141602 0.000136719 0.00015625 0.000136719 7.8125e-05 0.000112305 0.000112305 0.000148926 0.000236816 0.000129395 0.000153809 8.78906e-05 0.000224609 1.70898e-05 2.19727e-05 0.000153809 0.000183105 0.000148926 8.78906e-05 0.000175781 1.2207e-05 0.000100098 7.32422e-06 0.000192871 0.000241699 0.000102539 0.000158691 0.000195313 6.5918e-05 0.000202637 0.000107422 6.5918e-05 0.00020752 0.000126953 3.41797e-05 0.000214844 0.000229492 2.19727e-05 0.000241699 0.000219727 0.00020752 0.000107422 8.54492e-05 0.000134277 0.000205078 0.000178223 2.44141e-05 4.88281e-05 8.30078e-05 0.000195313 0.000187988 0.000114746 0.000163574 0.000134277 0.000126953 9.27734e-05 9.0332e-05 0.000197754 0.000214844 7.32422e-05 1.95313e-05 0.000229492 2.68555e-05 0.000136719 1.95313e-05 6.83594e-05 0.000102539 4.63867e-05 6.10352e-05 0.000129395 7.32422e-06 9.27734e-05 2.92969e-05 2.44141e-05 4.88281e-06 0.000144043 0.000107422 0.000202637 9.76563e-06 2.92969e-05 0.00017334 4.88281e-05 0.000102539 0.000224609 3.41797e-05 2.68555e-05 7.8125e-05 6.34766e-05 5.37109e-05 4.63867e-05 0.000151367 0.000102539 6.10352e-05 0.000227051 8.54492e-05 0.000205078 5.12695e-05 0.000236816 9.52148e-05 8.05664e-05 9.52148e-05 7.56836e-05 6.83594e-05 6.5918e-05 4.39453e-05 0.000141602 2.44141e-06 0.000234375 0.000185547 4.15039e-05 0.000124512 0.000219727 0.000227051 1.95313e-05 0.000168457 0.000129395 9.76563e-06 0.000180664 0.000200195 0.000200195 6.5918e-05 7.8125e-05 4.88281e-05 2.68555e-05 0.000170898 4.88281e-05 0.000222168 0.000153809 0.000200195 9.52148e-05 5.37109e-05 0.00017334 7.32422e-05 3.66211e-05 0.000129395 0.000117187 0.000183105 8.30078e-05 0.000146484 3.66211e-05 0 0.00017334 0.000124512 3.66211e-05 0.000107422 0.00019043 0.000131836 1.46484e-05 7.32422e-06 0.000129395 0.000124512 0.000219727 0.000134277 0 4.15039e-05 8.05664e-05 0.000224609 0.000241699 8.54492e-05 6.5918e-05 0.00020752 1.2207e-05 0.000239258 9.76563e-05 2.92969e-05 7.08008e-05 5.85937e-05 0.000187988 0.000124512 0.000117187 6.34766e-05 0.000134277 0.000129395 6.83594e-05 1.70898e-05 0.00013916 0.000158691 7.8125e-05 0.000195313 4.15039e-05 8.05664e-05 0.000134277 0.000141602 3.66211e-05 0.000100098 4.88281e-06 0.000239258 0.000148926 0.000197754 1.2207e-05 0.000227051 5.37109e-05 0.00020752 0.000119629 0.000236816 9.76563e-06 0.00010498 4.15039e-05 8.30078e-05 0.000163574 0.00012207 0.000129395 1.95313e-05 0.000126953 4.15039e-05 6.34766e-05 0.000163574 4.88281e-06 0.000229492 1.46484e-05 0.000224609 0.000205078 6.83594e-05 7.56836e-05 7.8125e-05 0.000234375 5.61523e-05 0.000224609 0.000163574 0.000112305 0.000200195 7.32422e-06 7.32422e-05 8.54492e-05 9.0332e-05 0.000148926 9.76563e-05 5.85937e-05 8.05664e-05 2.44141e-05 0.000200195 3.17383e-05 1.95313e-05 0.000166016 9.0332e-05 0.00017334 0.000151367 5.61523e-05 4.88281e-05 0.000112305 8.78906e-05 0.000112305 0.000219727 0.000241699 0.000170898 5.85937e-05 1.95313e-05 0.00020752 0.000166016 5.85937e-05 3.66211e-05 7.8125e-05 0.000126953 0.000187988 0.00013916 0.00017334 0.000241699 0.000161133 0.000100098 0.000219727 0.000178223 0.000148926 9.76563e-05 5.85937e-05 0.000141602 0.000124512 0.000170898 7.32422e-06 0.000170898 0.000146484 0.000229492 6.83594e-05 0.000241699 0.000231934 0.000236816 0.000195313 0.000229492 6.5918e-05 6.5918e-05 3.66211e-05 1.95313e-05 0.000222168 0.000229492 5.85937e-05 0.000158691 0.000153809 0.000136719 1.2207e-05 0.000141602 0.000234375 0 0.00020752 4.88281e-06 1.70898e-05 0.000131836 4.39453e-05 0.000161133 0.000146484 4.39453e-05 0 9.52148e-05 0.000168457 5.85937e-05 7.8125e-05 0.000126953 7.8125e-05 0.000227051 0.000109863 0.000195313 0.000214844 2.19727e-05 0.000224609 2.68555e-05 0.000129395 0.000200195 6.10352e-05 0.000192871 4.15039e-05 0.000192871 0.000236816 0.000239258 0.000202637 2.92969e-05 5.37109e-05 0.00019043 2.44141e-06 2.19727e-05 0.000148926 0.000239258 0.000224609 0.000209961 0.000192871 3.66211e-05 0.000158691 4.39453e-05 5.37109e-05 0.000148926 0.00019043 0.000124512 8.05664e-05 0.000224609 1.70898e-05 0.000100098 9.52148e-05 0.000175781 0.000178223 0.000175781 6.5918e-05 0.000236816 0.00012207 6.5918e-05 3.66211e-05 9.52148e-05 0.000151367 0.000229492 1.70898e-05 0.000175781 6.34766e-05 9.76563e-06 0.000148926 0.000205078 0.000192871 8.30078e-05 3.66211e-05 7.8125e-05 4.39453e-05 7.32422e-05 1.70898e-05 7.8125e-05 0.00020752 7.32422e-06 4.15039e-05 0.000102539 0.000175781 5.61523e-05 4.15039e-05 6.34766e-05 4.88281e-05 0.000222168 0.000222168 1.46484e-05 0.000136719 8.78906e-05 9.76563e-05 0.000158691 9.52148e-05 5.37109e-05 1.70898e-05 9.76563e-06 2.19727e-05 0.000168457 9.76563e-05 0.000131836 0.00013916 0.000109863 2.92969e-05 0.000236816 0.00012207 0.000200195 1.46484e-05 0.000231934 0.000109863 0.00015625 0.000146484 6.34766e-05 0.000209961 0.000227051 9.76563e-05 0.000239258 0.000241699 4.15039e-05 7.8125e-05 2.92969e-05 0.00020752 0.000119629 0.000153809 0.000146484 5.85937e-05 0.000222168 0.000212402 0.00019043 0.000158691 0.000117187 0.000234375 0.000170898 0.000239258 0.000153809 7.32422e-06 0.000180664 9.27734e-05 9.27734e-05 0.000114746 0.000126953 4.15039e-05 3.66211e-05 6.34766e-05 0.000214844 0.000112305 0.000236816 0.000144043 4.15039e-05 0.000117187 5.37109e-05 0.000239258 0.000239258 1.46484e-05 0.00012207 5.12695e-05 9.76563e-06 0.000229492 0.00013916 0.000168457 0.00019043 0.000163574 0.000219727 0.000178223 6.34766e-05 0.000187988 5.37109e-05 3.66211e-05 9.27734e-05 0.000102539 7.32422e-06 0.000102539 0.000161133 0.000163574 0.000134277 0.000163574 4.88281e-05 0.00015625 4.63867e-05 0.000180664 2.68555e-05 0.000195313 0.000241699 0.000236816 7.8125e-05 0.000183105 0.000168457 7.08008e-05 0.000197754 0.000158691 0.000168457 0.000185547 0.000178223 7.32422e-06 4.63867e-05 6.10352e-05 4.15039e-05 9.76563e-05 1.70898e-05 9.76563e-06 3.66211e-05 0.000187988 0.000227051 0.000107422 0.000166016 6.10352e-05 2.19727e-05 0.000166016 0.000239258 0.000175781 0.000136719 0.000239258 9.76563e-05 0.000170898 0 0.000161133 0.000239258 7.56836e-05 8.54492e-05 2.68555e-05 8.78906e-05 0.000214844 7.56836e-05 0.00020752 2.19727e-05 0.000197754 0.000239258 0.000209961 0.000163574 2.44141e-06 9.0332e-05 0.000209961 2.92969e-05 0.000197754 0.000222168 0.000129395 0.000214844 0.000234375 0.000148926 0.000175781 0.000112305 5.37109e-05 9.52148e-05 4.39453e-05 0.000148926 9.76563e-05 8.78906e-05 0 6.83594e-05 0.00017334 0.000222168 9.52148e-05 0.000114746 0.000129395 8.30078e-05 1.46484e-05 0.000134277 7.8125e-05 0 0.000241699 0.000163574 0.000107422 3.41797e-05 0.000180664 5.37109e-05 9.76563e-05 6.10352e-05 0.000183105 5.12695e-05 4.88281e-05 0.000200195 0.000212402 9.0332e-05 5.12695e-05 3.17383e-05 8.54492e-05 7.8125e-05 9.76563e-05 7.32422e-06 6.83594e-05 4.88281e-06 2.92969e-05 0.000202637 7.32422e-05 6.83594e-05 0.000200195 0.000241699 2.44141e-05 5.85937e-05 0.000170898 0.000166016 0.00013916 0.00010498 0.000222168 0.000161133 9.52148e-05 0.000114746 0.000153809 0.00015625 0 0.000231934 0.000175781 8.78906e-05 3.41797e-05 0.000227051 6.5918e-05 0.000141602 0.000144043 2.68555e-05 0.000144043 0.000153809 2.44141e-06 0.000126953 0.000205078 7.56836e-05 0.00010498 0.000129395 9.76563e-06 8.30078e-05 0.000227051 0.000112305 0.000158691 5.61523e-05 5.61523e-05 3.41797e-05 8.05664e-05 0.000112305 4.39453e-05 0.000107422 0.000102539 3.90625e-05 0.000231934 4.88281e-06 0.000239258 0.000107422 0.000117187 4.63867e-05 4.39453e-05 0.000236816 0.000117187 3.90625e-05 6.10352e-05 0.000227051 7.32422e-06 0.000219727 0.00010498 0.000166016 0.00012207 0 3.66211e-05 9.27734e-05 0.000126953 0.000161133 9.27734e-05 0.00013916 3.17383e-05 9.76563e-06 0.000236816 7.32422e-05 1.2207e-05 0.000119629 0.000148926 0.000158691 1.2207e-05 8.30078e-05 0.000195313 4.39453e-05 0.000109863 0.000166016 0.000144043 0.000231934 9.27734e-05 1.2207e-05 0.000239258 0.000166016 0.000102539 0.000187988 0.000241699 6.34766e-05 0.000166016 0.000183105 0.000124512 8.54492e-05 9.27734e-05 3.17383e-05 7.08008e-05 9.0332e-05 3.66211e-05 0.000161133 0.000195313 0.000129395 0.000141602 3.41797e-05 4.63867e-05 7.08008e-05 3.90625e-05 0.000202637 0.00017334 0.000148926 0.000229492 0.000183105 0.000168457 0.000212402 9.52148e-05 0.000234375 2.19727e-05 3.41797e-05 0.000144043 5.61523e-05 0.00010498 0.000205078 0.000146484 0.000214844 0.000114746 1.46484e-05 8.54492e-05 0.000151367 0.000170898 0.00017334 0.000161133 0.000209961 0.00012207 7.32422e-06 0.000158691 1.95313e-05 0.000170898 2.68555e-05 0.000241699 9.27734e-05 6.5918e-05 7.32422e-05 9.27734e-05 0.000144043 0.000209961 0.000209961 0.000187988 0.00010498 0.00015625 0.000124512 4.15039e-05 5.37109e-05 0.000131836 0.000144043 7.32422e-05 2.44141e-05 0.000185547 0.000134277 0.000136719 9.76563e-05 9.76563e-06 1.95313e-05 0.000187988 0.000197754 0.000183105 0.000161133 0.000166016 0.000197754 0.000214844 3.17383e-05 0.000153809 5.12695e-05 9.76563e-06 0.000187988 0.000129395 0.000209961 7.8125e-05 0.00010498 0.000212402 0.000148926 0.000158691 0.000136719 0.000195313 0.000117187 0.000168457 0.000102539 0.000151367 2.92969e-05 4.39453e-05 0.000109863 8.78906e-05 0.000217285 0.000166016 8.78906e-05 2.19727e-05 7.32422e-06 7.32422e-05 0.000107422 0.000197754 0.000163574 0.000239258 2.92969e-05 8.30078e-05 5.12695e-05 0.000236816 0.000100098 0.000107422 9.52148e-05 0.000217285 0.000124512 4.39453e-05 0.000170898 0.000129395 0.000158691 0.000168457 0.000222168 9.76563e-05 0.000239258 0.000217285 0 0.000119629 0.000148926 0.000192871 7.8125e-05 0.000200195 4.39453e-05 0.000234375 9.0332e-05 0.00013916 8.05664e-05 9.76563e-06 0.000195313 3.90625e-05 0.000231934 2.68555e-05 0.000222168 9.76563e-05 0.000131836 1.46484e-05 0.00012207 0.000202637 2.44141e-05 0.000227051 0.000200195 1.70898e-05 2.44141e-06 8.54492e-05 6.10352e-05 9.27734e-05 0.000163574 3.66211e-05 2.19727e-05 5.12695e-05 0.000112305 0.000187988 0.000100098 0.000131836 0.000222168 4.88281e-05 0.000227051 4.88281e-06 0.000131836 8.54492e-05 4.39453e-05 1.2207e-05 0.000131836 0.000102539 4.15039e-05 7.56836e-05 0.000178223 0.000241699 7.32422e-05 0.000161133 0.000231934 0.000205078 0.000197754 0.000100098 3.17383e-05 0.000141602 9.76563e-06 0.000227051 6.83594e-05 6.34766e-05 1.70898e-05 4.39453e-05 0.000168457 5.61523e-05 9.76563e-06 0.000107422 0.000163574 0.000100098 0.00013916 0.000200195 4.39453e-05 0.000166016 0.000146484 0.000212402 0.000222168 0.000126953 0.000119629 0.000183105 0.000180664 2.68555e-05 3.17383e-05 1.95313e-05 0.000124512 7.32422e-06 0.000114746 0.000178223 1.95313e-05 0.00010498 0.000163574 0.000114746 2.44141e-06 4.88281e-05 7.32422e-05 0.000153809 0.00020752 0 0.000227051 7.56836e-05 0.000236816 0.000148926 0.00017334 0.000119629 0.000231934 0.000144043 8.05664e-05 0 0.000107422 0.000185547 1.2207e-05 0.000192871 0.000234375 0.000144043 0.000180664 0.000163574 0.000168457 0.000114746 0.000224609 0.00013916 0.000114746 0.000227051 8.05664e-05 2.44141e-06 3.66211e-05 9.76563e-06 2.44141e-05 0.000119629 0.000192871 0.000217285 0.000146484 4.15039e-05 9.0332e-05 7.32422e-05 0.00020752 0.000219727 9.27734e-05 0.000209961 4.63867e-05 9.0332e-05 7.08008e-05 0.000229492 7.32422e-06 5.12695e-05 0.00015625 4.39453e-05 0.000102539 0.00020752 2.44141e-05 0.000124512 6.83594e-05 3.66211e-05 0.000129395 9.76563e-06 9.76563e-06 0.000183105 9.27734e-05 0.000239258 0.000195313 8.78906e-05 0.000134277 0.000236816 0.000178223 0.000126953 0.000136719 0.000183105 1.46484e-05 0.000241699 2.44141e-06 7.56836e-05 0.000178223 0.000102539 7.32422e-06 -0.000391812 0.00192994 0.00821487 -0.0149645 0.0139559 -0.00579401 0.0395797 0.00595763 0.0126406 0.0122259 -0.0173874 -0.00447338 -0.00475776 0.00555938 0.00109075 -0.00476408 0.00533687 0.0249731 -0.00539134 -0.00112842 0.00542461 0.00595296 -0.000690914 0.00602477 -0.00508938 -0.00510734 0.000344757 0.00520844 0.00581308 0.00581058 0.00539101 0.0280974 0.00699667 0.016017 0.00616589 -0.00485653 -0.00471637 -0.00442917 -0.00461475 0.00575845 0.00624077 -0.00473739 0.00456282 -0.000527451 0.00351528 0.00610432 -0.00564998 -0.00727662 -0.00455766 0.00572527 0.00586482 -0.0045184 0.00564589 0.00528519 -0.00473051 -0.00250169 0.0059563 0.0181779 0.00286037 0.00535669 -0.00482308 0.00549528 0.00473858 -0.00475261 0.0197408 0.00935436 0.00814608 -0.0411194 0.0465974 -0.0584663 0.0926356 0.0226245 0.0314835 0.0313995 -0.0124858 -0.0083946 -0.0127715 0.0197341 -0.0157412 -0.0147302 0.0105183 0.0790309 -0.0104455 0.00278192 0.018889 0.0189029 0.0340489 0.0223734 -0.0208835 -0.00999777 0.00945783 0.00967203 0.024851 0.0392502 0.000803385 0.111482 0.0193441 0.0225137 0.0119865 -0.00859864 0.0266146 -0.00638565 -0.00972241 0.0216613 0.0155642 -0.0136755 0.0339723 -0.00358563 0.00234995 0.0158459 -0.000653923 -0.0195348 -0.0108148 0.0188483 0.0212515 -0.00732947 0.0247098 0.00933999 -0.0109939 -0.069214 0.0350712 0.0479341 0.0134319 0.00602387 -0.00568016 0.0292316 0.0138837 -0.0103928 0.0940799 0.017749 -0.0124705 0.0248156 0.0492328 -0.137184 0.120826 0.0372701 0.0431519 0.0330869 0.0378404 0.0553744 -0.0181446 0.0322197 -0.0204912 -0.0232466 0.00517749 0.122274 -0.0117729 0.0291475 0.0319767 0.027728 0.06683 0.0369045 -0.0487073 0.00198509 -0.00806263 0.00698854 0.0438083 0.0813324 0.00115676 0.216524 0.02192 0.0656741 0.00491664 -0.00970182 0.0708339 0.0605712 -0.0705945 0.0367054 0.0142541 -0.0212822 0.0787728 -0.015337 0.0507081 0.014767 0.0100972 -0.0540618 -0.0252998 0.0263373 0.0321645 -0.00502772 0.0159928 0.00672593 -0.014423 -0.208645 0.0704319 0.0880345 -0.0672754 0.0340469 -0.00101031 0.0228496 0.0203802 -0.0125407 0.0638363 0.0451969 -0.0475045 0.0352744 0.0316458 -0.149619 0.153251 0.0494214 0.0177973 0.0660931 -0.0198789 0.0108191 -0.0445451 0.0499678 0.0139281 -0.0562103 0.0215325 0.120022 -0.00504616 0.0277848 0.0555263 0.0490732 0.0505805 0.0982282 -0.188659 0.0117829 0.0100238 0.0357472 0.0611919 0.133843 -0.036502 0.202168 0.0356854 0.0963722 0.023276 -0.0456103 0.00510532 0.0563396 -0.0680459 0.086032 0.0308662 -0.0762681 0.084291 -0.0230739 0.00348121 0.0322041 -0.0179551 -0.0623277 -0.0698271 0.0653587 0.0635315 -0.0353068 0.0606076 0.0282529 -0.0430108 -0.241408 0.0846234 0.0736285 0.0343064 0.0498842 -0.0400782 0.0576223 0.0427461 -0.0432499 0.0845501 0.0465513 -0.0968592 0.0597419 0.0470347 -0.215892 0.10755 0.0402053 -0.00116017 0.0577646 0.0227891 -0.0293666 -0.0452434 0.0484175 -0.0132361 -0.0725912 -0.00141204 0.110224 0.0637526 0.0533607 0.0561165 0.0446428 0.0970984 0.105061 -0.217195 0.00602641 0.0137569 0.0216439 0.0674939 0.231444 -0.115494 0.217528 0.0216296 0.0426978 0.00582569 -0.0502124 0.0366567 0.08498 -0.0617523 0.140507 0.0195106 -0.128072 0.10282 -0.0182923 -0.0347016 0.0222023 0.019157 -0.0556922 -0.0726267 0.0958204 0.0858783 -0.0289257 0.0687364 0.00469683 -0.0410209 -0.312143 0.109541 0.0479341 0.0504511 0.0189917 -0.044599 0.114588 0.0338872 -0.0442787 0.11396 0.0613251 -0.0633303 0.112261 0.0595159 -0.16379 0.200592 0.0700748 0.0285473 0.118506 0.094544 0.0257201 -0.0325526 0.0710859 -0.00703295 -0.0876937 0.0239379 0.133433 0.0308962 0.0808428 0.0855196 0.0653547 0.124775 0.127475 -0.202458 0.0332997 0.0446661 0.0903119 0.0930949 0.187797 -0.0615736 0.223274 0.0474637 0.0719788 0.0246002 -0.0293563 0.100265 0.0931901 -0.105359 0.120682 0.0376168 -0.053183 0.117003 -0.0380273 0.0559389 0.0384735 0.0404412 -0.0538853 -0.0610358 0.0920394 0.0918943 -0.0373641 0.0884504 0.0347893 -0.00408586 -0.348897 0.133592 0.099801 -0.0950706 0.107477 -0.0246663 0.102971 0.0596942 -0.0439688 0.135884 0.102036 0.000497208 -0.0182678 -0.00613635 -0.118627 0.214156 0.131219 0.105503 0.219658 0.120165 0.0206233 -0.0414595 0.126469 0.0335837 -0.146086 0.0761857 0.110688 -0.0697479 0.119341 0.144043 0.143157 0.117695 0.14128 -0.167509 0.0911891 0.102075 0.211651 0.150716 0.126457 0.17058 0.225469 0.109896 0.0140928 0.0777861 -0.0574463 0.0833643 