5.37109e-05 0.000148926 8.30078e-05 1.95313e-05 0.000212402 0.000114746 0.000144043 0.000107422 0.00017334 0.00020752 9.27734e-05 0.000170898 3.17383e-05 0.000170898 0.000195313 0.000170898 0.000241699 0.000239258 0.000202637 0.000144043 0.000170898 0.000131836 4.88281e-05 9.76563e-06 0.000107422 0.000141602 0.000119629 0.000200195 0.000197754 0.000236816 0.00012207 4.63867e-05 0.000197754 0.000192871 0.000146484 7.32422e-05 0.00020752 0.000197754 6.10352e-05 7.8125e-05 9.76563e-05 0.000236816 0.000212402 5.61523e-05 9.76563e-06 7.8125e-05 0.000134277 9.76563e-06 7.08008e-05 2.92969e-05 0.000119629 9.52148e-05 3.17383e-05 0.000129395 5.12695e-05 0.000148926 2.92969e-05 0.000131836 6.83594e-05 3.17383e-05 0.000229492 0.000185547 2.19727e-05 0.000124512 0.000212402 0.000202637 0.000168457 2.19727e-05 9.52148e-05 4.39453e-05 6.10352e-05 0.000236816 0.000219727 0 4.39453e-05 0.000227051 0.00013916 0.000209961 0.000178223 0.000178223 0.000239258 0.000124512 2.92969e-05 0.000180664 0 0.000168457 1.95313e-05 0.000202637 0.000222168 8.30078e-05 0.000119629 0.000148926 9.27734e-05 0.000153809 0.000163574 8.54492e-05 3.17383e-05 0.000117187 0.000231934 0.000163574 7.08008e-05 0.000117187 0.000187988 0.000239258 7.32422e-05 7.56836e-05 0.00019043 0.000227051 8.05664e-05 0.000119629 4.15039e-05 4.15039e-05 0.000183105 9.76563e-06 7.32422e-05 0.000205078 0 0 0.000205078 0.00012207 8.30078e-05 0.000151367 0.000166016 0.000114746 0.000175781 0.000144043 0.000175781 0.000187988 5.61523e-05 0.00019043 0.000205078 0.000126953 9.76563e-05 0.000178223 0.000170898 8.78906e-05 0.000136719 0.000136719 8.05664e-05 4.63867e-05 0.00015625 0.00010498 1.2207e-05 0.000195313 0.000202637 5.37109e-05 0.000187988 0.000192871 0.000117187 4.15039e-05 0.00020752 0.00019043 0.000205078 0 0.00013916 2.68555e-05 0.000168457 0.000114746 0.000178223 0.000144043 8.78906e-05 9.27734e-05 0.000170898 0.000239258 0 0.000178223 0.00013916 0.000107422 0.000222168 8.30078e-05 0.000239258 0.000134277 0.000217285 0.000183105 3.90625e-05 0.00019043 0.000170898 0.000119629 1.95313e-05 0.00012207 0.000148926 0.000100098 0.000114746 4.39453e-05 0.000183105 0.000180664 0.00017334 0.000197754 0.000175781 0.000124512 3.90625e-05 0.000153809 6.83594e-05 0.000134277 0.000153809 0.000134277 0.000175781 9.27734e-05 0.000214844 0.000144043 0.000195313 0.00012207 8.05664e-05 1.2207e-05 0.000224609 5.37109e-05 0.000239258 0.000229492 0.00019043 0.000151367 0.000219727 1.95313e-05 0.000222168 0.000163574 0.000170898 0.000234375 7.56836e-05 0.000241699 3.90625e-05 0.000166016 0.000161133 0.000107422 0.000202637 0.000178223 0.000166016 0.000197754 0.000148926 8.05664e-05 8.05664e-05 9.27734e-05 0.000197754 0.000136719 6.34766e-05 0.000219727 4.39453e-05 5.85937e-05 6.5918e-05 3.41797e-05 7.56836e-05 0.000119629 0.000168457 0.000222168 0.000119629 0.000131836 0.000158691 9.52148e-05 5.37109e-05 0.000161133 0.000168457 5.85937e-05 0.000183105 0.000102539 0.00010498 1.2207e-05 0.000129395 3.66211e-05 3.90625e-05 8.05664e-05 1.70898e-05 5.37109e-05 0.000241699 0.000217285 4.63867e-05 0.00019043 0.000141602 0.000148926 3.17383e-05 0.00013916 5.61523e-05 0.000131836 0.000224609 0.000163574 0.000153809 0.00017334 0.000117187 9.76563e-05 0.000126953 2.19727e-05 0.000241699 0.000148926 0.000227051 0.000212402 0.000129395 0.00020752 4.88281e-06 7.32422e-05 8.05664e-05 0.00010498 0.000212402 0.000219727 0.000227051 0.000239258 5.12695e-05 3.17383e-05 0.000197754 9.76563e-06 0.000222168 9.76563e-06 0.000151367 0 0.000202637 0.000141602 0.000222168 1.95313e-05 1.2207e-05 5.61523e-05 0.00010498 0.000170898 6.5918e-05 0.000180664 0.000170898 0.000187988 0.000239258 0.000231934 7.8125e-05 0.000180664 0.000202637 0.000136719 1.2207e-05 0.000134277 0.000209961 0.000214844 0.000153809 0.000241699 7.56836e-05 3.90625e-05 0.000119629 4.63867e-05 4.88281e-06 4.15039e-05 5.37109e-05 2.44141e-06 4.15039e-05 0.000134277 9.0332e-05 0.000166016 7.56836e-05 0.000168457 7.32422e-05 7.32422e-06 0.000183105 0.000109863 0.000227051 0.000119629 9.76563e-05 0.000178223 0.000187988 7.8125e-05 8.78906e-05 8.30078e-05 1.95313e-05 0.000119629 2.92969e-05 6.5918e-05 0.000178223 0.000175781 0.000161133 3.17383e-05 9.27734e-05 2.68555e-05 5.37109e-05 0.000151367 8.54492e-05 0.00015625 2.19727e-05 0.000117187 0.000180664 0.000112305 7.8125e-05 0.000214844 0.000227051 0.000129395 0.000124512 2.44141e-05 2.44141e-06 0.000202637 0.000158691 0.000124512 9.76563e-05 0.000178223 2.44141e-05 5.85937e-05 0.00012207 0.000141602 0.000209961 0.000175781 7.56836e-05 0.000136719 4.88281e-06 0.000236816 5.85937e-05 0 0.000185547 0.000153809 0.000219727 0.000185547 0.000126953 5.37109e-05 0.00010498 0.000117187 5.85937e-05 0.00013916 6.83594e-05 3.41797e-05 0.000214844 0.000161133 0.000212402 0.00020752 0.00017334 0.000117187 0.00012207 0.000231934 9.76563e-05 0.000161133 9.52148e-05 0.000129395 4.88281e-05 2.44141e-05 0.000227051 0.000107422 0.000141602 9.52148e-05 4.63867e-05 0.000112305 0.000185547 7.32422e-06 6.83594e-05 3.66211e-05 0.00019043 9.52148e-05 3.41797e-05 0.000107422 4.15039e-05 0.000112305 4.63867e-05 1.70898e-05 5.37109e-05 0.000224609 0.000187988 0.000166016 0.00012207 0.000107422 5.12695e-05 0.000205078 5.85937e-05 0.000187988 0.000114746 2.92969e-05 0.000119629 6.34766e-05 0.000153809 2.92969e-05 0.000222168 0.000134277 7.56836e-05 2.92969e-05 6.10352e-05 0.000151367 0.000241699 1.70898e-05 0.000141602 9.0332e-05 0.000148926 0.00010498 9.76563e-05 0.000129395 0.000141602 0.000166016 7.8125e-05 1.95313e-05 8.05664e-05 0.000107422 0.000134277 0.000205078 3.66211e-05 0.00019043 9.27734e-05 4.88281e-05 0.00019043 0.000100098 0.000236816 0.000163574 0.000151367 5.85937e-05 0.000166016 0.000100098 9.76563e-06 0.00015625 0.000214844 2.92969e-05 0.000109863 0.000168457 0.000100098 9.76563e-06 5.37109e-05 5.85937e-05 0.000117187 1.46484e-05 6.34766e-05 0.000214844 9.27734e-05 0.000202637 0.000187988 0.00015625 0.000217285 9.52148e-05 0.000102539 2.44141e-06 7.32422e-06 8.78906e-05 9.76563e-06 0.000217285 0.00020752 0.000178223 0.000136719 0.000241699 0.000151367 8.30078e-05 0.00019043 8.78906e-05 0.000195313 0.000217285 0.000195313 0 0.00019043 8.30078e-05 0.000241699 9.0332e-05 0.000212402 0.000146484 0.000197754 0.000109863 8.05664e-05 0.000146484 8.54492e-05 4.39453e-05 0.00020752 0.000100098 0.00015625 0.000241699 1.70898e-05 0.000185547 0.000227051 9.76563e-05 0.000129395 2.92969e-05 8.30078e-05 9.27734e-05 5.12695e-05 0.000129395 0.000227051 0.000166016 0.000112305 0.000141602 0.000102539 0.000141602 8.30078e-05 2.44141e-06 0.000231934 0 0.000227051 0.000231934 0 0.000168457 0.00020752 0.000153809 0.000229492 5.85937e-05 0.000241699 4.63867e-05 0.000212402 4.88281e-06 4.15039e-05 8.78906e-05 3.17383e-05 3.41797e-05 0.00015625 4.15039e-05 7.08008e-05 4.88281e-06 0.000234375 0.000144043 5.12695e-05 8.30078e-05 0.000131836 2.68555e-05 0.000112305 3.17383e-05 1.95313e-05 5.85937e-05 2.44141e-05 8.30078e-05 0.000144043 0.000144043 0.000185547 2.19727e-05 0.000168457 0.000227051 0.000187988 0.000114746 1.46484e-05 6.83594e-05 0.000100098 0.000234375 0.000170898 0.000224609 2.44141e-06 0.000161133 0.000183105 2.68555e-05 0.000134277 0.000158691 0.000124512 6.34766e-05 0.000163574 3.17383e-05 0.000219727 0.000239258 0.000144043 7.56836e-05 0.000109863 8.78906e-05 2.68555e-05 7.56836e-05 9.0332e-05 0.00013916 0.000114746 9.0332e-05 0.000161133 7.08008e-05 1.46484e-05 0.000114746 0.000192871 0.000205078 0.000148926 3.66211e-05 3.17383e-05 7.08008e-05 4.63867e-05 6.34766e-05 0.000161133 3.41797e-05 0.000112305 0.000134277 0.000134277 0.000175781 2.44141e-06 0.000126953 0.000178223 0.000168457 0.000231934 0.000131836 0.000227051 0.000185547 7.8125e-05 4.63867e-05 8.30078e-05 0.000136719 0.00017334 0.000100098 7.8125e-05 6.5918e-05 7.8125e-05 5.85937e-05 0.000100098 0.000241699 9.52148e-05 4.88281e-05 0.000241699 0.000112305 0.000166016 0.000126953 0.000175781 0.000183105 0.000195313 6.34766e-05 0.000205078 0.000227051 0.000227051 8.78906e-05 1.2207e-05 0.000163574 0.00020752 0.000209961 2.68555e-05 7.8125e-05 8.78906e-05 0.000151367 0.000202637 0.000205078 4.63867e-05 0.00015625 7.32422e-05 0.000222168 1.70898e-05 3.41797e-05 0.000109863 0.000200195 0.000114746 0.000209961 5.61523e-05 0.000124512 3.17383e-05 3.17383e-05 5.12695e-05 8.78906e-05 5.61523e-05 0.000107422 5.12695e-05 7.8125e-05 2.19727e-05 0.000129395 4.63867e-05 7.08008e-05 2.19727e-05 0.000109863 6.83594e-05 8.78906e-05 0.000134277 6.5918e-05 9.52148e-05 0.000158691 0.00019043 8.54492e-05 0.00015625 4.88281e-06 0.000202637 5.85937e-05 0.000241699 7.8125e-05 9.0332e-05 0.00010498 0.000131836 8.05664e-05 0.000197754 0.000187988 0.000239258 9.76563e-06 0.000209961 8.54492e-05 0.000222168 0.000175781 0.000124512 0.000144043 0.000239258 0.000209961 6.5918e-05 0.000178223 0.000124512 0.000236816 0.000119629 0.000124512 3.66211e-05 0.000126953 0.000209961 0.00017334 0.000192871 0.000202637 0.000185547 6.5918e-05 8.30078e-05 0.000112305 3.17383e-05 0.000100098 0.000241699 5.61523e-05 7.32422e-06 0.000202637 2.68555e-05 1.95313e-05 0.000236816 9.0332e-05 6.34766e-05 0.000195313 4.15039e-05 0.000119629 0.000212402 0.000239258 0.000202637 0.000234375 6.10352e-05 4.88281e-06 0.000202637 0.000102539 0.00012207 6.10352e-05 0.000229492 0.000180664 6.5918e-05 9.52148e-05 7.32422e-06 7.32422e-06 9.27734e-05 0.000202637 0.000144043 4.15039e-05 1.95313e-05 0.000236816 1.2207e-05 0.000178223 6.5918e-05 2.44141e-05 0.00015625 0.000112305 7.08008e-05 7.08008e-05 0.000100098 0.00020752 0.000129395 0.000217285 1.2207e-05 0.000224609 2.44141e-06 4.88281e-05 0.000114746 0.000107422 9.0332e-05 0.000219727 0.000170898 7.8125e-05 7.56836e-05 0.000119629 0.000180664 0.000166016 0.000224609 6.5918e-05 2.68555e-05 6.5918e-05 9.27734e-05 2.92969e-05 0.000200195 0.00013916 8.54492e-05 8.05664e-05 0.000192871 0.000117187 2.92969e-05 2.19727e-05 4.39453e-05 0.000168457 0.00013916 0.000185547 4.88281e-06 0.000229492 0.000107422 6.34766e-05 4.88281e-06 0.000168457 0.00015625 4.15039e-05 7.32422e-05 0.000212402 6.83594e-05 0.000100098 0.000180664 0.000178223 0 6.34766e-05 4.15039e-05 0.000192871 4.63867e-05 0.000241699 6.10352e-05 4.88281e-05 0.000200195 6.34766e-05 0.000209961 0.000180664 7.8125e-05 0.000202637 0.000107422 4.88281e-06 0.000192871 8.30078e-05 6.83594e-05 5.12695e-05 4.15039e-05 1.95313e-05 1.95313e-05 0 4.88281e-06 1.2207e-05 0.000180664 8.05664e-05 5.37109e-05 0.000124512 2.68555e-05 0.000175781 0.000217285 0.000217285 2.44141e-05 9.0332e-05 5.61523e-05 0.000170898 0.000224609 2.44141e-05 0.000178223 0.000166016 0.000178223 0.000114746 0.000197754 6.83594e-05 0.000202637 5.85937e-05 0.000141602 0.000175781 0.000224609 3.66211e-05 0.000239258 4.88281e-06 0.000131836 0.000219727 0.000136719 0.000192871 0.000200195 0.000212402 6.5918e-05 0.00015625 8.30078e-05 5.61523e-05 0.000107422 4.63867e-05 9.76563e-06 0.000117187 0.000227051 0.000119629 0.000102539 0.000124512 7.32422e-06 0.000153809 2.92969e-05 1.95313e-05 6.34766e-05 0.000241699 6.34766e-05 0.000112305 6.34766e-05 0.000214844 0.000124512 0.000239258 0 0.00020752 7.32422e-05 0.00015625 0.000109863 6.10352e-05 4.39453e-05 0.000197754 8.30078e-05 0.00017334 0.000119629 0.000212402 0.000100098 3.90625e-05 7.08008e-05 0.000119629 0.000209961 0.000168457 6.5918e-05 7.32422e-05 0.00013916 0.000202637 0.000144043 0.00020752 0.000107422 0.000234375 8.78906e-05 0.000112305 8.78906e-05 0.000117187 9.52148e-05 3.66211e-05 0.000197754 0.000195313 0.000141602 0.00010498 0.000209961 0.000227051 0.000153809 0.00017334 0.000168457 0.000107422 4.88281e-06 6.83594e-05 0.00019043 1.2207e-05 0.000153809 6.83594e-05 0.000141602 0.000100098 9.52148e-05 2.92969e-05 0.000114746 5.12695e-05 0.00012207 6.34766e-05 0.00012207 0.000234375 0.000170898 1.46484e-05 0.000166016 1.95313e-05 0.00019043 8.30078e-05 1.2207e-05 0.000134277 0.000224609 0.000229492 0.00012207 6.5918e-05 0.000183105 0.000158691 9.0332e-05 8.78906e-05 0 3.41797e-05 3.41797e-05 0.000100098 0.000166016 0.000227051 0.000107422 6.34766e-05 0.000151367 0.000141602 -0.0108957 -0.0110145 -0.00945343 -0.000229578 0.0129506 -0.0102753 -0.00975125 0.0115673 -0.00932992 0.0123804 -0.00941438 -0.0112716 -0.00683144 -0.0100543 -0.0103668 -0.00922849 -0.0107668 -0.00924869 -0.00921307 -0.0094191 -0.00968599 -0.00969886 -0.00945757 -0.00961698 0.0118731 -0.00924811 -0.009146 -0.0112962 -0.00865731 -0.0101569 0.0140281 -0.0100189 -0.00940495 -0.010674 0.00241258 0.0122173 0.0141183 -0.0100185 -0.00972014 -0.00931757 -0.0109532 -0.0117241 -0.00938059 -0.00250977 -0.0098479 -0.00961697 -0.00948956 -0.0094624 -0.00930821 0.0143841 -0.00924983 -0.0108636 -0.00971074 -0.0091389 -0.0294119 0.0135209 -0.00939553 -0.00914497 -0.0106051 0.0549096 -0.0105624 -0.00965489 -0.00940942 -0.0109151 -0.0289433 -0.0293272 -0.0252085 -0.000562599 0.0343321 -0.0275667 -0.0264068 0.0303377 -0.0246896 0.0326587 -0.0254539 -0.0302273 -0.018102 -0.0270406 -0.0276528 -0.0248663 -0.0288858 -0.0251832 -0.0249363 -0.0252089 -0.0259424 -0.0255943 -0.0255854 -0.0257199 0.0309242 -0.0247933 -0.0245104 -0.0299923 -0.023302 -0.027078 0.0373782 -0.0268935 -0.0251355 -0.0282597 0.00635319 0.0324866 0.0371802 -0.02661 -0.0257298 -0.0252037 -0.0290842 -0.0315749 -0.0249924 -0.00668806 -0.0261417 -0.0259828 -0.0255651 -0.0252462 -0.0248899 0.0378238 -0.0250609 -0.0294125 -0.0260097 -0.0247045 -0.0784657 0.0359412 -0.025016 -0.0246502 -0.0283111 0.14572 -0.0281819 -0.025824 -0.0250123 -0.0291213 0.0291351 0.0282466 0.0168723 0.0385652 -0.0144909 -0.0349369 -0.0260567 0.024387 -0.00313767 0.0931357 0.0210424 -0.0447966 0.0307716 -0.0330493 -0.0317919 0.0659372 -0.0474933 0.0214817 -0.0239384 0.0436003 0.0307195 -0.0332121 0.0219438 0.0255226 -0.00394253 0.0828197 -0.0257612 -0.115667 -0.0424378 -0.0340537 -0.0118828 -0.0338679 -0.0340237 -0.0409665 0.0426922 0.0564498 0.0243732 -0.0279141 -0.020502 -0.0213536 0.0282988 -0.0468728 0.018822 0.0360097 -0.0280601 -0.0282187 0.0452244 -0.0206702 -0.0139659 -0.0198829 -0.0306011 0.0262983 -0.0375 0.00949289 -0.262901 0.100776 0.0791024 -0.00848498 -0.0457666 0.112933 0.0262925 -0.0174423 0.0698065 -0.0484494 0.0496842 0.0490038 0.0338798 0.0445231 -0.0362527 -0.0239633 -0.0146072 0.0105514 0.0105551 0.087693 0.0387421 -0.03397 0.0454614 -0.0223221 -0.0201836 0.0897699 -0.0374823 0.038927 -0.0127538 0.0642491 0.0500232 -0.0232717 0.0397628 0.0439989 -0.0223165 0.108974 -0.0154616 -0.115023 -0.0349336 -0.0232724 -0.0348311 -0.0233742 -0.0242065 -0.030673 0.0450073 0.0458731 0.006337 -0.016837 -0.00869129 -0.00983421 0.0489142 -0.0356199 0.0358456 0.0450727 -0.0172071 -0.0174424 0.0663289 -0.00889763 -0.00157094 -0.0445074 -0.0206207 0.0470262 -0.0279745 0.0251512 -0.255396 0.0945803 0.104796 0.00461987 -0.0359773 0.0454997 0.0461138 -0.00529011 0.094247 -0.0385276 0.04986 0.0490673 0.0339945 0.0445597 -0.036265 -0.0241049 -0.0146903 0.0105563 0.0106478 0.087671 0.0387812 -0.033782 0.0454785 -0.0221659 -0.0203252 0.089743 -0.0375164 0.0389417 -0.0127904 0.0641905 0.0500451 -0.0232082 0.039648 0.0438158 -0.0223214 0.108994 -0.0154909 -0.115121 -0.0349751 -0.0233456 -0.0348067 -0.0233302 -0.0244042 -0.0305045 0.0451708 0.0458462 0.00641512 -0.0168321 -0.00854237 -0.00975609 0.0490631 -0.0354783 0.0358261 0.0449652 -0.0172266 -0.0172861 0.0664461 -0.00908562 -0.0015978 -0.0443316 -0.0206548 0.0469481 -0.0280868 0.0252073 -0.25533 0.0946657 0.104799 0.00458813 -0.0361702 0.0454997 0.0461553 -0.00523639 0.0942079 -0.0385984 0.0496695 0.0489672 0.0338871 0.0444156 -0.0362161 -0.024039 -0.0146536 0.0106198 0.0106674 0.0874953 0.0387129 -0.0339089 0.0456177 -0.0222318 -0.020147 0.0896966 -0.0375872 0.0390637 -0.0129418 0.0642467 0.0500232 -0.0232961 0.039797 0.0438475 -0.0223507 0.108987 -0.0154006 -0.115023 -0.0349703 -0.0233579 -0.034692 -0.0233669 -0.0244116 -0.0306193 0.0450341 0.0457925 0.0064371 -0.0167418 -0.00864002 -0.00994163 0.0489752 -0.0355784 0.0357894 0.0450312 -0.0171021 -0.0173301 0.0664046 -0.00908074 -0.00180776 -0.044505 -0.0205621 0.0469066 -0.0279207 0.0252879 -0.255437 0.0944948 0.104816 0.00457837 -0.0360042 0.0454582 0.0460455 -0.00520466 0.094103 -0.0386009 0.0498063 0.0489965 0.0338773 0.044506 -0.0362674 -0.0239096 -0.0148148 0.0106881 0.0106063 0.0875954 0.0386176 -0.0339993 0.0454223 -0.0221976 -0.0202007 0.0895965 -0.0375042 0.0389734 -0.0128197 0.0642931 0.0501037 -0.0231667 0.0398116 0.0439916 -0.022258 0.108847 -0.015447 -0.115094 -0.0349898 -0.0233652 -0.0348214 -0.0231594 -0.0243749 -0.0305631 0.0451415 0.045773 0.0063785 -0.0167394 -0.00864735 -0.00998558 0.0490265 -0.0355003 0.0359457 0.045185 -0.0172389 -0.0173521 0.0663655 -0.00901971 -0.00161977 -0.0445587 -0.0206255 0.0469994 -0.0280038 0.0252513 -0.255408 0.0945949 0.104808 0.00447338 -0.0360798 0.0455632 0.0460284 -0.00527057 0.0943105 -0.0384764 0.049694 0.0491772 0.0339286 0.0444669 -0.0363919 -0.0241391 -0.0147879 0.010671 0.0107333 0.0877199 0.0387666 -0.0339162 0.045603 -0.0221879 -0.0201958 0.0896136 -0.0375238 0.0390442 -0.0129589 0.0642394 0.0499865 -0.0232863 0.0396602 0.043784 -0.0222677 0.108838 -0.0155349 -0.115079 -0.0349727 -0.0233798 -0.0349019 -0.0233254 -0.0243212 -0.0305924 0.0451147 0.0457339 0.00633456 -0.0167711 -0.00861561 -0.00982444 0.0490656 -0.0356052 0.035743 0.045141 -0.0172608 -0.0172544 0.0662776 -0.00899773 -0.00171743 -0.044461 -0.0205792 0.0470311 -0.0280013 0.0250926 -0.255457 0.0944802 0.104857 0.00443188 -0.0361555 0.0454802 0.0461456 -0.00514606 0.0942055 -0.0384641 0.0497745 0.0489867 0.0337919 0.0445426 -0.0363455 -0.0241415 -0.0146317 0.0106002 0.0107211 0.0875734 0.0385932 -0.0338039 0.0455444 -0.0222928 -0.0202007 0.0896307 -0.0374603 0.0388733 -0.0128856 0.0642809 0.0498913 -0.0232888 0.0398311 0.0440135 -0.0222311 0.109016 -0.0155007 -0.115094 -0.0349825 -0.0232944 -0.0347676 -0.0232985 -0.0242333 -0.0305094 0.045166 0.0458951 0.00635653 -0.0167638 -0.00870838 -0.00978294 0.0489044 -0.0355589 0.0359725 0.045058 -0.017317 -0.0173081 0.0664559 -0.00898797 -0.00169546 -0.0444 -0.0206304 0.0469359 -0.0279549 0.0252488 -0.255437 0.094673 0.104918 0.00465649 -0.0360164 0.0456389 0.0462261 -0.0051485 0.0941786 -0.0385008 0.0498014 0.0490966 0.0339994 0.0444523 -0.0362625 -0.0240903 -0.0147025 0.0106246 0.0106771 0.0876246 0.0386933 -0.0338503 0.0455591 -0.0222294 -0.0201543 0.0895648 -0.0374871 0.0389905 -0.01281 0.0641637 0.0500964 -0.0232375 0.0398092 0.0438915 -0.0222213 0.108838 -0.0154983 -0.115133 -0.0348775 -0.0234482 -0.0347872 -0.0232936 -0.0242187 -0.0304826 0.0451586 0.045961 0.00629305 -0.016671 -0.00856922 -0.00989036 0.0489557 -0.035471 0.0359066 0.0449701 -0.0171217 -0.0173301 0.0664485 -0.00900994 -0.00166616 -0.0443463 -0.0207598 0.0470921 -0.0278646 0.0251463 -0.255318 0.0946145 0.104918 0.00449292 -0.0361482 0.0456193 0.0462359 -0.00514606 0.09433 -0.038491 0.0497257 0.0491479 0.0338944 0.0445231 -0.0363138 -0.0241342 -0.0146536 0.0106979 0.0105087 0.087505 0.038581 -0.0339577 0.0455102 -0.0221634 -0.0203838 0.0897918 -0.0374212 0.0389124 -0.0128319 0.0642516 0.0500061 -0.0231643 0.0396798 0.0438817 -0.0224069 0.108926 -0.0155325 -0.115143 -0.0348848 -0.0232504 -0.0348751 -0.0233864 -0.0243456 -0.030485 0.0451513 0.0459048 0.00628573 -0.0166564 -0.00868153 -0.00997093 0.0491071 -0.0354978 0.0358529 0.0451264 -0.0173145 -0.0174277 0.0663216 -0.0088781 -0.00178823 -0.0444855 -0.0207623 0.0469432 -0.0280892 0.0253001 -0.255442 0.0945803 0.104894 0.00463696 -0.0361824 0.0456193 0.0460845 -0.00521686 0.0942372 -0.0385423 0.0498722 0.0490746 0.0339262 0.0445548 -0.0362991 -0.0240488 -0.0146732 0.0106417 0.0106601 0.0875221 0.0386933 -0.0339797 0.0454687 -0.0222196 -0.0202593 0.0895867 -0.0375164 0.038927 -0.0129101 0.0642858 0.0498889 -0.0231374 0.0398141 0.0438426 -0.0222872 0.108977 -0.015342 -0.115038 -0.0349458 -0.0233603 -0.0348262 -0.0232277 -0.0243872 -0.0305094 0.0449975 0.0457608 0.00634188 -0.016754 -0.00868641 -0.00997337 0.0490509 -0.0355906 0.0359066 0.0451532 -0.0171974 -0.0174253 0.0662776 -0.00908806 -0.00169057 -0.0445441 -0.0207037 0.0470287 -0.0279793 0.0251316 -0.255371 0.0945729 0.105014 0.00450756 -0.0359529 0.0455388 0.0460577 -0.00507282 0.0942421 -0.0384788 0.0497867 0.049182 0.033931 0.0444694 -0.0363065 -0.0239706 -0.0146634 0.0106539 0.0107089 0.0877101 0.0386982 -0.033904 0.0456274 -0.0223221 -0.0201714 0.0896429 -0.0375091 0.0388757 -0.0128246 0.0642247 0.0499743 -0.0231057 0.0397335 0.0439183 -0.0223678 0.108884 -0.0153469 -0.114933 -0.0349605 -0.0232602 -0.0348848 -0.023384 -0.024414 -0.0305338 0.0450903 0.0459048 0.00652255 -0.0168102 -0.00874744 -0.00996849 0.0489118 -0.0354929 0.0358724 0.0451288 -0.0170826 -0.0173423 0.0664656 -0.00896844 -0.00169546 -0.0443732 -0.0207842 0.0468749 -0.0280575 0.0252439 -0.255369 0.094634 0.104904 0.00455883 -0.0360652 0.0454851 0.0461529 -0.00510944 0.0941713 -0.0384837 0.0497086 0.0490673 0.0338676 0.0444669 -0.0362234 -0.0240854 -0.0148099 0.0107199 0.0105282 0.0876466 0.0387129 -0.0339968 0.0454004 -0.0223539 -0.0203203 0.089638 -0.0374066 0.0389661 -0.0128637 0.0642955 0.0501233 -0.0231399 0.0398116 0.0439647 -0.0223043 0.108835 -0.0153616 -0.115065 -0.0349507 -0.0234628 -0.0348458 -0.0233376 -0.0242895 -0.0304752 0.0450366 0.0458853 0.00642245 -0.016776 -0.00858631 -0.00982933 0.049112 -0.0354026 0.0357723 0.0450946 -0.0170924 -0.0174107 0.0664315 -0.00893914 -0.00158559 -0.044444 -0.0207452 0.0470238 -0.0279915 0.0252195 -0.255481 0.0945168 0.104975 0.00454419 -0.0361848 0.0456926 0.0461651 -0.00520222 0.0942836 -0.0386277 0.0496769 0.0489574 0.0339799 0.0443961 -0.036221 -0.0241269 -0.0147684 0.0106295 0.0105111 0.0876076 0.0386518 -0.0339944 0.0454736 -0.0221561 -0.0202813 0.0897015 -0.0375946 0.0388709 -0.0128734 0.0642955 0.050072 -0.0232693 0.0396432 0.0439574 -0.022275 0.108884 -0.0153152 -0.11514 -0.034897 -0.0232797 -0.0347847 -0.0232546 -0.0244042 -0.0305509 0.0451391 0.0457535 0.00651522 -0.0166515 -0.0087743 -0.00978782 0.049129 -0.035554 0.0357382 0.0451264 -0.0172901 -0.0172422 0.0663265 -0.00898064 -0.00168569 -0.0443658 -0.0206158 0.0469945 -0.0280697 0.0250926 -0.255486 0.0946706 0.104943 0.00458325 -0.0361116 0.0455388 0.0460064 -0.00509479 0.0942421 -0.0386082 0.0498429 0.0491015 0.0338187 0.0445377 -0.0361844 -0.0240292 -0.0147269 0.0106149 0.0105282 0.0876588 0.0386298 -0.0339236 0.0455029 -0.0222611 -0.020252 0.0895965 -0.037597 0.038888 -0.0129101 0.0642955 0.0500085 -0.0233181 0.0396041 0.0438426 -0.0221798 0.109055 -0.0155129 -0.115072 -0.0349068 -0.0232211 -0.0346651 -0.0233376 -0.0242089 -0.0305167 0.0450195 0.0459439 0.00639803 -0.0167174 -0.00854237 -0.00979027 0.0489777 -0.0355759 0.0357846 0.045019 -0.0172315 -0.017313 0.0663533 -0.00885613 -0.00162465 -0.0443512 -0.0205572 0.0470921 -0.0280428 0.025095 -0.255432 0.0944436 0.104808 0.00459301 -0.0359968 0.0454997 0.0460479 -0.00524128 0.094142 -0.0384934 0.0497623 0.0490746 0.033953 0.0444913 -0.0362796 -0.0239389 -0.0147537 0.0107052 0.0106478 0.0875075 0.0388032 -0.0338479 0.0455176 -0.0221854 -0.0203789 0.0897723 -0.03747 0.0390149 -0.0127416 0.0641661 0.0500769 -0.0232351 0.0396261 0.0438426 -0.0222872 0.108996 -0.01532 -0.115055 -0.034958 -0.0232578 -0.0347188 -0.0232765 -0.0242626 -0.0305875 0.0451318 0.0457877 0.00645419 -0.0166539 -0.00854237 -0.00983177 0.0491144 -0.0355344 0.0359701 0.0450946 -0.0172218 -0.0174033 0.0664168 -0.00887078 -0.00172475 -0.0443463 -0.0205938 0.0470018 -0.0278646 0.025178 -0.255415 0.0944484 0.104779 0.00452954 -0.0361238 0.0455168 0.0462042 -0.00529499 0.0942983 -0.0385545 0.0499112 0.0489623 0.0338529 0.0443766 -0.0362308 -0.0239511 -0.0147 0.0105709 0.0104989 0.0877101 0.0386347 -0.033948 0.0455859 -0.0222147 -0.0202007 0.0896649 -0.0373968 0.0388928 -0.0127416 0.0643102 0.0499743 -0.0233352 0.0396651 0.0438915 -0.0224069 0.108889 -0.0153616 -0.114999 -0.0349947 -0.0232407 -0.0347554 -0.0231862 -0.0242626 -0.0306046 0.0451 0.0457999 0.00628817 -0.0168224 -0.00874012 -0.00985374 0.0490631 -0.0355515 0.0358993 0.0449823 -0.0171412 -0.0173325 0.0663851 -0.0088781 -0.0017687 -0.0445611 -0.0206402 0.047014 -0.0279452 0.0252537 -0.25541 0.0945192 0.104931 0.00447827 -0.0361653 0.0455803 0.0461016 -0.0052193 0.0942397 -0.0386082 0.0435536 0.0429497 0.0297861 0.0388957 -0.0318219 -0.0210299 -0.0129492 0.00932617 0.00940476 0.0766276 0.0338716 -0.0296343 0.0397442 -0.0193906 -0.0177302 0.0783704 -0.0327982 0.0341493 -0.0111342 0.0563227 0.0438563 -0.0202413 0.0347866 0.0383355 -0.0194373 0.0953605 -0.0135445 -0.100704 -0.0306213 -0.0204567 -0.0303973 -0.0202449 -0.0212234 -0.026693 0.039364 0.0402381 0.00565626 -0.0146277 -0.00755483 -0.00852406 0.0429226 -0.0309925 0.0313246 0.039553 -0.014976 -0.0151055 0.0579716 -0.00795602 -0.00153296 -0.0389559 -0.0179604 0.0412087 -0.0244783 0.0220549 -0.223568 0.0826454 0.0918829 0.00408511 -0.0314661 0.0397955 0.0404009 -0.00458215 0.0823508 -0.0337764 0.0187246 0.0184626 0.0127298 0.0167994 -0.0136172 -0.00893685 -0.00534301 0.00418914 0.00406203 0.0330346 0.0145354 -0.0126235 0.0170772 -0.00826777 -0.0075929 0.0337557 -0.0139262 0.0148431 -0.00466656 0.0242342 0.0187579 -0.008619 0.0150901 0.016619 -0.00834534 0.0410017 -0.00573524 -0.0432397 -0.0130625 -0.00866822 -0.0130825 -0.00873989 -0.00900055 -0.0113823 0.0170017 0.0173412 0.00252213 -0.00615404 -0.00316425 -0.00354493 0.0185339 -0.0131804 0.0134424 0.0169945 -0.00627865 -0.00652021 0.0251163 -0.0033686 -0.00044046 -0.0167407 -0.00769647 0.0177217 -0.010463 0.00949459 -0.0959877 0.0355547 0.0394723 0.00167949 -0.0135063 0.0172314 0.0174461 -0.00193875 0.0354654 -0.0144169 5.61523e-05 3.66211e-05 4.39453e-05 6.34766e-05 2.68555e-05 2.19727e-05 0.00012207 0.000166016 7.32422e-05 0.000195313 0.000197754 3.41797e-05 9.76563e-05 0.00010498 0.000175781 0.000212402 0.000146484 0.00019043 0.00020752 3.41797e-05 0.000102539 6.5918e-05 0.000185547 0.000236816 0.000202637 0.000117187 8.30078e-05 0.000117187 6.10352e-05 4.88281e-06 0.00017334 1.2207e-05 0.000114746 0.000107422 0.000234375 0.000131836 6.10352e-05 0.000219727 5.85937e-05 0.000212402 0.000163574 9.27734e-05 0.000229492 6.10352e-05 1.95313e-05 0.000126953 7.32422e-06 0.000224609 5.37109e-05 7.32422e-06 2.92969e-05 0.000185547 1.2207e-05 0.000224609 0.000231934 7.08008e-05 4.88281e-05 0.000144043 2.19727e-05 2.19727e-05 4.88281e-06 0.000163574 7.32422e-06 0.00015625 0.000119629 0.000229492 0.000217285 0.000114746 8.54492e-05 0.000205078 0.000234375 6.34766e-05 4.39453e-05 0.000234375 8.05664e-05 4.39453e-05 0.00019043 0.000178223 0.000217285 7.56836e-05 0.000126953 0.000158691 0.000151367 3.17383e-05 0.00020752 0.000241699 0.000219727 4.39453e-05 6.5918e-05 1.46484e-05 0.000163574 0.000153809 2.68555e-05 1.2207e-05 9.27734e-05 0.000131836 0.00015625 0.000158691 0.000214844 0.000214844 3.41797e-05 0.00019043 0.000100098 0.000180664 0.000114746 0.000119629 1.70898e-05 0.000158691 0.000239258 0.00019043 0.00017334 0.000180664 2.19727e-05 2.92969e-05 0.000209961 0.00010498 2.44141e-06 9.0332e-05 0.000141602 0.000241699 0.000124512 0.000192871 5.37109e-05 0.000224609 0.000168457 0.000183105 4.88281e-05 0.00010498 0.00019043 4.39453e-05 7.32422e-05 0.000195313 9.27734e-05 0.000148926 1.70898e-05 0.000212402 2.19727e-05 4.39453e-05 4.88281e-06 0.00020752 7.08008e-05 0.000124512 0.000134277 0.000212402 2.44141e-05 4.88281e-05 0.000197754 0.000224609 5.37109e-05 8.78906e-05 0.000146484 4.15039e-05 6.10352e-05 2.44141e-06 7.32422e-06 6.34766e-05 1.70898e-05 4.39453e-05 0.000129395 8.54492e-05 7.32422e-06 0.000107422 1.95313e-05 0.000205078 0.000141602 1.70898e-05 0.000170898 0.000214844 0.000126953 5.12695e-05 0.000144043 5.85937e-05 8.54492e-05 0.000129395 3.41797e-05 0.000192871 0.000229492 0.000151367 0.000146484 3.17383e-05 3.66211e-05 0.000102539 5.37109e-05 0.000195313 1.95313e-05 4.15039e-05 0.000231934 0.000124512 6.5918e-05 4.15039e-05 0.000187988 1.2207e-05 1.95313e-05 6.83594e-05 0.000219727 0.000185547 0.000241699 7.56836e-05 0.000180664 2.68555e-05 0.000200195 0.000175781 0.000163574 9.76563e-05 5.61523e-05 0.000222168 0.00013916 0.000219727 0.000229492 8.05664e-05 0.000212402 2.44141e-05 7.08008e-05 0.00010498 9.27734e-05 9.76563e-06 4.15039e-05 0.000178223 0.000214844 0.000178223 1.2207e-05 0.000166016 7.8125e-05 0.000153809 0.00020752 2.92969e-05 0.00015625 4.88281e-05 0.000146484 0.000229492 6.5918e-05 0.00012207 5.85937e-05 0.00010498 6.83594e-05 0.00012207 1.46484e-05 4.15039e-05 0.000124512 0 0.000236816 7.32422e-05 9.27734e-05 0.000180664 0.000205078 1.2207e-05 0.000239258 1.2207e-05 0.000224609 0.000175781 0.00015625 0.000117187 0.000141602 2.68555e-05 0.000209961 0.000134277 0.000129395 0.000102539 8.30078e-05 0.000163574 3.41797e-05 8.54492e-05 9.0332e-05 0.00019043 8.05664e-05 9.76563e-06 0.000146484 0.000131836 9.52148e-05 0.000146484 0.000163574 0.000136719 0.000205078 7.32422e-06 0.000102539 0.000202637 7.32422e-06 1.46484e-05 6.83594e-05 4.88281e-06 0.000234375 0.000112305 3.17383e-05 5.37109e-05 0.000112305 0.000241699 0.000183105 8.30078e-05 0.000205078 4.39453e-05 4.15039e-05 0.000131836 0.000187988 1.46484e-05 0.000185547 7.56836e-05 0.000200195 0.00020752 0.000161133 0.000183105 3.66211e-05 6.34766e-05 0.000183105 0.000195313 0.000134277 1.46484e-05 0.000178223 0.000241699 0.000134277 9.27734e-05 0.000202637 0.000217285 4.39453e-05 0.000222168 0.000197754 0.000229492 0.00015625 0.000231934 8.54492e-05 0.000202637 2.92969e-05 0.000170898 0.000114746 0.000180664 7.8125e-05 0.000241699 0.000129395 4.15039e-05 0.000180664 0.000187988 0.000148926 0.000209961 9.0332e-05 9.27734e-05 0.000102539 0.000219727 1.2207e-05 0.000202637 6.10352e-05 1.70898e-05 3.66211e-05 0.000241699 0.000202637 0.000136719 9.0332e-05 0.000234375 0.000222168 0.000192871 0.000126953 9.52148e-05 8.54492e-05 0.000234375 0.000222168 5.85937e-05 0.000180664 8.05664e-05 2.68555e-05 0.000144043 4.88281e-06 3.66211e-05 7.56836e-05 2.44141e-06 0.000192871 3.90625e-05 3.41797e-05 0.00013916 0 0.000114746 0.00012207 9.76563e-06 0.000166016 0.00010498 7.8125e-05 0.00017334 0.000202637 0 5.12695e-05 0.000109863 3.66211e-05 0.00012207 5.85937e-05 4.88281e-05 1.2207e-05 0.000153809 8.05664e-05 7.8125e-05 6.83594e-05 6.5918e-05 3.66211e-05 8.05664e-05 6.83594e-05 0.000183105 2.44141e-06 8.78906e-05 8.54492e-05 2.68555e-05 7.32422e-05 6.10352e-05 3.90625e-05 0.00010498 0.000163574 9.52148e-05 0.00015625 0.000153809 0.000151367 2.19727e-05 1.2207e-05 0.000217285 7.8125e-05 0.000195313 0.000109863 0.000231934 0.000161133 8.05664e-05 2.68555e-05 0.000197754 0.00010498 0.000107422 0.000222168 2.44141e-05 0.000214844 5.12695e-05 0.000166016 2.68555e-05 0.000141602 0.000229492 0.000227051 7.32422e-06 9.76563e-05 7.08008e-05 0.000214844 0.000187988 0.000214844 3.90625e-05 0.000192871 2.44141e-05 0.000166016 0.00012207 0.00015625 5.37109e-05 0.000126953 2.68555e-05 0.00020752 0.000227051 1.46484e-05 0.000131836 0.000124512 0.00012207 0.000195313 8.30078e-05 6.34766e-05 0.000117187 0.000109863 6.83594e-05 0.000214844 2.92969e-05 0.000231934 0.000107422 0.000236816 0.00012207 0.000109863 4.88281e-06 0.000117187 0.000202637 2.44141e-06 0.00013916 0.00017334 3.17383e-05 4.39453e-05 0.000175781 0.000195313 9.76563e-05 0.000217285 1.2207e-05 0.000131836 0.000180664 0.000109863 9.76563e-05 0.000134277 9.27734e-05 0.000161133 2.44141e-05 0.000109863 0.000241699 2.68555e-05 2.19727e-05 5.37109e-05 0.000168457 0.000161133 3.90625e-05 0.00010498 0.000131836 0.000117187 0.000124512 5.37109e-05 7.56836e-05 0.000205078 3.90625e-05 0.00010498 0.00013916 6.10352e-05 9.27734e-05 0.000170898 4.88281e-05 1.95313e-05 6.5918e-05 0.000222168 4.88281e-05 0.000141602 0.000209961 4.15039e-05 0.00020752 0.000170898 0.000161133 0.000183105 9.0332e-05 4.39453e-05 0.000146484 9.76563e-06 0.000185547 0.000124512 2.19727e-05 0.00010498 0.000109863 0.000229492 0 1.70898e-05 0.000151367 0.000195313 0.000175781 2.68555e-05 9.76563e-05 2.19727e-05 3.17383e-05 0.000195313 0.000175781 2.44141e-06 7.56836e-05 0.000109863 8.78906e-05 0.000151367 0.000175781 0.000241699 7.32422e-05 7.32422e-05 0.000166016 6.34766e-05 0.000219727 9.0332e-05 0.000141602 0.00015625 0.000231934 3.41797e-05 1.95313e-05 5.12695e-05 2.44141e-06 9.27734e-05 0.000109863 0.000231934 4.88281e-05 0.000192871 8.30078e-05 0.000192871 0.000209961 0.000148926 0.000114746 0.000144043 0.000107422 0.00010498 0.000175781 0.00020752 0.000102539 3.17383e-05 0.000124512 0.000234375 0.000134277 0.000161133 0.000163574 0.00013916 1.95313e-05 0.000195313 0.000131836 2.44141e-06 6.83594e-05 0.000197754 0.000153809 5.12695e-05 0.000134277 0.000178223 0.000163574 3.41797e-05 3.90625e-05 8.05664e-05 9.0332e-05 6.5918e-05 1.2207e-05 0.000112305 0.000163574 0.000212402 0.000219727 0.000183105 0.000153809 6.5918e-05 0.00012207 0.000102539 0.000219727 0.00015625 1.46484e-05 0.000227051 3.90625e-05 0.000185547 0.000229492 8.78906e-05 3.90625e-05 2.68555e-05 0.000187988 8.54492e-05 0.000129395 7.56836e-05 0.000141602 0.000161133 0.000129395 0.000217285 9.76563e-06 4.63867e-05 0.000187988 0.000222168 5.61523e-05 9.52148e-05 0.000100098 0.000109863 6.83594e-05 0.000136719 3.41797e-05 7.32422e-06 4.88281e-05 0.000131836 8.05664e-05 0.000229492 0.000166016 3.90625e-05 0.00013916 9.52148e-05 0.000163574 0.000158691 0.000126953 0.000131836 3.41797e-05 0.000200195 4.39453e-05 0.000234375 0.000205078 6.34766e-05 7.32422e-06 2.44141e-05 0.000239258 9.0332e-05 0.000200195 3.66211e-05 5.12695e-05 5.12695e-05 5.37109e-05 1.70898e-05 4.88281e-05 0.00017334 6.83594e-05 0.000151367 8.54492e-05 0.000146484 9.0332e-05 2.92969e-05 6.83594e-05 0.000153809 2.44141e-06 4.39453e-05 8.78906e-05 0.000161133 4.63867e-05 0.000141602 4.15039e-05 0.000212402 0.000222168 0.000239258 0.000222168 0.000168457 7.32422e-05 0.000161133 0.000222168 0.00019043 0.000178223 0.000241699 7.32422e-06 0.000195313 2.44141e-06 0.000212402 5.85937e-05 0.000231934 0.000168457 7.32422e-05 0.00015625 3.17383e-05 8.78906e-05 0.000178223 0.000195313 0.000129395 0.000109863 0.000170898 7.08008e-05 3.90625e-05 0.000195313 0.000202637 0.00015625 2.44141e-06 0.000163574 0.000114746 5.85937e-05 0.00012207 0.00013916 0.000200195 0.000183105 0.000134277 0.000236816 0.000212402 5.12695e-05 2.68555e-05 0.00012207 0.000222168 8.78906e-05 7.08008e-05 0.000239258 0.00013916 0.000231934 0.000178223 2.19727e-05 0.000158691 3.41797e-05 0.000229492 0.000212402 0.000236816 6.34766e-05 7.32422e-05 3.90625e-05 0.000217285 1.2207e-05 9.76563e-06 9.27734e-05 0.000148926 0.000202637 0.000239258 0.000205078 2.19727e-05 0.00019043 9.76563e-05 0.000241699 0.000183105 0.000202637 0.000202637 0.000131836 0.000236816 0.000229492 6.83594e-05 4.88281e-06 2.44141e-06 9.76563e-06 1.70898e-05 3.17383e-05 2.19727e-05 0.000231934 0.000136719 0.00012207 0.000205078 0.000229492 0.000158691 3.41797e-05 7.8125e-05 0.000219727 0.000239258 0.00013916 0.000180664 0.000205078 4.88281e-05 0.000224609 0.000161133 0.000241699 6.83594e-05 0.000197754 9.76563e-05 3.90625e-05 1.70898e-05 1.95313e-05 0.00010498 0.000158691 2.19727e-05 0.000158691 1.95313e-05 0.000124512 0.000212402 0.000200195 5.61523e-05 0.000144043 6.83594e-05 0.000131836 0.000166016 5.37109e-05 0.00020752 0.000102539 0.000166016 0.000185547 0.000187988 7.32422e-06 9.76563e-05 0.000239258 6.10352e-05 9.76563e-06 0.00010498 1.95313e-05 9.52148e-05 0.000109863 9.76563e-05 8.30078e-05 0.000166016 0.000117187 7.32422e-06 5.85937e-05 1.95313e-05 0.00015625 0.000168457 0.000202637 0.000239258 7.56836e-05 0.000224609 0.000180664 6.10352e-05 0.000195313 0.000153809 0.000202637 0.000148926 0.000107422 5.12695e-05 0.000131836 5.12695e-05 3.90625e-05 0.00013916 4.63867e-05 8.05664e-05 0.000136719 0.000212402 1.70898e-05 0.00012207 0.000212402 0.00020752 7.32422e-06 5.12695e-05 0.000153809 3.90625e-05 0.000195313 4.88281e-05 9.27734e-05 5.61523e-05 9.27734e-05 6.83594e-05 0.000205078 0.000166016 2.68555e-05 0.000126953 8.54492e-05 9.52148e-05 8.54492e-05 0.000168457 3.17383e-05 0.000195313 0.000209961 1.70898e-05 0.000168457 0.000185547 5.12695e-05 4.88281e-06 0.000236816 4.39453e-05 0.000178223 7.08008e-05 6.10352e-05 7.08008e-05 2.92969e-05 0.000163574 0.000195313 4.39453e-05 0.000197754 0.000239258 4.63867e-05 7.8125e-05 0.000239258 0.000175781 0.00019043 0 0.000126953 1.95313e-05 5.61523e-05 0.000180664 6.34766e-05 7.32422e-05 0.000117187 6.5918e-05 4.88281e-06 0.000241699 0.00013916 0.000148926 9.0332e-05 0.000163574 0.000119629 3.90625e-05 0.000119629 0.000163574 0.000197754 0.00012207 0.000234375 0.000187988 9.52148e-05 0.000109863 0.000183105 0.00020752 0.00017334 0.000241699 1.95313e-05 7.32422e-06 0.000146484 0.000170898 0.00017334 0.00010498 2.19727e-05 4.88281e-06 0.000219727 9.76563e-06 0.000236816 4.88281e-05 0.00017334 0.000126953 9.76563e-05 0.000224609 3.66211e-05 8.30078e-05 0.000212402 7.08008e-05 4.15039e-05 0.000109863 7.56836e-05 0.000241699 0.000129395 0 0.000146484 8.05664e-05 3.17383e-05 0.00012207 0.000124512 2.92969e-05 0.000144043 7.08008e-05 0.000219727 0.000224609 0.000129395 2.44141e-06 0.000126953 8.05664e-05 0.000187988 0.000219727 4.15039e-05 0.000178223 0.000236816 2.44141e-05 1.46484e-05 0.000158691 0.000229492 0.000205078 4.88281e-05 1.2207e-05 0.000231934 0.000170898 0.000119629 0.000114746 0.000227051 0.000214844 9.76563e-05 0.00012207 5.12695e-05 0.000119629 2.44141e-05 0.000183105 0.000158691 0.000168457 9.0332e-05 0.000107422 0.00012207 4.63867e-05 9.76563e-05 0.000158691 0.000236816 7.08008e-05 2.68555e-05 0.000175781 4.88281e-05 0.000114746 9.76563e-06 0.000146484 0.00015625 0.000175781 0.00019043 0.000136719 9.0332e-05 1.70898e-05 9.0332e-05 3.90625e-05 0.000119629 0.000166016 0.000209961 6.83594e-05 0.000217285 0.000158691 0.000148926 0.000185547 0.000146484 3.66211e-05 0.000126953 9.76563e-05 4.15039e-05 0.000217285 5.37109e-05 0.000100098 9.76563e-06 9.0332e-05 0.000144043 7.56836e-05 0.000205078 4.88281e-05 0.000187988 0.000168457 0.000241699 0.000231934 7.8125e-05 0.000229492 0.000236816 9.52148e-05 6.34766e-05 0.000100098 1.2207e-05 2.19727e-05 0.000212402 0.000241699 0.000112305 4.88281e-06 2.68555e-05 0.000114746 7.08008e-05 0 0.000144043 0.000144043 0.000117187 0.000141602 1.95313e-05 5.12695e-05 0.000112305 2.44141e-06 5.37109e-05 0 8.78906e-05 0.000117187 0.000239258 0.000166016 7.8125e-05 0.000214844 7.32422e-05 0.000153809 0.00017334 3.66211e-05 0.000178223 9.27734e-05 0.000168457 0.000131836 1.2207e-05 0.000231934 5.61523e-05 0.00013916 0.000234375 1.95313e-05 0.000195313 0.00015625 0.000241699 1.95313e-05 2.44141e-06 0.000163574 1.2207e-05 3.17383e-05 0.000217285 4.15039e-05 0.000163574 6.34766e-05 6.10352e-05 1.2207e-05 0.000161133 4.15039e-05 0.00010498 6.83594e-05 2.44141e-06 9.52148e-05 0.000217285 8.54492e-05 0.000236816 0.000183105 0.00015625 4.88281e-05 4.39453e-05 0.000197754 0.000141602 4.39453e-05 0.000195313 0.000146484 9.0332e-05 0.000131836 0.000134277 0.000236816 0.000187988 0.000114746 0.00019043 2.19727e-05 0.000205078 5.37109e-05 0.000112305 5.12695e-05 9.52148e-05 0.000222168 2.19727e-05 5.85937e-05 0.000163574 8.54492e-05 3.90625e-05 0.000153809 4.39453e-05 0.000219727 0.000112305 0 9.76563e-06 0.000229492 0.000112305 0.000202637 0.00020752 0.000234375 0.000214844 3.17383e-05 0.000117187 0.000144043 4.63867e-05 0.000168457 0.000107422 0.000124512 0.00013916 0.000197754 4.88281e-06 0.000146484 0.000202637 0.000234375 8.30078e-05 0.000153809 0.000202637 0.00019043 7.32422e-05 0.00015625 0.000146484 0.000187988 6.10352e-05 8.05664e-05 0.000234375 0.000109863 0.000202637 0.000187988 0.000214844 7.32422e-05 3.41797e-05 5.85937e-05 0.00010498 8.78906e-05 1.95313e-05 1.46484e-05 0.000241699 6.83594e-05 9.27734e-05 6.5918e-05 0.000158691 5.12695e-05 0.000166016 0.00012207 0.000124512 0.000158691 4.88281e-06 8.05664e-05 0.000178223 4.15039e-05 9.27734e-05 0.000114746 0.000222168 0.000212402 4.63867e-05 0.000163574 0.000205078 0.000219727 0.000219727 0.000175781 0.000214844 0.000202637 0.000134277 0.000239258 0.000217285 0.000180664 1.46484e-05 0.00015625 2.92969e-05 0.000200195 8.30078e-05 0.000180664 4.39453e-05 0.000236816 6.34766e-05 0.000119629 8.05664e-05 8.54492e-05 1.46484e-05 0.000175781 0.000219727 0.000153809 4.88281e-05 0.000227051 0.000212402 0.000153809 9.76563e-05 0.000148926 2.19727e-05 0.000153809 0.000227051 0.000146484 4.88281e-06 7.8125e-05 0.00013916 0.000236816 1.70898e-05 0.000217285 0.00019043 0.000107422 5.12695e-05 8.54492e-05 2.19727e-05 0.000126953 0.000236816 0.000239258 9.76563e-05 0.000136719 5.37109e-05 0.000202637 2.68555e-05 2.19727e-05 2.44141e-05 4.39453e-05 0.000224609 3.41797e-05 0.00015625 0.000192871 0.000166016 0.000161133 0.00015625 0.000109863 0.000202637 6.10352e-05 0.000229492 9.52148e-05 8.54492e-05 0.000148926 7.8125e-05 0.000144043 0.000205078 0.000153809 0.000163574 0.000222168 0.000192871 3.41797e-05 0.000187988 6.34766e-05 0.000148926 0.000107422 6.10352e-05 3.66211e-05 0.000129395 0.000231934 8.30078e-05 9.76563e-06 0.000131836 0.000158691 0.000205078 2.44141e-06 4.39453e-05 0.000231934 8.54492e-05 6.34766e-05 9.27734e-05 6.34766e-05 3.17383e-05 0.000144043 2.68555e-05 5.61523e-05 0.000234375 2.44141e-05 0.000166016 3.17383e-05 8.05664e-05 4.39453e-05 5.85937e-05 7.8125e-05 0.000222168 0.000239258 0.000229492 7.08008e-05 0.000141602 0.000175781 8.78906e-05 0.000183105 6.10352e-05 0.000124512 0.000151367 9.52148e-05 0.000217285 7.32422e-06 0.000183105 4.63867e-05 0.000185547 0.000202637 0.000136719 0 0.000192871 0.000114746 1.70898e-05 0.00017334 0.00015625 4.88281e-05 0.000148926 0.000217285 0.000124512 0.000129395 0.000166016 1.2207e-05 9.0332e-05 0.000124512 6.83594e-05 7.32422e-05 4.15039e-05 0.000141602 9.76563e-06 2.92969e-05 1.70898e-05 0.000197754 0.000212402 0.000175781 0.000239258 3.90625e-05 6.83594e-05 0.000241699 0.000153809 0.000187988 4.39453e-05 0.000209961 0.000229492 0.000148926 0.000205078 3.90625e-05 0.000212402 2.92969e-05 0.000195313 0 0.000227051 0.000151367 7.56836e-05 5.37109e-05 2.19727e-05 7.56836e-05 1.2207e-05 1.70898e-05 0.00010498 3.17383e-05 0 0.000163574 8.78906e-05 0.000217285 0.000229492 1.70898e-05 1.95313e-05 9.76563e-05 8.54492e-05 0.000202637 8.30078e-05 0.000112305 0.000234375 2.44141e-06 9.76563e-06 4.88281e-05 9.27734e-05 0.000231934 0.00020752 0.000229492 7.08008e-05 0.00013916 3.90625e-05 0.00019043 9.76563e-05 0.000231934 0.000222168 0.000175781 0.00013916 0.000158691 0.000212402 0.000180664 1.46484e-05 4.88281e-05 0.00013916 0.000144043 0.000231934 0.000146484 0.000229492 0.000183105 0.000136719 3.41797e-05 0.000222168 0.000195313 0.00019043 8.05664e-05 7.8125e-05 0.000185547 0.000168457 0.000241699 7.32422e-06 0.000129395 0 0.000197754 3.66211e-05 8.30078e-05 0.000224609 0.000231934 0.000158691 0.000126953 0.000161133 0.000195313 0.000187988 1.70898e-05 0.000175781 0.000102539 0.00012207 0.000212402 0.000219727 0.000214844 0.000185547 0.000129395 0.00013916 6.10352e-05 0.000151367 0.000209961 0.000183105 3.17383e-05 3.66211e-05 0.000119629 0.000107422 0.000197754 2.68555e-05 0.000153809 0.000168457 0.000241699 0.000161133 0.000146484 4.63867e-05 3.41797e-05 0.000100098 1.2207e-05 8.30078e-05 8.54492e-05 0.000141602 4.39453e-05 0.000212402 7.08008e-05 3.17383e-05 0.000129395 0.000163574 0.000222168 0.000209961 4.88281e-06 9.76563e-06 7.32422e-06 1.2207e-05 0.000114746 0.000119629 2.19727e-05 0 0.000134277 0.000178223 0.000117187 3.90625e-05 0.00010498 0 0.000195313 0.000219727 4.39453e-05 0.000217285 0.000178223 0.000219727 1.46484e-05 0.000212402 0.000212402 3.17383e-05 0.000168457 1.70898e-05 8.54492e-05 0.000205078 4.15039e-05 0.000158691 9.76563e-06 2.44141e-06 0.000131836 8.54492e-05 7.08008e-05 0.000170898 9.0332e-05 0.000200195 8.30078e-05 0.00010498 0.000112305 0.000229492 0.000158691 2.68555e-05 0.000236816 9.76563e-05 7.8125e-05 0.000209961 9.27734e-05 2.44141e-05 2.92969e-05 0.000109863 0.000202637 0.000153809 0.000166016 1.46484e-05 0.000151367 0.000144043 9.0332e-05 0.000209961 0.000144043 0.000187988 0.000185547 1.95313e-05 0.000168457 5.85937e-05 0.000183105 9.76563e-05 1.70898e-05 2.68555e-05 9.76563e-05 3.90625e-05 4.88281e-06 4.88281e-05 0.000214844 0.000131836 2.44141e-05 0.000151367 9.27734e-05 0.000239258 0.000200195 5.12695e-05 7.32422e-05 8.05664e-05 0.000117187 0.000141602 0.000119629 0.000200195 0.000234375 2.19727e-05 4.88281e-06 0.000183105 7.32422e-06 0.000202637 0.000219727 1.95313e-05 1.70898e-05 0.000192871 0 4.88281e-05 0.00013916 0.000134277 4.39453e-05 0 9.76563e-05 8.54492e-05 0.000234375 0.00015625 0.000117187 5.37109e-05 0.000134277 0.000114746 0.000100098 8.54492e-05 0.000126953 0.000180664 0.000136719 0.000219727 2.44141e-05 5.85937e-05 0.000163574 0.000212402 0.000136719 8.78906e-05 6.10352e-05 0.000202637 0.00010498 1.70898e-05 6.83594e-05 0.00012207 0.000136719 0.000197754 0.00017334 0.000146484 0.000168457 0.000131836 0.000170898 0.000131836 6.34766e-05 5.12695e-05 0.000234375 0.000146484 0.00019043 7.56836e-05 0.000183105 0.000166016 0.00013916 0.000217285 0.000209961 6.34766e-05 9.76563e-06 0.000166016 9.27734e-05 7.32422e-05 0.000114746 0.000195313 0.000119629 7.08008e-05 0.000163574 0 0.000227051 0.000124512 4.88281e-05 4.63867e-05 0.000119629 0.000205078 7.8125e-05 0.000200195 0.000178223 8.54492e-05 0.000178223 0.000170898 4.39453e-05 1.70898e-05 0.000117187 8.05664e-05 0.000185547 9.76563e-06 0.00012207 0.000126953 0.000222168 0.000129395 6.5918e-05 0.000131836 0.00017334 3.41797e-05 3.90625e-05 2.92969e-05 0.000205078 0.000224609 1.2207e-05 3.90625e-05 0.000214844 8.78906e-05 0.000146484 0.000229492 7.32422e-06 0.000185547 0.000136719 2.44141e-06 0.000151367 0 5.37109e-05 0.000112305 0.000231934 3.17383e-05 0.000185547 0.000170898 0.000241699 0.000153809 0.000144043 1.2207e-05 2.92969e-05 0.000195313 2.44141e-05 0.00017334 0.000227051 2.44141e-05 0.000222168 0.000161133 0.000195313 0.000161133 9.0332e-05 0.000168457 9.52148e-05 6.5918e-05 0.000231934 6.5918e-05 0.000158691 9.76563e-06 7.08008e-05 0.000170898 0.00010498 2.44141e-05 0.000117187 3.17383e-05 0.00013916 0.000185547 0.000114746 2.92969e-05 4.88281e-06 8.78906e-05 7.32422e-06 3.90625e-05 9.0332e-05 8.54492e-05 7.32422e-05 0.000131836 0.00015625 8.78906e-05 0.000231934 0.000175781 0.000114746 0.000148926 0.000217285 0.000200195 0.000166016 4.15039e-05 0.00019043 2.44141e-06 0.000195313 5.85937e-05 0.00019043 0.000148926 0.000151367 0.000236816 0.000126953 0 4.39453e-05 0.000217285 4.88281e-05 1.46484e-05 0.000178223 0.00020752 6.34766e-05 0.000117187 8.30078e-05 0.000239258 0.000170898 2.92969e-05 0.000185547 0.000170898 1.2207e-05 5.37109e-05 8.54492e-05 2.44141e-05 0.000131836 0.000134277 0.000148926 8.05664e-05 0.000185547 0.000136719 2.44141e-05 1.95313e-05 1.95313e-05 0.000144043 6.10352e-05 0.000146484 5.37109e-05 6.34766e-05 8.78906e-05 0.000136719 7.8125e-05 0.000100098 7.32422e-05 0.000175781 0.000227051 0.00013916 0.000144043 8.78906e-05 4.63867e-05 0 0.000129395 8.05664e-05 5.85937e-05 0.000239258 3.41797e-05 0.00015625 1.70898e-05 8.78906e-05 0.000175781 0.000187988 0.000131836 8.05664e-05 0.00015625 0.000202637 0.000229492 0.000222168 0.000180664 1.2207e-05 0.000178223 0.000183105 0.00013916 1.95313e-05 0.000134277 0.000202637 0.000229492 0.000161133 0.00015625 0.000231934 0.000109863 0.000170898 0.000100098 0.000131836 4.88281e-05 3.17383e-05 0.000187988 0.000200195 8.30078e-05 0.000148926 5.37109e-05 0.000200195 0.000134277 3.66211e-05 7.8125e-05 7.56836e-05 0.00017334 0.000241699 4.88281e-05 0.000236816 3.90625e-05 0.000170898 2.19727e-05 0.000224609 0.00017334 0.000222168 8.78906e-05 0.00012207 4.15039e-05 8.54492e-05 0.000209961 2.68555e-05 0.000102539 2.19727e-05 9.52148e-05 0.00012207 0.000153809 8.30078e-05 0.000114746 4.39453e-05 0.000236816 0.000222168 0.000212402 7.08008e-05 6.10352e-05 0.000126953 0.00020752 0.000192871 9.0332e-05 4.39453e-05 0.000195313 0.000229492 0.000209961 7.8125e-05 0.000146484 0.000195313 0.000136719 1.70898e-05 0.000166016 0.000161133 3.66211e-05 0.000209961 0.00015625 0.000195313 0.000205078 0.00010498 0.000227051 0.000197754 9.52148e-05 0.000144043 2.68555e-05 9.76563e-06 0.000209961 0.000163574 6.5918e-05 0.000134277 8.30078e-05 0.00015625 0.000197754 0.000231934 0.000126953 0.000236816 8.78906e-05 0.000109863 0.000219727 0.00017334 2.68555e-05 0.000183105 0.000241699 0.000187988 2.44141e-05 0.000239258 0.000178223 0.000234375 0.000151367 0.000170898 0.00020752 4.88281e-05 4.88281e-05 3.41797e-05 2.44141e-06 0.00020752 0.000236816 0.000180664 0.000236816 4.15039e-05 0.000100098 5.37109e-05 0.000151367 0.000153809 0.000112305 0.000168457 0.000219727 1.70898e-05 6.83594e-05 0.000219727 7.56836e-05 0.00017334 0.000178223 9.27734e-05 1.95313e-05 0.000178223 8.54492e-05 0.000229492 9.0332e-05 0.000112305 0.000239258 3.41797e-05 0.00010498 1.46484e-05 3.90625e-05 7.08008e-05 0.000241699 0.000197754 6.83594e-05 0.000212402 0.00019043 0.000148926 9.52148e-05 8.05664e-05 0.000227051 0.000227051 0.000227051 0.000185547 0.000100098 2.44141e-05 9.0332e-05 0.000119629 0.000109863 0.000114746 2.68555e-05 0.000224609 0.00017334 0.000222168 4.39453e-05 0.000200195 0.00013916 0.000200195 4.63867e-05 9.52148e-05 1.2207e-05 0.000212402 2.92969e-05 0.000124512 0.000134277 0.000119629 0.000117187 0.00015625 5.85937e-05 0.000163574 0.000239258 2.44141e-06 1.70898e-05 0.000100098 0.000236816 6.10352e-05 0.000175781 0.000117187 0.000202637 4.63867e-05 7.8125e-05 0.000148926 0.000126953 0.000217285 5.85937e-05 0.000102539 2.92969e-05 7.56836e-05 2.68555e-05 5.85937e-05 0.000222168 0.000236816 0.000239258 9.0332e-05 0.000119629 3.66211e-05 0.000202637 0.000236816 0.000241699 0.000214844 0.00012207 0.000141602 0.000187988 5.12695e-05 0.000117187 0.000146484 4.63867e-05 0.000202637 1.46484e-05 0.000219727 0.000227051 1.70898e-05 5.85937e-05 0.000241699 2.44141e-05 2.19727e-05 0.000134277 6.83594e-05 2.19727e-05 5.85937e-05 0.000109863 0.000151367 9.52148e-05 0.000175781 0 0.00019043 2.68555e-05 2.44141e-06 8.05664e-05 7.32422e-06 8.54492e-05 0.000163574 3.17383e-05 2.68555e-05 0.000168457 7.08008e-05 6.83594e-05 0.000180664 0.00012207 0.000112305 0.000187988 0.000214844 8.54492e-05 4.88281e-06 5.37109e-05 0.000229492 0.00013916 0.000227051 0.00015625 8.54492e-05 0.000185547 5.12695e-05 4.88281e-06 0.000209961 3.41797e-05 0.000100098 9.27734e-05 6.34766e-05 0.000119629 9.27734e-05 0.000214844 3.17383e-05 0.000107422 0.000100098 0.000141602 5.37109e-05 3.17383e-05 2.19727e-05 0.000144043 2.68555e-05 0.00015625 0.000183105 8.78906e-05 0.000112305 0.000212402 0.000241699 0.000136719 2.44141e-05 0.000222168 0.000185547 7.32422e-06 0 0.000119629 0.000141602 0.000148926 6.34766e-05 5.12695e-05 0.00010498 0.000214844 2.68555e-05 6.5918e-05 6.10352e-05 0.000144043 0.000107422 0.000163574 0.00010498 2.19727e-05 0.00010498 0.000202637 0.000131836 4.15039e-05 0.000241699 0.000158691 0.000129395 0.000124512 5.61523e-05 7.56836e-05 0.000102539 0.000134277 0.000112305 0.000236816 0.000222168 9.76563e-06 4.39453e-05 3.17383e-05 0.000136719 0.000234375 0.000195313 5.61523e-05 2.68555e-05 1.46484e-05 0.000126953 4.39453e-05 3.41797e-05 0.000234375 0.000117187 7.32422e-06 0.000166016 0.000102539 1.46484e-05 7.56836e-05 0.00017334 0.00010498 9.0332e-05 2.68555e-05 6.83594e-05 4.88281e-06 0.000236816 0.000134277 4.63867e-05 0.000202637 0.000107422 0.000131836 0.000146484 0.000205078 0.000163574 0.000136719 1.46484e-05 0.00012207 0.000119629 0.000187988 1.95313e-05 0.000166016 4.88281e-05 0.000151367 0.000239258 0.000102539 4.15039e-05 0.000100098 0.000175781 0.00019043 8.30078e-05 0.00012207 1.95313e-05 0.00010498 7.56836e-05 4.63867e-05 0.000107422 0.000217285 8.30078e-05 0.000146484 0.000231934 2.44141e-06 2.44141e-05 0.000231934 1.2207e-05 1.2207e-05 3.17383e-05 0.000170898 4.15039e-05 6.5918e-05 8.78906e-05 6.34766e-05 0.000131836 6.34766e-05 0.000175781 0.000112305 0.000114746 0.000178223 0.00010498 7.08008e-05 9.76563e-05 5.61523e-05 1.2207e-05 0.000175781 7.32422e-05 6.5918e-05 0.000124512 0.000153809 9.27734e-05 5.85937e-05 0.000202637 0.000197754 0.000197754 8.54492e-05 5.12695e-05 0.000202637 0.000102539 0.000117187 0.000102539 6.10352e-05 8.78906e-05 8.54492e-05 0.000124512 0.000183105 9.0332e-05 0.000217285 0.000214844 0.000231934 2.92969e-05 0.000168457 0.000129395 0.000170898 0.000202637 0.000161133 0.000109863 0 1.95313e-05 7.08008e-05 0.000180664 1.70898e-05 0.000178223 9.76563e-06 0.000205078 0.000241699 0.000158691 2.68555e-05 6.10352e-05 0.000234375 0.000109863 2.44141e-05 0.000224609 0 0.000231934 0.00019043 9.76563e-06 0.000195313 4.88281e-06 0.000183105 7.8125e-05 0.000175781 4.39453e-05 4.88281e-06 0.000119629 0.000227051 2.19727e-05 0.000185547 7.32422e-06 0.000124512 6.34766e-05 0.000222168 2.68555e-05 9.52148e-05 0.000109863 9.52148e-05 5.85937e-05 0.000161133 3.90625e-05 0.000136719 1.46484e-05 2.44141e-05 4.88281e-05 0.000161133 0.000124512 0.000187988 0.000161133 0.000146484 9.76563e-05 6.83594e-05 0.000214844 0.00020752 0.000124512 0.000131836 1.70898e-05 0.000195313 0.000236816 4.15039e-05 0.000212402 0.000175781 3.66211e-05 0.000107422 0.000119629 0.000114746 2.92969e-05 1.46484e-05 1.70898e-05 0.000219727 0.00020752 2.19727e-05 2.19727e-05 0.00013916 0.000202637 5.37109e-05 8.54492e-05 2.68555e-05 9.0332e-05 3.17383e-05 4.88281e-06 4.15039e-05 0.000192871 5.85937e-05 0 9.76563e-05 0.000209961 0.000126953 0.000151367 0.000192871 9.27734e-05 0.000202637 0.000195313 5.12695e-05 7.8125e-05 1.95313e-05 0.000205078 0.000241699 0.000231934 1.95313e-05 2.44141e-05 8.30078e-05 0.000148926 7.08008e-05 0.000166016 0.000175781 0.000197754 4.88281e-05 0.000117187 0.000134277 2.19727e-05 1.70898e-05 0.000161133 0.000209961 0.000178223 0.0027825 0.00604054 -0.00735496 0.0177602 0.00205956 0.00742905 -0.00593961 0.00869856 -0.00861835 -0.00912394 -0.00639405 0.00751502 0.0257614 -0.00183006 0.00751944 -0.0081279 0.00934002 -0.00607846 -0.0051623 -0.00640552 -0.00519551 -0.00883187 -0.00542495 -0.00507689 0.00730355 -0.00757356 -0.00735965 0.00600148 -0.0104614 0.00824059 -0.0363358 0.00818857 0.00333218 0.00255192 0.0160634 0.0303154 -0.011488 -0.00201819 -0.00612326 -0.00540831 0.00588419 0.00343653 -0.006046 0.0237185 -0.00164033 -0.00686233 -0.00536218 -0.00582653 -0.00862893 -0.0397435 -0.00629143 0.0167308 -0.00551272 -0.00833298 -0.00960396 -0.0142392 -0.00860208 -0.00856597 0.0163496 0.0150429 0.0123613 -0.0053375 -0.00783395 0.00854531 0.00697548 0.0160634 -0.0193712 0.0465987 0.00526093 0.019741 -0.0159921 0.0232105 -0.0229859 -0.0241379 -0.0172315 0.0198567 0.068385 -0.00478705 0.0197575 -0.0217348 0.0245545 -0.0167499 -0.0140775 -0.0170456 -0.0138572 -0.0238264 -0.0144497 -0.0138417 0.018953 -0.0203235 -0.0194444 0.0158194 -0.0281259 0.0215309 -0.0964992 0.021533 0.00881329 0.0065334 0.0423523 0.0803033 -0.0308658 -0.00576886 -0.0163338 -0.0144102 0.0157117 0.00915285 -0.016544 0.0627996 -0.00485317 -0.0186567 -0.0142421 -0.0160401 -0.0232379 -0.10575 -0.0165601 0.044049 -0.0149933 -0.0220708 -0.0259958 -0.0379088 -0.0231854 -0.022663 0.0434921 0.0397496 0.0326724 -0.0142329 -0.0212258 0.0225799 0.00353097 0.00796942 -0.00966013 0.0233743 0.00278107 0.010104 -0.00791215 0.0115965 -0.0114 -0.0120627 -0.0086198 0.00998503 0.0344942 -0.00233509 0.0100682 -0.0108942 0.0124224 -0.00840491 -0.00686679 -0.00843652 -0.00701524 -0.0118987 -0.00727721 -0.00683511 0.00953625 -0.0101843 -0.00975428 0.00789699 -0.0139973 0.0108353 -0.0483248 0.0108204 0.00449743 0.00347499 0.0213145 0.0404539 -0.0153849 -0.00295866 -0.00812284 -0.00717202 0.00784315 0.00477165 -0.00816387 0.0315962 -0.0023572 -0.00922789 -0.00716097 -0.00805354 -0.0115752 -0.0530368 -0.00829417 0.0220612 -0.00747318 -0.0109186 -0.0130454 -0.0190442 -0.0115663 -0.0114335 0.0217864 0.0199799 0.0164125 -0.00695472 -0.0104933 0.01134 0.0137669 0.0140084 0.00678033 0.0132209 -0.0063834 0.0404561 -0.00788434 -0.0190361 0.00726393 -0.00575708 0.00688511 0.00705708 0.0133375 0.00631899 0.0368595 0.0073926 0.00716456 -0.00141803 -0.00812377 -0.0068662 0.00673412 0.00657347 0.00663304 0.00647845 -0.00061777 0.00677124 -0.0116799 0.0612803 0.0144067 -0.00728979 -0.00847059 -0.0407216 0.0058819 0.00749746 0.0129256 0.0129733 -0.00027261 -0.0146199 -0.0152818 -0.0087359 0.0139759 0.00705407 0.005748 0.0127519 0.00695016 0.00255501 -0.00169214 -0.019187 0.00312083 -0.0137789 -0.00579601 0.0129464 0.00640916 0.00718473 0.00919604 -0.0186799 0.00194962 0.00679031 0.00636543 0.0130088 0.0129919 -0.0221956 0.00728542 0.0070352 0.0424431 0.0431385 0.0208608 0.0405835 -0.0204611 0.12553 -0.0250298 -0.059175 0.0221898 -0.0183124 0.0207037 0.0220185 0.0415008 0.019 0.113972 0.0224601 0.0220464 -0.00481063 -0.0254783 -0.0212159 0.0205836 0.020026 0.0204798 0.0196695 -0.00235659 0.0204098 -0.0366242 0.190248 0.0444316 -0.0226822 -0.0264549 -0.126386 0.0178878 0.0230376 0.0397391 0.0402994 -0.00101991 -0.045996 -0.0473184 -0.0272529 0.0429485 0.0217808 0.0179911 0.0395942 0.0211381 0.00782157 -0.00571172 -0.0601011 0.00925663 -0.043262 -0.0183203 0.0400556 0.019831 0.0222579 0.0286333 -0.058134 0.00563694 0.0206078 0.0198859 0.0398167 0.0400373 -0.0692139 0.0228076 0.0213935 0.0425945 0.0430067 0.0210317 0.0404639 -0.0203806 0.125557 -0.0250176 -0.0592946 0.0221898 -0.0183636 0.0208453 0.0221089 0.0413861 0.0189926 0.113825 0.0223967 0.0221733 -0.00489364 -0.0254197 -0.0212159 0.0205421 0.0199162 0.0205091 0.0196939 -0.00240542 0.0204098 -0.03659 0.19025 0.0444951 -0.0226554 -0.0266575 -0.126349 0.0179293 0.0231181 0.0398025 0.0401773 -0.0010248 -0.0459399 -0.0473697 -0.0274849 0.0429973 0.0217466 0.018018 0.0396552 0.0210282 0.0076873 -0.00579472 -0.0602281 0.00919559 -0.0432522 -0.0184643 0.0400849 0.0197553 0.0222555 0.0286675 -0.058283 0.00562473 0.0205688 0.0198932 0.0397581 0.0400056 -0.0691944 0.0227856 0.0214814 0.018447 0.0184931 0.00917065 0.0174806 -0.00881068 0.0539927 -0.0105597 -0.0254652 0.00976581 -0.00782747 0.00906784 0.00950302 0.0179013 0.00819583 0.049102 0.00968508 0.00956495 -0.00192408 -0.0109098 -0.00908902 0.00899103 0.00855222 0.00880174 0.0085948 -0.000848921 0.00889892 -0.0155879 0.0818813 0.0192675 -0.00967415 -0.0114178 -0.0542336 0.00772372 0.0100349 0.0170722 0.0174328 -0.000228389 -0.0197666 -0.020252 -0.0116959 0.0185719 0.00932975 0.00776084 0.0171197 0.00907889 0.00331797 -0.00253694 -0.0257463 0.0040431 -0.0184484 -0.00789403 0.0172123 0.00845765 0.00954058 0.0122956 -0.0249806 0.00241475 0.00886902 0.00866709 0.0171767 0.0173925 -0.0297927 0.00991003 0.00927528 -0.0348341 -0.0355718 -0.0306624 -0.000792226 0.0415559 -0.0333154 -0.0318414 0.0365726 -0.0299589 0.0394614 -0.0307733 -0.0367578 -0.0218929 -0.0327135 -0.03351 -0.0302203 -0.0350773 -0.0304215 -0.0302856 -0.0306605 -0.0313717 -0.031134 -0.0308499 -0.0310856 0.037498 -0.0300961 -0.0297831 -0.0361915 -0.0282628 -0.0325869 0.0451529 -0.032569 -0.0305242 -0.0342113 0.00775516 0.0391248 0.0449116 -0.0321042 -0.0310651 -0.0305775 -0.0352295 -0.0383541 -0.0302891 -0.00810767 -0.0315658 -0.0312818 -0.0309432 -0.0306462 -0.0302115 0.0458614 -0.0303704 -0.0355632 -0.0314981 -0.0299569 -0.0950726 0.0435136 -0.0302944 -0.0299222 -0.0342695 0.176179 -0.0339954 -0.0311248 -0.0301831 -0.0353196 -0.0386328 -0.0391993 -0.0336711 -0.00103721 0.0458361 -0.0368178 -0.0351268 0.0403372 -0.033147 0.0436135 -0.0338805 -0.0405655 -0.0242636 -0.036025 -0.0371731 -0.0332957 -0.0385881 -0.0335036 -0.03332 -0.0337685 -0.0347005 -0.0342082 -0.0340692 -0.0344377 0.0414932 -0.0331886 -0.0328 -0.0398844 -0.0312926 -0.0362077 0.0496026 -0.036034 -0.0337218 -0.0377668 0.00851703 0.0433022 0.0495835 -0.0353623 -0.0342799 -0.0336695 -0.0389343 -0.0421954 -0.0334818 -0.00895077 -0.0348948 -0.0347048 -0.0341568 -0.0338663 -0.0332947 0.0505991 -0.0335587 -0.0390851 -0.0346553 -0.0330406 -0.104982 0.0480889 -0.0334547 -0.0329664 -0.0379013 0.194385 -0.0374853 -0.0344692 -0.0333668 -0.0390898 -0.014264 -0.0152255 -0.0169773 0.0199547 0.0275291 -0.0472881 -0.0412213 0.0443268 -0.0274803 0.0838356 -0.0148697 -0.0555623 -0.00216003 -0.0458383 -0.04589 0.0097527 -0.055408 -0.0143042 -0.0386417 -0.00273667 -0.0102358 -0.044377 -0.0145666 -0.0129919 0.0299696 0.0186936 -0.0392182 -0.0932231 -0.0469217 -0.046314 0.0322018 -0.0462462 -0.0443442 -0.0514508 0.0293308 0.0637705 0.0513422 -0.0426227 -0.0376745 -0.0375509 -0.015036 -0.0580125 -0.0157195 0.0124684 -0.0420297 -0.0421398 -0.00198762 -0.0372666 -0.0332841 0.0284099 -0.0424063 -0.0162289 -0.0470939 -0.0205728 -0.222792 0.0912679 0.0167784 -0.0302095 -0.054082 0.211174 -0.0149723 -0.0362844 0.01166 -0.0561404 0.0158438 0.0146989 0.00429121 0.0435346 0.00374921 -0.0562863 -0.0457079 0.0458467 -0.0184629 0.12576 0.00905675 -0.069477 0.0242555 -0.0538633 -0.0527958 0.0604097 -0.0713631 0.00954607 -0.0422442 0.0347118 0.0196184 -0.0533135 0.00986956 0.0137783 0.0138164 0.0796676 -0.0441907 -0.150108 -0.0624957 -0.0550371 0.00861575 -0.0549842 -0.0539585 -0.063903 0.0523257 0.0835279 0.0497217 -0.0477653 -0.0387549 -0.0395013 0.0149245 -0.0725336 0.00647695 0.0370021 -0.0478563 -0.0478683 0.0364203 -0.03866 -0.031001 -0.000445317 -0.0500144 0.0127395 -0.0583756 -0.00378071 -0.347245 0.136415 0.0755076 -0.0244272 -0.0693369 0.215566 0.0130356 -0.0355859 0.0648454 -0.0728395 0.0158512 0.0147331 0.00421308 0.0435517 0.00374432 -0.0564279 -0.0455077 0.0459395 -0.0185947 0.125641 0.0088712 -0.0694745 0.0242921 -0.0539609 -0.0529497 0.0603633 -0.0714754 0.00942155 -0.0421612 0.0347509 0.0196184 -0.0534722 0.00965716 0.0137612 0.0139189 0.0797262 -0.0441321 -0.150187 -0.0624688 -0.0551006 0.00858401 -0.0549598 -0.0539023 -0.0638932 0.0522671 0.0836377 0.0498266 -0.0478849 -0.0388428 -0.0394256 0.0147804 -0.0727045 0.00653798 0.0370314 -0.0476805 -0.0477682 0.0365839 -0.0386234 -0.0310084 -0.000367192 -0.0500388 0.012593 -0.0584098 -0.00382954 -0.347384 0.136501 0.0754709 -0.0245468 -0.0693857 0.215664 0.0131552 -0.0355688 0.0648845 -0.0728517 0.024442 0.0232554 0.0117069 0.0437806 -0.00636204 -0.0482522 -0.0378776 0.0369633 -0.0112077 0.116195 0.016332 -0.0605361 0.0296569 -0.0460121 -0.0446396 0.0677274 -0.0628255 0.0169651 -0.0347143 0.0420237 0.0271703 -0.0458942 0.0171965 0.0212991 0.00486641 0.0869366 -0.0370112 -0.141425 -0.0553742 -0.0469884 -0.00233238 -0.0469077 -0.0465105 -0.0553332 0.0505082 0.0740578 0.0387598 -0.0401084 -0.0312184 -0.0319459 0.0234274 -0.0631533 0.0139874 0.0389958 -0.0401369 -0.0400657 0.0438944 -0.0311972 -0.0235608 -0.0114921 -0.042674 0.0212822 -0.0507171 0.0035182 -0.32414 0.125856 0.0830236 -0.0171252 -0.0609251 0.172793 0.0215341 -0.0279723 0.0723476 -0.0641986 0.0340257 0.0329627 0.0200902 0.0440971 -0.0176958 -0.0390291 -0.0292159 0.0269738 -0.00305433 0.105277 0.0248741 -0.0503968 0.0355382 -0.0370722 -0.035527 0.0760085 -0.0533466 0.0251973 -0.026455 0.0503575 0.0358724 -0.0372569 0.0257947 0.0298715 -0.00539342 0.0953154 -0.0287848 -0.131349 -0.0477485 -0.0380622 -0.0144683 -0.0378947 -0.0381327 -0.046078 0.0484803 0.063493 0.026545 -0.0312982 -0.0227892 -0.0237446 0.0329797 -0.0526974 0.0220814 0.0414465 -0.0314722 -0.0316514 0.0523226 -0.0227322 -0.0153485 -0.023868 -0.0342741 0.0309905 -0.0421377 0.0116408 -0.298216 0.1141 0.0913209 -0.00908063 -0.0515723 0.124808 0.0306428 -0.019302 0.0804922 -0.054538 0.0437079 0.0427983 0.0284503 0.0442788 -0.0291681 -0.0297828 -0.0203543 0.0168888 0.00537616 0.0945177 0.0332616 -0.0403418 0.0415973 -0.0279462 -0.0261775 0.0845306 -0.0437079 0.0337131 -0.0182203 0.0588732 0.044462 -0.0285868 0.0343982 0.0384648 -0.0157256 0.103781 -0.0205928 -0.121447 -0.0397676 -0.0289302 -0.0270467 -0.0290399 -0.0296513 -0.0364439 0.0463873 0.052648 0.0140977 -0.0222384 -0.0140755 -0.0150566 0.0428689 -0.0422624 0.03071 0.0436408 -0.0227679 -0.0229123 0.060946 -0.0142586 -0.007017 -0.0364723 -0.0259351 0.0407852 -0.0334702 0.0199281 -0.271841 0.102006 0.099679 -0.000605714 -0.0420285 0.0760932 0.0402295 -0.0105567 0.088898 -0.044677 0.049899 0.0489672 0.0337943 0.0444645 -0.0363162 -0.0240317 -0.0148221 0.0105343 0.0106454 0.0875661 0.0387275 -0.0339162 0.0454101 -0.0223466 -0.0202202 0.0896575 -0.0375994 0.0388928 -0.0129686 0.0642125 0.0500085 -0.0231203 0.039731 0.0439964 -0.0222702 0.108962 -0.0155129 -0.114943 -0.0348995 -0.0232773 -0.0348067 -0.0231545 -0.0242846 -0.0305998 0.0450317 0.0458878 0.00640292 -0.016732 -0.00861561 -0.0097512 0.0489948 -0.0355076 0.0358334 0.0450141 -0.017107 -0.01744 0.0664949 -0.00891228 -0.00167837 -0.0443829 -0.0206573 0.0469945 -0.0280819 0.0251536 -0.255322 0.0946389 0.104931 0.00452465 -0.0361433 0.045468 0.046192 -0.00519977 0.0943373 -0.038552 0.0498282 0.0490746 0.0338749 0.0445499 -0.0363919 -0.0239536 -0.0147855 0.0106784 0.0106112 0.0875514 0.0385957 -0.0339529 0.0455151 -0.0222611 -0.0203594 0.0896893 -0.03747 0.0389881 -0.0129516 0.0643102 0.0500183 -0.0232644 0.0395992 0.0439916 -0.0223165 0.108852 -0.0154324 -0.114933 -0.0349019 -0.0233945 -0.0348946 -0.0232179 -0.02427 -0.0306999 0.0450341 0.045795 0.00636141 -0.0166515 -0.00855213 -0.00998558 0.0489069 -0.0355369 0.0359164 0.0450141 -0.0172144 -0.0173252 0.0663607 -0.00892449 -0.00180776 -0.0443976 -0.0207086 0.0470336 -0.0280892 0.0252928 -0.255498 0.0946071 0.104882 0.0044685 -0.0360628 0.0454973 0.0460259 -0.0052071 0.0941445 -0.0384544 0.0498502 0.0491161 0.0338383 0.0443766 -0.0362454 -0.023978 -0.014678 0.0106124 0.0106478 0.0876735 0.0387641 -0.0338943 0.0455835 -0.0221854 -0.0201665 0.0897601 -0.0375409 0.0389612 -0.0128368 0.064193 0.0499279 -0.0232302 0.0398018 0.0439232 -0.0222116 0.108996 -0.0153591 -0.115148 -0.0349873 -0.023331 -0.0346993 -0.0233107 -0.0242016 -0.0306706 0.0449877 0.0457388 0.00640292 -0.0167418 -0.0087157 -0.0098806 0.0489533 -0.0354466 0.0359579 0.0450824 -0.0171925 -0.0174619 0.0663826 -0.00887078 -0.00164663 -0.0444488 -0.0206817 0.0470018 -0.027972 0.0251146 -0.255398 0.0945925 0.105004 0.00461987 -0.0361751 0.0456926 0.0461382 -0.00529987 0.0942275 -0.0385057 0.0498014 0.0489477 0.0338041 0.0445646 -0.0363284 -0.0239609 -0.0146878 0.0106539 0.0105453 0.0876832 0.0386225 -0.0339236 0.0456103 -0.0222416 -0.0201592 0.0897113 -0.0374212 0.0390149 -0.0127514 0.0642589 0.0500061 -0.0233401 0.0398092 0.0439818 -0.0222555 0.108852 -0.0154324 -0.114933 -0.0349312 -0.0234213 -0.0348262 -0.023318 -0.0242626 -0.0305216 0.0450683 0.0457413 0.00645907 -0.0167149 -0.00857166 -0.00987327 0.0490631 -0.0354295 0.0359725 0.0451776 -0.0171534 -0.0173423 0.0664339 -0.00909051 -0.00180044 -0.0443487 -0.0206426 0.0469505 -0.0280575 0.025095 -0.255318 0.094673 0.104889 0.00441479 -0.0359944 0.0455534 0.0460821 -0.00526081 0.0942836 -0.038618 0.0498722 0.0490258 0.0338554 0.0443815 -0.0364066 -0.0241269 -0.014639 0.0106759 0.0105355 0.0876857 0.0386469 -0.0338699 0.0456225 -0.0222758 -0.0203276 0.0896698 -0.0375701 0.0389929 -0.0129564 0.064215 0.050072 -0.0232912 0.039631 0.0439794 -0.0222287 0.109045 -0.0153493 -0.115133 -0.0347994 -0.0232358 -0.0348653 -0.0232497 -0.0243603 -0.0306999 0.0449365 0.0458682 0.00650057 -0.0166539 -0.0087035 -0.00986839 0.0490412 -0.0354807 0.0357723 0.0450458 -0.0170899 -0.0173154 0.0664266 -0.00899041 -0.00161977 -0.0444415 -0.020711 0.0469725 -0.0280575 0.0250975 -0.255352 0.0944899 0.104904 0.00462231 -0.0359602 0.0456755 0.0461749 -0.00509235 0.0941225 -0.0385642 0.0499015 0.0491161 0.03387 0.0445157 -0.0363602 -0.0240048 -0.0147147 0.0105758 0.010726 0.0875929 0.0386347 -0.0339919 0.0454443 -0.022327 -0.0202129 0.0897259 -0.0375189 0.0388562 -0.0129271 0.0642174 0.0499865 -0.0233156 0.0398067 0.0439379 -0.0223507 0.109023 -0.0153225 -0.114933 -0.0349361 -0.0233579 -0.034775 -0.0233107 -0.0242724 -0.0305656 0.0450976 0.0457291 0.00638339 -0.0168346 -0.00857899 -0.00981712 0.0488996 -0.0354685 0.0357797 0.0450605 -0.0171949 -0.0173643 0.0664705 -0.00891228 -0.00170522 -0.0443756 -0.0206329 0.0469652 -0.0280526 0.0252806 -0.255398 0.0946071 0.104887 0.00451001 -0.0361482 0.0455607 0.0462164 -0.00523395 0.0941786 -0.0384153 0.0496818 0.048955 0.0338456 0.0444059 -0.0362015 -0.024144 -0.0148221 0.0105538 0.0106308 0.0875905 0.0388154 -0.0339504 0.0455957 -0.022161 -0.0202031 0.0896698 -0.0375579 0.0390173 -0.0129271 0.0642174 0.0498962 -0.0232009 0.0397677 0.0439989 -0.0222335 0.108928 -0.0154543 -0.115008 -0.0349214 -0.023353 -0.0347139 -0.0233449 -0.0243969 -0.0305729 0.045122 0.0458804 0.00639803 -0.016776 -0.00861317 -0.00987327 0.0490143 -0.0354636 0.0359628 0.0449652 -0.0171412 -0.01744 0.0664754 -0.00899285 -0.00172719 -0.0444928 -0.0206817 0.047014 -0.0279915 0.0251023 -0.255462 0.0945754 0.104799 0.00451733 -0.0361116 0.0455632 0.0460406 -0.00510944 0.0942739 -0.0386009 0.049694 0.0490429 0.0338236 0.0444986 -0.0363016 -0.0239975 -0.0147318 0.0106759 0.0106747 0.0875929 0.0385786 -0.0337624 0.0454883 -0.0222245 -0.020252 0.089682 -0.0374652 0.0388684 -0.0128393 0.0642076 0.0500671 -0.0231789 0.0398067 0.0440209 -0.0223434 0.108943 -0.0153103 -0.11495 -0.0348531 -0.0234018 -0.0348873 -0.0231545 -0.0244262 -0.0306461 0.0450317 0.045856 0.00631991 -0.0166783 -0.00868397 -0.00982689 0.0489899 -0.0354173 0.0358529 0.0449652 -0.0171192 -0.0174351 0.0663143 -0.00891717 -0.00163686 -0.0445294 -0.0206036 0.047014 -0.0278792 0.0252122 -0.255437 0.0945632 0.104879 0.00449047 -0.0360066 0.0456706 0.04617 -0.00515583 0.0940956 -0.0386228 0.0497306 0.0491015 0.0337992 0.0444718 -0.0361819 -0.0239462 -0.0147562 0.0105734 0.0105307 0.0877052 0.0388105 -0.0339114 0.0455615 -0.0221976 -0.0201812 0.0897235 -0.037619 0.0389856 -0.0127587 0.064381 0.0499109 -0.0232839 0.0397677 0.0439818 -0.0223825 0.10896 -0.0153127 -0.115118 -0.0349629 -0.0233871 -0.0348067 -0.0232302 -0.0243456 -0.0306657 0.0450488 0.0457999 0.00636385 -0.0167809 -0.00854725 -0.00998558 0.0490387 -0.0354832 0.0358309 0.0451386 -0.0171217 -0.0173765 0.0664656 -0.00891228 -0.00175649 -0.0444147 -0.0205914 0.0470604 -0.0280721 0.0252293 -0.25542 0.0946071 0.10485 0.00454419 -0.0360286 0.0455803 0.0461212 -0.00520954 0.0941225 -0.0384202 0.0439635 0.0433685 0.0264244 0.0531809 -0.0301948 -0.033349 -0.0201197 0.0165335 0.00296035 0.0939541 0.0306052 -0.039637 0.0579598 -0.0276428 -0.0298406 0.0822808 -0.0429114 0.0325921 -0.0183567 0.058304 0.0432406 -0.0329583 0.0333447 0.0378626 -0.0163641 0.101107 -0.0224486 -0.128611 -0.0447117 -0.0291775 -0.0277053 -0.0292607 -0.0318795 -0.0398035 0.0979073 0.0399246 0.0120056 -0.0220499 -0.0143437 -0.0155827 0.0433669 -0.0459077 0.029592 0.0393831 -0.0233051 -0.0229728 0.060547 -0.0146122 -0.00911064 -0.0374704 -0.0265189 0.0412267 -0.0336123 0.0178845 -0.265648 0.100363 0.0977703 -0.00278961 -0.0418567 0.0398954 0.0405689 -0.0106038 0.0866862 -0.0441143 0.0320856 0.0312122 0.0103435 0.0713542 -0.0177285 -0.0533162 -0.0317758 0.0292055 -0.0132506 0.107017 0.0139388 -0.0517727 0.0843285 -0.0392068 -0.0498678 0.0667217 -0.0544443 0.0193717 -0.0301347 0.0456256 0.029017 -0.0529794 0.0201313 0.0252618 -0.00344504 0.0850422 -0.037045 -0.157268 -0.0653369 -0.0415056 -0.0132044 -0.0415341 -0.0477905 -0.0588867 0.209033 0.0273523 0.0241325 -0.0334497 -0.0259117 -0.0273461 0.0311852 -0.0673292 0.0168969 0.027356 -0.0364665 -0.0344856 0.0481026 -0.0263316 -0.0246188 -0.022832 -0.0391041 0.0290993 -0.0451906 0.00212661 -0.287346 0.112966 0.0826184 -0.0181349 -0.0540393 0.0281468 0.0286048 -0.0222126 0.0709128 -0.0556442 0.0303823 0.0296071 0.00943105 0.0700152 -0.0164236 -0.0525944 -0.0313406 0.0288384 -0.0136149 0.104359 0.0126453 -0.0509286 0.0827286 -0.0385637 -0.0493114 0.0638527 -0.053124 0.0181186 -0.0295738 0.0435905 0.0272924 -0.0522533 0.019004 0.0238899 -0.00284068 0.0816593 -0.0364555 -0.153675 -0.0642883 -0.0406781 -0.0119905 -0.040743 -0.0470233 -0.058091 0.207687 0.0259226 0.0240182 -0.0330615 -0.0256493 -0.0268679 0.0297648 -0.0663321 0.015623 0.0259062 -0.0358782 -0.0339564 0.0460268 -0.0262548 -0.0246262 -0.0213161 -0.0385938 0.0277342 -0.0442021 0.00144242 -0.279346 0.109841 0.0794145 -0.0182278 -0.052898 0.0267986 0.0272229 -0.0220821 0.0679471 -0.0542976 -0.00823175 -0.00828291 -0.0108786 0.0125463 0.00878141 -0.0134676 -0.00782351 0.00884922 -0.0110911 0.00921625 -0.0113469 -0.00827617 0.0182555 -0.00767353 -0.0136138 -0.0105893 -0.00772234 -0.00914015 -0.00795449 -0.00848854 -0.00973253 -0.0136885 -0.0090771 -0.00853028 0.00885637 -0.0111419 -0.00992506 -0.0194827 -0.0141152 -0.00832825 0.0102159 -0.00846783 -0.0106862 -0.0131377 0.0765628 -0.00852694 0.00848256 -0.00761191 -0.00809289 -0.00790355 -0.00823845 -0.0147841 -0.00868833 -0.00805738 -0.00883013 -0.00788897 -0.00842975 -0.00797363 -0.0104668 0.0101963 -0.00841446 -0.00825282 -0.00782323 -0.010509 -0.0146392 0.0085807 -0.0102814 -0.0103767 -0.00814526 -0.00811059 -0.00788609 -0.00782657 -0.0106908 -0.00791744 0 2.44141e-06 6.5918e-05 5.61523e-05 1.70898e-05 9.0332e-05 0.000102539 9.52148e-05 0.000202637 0.000141602 4.15039e-05 9.76563e-05 0.000163574 0.000241699 5.37109e-05 8.30078e-05 7.32422e-06 7.8125e-05 0.000234375 0.000236816 0.000195313 0.000175781 0.000214844 0.00017334 3.90625e-05 0.000222168 5.37109e-05 7.08008e-05 0.000195313 0.000214844 3.41797e-05 6.10352e-05 0.000219727 8.05664e-05 8.05664e-05 7.8125e-05 0.000180664 5.37109e-05 7.32422e-06 8.54492e-05 0.000146484 5.61523e-05 0.000102539 0.000212402 0.000107422 0.000146484 0.000222168 9.0332e-05 0.000175781 7.32422e-06 0.000183105 0.000124512 3.17383e-05 0.000217285 0.000187988 3.90625e-05 9.76563e-05 0.00013916 0.000227051 0.000161133 0.00017334 4.39453e-05 0.000175781 1.46484e-05 0.000205078 1.46484e-05 2.68555e-05 1.95313e-05 0.000180664 1.46484e-05 0.000148926 6.83594e-05 0.000180664 0.000231934 0.00020752 0.000224609 0.000124512 7.08008e-05 0.000183105 2.44141e-05 5.12695e-05 0.000146484 0.000131836 1.95313e-05 4.88281e-06 2.19727e-05 2.44141e-05 7.32422e-05 0.00012207 0.000229492 0.000212402 5.85937e-05 6.83594e-05 6.83594e-05 0.000148926 0.000219727 6.34766e-05 1.95313e-05 0.000129395 0.000185547 5.37109e-05 0.000224609 6.83594e-05 0.000100098 1.2207e-05 6.5918e-05 0.000124512 0.000151367 0.000129395 7.32422e-06 3.66211e-05 0.000141602 0.00013916 1.46484e-05 0.000109863 0.000129395 0.000202637 0.000183105 4.15039e-05 0.000219727 0.000178223 0.000200195 0.00012207 0.00013916 4.88281e-05 8.54492e-05 0.000129395 0.000205078 0.000124512 5.61523e-05 6.5918e-05 3.90625e-05 2.68555e-05 0.000234375 0.000117187 1.95313e-05 0.000141602 0.000151367 0.000151367 0.000141602 0.00013916 0.000129395 0.000109863 0.000227051 0.000109863 1.2207e-05 0.000107422 5.37109e-05 1.2207e-05 0.00010498 4.88281e-05 0.000178223 0.000141602 4.88281e-06 2.92969e-05 0.000163574 0.000222168 4.88281e-06 0.000126953 0.000239258 0.000202637 0 0.000217285 5.85937e-05 0.000175781 3.41797e-05 0.000148926 0.000222168 7.08008e-05 0.000185547 0.000214844 7.8125e-05 0.000185547 0.000241699 1.70898e-05 0.000144043 0.000175781 0.000129395 0.00015625 0.000180664 4.88281e-05 3.41797e-05 0.000197754 8.30078e-05 0.000109863 5.12695e-05 0.000202637 0.000112305 5.85937e-05 4.88281e-06 0.000151367 0.000112305 0.000107422 2.44141e-05 1.95313e-05 0.000124512 3.41797e-05 0.000124512 0.00010498 0.000231934 2.44141e-06 0.000170898 0.000192871 0.000117187 7.08008e-05 4.88281e-06 8.78906e-05 7.32422e-06 0.000124512 0.00017334 0.000153809 0.000212402 0.000212402 7.56836e-05 0.000131836 0.000224609 0.000158691 1.70898e-05 0.00013916 1.95313e-05 0.000183105 0.00020752 0.000214844 0.000109863 0.00017334 0.00013916 8.30078e-05 0.000163574 3.90625e-05 0.000219727 0.000163574 0.000136719 0.000124512 0.000183105 0.000178223 0.000236816 3.17383e-05 0.000168457 0.000163574 3.66211e-05 0.000129395 0.000180664 4.39453e-05 0.000134277 1.70898e-05 0.000209961 0.000236816 4.88281e-06 1.46484e-05 0.000217285 0.000185547 0.000117187 0.00019043 0.000209961 6.83594e-05 0.000200195 7.56836e-05 9.27734e-05 9.0332e-05 0.000151367 0.000241699 6.83594e-05 0.00017334 0.00012207 0.000114746 0.000114746 0.00020752 0.000205078 0.000153809 0.000214844 4.88281e-06 0.000187988 9.76563e-06 0.000180664 5.37109e-05 7.56836e-05 0.000134277 0.000107422 0.000158691 6.10352e-05 3.41797e-05 0.000209961 0.000161133 0.00020752 9.27734e-05 0.000102539 0.000124512 0.000114746 0.000187988 0.000107422 0.000231934 0.000197754 0.000144043 0.00017334 0.000146484 4.88281e-05 0.000107422 0.000183105 3.41797e-05 0.000180664 0.000214844 0.000214844 9.76563e-05 0.000209961 0.000129395 0.000107422 3.17383e-05 0.000124512 2.92969e-05 4.88281e-05 0.000112305 6.10352e-05 5.37109e-05 0.00012207 0.000161133 0.000136719 8.30078e-05 1.70898e-05 0.000217285 0.000239258 0.000224609 0.000153809 0.00019043 0.000202637 7.56836e-05 9.0332e-05 0.00017334 0.000126953 0.000141602 1.2207e-05 0.000102539 2.19727e-05 0.000175781 2.92969e-05 0.000119629 0.000161133 0.000102539 0.000124512 4.15039e-05 0.00017334 2.44141e-06 0.000170898 5.85937e-05 8.30078e-05 0.000148926 0.000229492 7.8125e-05 4.15039e-05 0.000212402 0.000195313 0.00010498 2.44141e-06 2.44141e-05 0.000185547 0.000234375 0.000219727 0.000136719 0.000219727 1.46484e-05 0.000224609 6.34766e-05 3.90625e-05 0 0.000227051 0.000170898 0.000195313 0.00013916 3.90625e-05 9.52148e-05 5.61523e-05 9.0332e-05 0.000161133 4.63867e-05 0.000151367 4.63867e-05 0.000212402 2.92969e-05 0.00013916 8.78906e-05 0.000117187 5.85937e-05 2.44141e-06 0.000183105 4.39453e-05 0.000144043 0.000141602 0.000202637 0.000166016 0.000129395 8.78906e-05 0.000163574 7.08008e-05 0.000195313 2.19727e-05 7.8125e-05 2.92969e-05 3.41797e-05 0.000214844 0.00015625 9.27734e-05 7.56836e-05 0.00020752 0.000224609 4.88281e-06 0.000170898 0.000109863 0.000114746 6.10352e-05 0.00012207 9.52148e-05 0.000239258 1.95313e-05 0.000114746 6.5918e-05 3.66211e-05 5.12695e-05 5.85937e-05 0.000197754 3.41797e-05 1.70898e-05 0.000192871 0.000236816 4.88281e-05 0.000131836 9.52148e-05 0.00012207 4.88281e-06 9.76563e-06 0.00019043 0.000119629 7.32422e-05 0.000161133 7.56836e-05 0.000136719 0.000136719 0.00013916 0.000236816 2.44141e-05 0.000146484 0.00013916 0.000100098 0.000175781 5.37109e-05 0.00012207 0.000234375 0.000217285 6.34766e-05 0.000195313 0.000197754 0.00019043 4.15039e-05 0.000119629 0.000236816 0.000168457 0.000241699 7.08008e-05 2.92969e-05 0.000161133 0.000209961 0.000163574 0.00017334 0.000200195 4.63867e-05 0.000187988 0.000192871 2.92969e-05 0.000195313 8.78906e-05 0.000129395 6.34766e-05 1.46484e-05 6.10352e-05 0.000178223 3.17383e-05 0.000224609 2.68555e-05 5.85937e-05 0.000231934 8.54492e-05 1.2207e-05 0.000227051 0.000185547 9.76563e-06 5.61523e-05 3.90625e-05 0.000229492 8.54492e-05 0.000117187 0.000161133 3.41797e-05 0.000107422 0.000183105 0.000117187 0.000214844 5.61523e-05 0.000114746 0.000161133 0.000158691 0.000234375 6.34766e-05 0.000236816 0.000183105 8.05664e-05 3.17383e-05 0.000146484 0.000197754 0.000185547 0.000107422 4.63867e-05 0.000168457 0.000166016 0.000102539 5.12695e-05 0.000231934 7.32422e-05 0.000185547 2.92969e-05 6.34766e-05 0.000222168 3.17383e-05 0.000151367 1.95313e-05 0.000129395 0.000236816 7.32422e-06 0.000100098 7.32422e-06 0.000212402 2.92969e-05 0.000205078 0.000136719 1.2207e-05 0.000229492 0.000202637 0.000131836 1.70898e-05 0.00017334 6.10352e-05 5.37109e-05 6.83594e-05 0.000107422 2.92969e-05 0.000126953 9.0332e-05 1.95313e-05 0.000134277 0.000178223 0.000112305 9.76563e-05 0.000234375 0.000158691 6.34766e-05 3.90625e-05 0.000229492 0.000241699 0.000205078 8.78906e-05 0.000163574 0.000119629 0.000124512 0.000229492 0.00015625 5.85937e-05 7.56836e-05 4.63867e-05 0.000131836 3.66211e-05 0.000227051 0.000168457 0.000202637 0.000241699 0.000219727 0.000175781 0 2.68555e-05 0.000183105 6.5918e-05 8.05664e-05 0.00013916 4.63867e-05 0.000227051 0.000119629 0.000205078 6.5918e-05 7.56836e-05 2.92969e-05 6.5918e-05 2.44141e-05 0.000214844 0.000239258 0.000209961 5.12695e-05 0.000107422 8.30078e-05 3.90625e-05 5.37109e-05 0.000129395 9.52148e-05 6.10352e-05 0.000236816 7.32422e-06 7.08008e-05 0.00020752 3.17383e-05 0.000112305 0.000212402 0.000168457 0.00010498 0.000180664 0.000166016 0.000205078 8.78906e-05 1.46484e-05 0.000175781 0.000185547 6.34766e-05 9.52148e-05 0.000236816 0.000219727 8.05664e-05 0.00010498 2.92969e-05 0.00017334 5.37109e-05 0.00020752 3.17383e-05 6.83594e-05 0.000185547 3.90625e-05 0.000151367 0.000158691 3.17383e-05 0.000126953 6.5918e-05 0.00019043 0.000239258 0.000134277 2.68555e-05 0.000112305 8.54492e-05 0 7.08008e-05 2.68555e-05 0.000227051 0.000214844 0.000158691 8.05664e-05 8.05664e-05 0.000151367 0.000100098 0.000141602 7.32422e-05 0.000136719 0.000163574 0.000141602 0.000112305 0.000161133 0.000119629 0.000100098 0.000119629 9.52148e-05 0.000231934 0.000100098 0.000170898 0.00019043 8.54492e-05 0.000214844 2.44141e-06 0.000222168 0.000202637 8.30078e-05 2.19727e-05 0.000197754 2.44141e-05 0.000102539 9.27734e-05 0.000209961 0.000175781 0.000202637 4.88281e-06 2.19727e-05 0.000175781 0.000129395 0.000168457 5.85937e-05 7.56836e-05 0.000168457 0.000217285 0.000141602 4.39453e-05 3.17383e-05 0.000202637 5.37109e-05 0.000219727 0.000153809 7.32422e-06 0.000178223 2.68555e-05 0.000109863 0.000239258 0.000129395 0.000146484 4.15039e-05 7.32422e-05 4.39453e-05 1.2207e-05 0.000148926 4.88281e-06 6.10352e-05 0.000200195 3.41797e-05 0.000192871 0.000124512 1.70898e-05 2.19727e-05 0.000239258 0.00012207 0.000200195 0.000222168 3.41797e-05 0.000219727 0.000148926 0.000217285 8.78906e-05 2.68555e-05 0.000185547 9.27734e-05 4.39453e-05 0.000209961 8.54492e-05 0.000222168 0.000197754 0.000197754 0.000185547 3.66211e-05 7.32422e-05 8.54492e-05 0.000239258 1.2207e-05 0.000183105 8.78906e-05 0.000151367 4.39453e-05 0.00013916 0.000109863 5.85937e-05 0.000195313 5.85937e-05 0.000114746 0.00019043 9.52148e-05 6.5918e-05 0.00012207 2.19727e-05 0.000239258 0.000219727 0.000212402 0.00013916 0.000168457 4.15039e-05 5.12695e-05 0.00020752 0.000214844 8.05664e-05 0.000146484 0.000109863 0.000195313 0.000197754 0.000114746 8.54492e-05 0.000214844 0.000231934 0.000214844 0.000227051 3.90625e-05 0.000222168 0.00019043 0.000170898 0.000234375 1.2207e-05 0.000161133 0.000134277 7.32422e-06 0.000151367 0.000109863 0.000219727 2.44141e-05 2.68555e-05 0.000109863 0.000124512 0.000161133 3.17383e-05 9.0332e-05 8.54492e-05 1.70898e-05 0.000214844 0.00019043 6.5918e-05 0.000158691 5.37109e-05 6.5918e-05 6.34766e-05 0.000195313 0.000222168 0.000148926 0.000148926 7.32422e-05 0.000114746 4.88281e-05 2.44141e-05 0.00010498 0.000202637 0 6.5918e-05 7.32422e-05 0.000234375 0.00010498 0.000148926 4.63867e-05 0.000126953 3.66211e-05 0.000136719 0.000234375 0.000209961 0.000222168 0.000205078 9.52148e-05 0 7.32422e-05 0.000136719 0.000117187 0.000153809 0.00017334 0.000183105 6.5918e-05 1.46484e-05 1.46484e-05 9.76563e-06 0.000109863 0.000124512 0.00017334 2.44141e-05 3.90625e-05 5.61523e-05 0.000119629 0.000126953 8.78906e-05 0.000100098 9.27734e-05 1.2207e-05 7.56836e-05 4.88281e-05 0.000168457 0.00010498 0.000153809 0.000205078 0.000219727 0.000148926 6.34766e-05 0.000102539 5.12695e-05 3.66211e-05 0.000200195 0.000200195 7.32422e-05 0.000107422 6.5918e-05 0.00019043 3.90625e-05 4.88281e-06 0.00012207 9.76563e-05 4.88281e-05 7.08008e-05 7.56836e-05 2.19727e-05 4.88281e-05 2.44141e-06 0.000168457 1.95313e-05 0.000183105 8.30078e-05 0 2.19727e-05 0.000214844 8.05664e-05 7.32422e-06 6.34766e-05 8.54492e-05 0.000217285 0.000212402 0.000178223 0.000229492 0.000227051 2.92969e-05 0.00015625 0.000205078 0.000231934 6.5918e-05 5.12695e-05 0.000141602 0.000187988 6.5918e-05 0.000209961 0.000114746 0.000136719 3.90625e-05 0.000185547 0.000229492 5.61523e-05 2.19727e-05 0.00012207 0.000236816 0.00013916 0.000236816 7.08008e-05 0.000224609 0.00013916 3.90625e-05 0.000170898 0.000209961 0.000126953 6.34766e-05 2.68555e-05 8.30078e-05 7.56836e-05 0.00020752 6.10352e-05 0.000161133 3.90625e-05 0.000131836 3.17383e-05 0.000100098 0.000163574 0.000151367 0.000148926 0.000124512 9.27734e-05 0.000124512 4.39453e-05 6.34766e-05 1.95313e-05 8.78906e-05 0.000136719 0.000161133 0.000178223 2.19727e-05 0.000197754 1.95313e-05 0.000212402 4.88281e-06 1.46484e-05 5.37109e-05 0.000239258 7.56836e-05 4.39453e-05 2.44141e-06 2.44141e-05 0.000195313 0.000136719 8.78906e-05 5.12695e-05 0.000209961 1.95313e-05 0.000107422 4.88281e-05 4.88281e-06 2.19727e-05 0.000236816 4.63867e-05 6.83594e-05 0.000100098 0.000109863 7.56836e-05 0.000151367 0.000195313 8.30078e-05 0.000112305 0.000170898 4.15039e-05 9.76563e-06 2.68555e-05 0.000227051 0.000153809 0.000202637 0.000166016 4.88281e-06 0.000202637 6.34766e-05 0.000219727 1.70898e-05 3.66211e-05 2.19727e-05 4.88281e-05 4.39453e-05 0.000212402 0.000136719 6.34766e-05 0.000151367 0.000187988 0 0.00017334 0.000222168 0.000102539 0.000131836 9.0332e-05 0.000153809 0.000202637 0.000200195 0 0.000163574 0.000100098 6.34766e-05 0.000229492 5.37109e-05 0.000100098 0.000161133 0.000236816 5.85937e-05 2.44141e-05 0.00012207 0.000100098 0.000109863 0.00015625 6.34766e-05 0.000214844 0.000219727 0.000197754 0.000100098 0.000222168 5.85937e-05 0.000200195 0.000168457 6.5918e-05 0.00015625 1.2207e-05 0.000239258 5.85937e-05 3.90625e-05 0.000234375 2.44141e-05 5.85937e-05 0.00015625 0.000195313 4.63867e-05 0.000192871 3.66211e-05 9.52148e-05 0.000222168 0.000200195 0.000231934 6.5918e-05 4.88281e-05 0.000119629 8.05664e-05 0 0.000200195 0.000219727 6.34766e-05 0.000107422 4.88281e-06 0.000151367 0.000163574 0.000107422 9.76563e-06 0.00012207 5.85937e-05 0.000239258 0.000224609 0.000231934 0.000231934 4.15039e-05 0.000109863 7.08008e-05 0.000109863 0.000107422 2.44141e-05 0.000209961 9.0332e-05 7.56836e-05 2.44141e-06 0.000119629 0 0.000112305 0.00013916 0.000100098 0.000119629 6.5918e-05 0.000161133 4.88281e-05 4.88281e-06 0.00019043 3.90625e-05 7.8125e-05 7.32422e-06 4.63867e-05 6.83594e-05 0.000148926 6.10352e-05 0.000185547 0.000236816 4.88281e-06 0.000100098 0.000205078 0.000163574 0.000146484 1.46484e-05 0.000241699 0.000148926 0.000117187 4.15039e-05 0.000134277 8.05664e-05 0.000126953 0.000166016 0.000239258 0.000136719 5.37109e-05 0.00015625 3.17383e-05 0.000141602 9.0332e-05 9.27734e-05 0.000185547 8.30078e-05 1.95313e-05 0.000185547 0.000163574 0.00020752 0.00019043 0.000175781 3.90625e-05 0.000187988 1.46484e-05 0.000231934 8.30078e-05 0.000131836 4.88281e-05 0.000153809 0.000151367 0.000107422 0.000185547 0.000109863 0.000224609 0.00019043 9.52148e-05 0.000187988 0.000166016 0.000131836 2.68555e-05 4.39453e-05 8.05664e-05 6.10352e-05 0.000219727 0.000183105 0.000200195 0.000197754 0.000170898 0.000151367 3.66211e-05 0.000119629 0.000114746 5.37109e-05 0.000112305 9.52148e-05 3.41797e-05 0.000231934 0.000192871 0.000163574 0.000178223 0.000187988 9.0332e-05 9.76563e-05 0.000219727 0.000124512 0.000131836 0.000129395 5.12695e-05 0.000146484 0.000234375 6.34766e-05 8.78906e-05 3.66211e-05 0.00015625 0.000144043 0.000227051 0.000153809 0.000146484 0.000214844 3.41797e-05 0.000168457 0.000234375 3.17383e-05 0.000185547 2.19727e-05 3.41797e-05 0.000234375 0.000102539 2.68555e-05 0.000153809 0.000236816 0.000192871 6.34766e-05 3.66211e-05 0.000158691 0.000144043 0.000217285 0.000224609 0.000239258 0.000158691 6.34766e-05 0.000180664 0.00013916 0.000168457 0.000231934 5.61523e-05 3.17383e-05 0.000129395 9.52148e-05 0.000227051 7.8125e-05 0.000109863 0.000178223 3.41797e-05 0.00015625 0.000241699 0.000212402 0.000214844 0.000163574 5.61523e-05 3.41797e-05 2.44141e-06 5.37109e-05 0.000231934 7.32422e-06 0.000180664 0.000200195 6.34766e-05 5.12695e-05 0.000146484 0.000185547 0.000102539 4.88281e-06 0.00019043 0.00017334 0.000241699 0.000222168 5.61523e-05 6.5918e-05 1.46484e-05 0.000136719 0.000134277 0.000136719 3.41797e-05 3.41797e-05 0.000178223 0.000107422 0.000112305 0.000222168 5.85937e-05 0.000119629 6.83594e-05 0.00017334 0.00019043 2.44141e-05 8.78906e-05 0.000129395 0.000107422 0.000136719 3.66211e-05 0.000161133 0.000195313 0.000185547 0.000187988 0.000153809 9.52148e-05 0.000241699 5.12695e-05 1.2207e-05 4.63867e-05 7.8125e-05 0.000119629 2.92969e-05 7.8125e-05 4.15039e-05 4.39453e-05 6.83594e-05 0.000197754 0.00020752 0.000107422 0.000166016 0.000227051 0.00019043 0.000109863 0.000126953 0.000124512 5.37109e-05 0.000112305 0.000239258 0.000180664 0.000151367 6.5918e-05 0.000192871 3.17383e-05 2.19727e-05 0.000146484 8.54492e-05 0.000102539 0.000200195 0.000185547 9.27734e-05 8.30078e-05 4.15039e-05 1.2207e-05 0.000224609 0.000168457 0.00010498 6.5918e-05 5.85937e-05 0.00012207 0.000195313 0.00019043 0.000214844 0.000224609 0.000148926 4.88281e-06 5.85937e-05 2.44141e-05 2.44141e-05 0.000161133 0.000117187 8.78906e-05 4.15039e-05 0.000100098 0.000200195 5.61523e-05 0.000192871 0.00010498 6.10352e-05 0.000144043 0.000153809 0.00012207 0.000222168 0.000231934 0.000148926 0.000239258 0.000148926 0.000148926 2.44141e-06 0.000231934 0.000166016 6.5918e-05 0.000185547 0.000231934 7.32422e-05 2.44141e-06 3.41797e-05 0.000107422 0.000124512 0.000114746 0.000197754 0.000231934 0.000217285 4.39453e-05 0.000185547 0.000197754 0.000151367 0.000102539 2.92969e-05 0 5.12695e-05 0.000112305 7.56836e-05 0.000100098 6.34766e-05 0.000153809 0.000168457 0.000178223 0.000239258 0.000151367 8.78906e-05 4.39453e-05 0.000239258 0.000236816 2.68555e-05 9.52148e-05 0.000141602 4.88281e-05 7.32422e-05 5.37109e-05 0.000236816 7.8125e-05 0.000166016 7.08008e-05 7.56836e-05 0.000153809 0.000166016 0.000202637 7.32422e-06 9.0332e-05 0.000141602 0.000100098 0.000231934 0.000192871 3.17383e-05 0.000227051 0.000107422 9.27734e-05 2.44141e-06 0.000100098 8.30078e-05 0.000170898 0.000153809 0.000170898 0.000117187 0.000117187 3.41797e-05 0.000114746 4.88281e-05 0.000168457 0.000178223 9.0332e-05 0.000151367 6.5918e-05 0.000141602 6.10352e-05 6.10352e-05 2.44141e-06 0.000236816 0.000146484 0.000217285 4.39453e-05 0.000227051 8.05664e-05 8.54492e-05 0.000219727 2.44141e-05 5.85937e-05 1.46484e-05 5.85937e-05 9.76563e-05 9.27734e-05 0.000114746 2.68555e-05 0.000183105 1.2207e-05 0.000126953 9.76563e-06 9.52148e-05 0.000119629 1.95313e-05 0.000134277 3.41797e-05 0.000234375 1.46484e-05 1.46484e-05 0 4.88281e-06 0.000183105 3.41797e-05 0.000102539 7.32422e-06 9.76563e-06 0.000222168 3.41797e-05 0.000100098 0.000187988 0.000229492 0.000161133 0.000166016 0.000183105 6.10352e-05 0.000153809 8.05664e-05 0.00015625 0.000222168 8.54492e-05 0.000212402 0.000185547 5.85937e-05 7.32422e-05 0.000107422 8.30078e-05 0.00017334 0.000239258 0.000134277 0.00013916 0.000183105 0.000236816 0.000175781 7.8125e-05 0.00017334 0.000214844 0.00020752 0.000158691 2.44141e-06 0.000187988 4.63867e-05 1.2207e-05 6.83594e-05 0.000234375 0.000168457 2.44141e-05 3.90625e-05 0.000168457 3.90625e-05 0.000236816 1.70898e-05 0.000117187 5.37109e-05 4.39453e-05 1.46484e-05 0.000134277 0.000119629 0.000141602 0.000236816 2.92969e-05 0.00019043 2.68555e-05 0.000102539 0.00019043 0.00010498 0.000239258 6.5918e-05 0.000141602 4.15039e-05 0.000200195 7.8125e-05 7.08008e-05 0.00013916 0.000212402 0.000195313 0.000214844 0.000109863 0.000100098 0.000102539 3.66211e-05 0.000112305 0.000170898 1.46484e-05 0.000151367 0 2.19727e-05 3.90625e-05 9.76563e-06 0.000200195 4.88281e-05 0.000158691 0.00020752 0.000112305 0.000148926 0.00013916 6.5918e-05 4.88281e-05 0.000136719 5.85937e-05 5.12695e-05 0.000144043 0.000175781 0.000241699 1.70898e-05 0.000163574 9.52148e-05 0.000151367 1.95313e-05 8.30078e-05 0.000222168 0.000124512 2.92969e-05 9.76563e-06 5.61523e-05 0.000229492 6.83594e-05 0.000126953 0.000109863 0.000222168 0.000146484 5.37109e-05 0.000119629 0.000231934 0.000119629 2.44141e-05 7.08008e-05 7.32422e-06 0.000212402 0.000239258 9.27734e-05 5.85937e-05 3.90625e-05 0.000202637 2.68555e-05 6.83594e-05 0.000170898 5.85937e-05 0.000151367 2.44141e-06 0.000148926 2.68555e-05 4.88281e-05 0.000153809 0.000168457 8.78906e-05 0.000117187 0.000129395 0.000183105 0.000134277 0.000131836 0.00017334 0.000236816 0.000100098 0.000192871 0.000141602 0.000192871 0.000180664 9.76563e-05 0.000153809 0.000222168 9.27734e-05 0.000224609 0.000100098 0.000224609 1.46484e-05 0.000117187 1.2207e-05 9.52148e-05 7.8125e-05 0.000161133 0.000114746 0.000141602 8.05664e-05 3.90625e-05 7.32422e-05 0.000187988 0.000119629 4.15039e-05 0.000234375 0.000170898 0.00015625 0.000234375 0.000153809 0.000107422 9.76563e-05 8.54492e-05 0.000117187 5.61523e-05 3.66211e-05 0.000212402 0.000151367 0.000151367 6.5918e-05 0.000202637 0.000187988 9.0332e-05 4.63867e-05 0.000217285 6.5918e-05 5.12695e-05 5.61523e-05 0.000126953 8.30078e-05 4.15039e-05 8.54492e-05 8.54492e-05 2.92969e-05 6.10352e-05 0.000183105 0.00012207 3.66211e-05 5.37109e-05 0.00010498 0.000163574 4.15039e-05 0.000136719 3.41797e-05 5.37109e-05 1.70898e-05 1.46484e-05 0.000136719 0.000214844 0.000224609 0.000197754 0.000187988 5.12695e-05 0.000205078 2.44141e-05 0.000151367 0.000195313 0.000141602 4.15039e-05 0.000219727 7.08008e-05 0.000124512 8.30078e-05 0.000227051 2.44141e-06 0 0.000129395 0.000114746 4.63867e-05 6.34766e-05 0.000112305 0.000175781 5.61523e-05 2.68555e-05 2.19727e-05 0.000134277 0.000219727 8.78906e-05 5.85937e-05 0.000158691 8.05664e-05 0.000197754 0.000212402 8.78906e-05 8.54492e-05 9.76563e-05 0.000124512 0.000205078 0.000146484 0.000158691 0.000200195 4.88281e-05 6.5918e-05 0.000180664 1.46484e-05 0.000163574 0.000239258 0.000144043 0.00015625 4.88281e-05 2.19727e-05 0.000224609 0.000241699 9.76563e-05 0.000214844 8.30078e-05 2.19727e-05 0.000117187 3.17383e-05 4.39453e-05 0.000117187 5.61523e-05 0.000178223 0.000234375 0.000187988 0.000178223 0.000168457 8.54492e-05 4.88281e-06 3.90625e-05 9.76563e-06 4.39453e-05 0.000158691 0.000236816 0.000214844 0.000151367 0.000109863 0.000141602 0.000112305 0.00013916 0.000114746 3.66211e-05 0.000131836 9.52148e-05 0.000107422 0.000112305 0.000131836 9.27734e-05 0.000112305 9.76563e-05 9.27734e-05 6.5918e-05 0.000134277 0.000129395 0.000231934 0.000170898 8.54492e-05 0.000212402 0.000205078 0.000212402 2.92969e-05 0.000229492 0.00012207 0.000222168 9.27734e-05 0.000239258 9.52148e-05 0.000158691 0.000229492 0.000109863 0.000158691 0.000151367 4.15039e-05 0.000102539 1.95313e-05 9.0332e-05 0.000131836 7.32422e-06 2.19727e-05 0.000124512 9.76563e-06 0.00017334 0 4.15039e-05 0.000158691 5.61523e-05 4.15039e-05 2.92969e-05 9.76563e-06 0.000180664 4.39453e-05 0.000141602 1.95313e-05 0.000170898 1.2207e-05 0.000227051 0.000146484 7.08008e-05 4.63867e-05 0.000119629 3.17383e-05 4.88281e-05 0.000175781 0.000119629 0.000114746 0.000114746 0.000158691 0.000114746 1.2207e-05 4.88281e-06 0.000102539 0.00015625 5.85937e-05 0.000112305 4.15039e-05 0.000168457 0.000168457 0.000200195 5.37109e-05 0.000222168 4.88281e-05 0.000222168 0.000236816 9.0332e-05 0.000212402 2.19727e-05 1.2207e-05 9.76563e-06 4.88281e-05 0.00013916 0.000131836 8.54492e-05 0.00015625 0.000214844 0.000197754 6.83594e-05 7.8125e-05 0.000239258 2.68555e-05 0.000117187 3.90625e-05 0.00010498 0.00017334 0.00019043 0.000170898 6.83594e-05 3.90625e-05 2.68555e-05 8.54492e-05 0.000217285 6.34766e-05 5.37109e-05 1.95313e-05 0.000129395 6.83594e-05 0.000153809 0.000136719 0.000200195 0.000209961 1.95313e-05 0.000227051 2.68555e-05 0.000202637 7.56836e-05 0.000119629 6.83594e-05 2.44141e-05 0.000187988 0.000148926 0.000227051 1.95313e-05 0.000102539 3.90625e-05 1.46484e-05 0.000119629 0.000151367 0.000236816 0.000187988 0.000197754 6.5918e-05 8.78906e-05 2.92969e-05 0.000187988 4.88281e-05 0.000117187 9.76563e-05 7.32422e-05 7.32422e-05 7.08008e-05 0.00019043 0.000126953 0.000217285 0.000195313 3.17383e-05 0.000229492 0.000236816 2.92969e-05 0.00015625 1.2207e-05 0.000109863 2.44141e-05 0.000141602 0.000170898 0.000192871 0.000166016 0.000205078 0.000148926 0.000200195 4.15039e-05 0.000197754 9.76563e-05 0.000217285 4.88281e-05 0.000241699 0.000212402 0 3.66211e-05 6.10352e-05 0.000187988 3.90625e-05 0.000219727 5.85937e-05 8.54492e-05 0.000170898 1.2207e-05 0.000200195 5.61523e-05 2.92969e-05 0.000180664 1.2207e-05 2.92969e-05 0.000126953 0.000112305 0.000117187 0.000224609 2.44141e-06 0.000197754 0.000107422 6.34766e-05 0.000200195 8.78906e-05 5.12695e-05 0.000178223 0.000126953 0.000102539 0.000114746 9.76563e-06 0.000202637 0.000170898 0.00010498 0.000214844 5.37109e-05 9.0332e-05 0.000234375 8.54492e-05 0.000107422 0.000124512 0.000241699 0.000141602 2.44141e-05 0.000219727 0.000151367 0.000187988 0.000129395 0.000151367 0.000195313 4.39453e-05 0.000239258 0.000170898 8.30078e-05 0.000134277 0.000175781 0.000192871 1.95313e-05 9.76563e-06 6.10352e-05 7.56836e-05 5.61523e-05 0.000175781 0.000227051 9.0332e-05 0.000141602 0.000153809 0.00015625 8.54492e-05 0.000112305 0.000126953 9.52148e-05 5.37109e-05 7.32422e-06 0.000241699 0.000109863 0.000236816 0.000153809 0.00019043 0.000180664 0.000178223 7.08008e-05 1.95313e-05 3.66211e-05 5.85937e-05 3.41797e-05 4.88281e-06 0.000161133 0.000236816 3.66211e-05 0.000109863 0.000100098 0.000219727 2.92969e-05 8.54492e-05 0.000141602 5.61523e-05 0.000229492 5.12695e-05 0.00012207 0.000153809 0.000183105 0.000200195 0.000212402 3.66211e-05 7.32422e-05 0.000239258 0.000131836 7.56836e-05 0.000197754 0.000141602 2.19727e-05 4.88281e-05 8.54492e-05 9.0332e-05 0.000124512 1.70898e-05 5.12695e-05 0.00019043 0.000109863 7.8125e-05 0.000175781 4.88281e-05 0.000109863 0.00015625 9.76563e-05 0.000170898 0.000180664 7.8125e-05 0.000175781 0.000234375 7.32422e-06 8.30078e-05 0.000219727 0.00013916 0.000134277 4.39453e-05 0.000107422 0.000136719 0.000158691 0.000183105 0.000241699 0.000224609 5.61523e-05 8.30078e-05 0.000241699 0.000153809 0.000146484 4.39453e-05 7.32422e-06 0.000229492 0.000158691 3.90625e-05 0.00019043 1.46484e-05 0.000185547 0.000168457 3.17383e-05 0.000124512 0.000175781 0.000217285 0.00017334 9.76563e-06 9.0332e-05 0.000183105 0.000117187 1.46484e-05 4.15039e-05 0.000102539 9.27734e-05 0.000124512 0.000217285 0.00012207 2.19727e-05 5.37109e-05 0.000205078 0.000166016 0.000192871 0.000151367 0.000107422 9.27734e-05 4.39453e-05 0 3.41797e-05 1.46484e-05 4.39453e-05 0.000217285 0.000217285 0.00015625 3.66211e-05 0.000124512 0.000141602 0.000112305 0.000166016 0.000183105 3.41797e-05 0.000195313 0.00010498 0.000134277 0.000192871 4.88281e-05 0.000241699 3.90625e-05 0.000144043 0.000202637 4.88281e-05 5.61523e-05 7.56836e-05 8.05664e-05 0.000168457 0.000126953 0.000234375 0.00012207 1.95313e-05 8.54492e-05 0.000126953 0.000200195 3.41797e-05 2.44141e-05 0.000222168 3.41797e-05 9.76563e-05 0.000192871 0.000170898 0.000180664 0.000161133 0.000131836 0.000212402 0.00013916 0.00013916 0.000161133 4.39453e-05 0.000195313 0.000183105 0 6.83594e-05 2.68555e-05 3.41797e-05 7.56836e-05 0.000170898 -0.00389599 -0.00369919 0.0019644 -0.00116113 0.00620389 0.00303321 0.000264647 0.00184788 0.001911 0.0203476 0.00225915 0.00732422 -0.00187041 0.00941353 0.00313605 0.00186702 0.0016932 0.00185792 0.00133788 0.00111009 0.00221997 0.00313659 -0.00327938 0.00203735 0.00789377 0.00160079 0.0295815 0.00704277 0.00895699 0.0238414 0.00402291 0.0273928 0.0027832 0.0018076 -0.00477971 -0.00572833 -0.0271937 -0.000437686 0.00269119 0.0176897 -0.00367347 0.00194051 0.00142932 -0.00542099 0.00313922 0.00140721 0.00031271 0.000994059 -0.00432878 0.00982087 0.00390987 -0.0039668 0.0098606 0.00180037 0.00390833 0.0102652 0.00130878 0.00155458 0.00298414 -0.00548404 -0.00389799 0.000135382 0.00175822 0.00191515 -0.0104829 -0.0103568 0.00534949 -0.00323137 0.0163243 0.0081683 0.000334683 0.00459906 0.00498087 0.0540367 0.00546314 0.0191584 -0.00528048 0.0250107 0.0083849 0.00488282 0.00459499 0.00444973 0.00313868 0.00268875 0.00552654 0.00828801 -0.00912426 0.00523352 0.0209483 0.00412916 0.0785034 0.0182851 0.0234454 0.0632223 0.0102494 0.0727578 0.00704965 0.00481828 -0.0126044 -0.0150608 -0.0724502 -0.00104005 0.00706917 0.0467325 -0.0103435 0.00504613 0.00352695 -0.0146074 0.00829179 0.00377504 0.000422963 0.00237278 -0.0116293 0.0260216 0.0101141 -0.0107794 0.0259015 0.00500644 0.0100424 0.0268747 0.00316774 0.00412427 0.00751302 -0.0149669 -0.0108877 0.000456862 0.0045875 0.00473373 -0.0105041 0.000248475 -0.0144752 0.0492743 0.0312118 0.0371571 -0.0264959 0.0403787 -0.00995477 0.0231765 -0.01144 0.0268994 0.061499 0.00397447 0.0387933 -0.0153381 0.0204439 -0.0249071 -0.0221669 -0.0239055 -0.0216816 -0.00406264 -0.031526 -0.0204162 0.0486125 -0.0144962 0.0470194 0.0408936 -0.00290805 0.080919 -0.0954716 0.0891066 0.0240104 0.0186384 0.0353512 0.0728471 -0.0736701 -0.0166917 -0.021389 0.00998897 1.85709e-05 0.0212026 -0.0230478 0.0538936 -0.0072458 -0.0264187 -0.0233763 -0.0240513 -0.0252523 -0.0819255 -0.00780481 0.0341119 -0.00624188 -0.0145053 